<?xml version="1.0"?>
<opencv_storage>
<my_svm type_id="opencv-ml-svm">
  <svm_type>C_SVC</svm_type>
  <kernel><type>LINEAR</type></kernel>
  <C>1.</C>
  <term_criteria><epsilon>2.2204460492503131e-016</epsilon>
    <iterations>1000</iterations></term_criteria>
  <var_all>60000</var_all>
  <var_count>60000</var_count>
  <class_count>2</class_count>
  <class_labels type_id="opencv-matrix">
    <rows>1</rows>
    <cols>2</cols>
    <dt>i</dt>
    <data>
      0 1</data></class_labels>
  <sv_total>1</sv_total>
  <support_vectors>
    <_>
      -7.21894438e-008 -8.24044974e-008 -9.35382616e-008
      -1.01591525e-007 -1.10574099e-007 -1.21375862e-007
      -1.27786663e-007 -1.31598611e-007 -1.30971202e-007
      -1.34231200e-007 -1.33174240e-007 -1.38944088e-007
      -1.41968769e-007 -1.43120232e-007 -1.48027695e-007
      -1.50963515e-007 -1.58077654e-007 -1.64735923e-007
      -1.68868922e-007 -1.71741632e-007 -1.77040320e-007
      -1.77329184e-007 -1.76406999e-007 -1.75631229e-007
      -1.69933557e-007 -1.67284028e-007 -1.56846212e-007
      -1.49829617e-007 -1.41546835e-007 -1.31949378e-007
      -1.22006469e-007 -1.15179944e-007 -1.12845143e-007
      -1.08227866e-007 -1.01064870e-007 -9.32658750e-008
      -8.49731379e-008 -8.20258776e-008 -7.68201076e-008
      -7.46272448e-008 -6.91545736e-008 -6.19725853e-008
      -5.89605307e-008 -5.82770241e-008 -5.28982014e-008
      -5.47286625e-008 -5.78173136e-008 -5.48895223e-008
      -5.43566223e-008 -5.05698310e-008 -4.88446403e-008
      -4.97356716e-008 -4.15741219e-008 -3.22388694e-008
      -2.86742612e-008 -2.38024409e-008 -2.39234872e-008
      -2.76418959e-008 -3.18856905e-008 -3.57311407e-008
      -4.04790725e-008 -3.90596675e-008 -4.73397179e-008
      -5.55739312e-008 -6.29315906e-008 -6.54491572e-008
      -6.22018419e-008 -5.27685273e-008 -4.22884838e-008
      -3.67283661e-008 -3.40171837e-008 -3.53056109e-008
      -3.10801553e-008 -2.97177234e-008 -2.86851005e-008
      -2.86250756e-008 -2.90965474e-008 -2.93663760e-008
      -2.70693512e-008 -2.55788954e-008 -2.25118733e-008
      -1.81894730e-008 -1.50883430e-008 -1.54168749e-008
      -1.06409530e-008 -4.04545553e-009 1.26214950e-009 3.90766308e-009
      1.06200038e-009 4.89623508e-010 -6.45718756e-010 -8.66241856e-010
      1.13548915e-009 3.45289686e-009 5.01900410e-010 -7.55690888e-009
      -1.85708480e-008 -4.60017908e-008 -6.49300276e-008
      -8.22693451e-008 -1.04777108e-007 -1.28110528e-007
      -1.53590818e-007 -1.71605762e-007 -1.85981364e-007
      -2.02139518e-007 -2.14830749e-007 -2.14606814e-007
      -2.15996423e-007 -2.13606071e-007 -2.10601229e-007
      -2.11050292e-007 -2.13338183e-007 -2.22892282e-007
      -2.34810472e-007 -2.44144246e-007 -2.55676838e-007
      -2.69125792e-007 -2.87099908e-007 -3.10335679e-007
      -3.29984374e-007 -3.47413646e-007 -3.60072875e-007
      -3.67663603e-007 -3.71911597e-007 -3.71290156e-007
      -3.61780081e-007 -3.49016318e-007 -3.33406661e-007
      -3.12388522e-007 -2.96372065e-007 -2.74635966e-007
      -2.51828567e-007 -2.27034775e-007 -2.05983042e-007
      -1.87885846e-007 -1.74937313e-007 -1.63312123e-007
      -1.52003921e-007 -1.48040925e-007 -1.39360921e-007
      -1.35622088e-007 -1.35525099e-007 -1.37340791e-007
      -1.38231826e-007 -1.38940493e-007 -1.34426003e-007
      -1.25666958e-007 -1.15646081e-007 -1.09953852e-007
      -1.02293846e-007 -9.35142310e-008 -8.21076611e-008
      -7.59037064e-008 -7.24508809e-008 -7.07456564e-008
      -7.27716767e-008 -7.40385389e-008 -7.50835696e-008
      -7.64945653e-008 -7.80535672e-008 -8.41174810e-008
      -9.39886888e-008 -1.03217062e-007 -1.06420828e-007
      -1.10793444e-007 -1.17573819e-007 -1.28933735e-007
      -1.34201542e-007 -1.35632249e-007 -1.42136088e-007
      -1.38964396e-007 -1.34573185e-007 -1.32127738e-007
      -1.32589889e-007 -1.32595503e-007 -1.33162359e-007
      -1.31603670e-007 -1.31978851e-007 -1.32428482e-007
      -1.34469914e-007 -1.36956061e-007 -1.40548835e-007
      -1.44219300e-007 -1.44412198e-007 -1.48962911e-007
      -1.49883277e-007 -1.51684873e-007 -1.50945155e-007
      -1.55301734e-007 -1.52041324e-007 -1.51100963e-007
      -1.50259382e-007 -1.52013072e-007 -1.57353099e-007
      -1.57511806e-007 -1.61003740e-007 -1.68943942e-007
      -1.72557904e-007 -1.75821171e-007 -1.89915710e-007
      -2.00187714e-007 -2.05894196e-007 -2.11304396e-007
      -2.10500332e-007 -2.13144901e-007 -2.11808256e-007
      -2.09617724e-007 -2.12659216e-007 -2.09756138e-007
      -1.96146800e-007 -1.87357131e-007 -1.81776059e-007
      -1.73235506e-007 -1.69680845e-007 -1.66341579e-007
      -1.62792361e-007 -1.54947159e-007 -1.47229201e-007
      -1.44880289e-007 -1.46470455e-007 -1.48098465e-007
      -1.48693346e-007 -1.52686198e-007 -1.51013708e-007
      -1.52643096e-007 -1.56815261e-007 -1.60756954e-007
      -1.62709426e-007 -1.60486806e-007 -1.56046838e-007
      -1.49489253e-007 -1.42378852e-007 -1.32340020e-007
      -1.24550610e-007 -1.05937893e-007 -9.01757105e-008
      -7.09017769e-008 -5.88452203e-008 -4.97483477e-008
      -3.81275633e-008 -3.36791786e-008 -3.84844405e-008
      -4.81143161e-008 -6.23058938e-008 -8.38322975e-008
      -1.09784814e-007 -1.41222628e-007 -1.67549686e-007
      -1.95435419e-007 -2.22602495e-007 -2.41710325e-007
      -2.53762664e-007 -2.58552234e-007 -2.62152867e-007
      -2.61846964e-007 -2.60626791e-007 -2.54221902e-007
      -2.49396635e-007 -2.46073114e-007 -2.40276790e-007
      -2.34539499e-007 -2.29355081e-007 -2.29979051e-007
      -2.32429684e-007 -2.34935484e-007 -2.35072463e-007
      -2.32076985e-007 -2.35910875e-007 -2.36898146e-007
      -2.34041366e-007 -2.35007619e-007 -2.36489157e-007
      -2.39867489e-007 -2.38895268e-007 -2.35647761e-007
      -2.35514818e-007 -2.37396620e-007 -2.28187901e-007
      -2.23358995e-007 -2.27281475e-007 -2.23804861e-007
      -2.21694052e-007 -2.17756408e-007 -2.12464897e-007
      -2.14086654e-007 -2.11415951e-007 -2.09978936e-007
      -2.17306507e-007 -2.23680686e-007 -2.25958388e-007
      -2.31627510e-007 -2.32179914e-007 -2.29183087e-007
      -2.24141758e-007 -2.16211745e-007 -2.12561559e-007
      -2.08333219e-007 -1.97141716e-007 -1.81888382e-007
      -1.68452445e-007 -1.55426306e-007 -1.37872306e-007
      -1.26196667e-007 -1.18930984e-007 -1.15166081e-007
      -1.08985525e-007 -1.05138433e-007 -1.00549499e-007
      -1.04898923e-007 -1.09785169e-007 -1.08069763e-007
      -1.12573929e-007 -1.20027636e-007 -1.20008920e-007
      -1.15142591e-007 -1.13662374e-007 -1.11758467e-007
      -1.10777535e-007 -1.10582384e-007 -1.11529268e-007
      -1.20914393e-007 -1.37377114e-007 -1.53351451e-007
      -1.72042178e-007 -1.94840709e-007 -2.14430273e-007
      -2.33140398e-007 -2.50600124e-007 -2.59526814e-007
      -2.68753467e-007 -2.73632139e-007 -2.67326186e-007
      -2.57524903e-007 -2.49217891e-007 -2.41217293e-007
      -2.32908178e-007 -2.21208012e-007 -2.08950908e-007
      -2.00031664e-007 -1.90449995e-007 -1.78158231e-007
      -1.74919890e-007 -1.73640643e-007 -1.68946499e-007
      -1.64371642e-007 -1.60457162e-007 -1.57260644e-007
      -1.57209399e-007 -1.55698046e-007 -1.53950026e-007
      -1.54523235e-007 -1.50446809e-007 -1.49601760e-007
      -1.47938479e-007 -1.47391106e-007 -1.47561053e-007
      -1.45818049e-007 -1.49909170e-007 -1.54391088e-007
      -1.57141457e-007 -1.55861372e-007 -1.56160439e-007
      -1.55564592e-007 -1.53597099e-007 -1.49377584e-007
      -1.47819648e-007 -1.45389052e-007 -1.41175377e-007
      -1.35384312e-007 -1.32378190e-007 -1.31886551e-007
      -1.34696137e-007 -1.36233083e-007 -1.43361419e-007
      -1.49632598e-007 -1.56501883e-007 -1.65791974e-007
      -1.67782687e-007 -1.68680771e-007 -1.71999105e-007
      -1.73872763e-007 -1.74795289e-007 -1.67300101e-007
      -1.59395526e-007 -1.53786004e-007 -1.43754860e-007
      -1.33838270e-007 -1.31233733e-007 -1.30878021e-007
      -1.25510383e-007 -1.21243602e-007 -1.18745014e-007
      -1.24148343e-007 -1.30798057e-007 -1.32870525e-007
      -1.37130868e-007 -1.41807092e-007 -1.44309993e-007
      -1.47828700e-007 -1.50211065e-007 -1.50300835e-007
      -1.48166052e-007 -1.46226427e-007 -1.39939573e-007
      -1.34949644e-007 -1.27909445e-007 -1.18955633e-007
      -1.15557022e-007 -1.08445271e-007 -1.03418202e-007
      -1.01372990e-007 -1.01678793e-007 -9.40367002e-008
      -8.81425706e-008 -8.70270256e-008 -8.40401384e-008
      -8.30483344e-008 -7.68271065e-008 -7.77507765e-008
      -7.63449890e-008 -7.16434911e-008 -6.68952751e-008
      -6.86044288e-008 -6.74567531e-008 -6.28848085e-008
      -6.36036006e-008 -6.42916760e-008 -6.44403997e-008
      -6.10523756e-008 -6.47386571e-008 -6.62490081e-008
      -7.23006579e-008 -7.79382319e-008 -8.25830284e-008
      -9.15718701e-008 -9.66238716e-008 -1.01113429e-007
      -1.11451811e-007 -1.22580971e-007 -1.26867690e-007
      -1.30982215e-007 -1.34824433e-007 -1.35516643e-007
      -1.35085372e-007 -1.37140532e-007 -1.34758992e-007
      -1.32398782e-007 -1.28751864e-007 -1.23178268e-007
      -1.15115483e-007 -1.06994506e-007 -9.32914830e-008
      -8.29364168e-008 -7.53437348e-008 -6.18148803e-008
      -5.72713006e-008 -5.53713839e-008 -5.26288204e-008
      -4.92394321e-008 -5.28624469e-008 -5.38729310e-008
      -6.08251938e-008 -6.78475232e-008 -7.15941439e-008
      -7.79566207e-008 -8.04858118e-008 -8.08713025e-008
      -8.73142056e-008 -9.01951012e-008 -9.12372968e-008
      -9.94871954e-008 -1.05400652e-007 -1.11271973e-007
      -1.20936207e-007 -1.25092384e-007 -1.29217298e-007
      -1.30295959e-007 -1.28036305e-007 -1.27671839e-007
      -1.27567858e-007 -1.25389903e-007 -1.24747061e-007
      -1.24914195e-007 -1.18773357e-007 -1.14672133e-007
      -1.10523516e-007 -1.06055154e-007 -1.01093164e-007
      -1.00627609e-007 -9.93759670e-008 -9.72155689e-008
      -9.90760896e-008 -9.46932701e-008 -9.92298510e-008
      -1.01213082e-007 -1.05545418e-007 -1.12526109e-007
      -1.11228999e-007 -1.04627738e-007 -9.97610243e-008
      -9.43135063e-008 -9.05698982e-008 -8.83747902e-008
      -8.55745199e-008 -8.81251978e-008 -8.78283259e-008
      -9.02410946e-008 -9.26848784e-008 -9.38176115e-008
      -9.20241021e-008 -9.24228729e-008 -9.38302946e-008
      -9.29884081e-008 -9.59827560e-008 -9.56969259e-008
      -9.63919788e-008 -9.74974768e-008 -1.03867080e-007
      -1.13401718e-007 -1.25458811e-007 -1.40958619e-007
      -1.55223901e-007 -1.73407884e-007 -1.86329572e-007
      -1.98350278e-007 -2.14052520e-007 -2.28340795e-007
      -2.43066921e-007 -2.56009372e-007 -2.65177903e-007
      -2.65703193e-007 -2.60409308e-007 -2.52793797e-007
      -2.46265614e-007 -2.41243413e-007 -2.30373914e-007
      -2.16737689e-007 -1.97127676e-007 -1.83216869e-007
      -1.68690519e-007 -1.50874428e-007 -1.37155396e-007
      -1.25383195e-007 -1.07425024e-007 -8.93709782e-008
      -7.49183187e-008 -5.58720465e-008 -4.24045332e-008
      -2.89398603e-008 -1.83971345e-008 -9.30746147e-009
      -3.12388027e-009 2.98037728e-009 3.79782605e-009 -5.81797610e-010
      -3.29583361e-010 -6.84829082e-009 -8.44909387e-009
      -6.16166851e-009 -9.90647475e-009 -1.89397280e-008
      -2.72722218e-008 -3.60073251e-008 -4.39570940e-008
      -4.75406807e-008 -5.31407345e-008 -5.81367097e-008
      -6.52835084e-008 -6.88572328e-008 -7.24024503e-008
      -6.95765507e-008 -6.80368260e-008 -6.44510862e-008
      -6.25225169e-008 -5.87956706e-008 -5.77330788e-008
      -5.26944781e-008 -4.74634732e-008 -4.75362683e-008
      -4.94222050e-008 -5.74036818e-008 -6.84899675e-008
      -9.02501540e-008 -1.06978973e-007 -1.32615767e-007
      -1.60786612e-007 -1.86018127e-007 -2.14544869e-007
      -2.41975840e-007 -2.73447341e-007 -2.92652402e-007
      -3.10079344e-007 -3.19758470e-007 -3.26322038e-007
      -3.24074904e-007 -3.18270168e-007 -3.12943314e-007
      -3.04400174e-007 -2.95900662e-007 -2.82279444e-007
      -2.73783542e-007 -2.65894585e-007 -2.52471011e-007
      -2.38872161e-007 -2.25819292e-007 -2.19476632e-007
      -2.12976602e-007 -2.02490838e-007 -1.92746228e-007
      -1.83390000e-007 -1.74666525e-007 -1.63576814e-007
      -1.50972312e-007 -1.40612002e-007 -1.29294307e-007
      -1.14677100e-007 -1.04206315e-007 -9.90485347e-008
      -9.48364871e-008 -9.36647453e-008 -9.45895451e-008
      -1.01795692e-007 -1.20347480e-007 -1.41371700e-007
      -1.61306218e-007 -1.86774358e-007 -2.07743639e-007
      -2.29263819e-007 -2.52479140e-007 -2.73383108e-007
      -2.87571737e-007 -2.97453511e-007 -3.01057099e-007
      -3.02387718e-007 -3.00805709e-007 -2.95747697e-007
      -2.91881889e-007 -2.87410899e-007 -2.75889334e-007
      -2.65701914e-007 -2.57585071e-007 -2.53207247e-007
      -2.49799655e-007 -2.47588986e-007 -2.46102218e-007
      -2.42347795e-007 -2.40250813e-007 -2.42778327e-007
      -2.51448427e-007 -2.58634572e-007 -2.66614592e-007
      -2.71629517e-007 -2.74797799e-007 -2.74567356e-007
      -2.73327885e-007 -2.75270281e-007 -2.77799558e-007
      -2.74882296e-007 -2.65383733e-007 -2.54132402e-007
      -2.45815869e-007 -2.40713319e-007 -2.37201363e-007
      -2.34112335e-007 -2.32549269e-007 -2.30106295e-007
      -2.23655547e-007 -2.20583743e-007 -2.20520604e-007
      -2.20328545e-007 -2.18341469e-007 -2.14148784e-007
      -2.10871960e-007 -2.08275765e-007 -2.07154571e-007
      -2.05440529e-007 -2.08099081e-007 -2.09407119e-007
      -2.10064513e-007 -2.12284235e-007 -2.18225864e-007
      -2.24095743e-007 -2.28821420e-007 -2.29605789e-007
      -2.31235731e-007 -2.33648379e-007 -2.34032314e-007
      -2.31149258e-007 -2.29478985e-007 -2.22849494e-007
      -2.16421085e-007 -2.06631086e-007 -2.01707039e-007
      -1.99713085e-007 -1.99940416e-007 -1.98508644e-007
      -1.96655506e-007 -1.98338441e-007 -2.03620729e-007
      -2.09053184e-007 -2.12943917e-007 -2.19279954e-007
      -2.23496670e-007 -2.29740209e-007 -2.30399223e-007
      -2.29220063e-007 -2.28594857e-007 -2.23610400e-007
      -2.16983096e-007 -2.15666944e-007 -2.11708794e-007
      -2.05900690e-007 -2.04932277e-007 -2.00355885e-007
      -2.02525285e-007 -2.08929620e-007 -2.13770477e-007
      -2.20100588e-007 -2.29210414e-007 -2.36974685e-007
      -2.44678773e-007 -2.55634092e-007 -2.66282086e-007
      -2.81972092e-007 -2.95244888e-007 -3.07316640e-007
      -3.17328812e-007 -3.26035803e-007 -3.33067732e-007
      -3.37421028e-007 -3.45407443e-007 -3.49430422e-007
      -3.51396835e-007 -3.48773938e-007 -3.45578144e-007
      -3.40920081e-007 -3.35092892e-007 -3.29896210e-007
      -3.24148601e-007 -3.11804655e-007 -2.96982762e-007
      -2.81102075e-007 -2.67143776e-007 -2.52398792e-007
      -2.37737197e-007 -2.23727923e-007 -2.14120476e-007
      -2.02929897e-007 -1.94881935e-007 -1.91705539e-007
      -1.89033528e-007 -1.89836939e-007 -1.91859172e-007
      -1.90207146e-007 -1.86077045e-007 -1.84244669e-007
      -1.76474160e-007 -1.73197336e-007 -1.67290096e-007
      -1.64532011e-007 -1.60539187e-007 -1.54829067e-007
      -1.49686997e-007 -1.51232840e-007 -1.49888649e-007
      -1.46861396e-007 -1.46356001e-007 -1.47918811e-007
      -1.49592594e-007 -1.48963750e-007 -1.47739755e-007
      -1.47655271e-007 -1.48549233e-007 -1.52802471e-007
      -1.56557221e-007 -1.59621379e-007 -1.64482088e-007
      -1.68027057e-007 -1.69075534e-007 -1.71617870e-007
      -1.77273520e-007 -1.79932243e-007 -1.74081961e-007
      -1.68185778e-007 -1.66805606e-007 -1.65894107e-007
      -1.66007496e-007 -1.64464353e-007 -1.68147793e-007
      -1.73097177e-007 -1.73751204e-007 -1.78469023e-007
      -1.88422021e-007 -1.95376415e-007 -2.01359825e-007
      -2.11059415e-007 -2.17713222e-007 -2.24700528e-007
      -2.28455448e-007 -2.31749723e-007 -2.32608514e-007
      -2.38194801e-007 -2.41903109e-007 -2.40308907e-007
      -2.34392630e-007 -2.22448350e-007 -2.16397524e-007
      -2.07055137e-007 -2.00216590e-007 -1.97996201e-007
      -1.93653491e-007 -1.86222394e-007 -1.75254087e-007
      -1.69170477e-007 -1.64903369e-007 -1.68426467e-007
      -1.69543583e-007 -1.76430035e-007 -1.78240725e-007
      -1.70584883e-007 -1.70778392e-007 -1.75253192e-007
      -1.80681496e-007 -1.83526197e-007 -1.87282467e-007
      -1.86511514e-007 -1.87760762e-007 -1.85084829e-007
      -1.84084058e-007 -1.80731973e-007 -1.78730389e-007
      -1.68942634e-007 -1.60103113e-007 -1.50106175e-007
      -1.39980187e-007 -1.27625228e-007 -1.10606287e-007
      -9.51987928e-008 -8.52732001e-008 -7.83203262e-008
      -7.59568763e-008 -7.81091458e-008 -8.35618721e-008
      -9.09146323e-008 -9.79971873e-008 -1.06742760e-007
      -1.15048763e-007 -1.21066364e-007 -1.21770924e-007
      -1.27341735e-007 -1.27974076e-007 -1.31518121e-007
      -1.33994547e-007 -1.40154384e-007 -1.52935442e-007
      -1.65887997e-007 -1.80499299e-007 -2.01683818e-007
      -2.28397298e-007 -2.54655049e-007 -2.73785133e-007
      -2.91901785e-007 -3.05543267e-007 -3.12565504e-007
      -3.12480694e-007 -3.11353574e-007 -3.12524833e-007
      -3.05842462e-007 -2.93213560e-007 -2.75445473e-007
      -2.61928363e-007 -2.46673750e-007 -2.29979563e-007
      -2.14218318e-007 -2.03759583e-007 -1.93031326e-007
      -1.78605049e-007 -1.69549949e-007 -1.63540463e-007
      -1.62187632e-007 -1.60256064e-007 -1.62429700e-007
      -1.59218800e-007 -1.61749497e-007 -1.64188307e-007
      -1.67262485e-007 -1.69304499e-007 -1.71355353e-007
      -1.75837229e-007 -1.71285038e-007 -1.70714955e-007
      -1.72005215e-007 -1.74996273e-007 -1.71967017e-007
      -1.63895322e-007 -1.61559484e-007 -1.58412092e-007
      -1.58823127e-007 -1.60810302e-007 -1.64367492e-007
      -1.58585948e-007 -1.53811214e-007 -1.52187866e-007
      -1.54894650e-007 -1.60221489e-007 -1.62185472e-007
      -1.62881406e-007 -1.58856707e-007 -1.52201665e-007
      -1.49912637e-007 -1.55077629e-007 -1.61306801e-007
      -1.63873636e-007 -1.64216459e-007 -1.68419788e-007
      -1.72195911e-007 -1.80161535e-007 -1.94094739e-007
      -2.08216449e-007 -2.23597581e-007 -2.35551866e-007
      -2.53182861e-007 -2.74656031e-007 -2.97412811e-007
      -3.19744231e-007 -3.42845482e-007 -3.63459606e-007
      -3.79318237e-007 -3.88901981e-007 -3.93102965e-007
      -3.96835759e-007 -3.91955155e-007 -3.81949206e-007
      -3.68895599e-007 -3.51553894e-007 -3.29104040e-007
      -3.04094186e-007 -2.80350122e-007 -2.62892570e-007
      -2.43284717e-007 -2.20694361e-007 -2.03069106e-007
      -1.89304259e-007 -1.71192553e-007 -1.53364596e-007
      -1.43436225e-007 -1.36577981e-007 -1.30556955e-007
      -1.23717157e-007 -1.16036126e-007 -1.15418644e-007
      -1.13376437e-007 -1.08597092e-007 -1.06362108e-007
      -1.07952864e-007 -1.09382931e-007 -1.04673255e-007
      -1.03958548e-007 -1.06184956e-007 -1.10771609e-007
      -1.12390914e-007 -1.16706175e-007 -1.20046579e-007
      -1.23896598e-007 -1.26518501e-007 -1.28230070e-007
      -1.30353499e-007 -1.31120700e-007 -1.31170083e-007
      -1.29297234e-007 -1.22812992e-007 -1.16928142e-007
      -1.16369719e-007 -1.21700140e-007 -1.28020943e-007
      -1.29544830e-007 -1.31418517e-007 -1.29611038e-007
      -1.28060790e-007 -1.26019742e-007 -1.25893720e-007
      -1.23221056e-007 -1.13244795e-007 -9.80817774e-008
      -8.45554879e-008 -7.21704936e-008 -6.23192591e-008
      -5.54079520e-008 -5.01947781e-008 -4.66691503e-008
      -4.99309536e-008 -5.75818930e-008 -6.94969984e-008
      -8.73425847e-008 -1.11850618e-007 -1.39406637e-007
      -1.67215646e-007 -1.89813150e-007 -2.14428113e-007
      -2.40833259e-007 -2.61653014e-007 -2.80916424e-007
      -2.94027444e-007 -2.99846562e-007 -2.98015379e-007
      -2.88927566e-007 -2.79718051e-007 -2.74061989e-007
      -2.64082558e-007 -2.53627633e-007 -2.44980072e-007
      -2.35884798e-007 -2.25154054e-007 -2.17539210e-007
      -2.16048804e-007 -2.15881244e-007 -2.13936332e-007
      -2.13803574e-007 -2.17190632e-007 -2.19088164e-007
      -2.16542091e-007 -2.11551480e-007 -2.14587445e-007
      -2.15907320e-007 -2.13973806e-007 -2.09509494e-007
      -2.09695699e-007 -2.06986385e-007 -2.06864200e-007
      -2.04335720e-007 -2.05262538e-007 -2.08979131e-007
      -2.08309302e-007 -2.11220396e-007 -2.10050516e-007
      -2.09598994e-007 -2.09647794e-007 -2.05508741e-007
      -2.04666847e-007 -1.94797238e-007 -1.87761813e-007
      -1.78206136e-007 -1.74309548e-007 -1.67039673e-007
      -1.68505238e-007 -1.72891234e-007 -1.74795147e-007
      -1.81451455e-007 -1.80913389e-007 -1.92516566e-007
      -2.11015902e-007 -2.31043529e-007 -2.46668662e-007
      -2.62969849e-007 -2.77525317e-007 -2.88096970e-007
      -3.02420858e-007 -3.13648513e-007 -3.28222455e-007
      -3.38936928e-007 -3.36529098e-007 -3.36320312e-007
      -3.39504652e-007 -3.42854179e-007 -3.47938737e-007
      -3.56930798e-007 -3.67586637e-007 -3.75297446e-007
      -3.82820218e-007 -3.85857447e-007 -3.88838146e-007
      -3.90467534e-007 -3.84998998e-007 -3.77084064e-007
      -3.62770294e-007 -3.38490594e-007 -3.12513635e-007
      -2.89712602e-007 -2.70064220e-007 -2.54712518e-007
      -2.39166610e-007 -2.20792018e-007 -2.05917573e-007
      -1.91815076e-007 -1.79183758e-007 -1.75431595e-007
      -1.71463626e-007 -1.71641958e-007 -1.70445958e-007
      -1.68850420e-007 -1.72720732e-007 -1.75046424e-007
      -1.75734044e-007 -1.81458503e-007 -1.90210088e-007
      -1.96717423e-007 -1.98626793e-007 -2.01216338e-007
      -2.07559111e-007 -2.15091731e-007 -2.23051899e-007
      -2.29312633e-007 -2.36210198e-007 -2.38771463e-007
      -2.41710410e-007 -2.45427657e-007 -2.54889756e-007
      -2.66103768e-007 -2.65094684e-007 -2.67985030e-007
      -2.62466017e-007 -2.58269836e-007 -2.50844323e-007
      -2.42780573e-007 -2.32390335e-007 -2.15039208e-007
      -1.98150445e-007 -1.75167685e-007 -1.59466197e-007
      -1.49732244e-007 -1.49604162e-007 -1.51662789e-007
      -1.53624327e-007 -1.58845083e-007 -1.71135042e-007
      -1.89374106e-007 -2.04610501e-007 -2.17668415e-007
      -2.23436970e-007 -2.12388599e-007 -2.00382487e-007
      -1.88695580e-007 -1.81137978e-007 -1.72731973e-007
      -1.59104047e-007 -1.47705549e-007 -1.43300113e-007
      -1.37312114e-007 -1.37064291e-007 -1.43614997e-007
      -1.50141105e-007 -1.55129740e-007 -1.59223987e-007
      -1.61803570e-007 -1.69033001e-007 -1.72629754e-007
      -1.67090462e-007 -1.62551501e-007 -1.61100061e-007
      -1.60888263e-007 -1.58660384e-007 -1.51821723e-007
      -1.48965498e-007 -1.45508096e-007 -1.35090644e-007
      -1.27481258e-007 -1.25941312e-007 -1.29536730e-007
      -1.28474937e-007 -1.24028972e-007 -1.21294320e-007
      -1.21422573e-007 -1.19414764e-007 -1.21963907e-007
      -1.25701561e-007 -1.29183348e-007 -1.29571731e-007
      -1.25036237e-007 -1.19732917e-007 -1.21515569e-007
      -1.25289844e-007 -1.28918614e-007 -1.32820645e-007
      -1.33394565e-007 -1.33461313e-007 -1.34906230e-007
      -1.33717705e-007 -1.38497185e-007 -1.45745673e-007
      -1.55343301e-007 -1.61219205e-007 -1.69437385e-007
      -1.75562548e-007 -1.83335871e-007 -1.91189756e-007
      -1.96021347e-007 -2.03346104e-007 -2.11045176e-007
      -2.19971014e-007 -2.26103055e-007 -2.31791702e-007
      -2.33081650e-007 -2.37789280e-007 -2.46809066e-007
      -2.55896055e-007 -2.64501239e-007 -2.70297733e-007
      -2.72319568e-007 -2.71419879e-007 -2.60815398e-007
      -2.53741547e-007 -2.50830311e-007 -2.41805679e-007
      -2.33860931e-007 -2.22731003e-007 -2.12492083e-007
      -2.05828144e-007 -1.98415918e-007 -1.91346246e-007
      -1.87012958e-007 -1.86333367e-007 -1.85046943e-007
      -1.81985598e-007 -1.72395275e-007 -1.67928533e-007
      -1.60706577e-007 -1.48967317e-007 -1.38711940e-007
      -1.29125098e-007 -1.16370899e-007 -1.02091732e-007
      -8.64919798e-008 -7.20169311e-008 -6.72063365e-008
      -6.04040338e-008 -6.00492953e-008 -6.35140651e-008
      -6.32869543e-008 -6.52319443e-008 -7.35315950e-008
      -8.35731839e-008 -9.10869318e-008 -1.02694983e-007
      -1.08886837e-007 -1.15749103e-007 -1.26577859e-007
      -1.29528416e-007 -1.32553808e-007 -1.38656219e-007
      -1.40925323e-007 -1.44374866e-007 -1.47417481e-007
      -1.50533580e-007 -1.53156947e-007 -1.52533914e-007
      -1.49408791e-007 -1.50085555e-007 -1.55628442e-007
      -1.58826381e-007 -1.62522895e-007 -1.61617294e-007
      -1.60315082e-007 -1.60136821e-007 -1.63004117e-007
      -1.65214956e-007 -1.73019416e-007 -1.76336513e-007
      -1.81136571e-007 -1.83688726e-007 -1.84760907e-007
      -1.89166073e-007 -1.93743091e-007 -1.94074303e-007
      -1.89860231e-007 -1.89911773e-007 -1.83175658e-007
      -1.78321855e-007 -1.75907914e-007 -1.72686185e-007
      -1.68708652e-007 -1.67537422e-007 -1.63032368e-007
      -1.62089179e-007 -1.61199949e-007 -1.62423859e-007
      -1.60317711e-007 -1.62108876e-007 -1.59553409e-007
      -1.60592521e-007 -1.63161403e-007 -1.63394489e-007
      -1.67278898e-007 -1.70650381e-007 -1.73924420e-007
      -1.69581980e-007 -1.62666453e-007 -1.52850234e-007
      -1.43937783e-007 -1.34716061e-007 -1.28171621e-007
      -1.15269174e-007 -1.04418781e-007 -8.59426166e-008
      -6.44253575e-008 -4.86566591e-008 -3.45557751e-008
      -2.70716765e-008 -1.57129847e-008 -7.50173967e-009 2.50003729e-009
      3.43402040e-009 4.70329020e-009 1.02649789e-009 -4.49280169e-009
      -1.64452576e-008 -3.10325063e-008 -4.48216149e-008
      -5.35179083e-008 -6.08756352e-008 -6.69161864e-008
      -6.80771990e-008 -7.12262178e-008 -7.24130729e-008
      -7.57299716e-008 -7.94921888e-008 -8.42419396e-008
      -8.70850201e-008 -9.66681881e-008 -1.12289364e-007
      -1.23381582e-007 -1.42269755e-007 -1.60104875e-007
      -1.78907229e-007 -2.00331300e-007 -2.16818520e-007
      -2.26870853e-007 -2.37351486e-007 -2.43200674e-007
      -2.45407136e-007 -2.48849318e-007 -2.50222598e-007
      -2.44293574e-007 -2.33912417e-007 -2.19543921e-007
      -2.10203552e-007 -1.97883736e-007 -1.85141161e-007
      -1.74494687e-007 -1.70241336e-007 -1.63664282e-007
      -1.63296534e-007 -1.65526245e-007 -1.63087421e-007
      -1.65912894e-007 -1.66971020e-007 -1.70836174e-007
      -1.75441286e-007 -1.76386763e-007 -1.71975699e-007
      -1.67589661e-007 -1.54107383e-007 -1.44586778e-007
      -1.38904738e-007 -1.23031015e-007 -1.01960481e-007
      -7.67526274e-008 -5.52429427e-008 -3.72064513e-008
      -2.37765274e-008 -4.08647338e-009 8.74835049e-009 1.93741645e-008
      2.29443220e-008 1.63717910e-008 4.40974901e-009 -1.91429841e-008
      -4.41427019e-008 -6.90337743e-008 -9.48184464e-008
      -1.29092143e-007 -1.61657141e-007 -1.90126755e-007
      -2.13877499e-007 -2.33115074e-007 -2.53129286e-007
      -2.64861399e-007 -2.66376134e-007 -2.69831219e-007
      -2.66268529e-007 -2.58594696e-007 -2.49555228e-007
      -2.38472580e-007 -2.25560498e-007 -2.10587714e-007
      -1.94292312e-007 -1.83708124e-007 -1.87209466e-007
      -1.88233656e-007 -1.95802883e-007 -2.08508354e-007
      -2.24999425e-007 -2.39341006e-007 -2.49124355e-007
      -2.58692978e-007 -2.68685511e-007 -2.71182017e-007
      -2.64202015e-007 -2.55915609e-007 -2.48900932e-007
      -2.42427063e-007 -2.33697705e-007 -2.24745776e-007
      -2.22693146e-007 -2.17284182e-007 -2.11958934e-007
      -2.08237523e-007 -2.06559378e-007 -2.07955992e-007
      -2.13754376e-007 -2.09348201e-007 -2.05198674e-007
      -2.06890647e-007 -2.06939163e-007 -2.13913424e-007
      -2.22134105e-007 -2.36260206e-007 -2.49940570e-007
      -2.57348660e-007 -2.59160373e-007 -2.65450097e-007
      -2.72683451e-007 -2.78963483e-007 -2.86167250e-007
      -2.95367698e-007 -3.00125237e-007 -2.98844043e-007
      -2.96766018e-007 -2.95645776e-007 -2.98790752e-007
      -2.97770612e-007 -2.91454086e-007 -2.87417919e-007
      -2.83411993e-007 -2.73847775e-007 -2.68434206e-007
      -2.67550774e-007 -2.65386916e-007 -2.64542336e-007
      -2.57742130e-007 -2.54646807e-007 -2.51708684e-007
      -2.49231391e-007 -2.43199906e-007 -2.41235256e-007
      -2.44596094e-007 -2.47723108e-007 -2.49545536e-007
      -2.53352482e-007 -2.58499767e-007 -2.60508187e-007
      -2.64309307e-007 -2.67844428e-007 -2.71065119e-007
      -2.68515095e-007 -2.62245948e-007 -2.53206224e-007
      -2.42496469e-007 -2.36420192e-007 -2.35256778e-007
      -2.32335125e-007 -2.27427307e-007 -2.23758306e-007
      -2.19241926e-007 -2.21863772e-007 -2.28580319e-007
      -2.33377634e-007 -2.44240113e-007 -2.51293386e-007
      -2.53442437e-007 -2.64955730e-007 -2.69939108e-007
      -2.79420590e-007 -2.83939954e-007 -2.90269980e-007
      -2.92211951e-007 -2.88334945e-007 -2.86528092e-007
      -2.79734166e-007 -2.66276118e-007 -2.51959648e-007
      -2.40965335e-007 -2.27216361e-007 -2.19101949e-007
      -2.10436909e-007 -2.02702566e-007 -1.98507706e-007
      -1.89002463e-007 -1.88117752e-007 -1.88392988e-007
      -1.86523721e-007 -1.84278676e-007 -1.83447767e-007
      -1.81562754e-007 -1.78542791e-007 -1.72725038e-007
      -1.70482352e-007 -1.69061437e-007 -1.63329474e-007
      -1.55541002e-007 -1.50895033e-007 -1.46260192e-007
      -1.41213917e-007 -1.38113975e-007 -1.32955051e-007
      -1.26164892e-007 -1.17169442e-007 -1.13536188e-007
      -1.12937300e-007 -1.11769992e-007 -1.10634488e-007
      -1.13259759e-007 -1.15652860e-007 -1.17851897e-007
      -1.20551846e-007 -1.21781596e-007 -1.23007936e-007
      -1.25221305e-007 -1.27705690e-007 -1.33084711e-007
      -1.36996377e-007 -1.32770865e-007 -1.31290122e-007
      -1.33812975e-007 -1.29074564e-007 -1.25073669e-007
      -1.22243065e-007 -1.16380257e-007 -1.12848277e-007
      -1.17206412e-007 -1.20214054e-007 -1.26243634e-007
      -1.28899487e-007 -1.30239215e-007 -1.38437116e-007
      -1.51741304e-007 -1.67832127e-007 -1.80487589e-007
      -1.86835905e-007 -1.89177470e-007 -1.88028011e-007
      -1.86371366e-007 -1.84125227e-007 -1.82058557e-007
      -1.75957510e-007 -1.65761747e-007 -1.55523281e-007
      -1.46536379e-007 -1.35566310e-007 -1.24698843e-007
      -1.17432201e-007 -1.11654401e-007 -1.10758890e-007
      -1.09444500e-007 -1.17070151e-007 -1.23386485e-007
      -1.31227424e-007 -1.42220017e-007 -1.50410472e-007
      -1.60507270e-007 -1.71929457e-007 -1.81747112e-007
      -1.88811839e-007 -1.87872203e-007 -1.88651924e-007
      -1.89896014e-007 -1.88319746e-007 -1.82046918e-007
      -1.77262180e-007 -1.69767887e-007 -1.61039097e-007
      -1.59707781e-007 -1.53853023e-007 -1.50816703e-007
      -1.46609864e-007 -1.45459410e-007 -1.48196719e-007
      -1.57802418e-007 -1.64957910e-007 -1.73706539e-007
      -1.80928993e-007 -1.86831727e-007 -1.95784608e-007
      -2.08564771e-007 -2.17474735e-007 -2.22087309e-007
      -2.28357337e-007 -2.28973022e-007 -2.28801369e-007
      -2.32477035e-007 -2.39796776e-007 -2.40046006e-007
      -2.39485104e-007 -2.34906210e-007 -2.32274971e-007
      -2.27771579e-007 -2.21448829e-007 -2.14432603e-007
      -2.11512614e-007 -2.08140335e-007 -2.02528625e-007
      -1.93659488e-007 -1.87757749e-007 -1.78083837e-007
      -1.65125172e-007 -1.56624296e-007 -1.45259563e-007
      -1.32639826e-007 -1.15358169e-007 -9.94412446e-008
      -8.15438312e-008 -6.03413284e-008 -4.36746390e-008
      -3.58392924e-008 -3.03127479e-008 -1.97742782e-008
      -1.12382228e-008 -1.33438309e-008 -2.04592059e-008
      -2.47916443e-008 -2.81288592e-008 -4.24218740e-008
      -5.27676143e-008 -5.67812641e-008 -6.32662420e-008
      -7.15975474e-008 -8.36362517e-008 -8.68558203e-008
      -8.74783552e-008 -8.75694965e-008 -8.60655547e-008
      -8.53730313e-008 -8.72973374e-008 -8.75236239e-008
      -8.70366748e-008 -8.75031105e-008 -8.38660412e-008
      -8.54866684e-008 -8.28967472e-008 -8.54348770e-008
      -9.49038252e-008 -9.72478773e-008 -9.60725757e-008
      -9.44633456e-008 -9.17684275e-008 -9.04767461e-008
      -9.06391264e-008 -8.89373339e-008 -9.32989934e-008
      -1.06751180e-007 -1.14465188e-007 -1.28131134e-007
      -1.47988374e-007 -1.68824158e-007 -1.88531047e-007
      -2.05792119e-007 -2.23838668e-007 -2.36386526e-007
      -2.43207978e-007 -2.39959206e-007 -2.40888369e-007
      -2.35084556e-007 -2.26374667e-007 -2.19031946e-007
      -2.07259376e-007 -1.98937883e-007 -1.89339374e-007
      -1.80432622e-007 -1.78750284e-007 -1.76086459e-007
      -1.69020524e-007 -1.61023422e-007 -1.56529268e-007
      -1.48516293e-007 -1.49717749e-007 -1.49054330e-007
      -1.45794601e-007 -1.45140746e-007 -1.39005692e-007
      -1.33264450e-007 -1.35046122e-007 -1.37875091e-007
      -1.38290758e-007 -1.41627581e-007 -1.40811593e-007
      -1.39957422e-007 -1.41798566e-007 -1.46218667e-007
      -1.51359984e-007 -1.57364212e-007 -1.60586495e-007
      -1.63652246e-007 -1.72506418e-007 -1.78693696e-007
      -1.85270963e-007 -1.87613622e-007 -1.90472932e-007
      -1.95845260e-007 -1.93887914e-007 -1.91764670e-007
      -1.88465805e-007 -1.84933967e-007 -1.81712963e-007
      -1.75784194e-007 -1.69297238e-007 -1.65438365e-007
      -1.66130249e-007 -1.59886369e-007 -1.57753433e-007
      -1.54213438e-007 -1.58926284e-007 -1.63180232e-007
      -1.63103792e-007 -1.68653443e-007 -1.75249980e-007
      -1.77766523e-007 -1.81394597e-007 -1.89070974e-007
      -1.99412057e-007 -2.12912582e-007 -2.20427665e-007
      -2.30755901e-007 -2.45928021e-007 -2.60826113e-007
      -2.78301997e-007 -2.98874141e-007 -3.15266533e-007
      -3.29825980e-007 -3.41565368e-007 -3.51380322e-007
      -3.66352964e-007 -3.73567417e-007 -3.73218114e-007
      -3.65301389e-007 -3.47783896e-007 -3.28853901e-007
      -3.12846026e-007 -2.94936314e-007 -2.76102497e-007
      -2.59118707e-007 -2.39417147e-007 -2.16475485e-007
      -2.00051218e-007 -1.87315138e-007 -1.73535241e-007
      -1.55738519e-007 -1.37174183e-007 -1.21829672e-007
      -1.09549319e-007 -9.57643209e-008 -8.59737384e-008
      -7.74374342e-008 -6.88413380e-008 -6.34505000e-008
      -6.81624215e-008 -7.95272896e-008 -8.94543675e-008
      -1.03563160e-007 -1.21154812e-007 -1.42604307e-007
      -1.63732224e-007 -1.87826075e-007 -2.16045422e-007
      -2.40799011e-007 -2.65223463e-007 -2.90558773e-007
      -3.13755720e-007 -3.32600706e-007 -3.41754003e-007
      -3.47230809e-007 -3.49025640e-007 -3.46031754e-007
      -3.42558792e-007 -3.33975066e-007 -3.23194939e-007
      -3.09340777e-007 -2.94354322e-007 -2.80812031e-007
      -2.72613704e-007 -2.59400196e-007 -2.51718035e-007
      -2.45894711e-007 -2.40989408e-007 -2.43037960e-007
      -2.41225308e-007 -2.42378292e-007 -2.44646913e-007
      -2.34002343e-007 -2.32187205e-007 -2.28654827e-007
      -2.28006670e-007 -2.20908134e-007 -2.16793168e-007
      -2.07632496e-007 -2.00623433e-007 -1.90740508e-007
      -1.79450211e-007 -1.77861864e-007 -1.71773166e-007
      -1.67292882e-007 -1.57842905e-007 -1.55277604e-007
      -1.54400198e-007 -1.48616138e-007 -1.43533100e-007
      -1.40187510e-007 -1.40289927e-007 -1.39073933e-007
      -1.38380173e-007 -1.39242516e-007 -1.40847419e-007
      -1.40393027e-007 -1.37945534e-007 -1.42872835e-007
      -1.48835113e-007 -1.56299222e-007 -1.60625618e-007
      -1.62534690e-007 -1.65281264e-007 -1.69515928e-007
      -1.71110258e-007 -1.76890566e-007 -1.81984333e-007
      -1.82596779e-007 -1.76417373e-007 -1.74652769e-007
      -1.77439574e-007 -1.78118370e-007 -1.81538908e-007
      -1.85288854e-007 -1.87960609e-007 -1.86997454e-007
      -1.88885551e-007 -1.96640585e-007 -2.02261560e-007
      -2.06495301e-007 -2.11707459e-007 -2.13011234e-007
      -2.09116010e-007 -2.08523673e-007 -2.08148663e-007
      -2.09230635e-007 -2.09079587e-007 -2.04459326e-007
      -2.00688987e-007 -1.99045274e-007 -1.98219368e-007
      -1.99827880e-007 -2.02324898e-007 -1.99917679e-007
      -1.96833042e-007 -1.95703123e-007 -1.91868509e-007
      -1.91113244e-007 -1.90268750e-007 -1.85671411e-007
      -1.80015348e-007 -1.78091327e-007 -1.77584994e-007
      -1.81806058e-007 -1.85890116e-007 -1.95248276e-007
      -2.00349575e-007 -1.99938910e-007 -2.03593657e-007
      -2.14649603e-007 -2.24874000e-007 -2.30177690e-007
      -2.33974333e-007 -2.37103478e-007 -2.36580320e-007
      -2.33266590e-007 -2.27182483e-007 -2.27035116e-007
      -2.28245582e-007 -2.19795737e-007 -2.12465608e-007
      -2.04334953e-007 -1.97058981e-007 -1.89563679e-007
      -1.80277439e-007 -1.72143743e-007 -1.67826116e-007
      -1.62415390e-007 -1.56517729e-007 -1.55389230e-007
      -1.57510499e-007 -1.57039949e-007 -1.57525477e-007
      -1.55811463e-007 -1.58333691e-007 -1.57726859e-007
      -1.58395679e-007 -1.59554475e-007 -1.55962539e-007
      -1.50698995e-007 -1.45683401e-007 -1.38910664e-007
      -1.33805841e-007 -1.29249685e-007 -1.25851486e-007
      -1.26461856e-007 -1.30568225e-007 -1.29089358e-007
      -1.23057461e-007 -1.22593391e-007 -1.17780502e-007
      -1.17123903e-007 -1.17379891e-007 -1.18550993e-007
      -1.19022893e-007 -1.12567108e-007 -1.04752715e-007
      -9.75813705e-008 -9.23768795e-008 -8.71435617e-008
      -8.49069082e-008 -8.73719657e-008 -9.34491808e-008
      -1.03743211e-007 -1.10482368e-007 -1.23729095e-007
      -1.36119652e-007 -1.57877764e-007 -1.75648125e-007
      -1.92529811e-007 -2.07115860e-007 -2.16841485e-007
      -2.20049671e-007 -2.18248587e-007 -2.17681304e-007
      -2.11685560e-007 -2.06919267e-007 -1.96747038e-007
      -1.90213768e-007 -1.80244655e-007 -1.68681311e-007
      -1.63230638e-007 -1.57120368e-007 -1.48182821e-007
      -1.43975640e-007 -1.43233237e-007 -1.39494261e-007
      -1.35206633e-007 -1.35610108e-007 -1.35490723e-007
      -1.35497913e-007 -1.35661381e-007 -1.40375121e-007
      -1.46239927e-007 -1.42859562e-007 -1.40784053e-007
      -1.41173459e-007 -1.43942017e-007 -1.44274452e-007
      -1.47547539e-007 -1.52134319e-007 -1.53682350e-007
      -1.55420580e-007 -1.59824680e-007 -1.62141646e-007
      -1.70247034e-007 -1.76223224e-007 -1.80308831e-007
      -1.79335942e-007 -1.73260119e-007 -1.66614598e-007
      -1.57758691e-007 -1.41826675e-007 -1.22888054e-007
      -1.02543616e-007 -7.56718634e-008 -5.22712824e-008
      -3.19008677e-008 -1.96096845e-008 -8.92619045e-009 1.62685754e-009
      2.92164581e-009 1.18335453e-009 -3.70020437e-009 -1.68193193e-008
      -3.46610598e-008 -4.49337847e-008 -5.67708867e-008
      -7.03535719e-008 -8.16535248e-008 -8.81044784e-008
      -8.58393179e-008 -8.56954401e-008 -8.54018509e-008
      -7.64405499e-008 -5.70911531e-008 -4.67244057e-008
      -3.10918686e-008 -1.68328285e-008 -6.47821130e-009
      -5.55765545e-010 3.44606343e-009 7.59548513e-009 1.18879804e-008
      1.02207283e-008 2.85543755e-010 -9.80003367e-009 -1.75982287e-008
      -1.95779037e-008 -2.51510990e-008 -2.28394850e-008
      -2.18030518e-008 -2.13853948e-008 -1.55176210e-008
      -1.19249730e-008 -5.52720314e-009 7.44020290e-010 8.47989678e-009
      1.52082240e-008 2.13187352e-008 2.57679051e-008 3.00418961e-008
      3.23164890e-008 2.82690849e-008 2.98842551e-008 2.73907332e-008
      2.70544493e-008 2.14512159e-008 2.00439416e-008 1.57460072e-008
      1.06097255e-008 5.62128677e-010 -1.02121485e-008 -1.59995484e-008
      -2.58773287e-008 -2.89622673e-008 -3.05761603e-008
      -3.16005107e-008 -3.40400668e-008 -3.39356987e-008
      -3.58953010e-008 -3.16627364e-008 -2.31665602e-008
      -1.33774192e-008 -6.69883082e-009 -4.40077041e-009
      -5.15197396e-009 -3.92408017e-009 -5.26273247e-010
      -9.92873117e-010 2.67833866e-009 3.35832140e-009 4.22799129e-009
      1.90042360e-009 1.44379442e-009 6.79361722e-009 1.80667445e-008
      2.43661962e-008 2.62822173e-008 3.32016086e-008 3.45360611e-008
      3.45373472e-008 2.96913836e-008 2.74091114e-008 2.55471111e-008
      2.44621834e-008 1.72817884e-008 8.10165357e-009 3.08192494e-009
      -2.31316610e-009 -4.24833058e-009 -4.13748857e-009
      -3.97947586e-009 -3.91484400e-009 -4.76279149e-009
      -8.51091997e-009 -1.34769813e-008 -2.02145820e-008
      -2.31257307e-008 -2.62938276e-008 -2.43852476e-008
      -2.46891219e-008 -2.36646116e-008 -2.32753585e-008
      -2.54950958e-008 -2.76912306e-008 -2.38160194e-008
      -1.80811544e-008 -1.71929404e-008 -1.60618683e-008
      -1.59784648e-008 -7.63850494e-009 -4.09435330e-009
      -4.36577691e-010 2.97633895e-009 6.22805585e-009 4.03235711e-009
      1.92121341e-009 3.26165606e-009 2.46808485e-009 -3.71763353e-009
      -1.39695100e-008 -1.89134681e-008 -2.87953199e-008
      -4.09432381e-008 -4.70441002e-008 -5.58108901e-008
      -6.23981506e-008 -6.77141898e-008 -7.33731014e-008
      -7.69354642e-008 -8.51883613e-008 -8.95770143e-008
      -9.25499961e-008 -9.34003097e-008 -9.74461756e-008
      -1.01292656e-007 -1.09113905e-007 -1.13905564e-007
      -1.20215674e-007 -1.29866166e-007 -1.29600863e-007
      -1.30149530e-007 -1.31457270e-007 -1.34303349e-007
      -1.39060873e-007 -1.44249640e-007 -1.47449455e-007
      -1.55333936e-007 -1.62680521e-007 -1.66465696e-007
      -1.76997446e-007 -1.93999369e-007 -2.10516504e-007
      -2.24883451e-007 -2.37361718e-007 -2.49193903e-007
      -2.61656908e-007 -2.72450251e-007 -2.75242030e-007
      -2.77351319e-007 -2.76481046e-007 -2.66829346e-007
      -2.50923677e-007 -2.34837046e-007 -2.21228220e-007
      -2.03104193e-007 -1.76316533e-007 -1.44191446e-007
      -1.19229384e-007 -9.13519145e-008 -6.33156034e-008
      -4.08765217e-008 -1.96438865e-008 -2.40784703e-009 1.95259400e-008
      4.06138767e-008 4.43793269e-008 4.21545856e-008 3.53934055e-008
      1.63563332e-008 -8.37279757e-009 -3.47160558e-008 -6.27359924e-008
      -9.18315095e-008 -1.22710787e-007 -1.52577414e-007
      -1.69705729e-007 -1.81446723e-007 -1.92758563e-007
      -1.97845239e-007 -2.00103472e-007 -1.94919764e-007
      -1.85172652e-007 -1.72496371e-007 -1.59817162e-007
      -1.47637337e-007 -1.45614450e-007 -1.48276328e-007
      -1.48336753e-007 -1.43350633e-007 -1.35707538e-007
      -1.32172218e-007 -1.31635900e-007 -1.33549108e-007
      -1.38988597e-007 -1.41983662e-007 -1.44342835e-007
      -1.45279301e-007 -1.53899066e-007 -1.71527418e-007
      -1.94049917e-007 -2.14585341e-007 -2.37529946e-007
      -2.60290875e-007 -2.82448468e-007 -3.10267552e-007
      -3.31193661e-007 -3.47859554e-007 -3.53650933e-007
      -3.54533398e-007 -3.47218503e-007 -3.41435651e-007
      -3.32017663e-007 -3.24851214e-007 -3.11623154e-007
      -2.89226875e-007 -2.74238062e-007 -2.62416478e-007
      -2.58108173e-007 -2.53845371e-007 -2.53731429e-007
      -2.48768544e-007 -2.45927083e-007 -2.41673490e-007
      -2.37399234e-007 -2.43070929e-007 -2.45485609e-007
      -2.44693268e-007 -2.38337165e-007 -2.39019244e-007
      -2.39304995e-007 -2.38818984e-007 -2.37942416e-007
      -2.40202240e-007 -2.38149056e-007 -2.31709791e-007
      -2.26192171e-007 -2.26836420e-007 -2.25528893e-007
      -2.22442480e-007 -2.18736986e-007 -2.17097266e-007
      -2.15265743e-007 -2.12470070e-007 -2.17964228e-007
      -2.22346799e-007 -2.28214731e-007 -2.25114022e-007
      -2.26264831e-007 -2.29572677e-007 -2.29968023e-007
      -2.32369743e-007 -2.36377417e-007 -2.39236925e-007
      -2.40230918e-007 -2.40563423e-007 -2.43066495e-007
      -2.46868694e-007 -2.48367854e-007 -2.48504705e-007
      -2.48520792e-007 -2.51274372e-007 -2.53378801e-007
      -2.53546261e-007 -2.54891944e-007 -2.57017518e-007
      -2.52371620e-007 -2.52465981e-007 -2.49626083e-007
      -2.45526792e-007 -2.44858967e-007 -2.37589930e-007
      -2.34729896e-007 -2.29732620e-007 -2.21063203e-007
      -2.08840149e-007 -1.98511103e-007 -1.88726517e-007
      -1.81372386e-007 -1.74009614e-007 -1.68061646e-007
      -1.62337187e-007 -1.59001672e-007 -1.54660469e-007
      -1.52109308e-007 -1.53263571e-007 -1.48626839e-007
      -1.41761717e-007 -1.40692308e-007 -1.34960203e-007
      -1.23302783e-007 -1.13856572e-007 -9.72759224e-008
      -8.32647089e-008 -6.97913478e-008 -5.90974558e-008
      -5.36896749e-008 -4.63571865e-008 -3.41715847e-008
      -2.86167801e-008 -2.35892692e-008 -1.95033003e-008
      -1.70877374e-008 -1.91625684e-008 -2.37731062e-008
      -2.71960907e-008 -2.85575794e-008 -2.60786948e-008
      -5.42800294e-009 1.50781467e-008 1.69141838e-008 8.41312442e-009
      9.95097560e-010 1.18646657e-008 3.05407148e-008 5.42094263e-008
      7.70850548e-008 7.45734141e-008 4.19671622e-008 3.18570699e-008
      4.94053083e-008 5.72878989e-008 4.49818316e-008 2.38692035e-008
      -4.57184779e-009 -3.87923009e-008 -6.89390802e-008
      -9.09339661e-008 -9.65895239e-008 -1.18826662e-007
      -1.58931925e-007 -1.72939480e-007 -1.72270020e-007
      -1.82319084e-007 -1.87743993e-007 -1.94351969e-007
      -2.02673434e-007 -1.99948246e-007 -2.01422068e-007
      -2.04657539e-007 -2.00084585e-007 -2.02864001e-007
      -2.04947355e-007 -2.02940242e-007 -2.00267621e-007
      -1.97140324e-007 -1.81882655e-007 -1.59223916e-007
      -1.46844357e-007 -1.45152640e-007 -1.42778447e-007
      -1.36664909e-007 -1.28189072e-007 -1.17961740e-007
      -1.12255229e-007 -1.13560027e-007 -1.22674336e-007
      -1.41580301e-007 -1.52896490e-007 -1.52531896e-007
      -1.53665155e-007 -1.57864179e-007 -1.63276454e-007
      -1.66296743e-007 -1.70750525e-007 -1.69834934e-007
      -1.71426947e-007 -1.75007884e-007 -1.76959688e-007
      -1.78466436e-007 -1.78003333e-007 -1.76266170e-007
      -1.72048047e-007 -1.72795623e-007 -1.73881617e-007
      -1.77227065e-007 -1.77868031e-007 -1.75662606e-007
      -1.77142056e-007 -1.79439439e-007 -1.78986795e-007
      -1.80262447e-007 -1.84355272e-007 -1.83540081e-007
      -1.80543410e-007 -1.76729969e-007 -1.76180905e-007
      -1.72242153e-007 -1.64326650e-007 -1.57055425e-007
      -1.47051779e-007 -1.36950035e-007 -1.22404444e-007
      -1.13060864e-007 -1.04601959e-007 -9.55030259e-008
      -8.28227513e-008 -6.70122446e-008 -5.50445627e-008
      -4.66256580e-008 -4.54703262e-008 -4.25358024e-008
      -4.24506474e-008 -4.17974597e-008 -4.28670148e-008
      -4.69612189e-008 -5.27884509e-008 -6.45891944e-008
      -7.30042800e-008 -8.59994813e-008 -9.53784607e-008
      -1.05679561e-007 -1.18734583e-007 -1.33067715e-007
      -1.41985836e-007 -1.53284631e-007 -1.59686451e-007
      -1.65371659e-007 -1.70491859e-007 -1.69962249e-007
      -1.69635868e-007 -1.73319052e-007 -1.70237328e-007
      -1.60708268e-007 -1.55825973e-007 -1.47243355e-007
      -1.41036821e-007 -1.38826309e-007 -1.35332471e-007
      -1.36098180e-007 -1.31398195e-007 -1.20766387e-007
      -1.19261415e-007 -1.22167066e-007 -1.24472336e-007
      -1.21203669e-007 -1.18978448e-007 -1.18840390e-007
      -1.18194670e-007 -1.18259145e-007 -1.26230972e-007
      -1.37562637e-007 -1.46403991e-007 -1.52174536e-007
      -1.55802226e-007 -1.62881022e-007 -1.67796856e-007
      -1.70387608e-007 -1.72474856e-007 -1.65606437e-007
      -1.54238379e-007 -1.46721106e-007 -1.38469318e-007
      -1.31486360e-007 -1.23132310e-007 -1.10108537e-007
      -9.61705311e-008 -8.18663466e-008 -6.33700594e-008
      -4.71630273e-008 -3.74362372e-008 -2.85986861e-008
      -2.49280188e-008 -2.91681808e-008 -4.03119387e-008
      -5.46599175e-008 -7.47498419e-008 -9.79495880e-008
      -1.25161364e-007 -1.53576238e-007 -1.80648641e-007
      -2.01789661e-007 -2.19087312e-007 -2.28159053e-007
      -2.29333239e-007 -2.28886307e-007 -2.19866919e-007
      -2.10896701e-007 -2.00427536e-007 -1.90106917e-007
      -1.79907531e-007 -1.68958593e-007 -1.57682408e-007
      -1.46534546e-007 -1.44365643e-007 -1.37636860e-007
      -1.32323322e-007 -1.25504201e-007 -1.22934665e-007
      -1.19108499e-007 -1.15957420e-007 -1.12782544e-007
      -1.08059446e-007 -1.07922062e-007 -1.04614017e-007
      -1.08438279e-007 -1.08511820e-007 -1.11095375e-007
      -1.12793927e-007 -1.12762692e-007 -1.11474144e-007
      -1.14538061e-007 -1.15013826e-007 -1.17295613e-007
      -1.21091702e-007 -1.23067167e-007 -1.25463245e-007
      -1.24960707e-007 -1.24040810e-007 -1.26729532e-007
      -1.25832528e-007 -1.25320156e-007 -1.30087258e-007
      -1.36188646e-007 -1.35950458e-007 -1.33565621e-007
      -1.31252236e-007 -1.34749172e-007 -1.30717879e-007
      -1.26257319e-007 -1.26076131e-007 -1.28948273e-007
      -1.31069299e-007 -1.28784492e-007 -1.27745110e-007
      -1.30539561e-007 -1.35745722e-007 -1.35389485e-007
      -1.35071687e-007 -1.36892510e-007 -1.38943761e-007
      -1.39289511e-007 -1.39751378e-007 -1.40870341e-007
      -1.43663712e-007 -1.46909670e-007 -1.45354264e-007
      -1.51208951e-007 -1.61189291e-007 -1.71056271e-007
      -1.77178293e-007 -1.86012372e-007 -1.96685036e-007
      -2.08465622e-007 -2.21577466e-007 -2.32409988e-007
      -2.43811002e-007 -2.53432262e-007 -2.54188905e-007
      -2.51990571e-007 -2.49833050e-007 -2.46793547e-007
      -2.42258665e-007 -2.33168791e-007 -2.28021520e-007
      -2.22253433e-007 -2.18561397e-007 -2.18560814e-007
      -2.22722591e-007 -2.30821684e-007 -2.34822977e-007
      -2.34234065e-007 -2.34578366e-007 -2.34396268e-007
      -2.30496426e-007 -2.27181758e-007 -2.17814119e-007
      -2.06102499e-007 -1.93360421e-007 -1.84555077e-007
      -1.72363784e-007 -1.63180857e-007 -1.55785813e-007
      -1.50739112e-007 -1.44497349e-007 -1.41350796e-007
      -1.41222500e-007 -1.45675344e-007 -1.48701218e-007
      -1.52394492e-007 -1.56735794e-007 -1.62130632e-007
      -1.69665469e-007 -1.70776261e-007 -1.74212730e-007
      -1.81466859e-007 -1.89377971e-007 -1.97701254e-007
      -2.03997374e-007 -2.08910350e-007 -2.16783491e-007
      -2.27895924e-007 -2.37842897e-007 -2.44822417e-007
      -2.54713655e-007 -2.60044487e-007 -2.61502265e-007
      -2.62388994e-007 -2.59701210e-007 -2.55959975e-007
      -2.59048448e-007 -2.55982258e-007 -2.50758063e-007
      -2.48238365e-007 -2.43558844e-007 -2.38926333e-007
      -2.33315930e-007 -2.27460831e-007 -2.24266472e-007
      -2.19284175e-007 -2.05845609e-007 -1.95671561e-007
      -1.87535420e-007 -1.79609117e-007 -1.72456481e-007
      -1.67531681e-007 -1.62153484e-007 -1.60858320e-007
      -1.58172824e-007 -1.60725349e-007 -1.64337152e-007
      -1.72810800e-007 -1.77301359e-007 -1.82262113e-007
      -1.86356232e-007 -1.91434722e-007 -2.00254149e-007
      -2.06375603e-007 -2.12251933e-007 -2.16444491e-007
      -2.16413653e-007 -2.13009315e-007 -2.14182393e-007
      -2.13184066e-007 -2.10863533e-007 -2.05714159e-007
      -1.98501738e-007 -1.92429823e-007 -1.86186753e-007
      -1.79606801e-007 -1.75840356e-007 -1.68020804e-007
      -1.59789749e-007 -1.53039707e-007 -1.54289481e-007
      -1.51334120e-007 -1.49594626e-007 -1.43704639e-007
      -1.38065715e-007 -1.38046772e-007 -1.32834813e-007
      -1.31862620e-007 -1.30403620e-007 -1.30879386e-007
      -1.26133287e-007 -1.26748361e-007 -1.23352351e-007
      -1.21689666e-007 -1.19848551e-007 -1.13932074e-007
      -1.11010756e-007 -1.08688873e-007 -1.10635384e-007
      -1.06666477e-007 -1.07135868e-007 -1.07185365e-007
      -1.12688021e-007 -1.19975255e-007 -1.27122647e-007
      -1.34389850e-007 -1.39752117e-007 -1.44980191e-007
      -1.43156186e-007 -1.45384661e-007 -1.43329515e-007
      -1.43313784e-007 -1.40796502e-007 -1.37243362e-007
      -1.36140301e-007 -1.33621356e-007 -1.29523315e-007
      -1.26072194e-007 -1.27690811e-007 -1.24466922e-007
      -1.25953406e-007 -1.30298986e-007 -1.34656631e-007
      -1.39416855e-007 -1.42651359e-007 -1.45497253e-007
      -1.53082226e-007 -1.56023930e-007 -1.56039604e-007
      -1.62432173e-007 -1.63247535e-007 -1.57190854e-007
      -1.55566582e-007 -1.53448482e-007 -1.52042617e-007
      -1.48753287e-007 -1.41697527e-007 -1.42379733e-007
      -1.40291419e-007 -1.40380749e-007 -1.43531821e-007
      -1.46201245e-007 -1.44434480e-007 -1.46015324e-007
      -1.47666242e-007 -1.50293985e-007 -1.56330486e-007
      -1.60178885e-007 -1.65010974e-007 -1.64403147e-007
      -1.61310965e-007 -1.60894572e-007 -1.60200358e-007
      -1.54096526e-007 -1.51159057e-007 -1.49339570e-007
      -1.47679160e-007 -1.47717273e-007 -1.47291374e-007
      -1.43239021e-007 -1.41206854e-007 -1.35106404e-007
      -1.31033858e-007 -1.26435395e-007 -1.21912890e-007
      -1.25683542e-007 -1.33822752e-007 -1.40859356e-007
      -1.52479629e-007 -1.70898758e-007 -1.86157109e-007
      -2.10378502e-007 -2.30090578e-007 -2.50138640e-007
      -2.70927671e-007 -2.81054042e-007 -2.88040667e-007
      -2.92196773e-007 -2.98022968e-007 -2.99089862e-007
      -2.99654147e-007 -2.96277165e-007 -2.87116251e-007
      -2.84420111e-007 -2.77470207e-007 -2.70995429e-007
      -2.65242335e-007 -2.61188632e-007 -2.53744389e-007
      -2.51486910e-007 -2.50746410e-007 -2.45162823e-007
      -2.50074578e-007 -2.46299351e-007 -2.45773947e-007
      -2.52008761e-007 -2.55729674e-007 -2.58168001e-007
      -2.60083453e-007 -2.65389730e-007 -2.67639024e-007
      -2.73487530e-007 -2.73640268e-007 -2.77640680e-007
      -2.83924578e-007 -2.90349391e-007 -2.95333535e-007
      -3.00460499e-007 -3.05702372e-007 -3.09062443e-007
      -3.09767842e-007 -3.04458240e-007 -2.97248789e-007
      -2.90906883e-007 -2.79158144e-007 -2.60646601e-007
      -2.39797401e-007 -2.21822333e-007 -2.03768522e-007
      -1.94581204e-007 -1.85705616e-007 -1.86758328e-007
      -1.86552114e-007 -1.85585591e-007 -1.87103154e-007
      -1.89040463e-007 -1.94697449e-007 -2.00494014e-007
      -2.03920010e-007 -2.00944484e-007 -2.01750879e-007
      -1.95631102e-007 -1.92815577e-007 -1.89038971e-007
      -1.84946231e-007 -1.88448325e-007 -1.92972365e-007
      -1.92677845e-007 -1.95988306e-007 -1.99007289e-007
      -2.02134999e-007 -2.02945245e-007 -2.06348744e-007
      -2.15502666e-007 -2.21810197e-007 -2.19602768e-007
      -2.20109129e-007 -2.15803695e-007 -2.08626545e-007
      -2.02134132e-007 -1.89941161e-007 -1.81270963e-007
      -1.70452992e-007 -1.51992595e-007 -1.34005404e-007
      -1.21822367e-007 -1.09529537e-007 -9.93414275e-008
      -9.03340904e-008 -7.93366581e-008 -7.38455412e-008
      -6.82027803e-008 -6.17993265e-008 -6.09286346e-008
      -6.53783943e-008 -7.44623918e-008 -7.79931497e-008
      -8.84174156e-008 -9.73869376e-008 -1.09415765e-007
      -1.22055610e-007 -1.33159645e-007 -1.43782529e-007
      -1.54835760e-007 -1.59380406e-007 -1.58794023e-007
      -1.61225728e-007 -1.60976143e-007 -1.61458431e-007
      -1.60805911e-007 -1.52015716e-007 -1.46513486e-007
      -1.42124108e-007 -1.35447820e-007 -1.34191637e-007
      -1.33920082e-007 -1.29481535e-007 -1.25529397e-007
      -1.21619678e-007 -1.17859450e-007 -1.19267654e-007
      -1.15432130e-007 -1.14512673e-007 -1.15769694e-007
      -1.14938707e-007 -1.09062960e-007 -1.08959156e-007
      -1.09193465e-007 -1.07935122e-007 -1.09619087e-007
      -1.10231298e-007 -1.09935058e-007 -1.12073970e-007
      -1.14500352e-007 -1.22722938e-007 -1.34471748e-007
      -1.40225566e-007 -1.46774909e-007 -1.54199398e-007
      -1.57700356e-007 -1.63068918e-007 -1.67638902e-007
      -1.78297498e-007 -1.86337246e-007 -1.92236399e-007
      -1.97678531e-007 -2.06380307e-007 -2.15199307e-007
      -2.22523141e-007 -2.25683110e-007 -2.25986426e-007
      -2.26667169e-007 -2.19705726e-007 -2.13648164e-007
      -2.06132924e-007 -1.95871323e-007 -1.86320236e-007
      -1.78229016e-007 -1.63819351e-007 -1.53494867e-007
      -1.43388945e-007 -1.36276810e-007 -1.33935970e-007
      -1.30859448e-007 -1.28676248e-007 -1.26164039e-007
      -1.21522490e-007 -1.18760468e-007 -1.20519559e-007
      -1.22606849e-007 -1.22265931e-007 -1.22882383e-007
      -1.21290057e-007 -1.20777528e-007 -1.17710378e-007
      -1.16759601e-007 -1.20851467e-007 -1.18789004e-007
      -1.20513917e-007 -1.21857454e-007 -1.19662545e-007
      -1.20354343e-007 -1.23187434e-007 -1.20190961e-007
      -1.25555005e-007 -1.24297927e-007 -1.21854200e-007
      -1.26705231e-007 -1.25643126e-007 -1.21253777e-007
      -1.20216214e-007 -1.18899081e-007 -1.19564589e-007
      -1.21417713e-007 -1.15811559e-007 -1.19493521e-007
      -1.18939084e-007 -1.13980192e-007 -1.07357494e-007
      -1.04562055e-007 -1.03526659e-007 -9.96357485e-008
      -9.60920943e-008 -9.66605569e-008 -1.00786082e-007
      -1.00953649e-007 -1.02676672e-007 -1.03703130e-007
      -1.07690724e-007 -1.13979667e-007 -1.20944762e-007
      -1.32534552e-007 -1.48444556e-007 -1.60238898e-007
      -1.72724683e-007 -1.99427291e-007 -2.19158423e-007
      -2.42224672e-007 -2.66947893e-007 -2.90209670e-007
      -3.11807327e-007 -3.28618540e-007 -3.38698470e-007
      -3.47835027e-007 -3.52455743e-007 -3.43956657e-007
      -3.36762298e-007 -3.24103894e-007 -3.08582884e-007
      -2.93706279e-007 -2.73599511e-007 -2.55604903e-007
      -2.44670701e-007 -2.38911468e-007 -2.32913308e-007
      -2.28784970e-007 -2.18767326e-007 -2.04707604e-007
      -1.95833920e-007 -1.87895864e-007 -1.81289352e-007
      -1.76826546e-007 -1.70347533e-007 -1.69206430e-007
      -1.72072845e-007 -1.69758053e-007 -1.74197837e-007
      -1.83559507e-007 -1.85291100e-007 -1.90283345e-007
      -1.97463635e-007 -2.13985217e-007 -2.21719745e-007
      -2.25127565e-007 -2.24444406e-007 -2.32593862e-007
      -2.38750005e-007 -2.47826364e-007 -2.56809699e-007
      -2.65480139e-007 -2.68533597e-007 -2.56165237e-007
      -2.44082656e-007 -2.32772564e-007 -2.27236939e-007
      -2.20419068e-007 -2.21645578e-007 -2.27584579e-007
      -2.35289789e-007 -2.46635892e-007 -2.61757265e-007
      -2.84002567e-007 -3.06481866e-007 -3.30952872e-007
      -3.58045185e-007 -3.75507994e-007 -3.85682227e-007
      -3.90733220e-007 -3.96949531e-007 -3.96375896e-007
      -3.95272764e-007 -3.88947257e-007 -3.83778428e-007
      -3.76953807e-007 -3.64748189e-007 -3.55766986e-007
      -3.50899739e-007 -3.42580506e-007 -3.32790336e-007
      -3.22704324e-007 -3.09548284e-007 -2.96804899e-007
      -2.83631152e-007 -2.71045195e-007 -2.59809639e-007
      -2.49777344e-007 -2.34923746e-007 -2.26719322e-007
      -2.22225367e-007 -2.12561545e-007 -2.09506794e-007
      -2.10351857e-007 -2.07456850e-007 -2.09073605e-007
      -2.09268478e-007 -2.09111278e-007 -2.13112145e-007
      -2.13589743e-007 -2.07853091e-007 -2.06338285e-007
      -2.07596429e-007 -2.01690369e-007 -2.01008461e-007
      -2.02045811e-007 -2.00822868e-007 -1.87546092e-007
      -1.78281169e-007 -1.68926746e-007 -1.61380868e-007
      -1.49658661e-007 -1.38594288e-007 -1.33900173e-007
      -1.23091240e-007 -1.11139592e-007 -9.81084725e-008
      -9.88811522e-008 -9.22788104e-008 -9.17585936e-008
      -9.21548207e-008 -9.51528563e-008 -8.68889813e-008
      -7.99640176e-008 -7.86540824e-008 -7.04264451e-008
      -6.38309530e-008 -5.80796353e-008 -5.32868718e-008
      -4.58728735e-008 -3.69597295e-008 -3.28521921e-008
      -2.61752646e-008 -2.41827145e-008 -1.58113753e-008
      -1.67945302e-008 -1.91352481e-008 -1.98823802e-008
      -2.45330511e-008 -3.06036796e-008 -3.41991715e-008
      -3.66843871e-008 -4.40546550e-008 -4.73169095e-008
      -5.48989796e-008 -5.51063088e-008 -5.83700981e-008
      -6.35517878e-008 -6.25448280e-008 -6.50918324e-008
      -7.01021463e-008 -7.34540251e-008 -7.58004077e-008
      -8.08295226e-008 -8.45355643e-008 -8.90995153e-008
      -9.21945400e-008 -8.94753995e-008 -9.66790452e-008
      -1.00174816e-007 -1.04560492e-007 -1.10824587e-007
      -1.12817240e-007 -1.09682411e-007 -1.09779137e-007
      -1.07395188e-007 -1.07245235e-007 -1.10184594e-007
      -1.04413530e-007 -9.98759759e-008 -9.50451948e-008
      -8.89054590e-008 -8.73571508e-008 -8.86957139e-008
      -8.95657379e-008 -9.19136056e-008 -8.87042262e-008
      -9.05979149e-008 -9.20862320e-008 -9.30691897e-008
      -9.55662074e-008 -1.00372553e-007 -1.05551031e-007
      -1.06115145e-007 -1.06574042e-007 -1.08704398e-007
      -1.06515714e-007 -1.01634662e-007 -1.00153713e-007
      -1.00560577e-007 -9.87666695e-008 -9.81642145e-008
      -9.61247366e-008 -9.65966436e-008 -9.74374004e-008
      -9.56625215e-008 -9.95913538e-008 -1.05095225e-007
      -1.11235202e-007 -1.15148879e-007 -1.17503845e-007
      -1.18909583e-007 -1.20979195e-007 -1.24721865e-007
      -1.28626027e-007 -1.31096897e-007 -1.32346301e-007
      -1.30084729e-007 -1.26069153e-007 -1.23303479e-007
      -1.20706744e-007 -1.17466946e-007 -1.14775276e-007
      -1.07395032e-007 -1.01628416e-007 -9.64903748e-008
      -9.29966504e-008 -8.92635299e-008 -8.77706938e-008
      -8.62695302e-008 -8.84900473e-008 -9.12618461e-008
      -9.18829244e-008 -9.40602902e-008 -9.23584196e-008
      -9.54620205e-008 -9.55188355e-008 -9.47192405e-008
      -9.34360500e-008 -8.81443469e-008 -8.33977367e-008
      -7.98144058e-008 -8.02285243e-008 -8.07458065e-008
      -8.37428118e-008 -8.10442415e-008 -8.06962746e-008
      -8.28974294e-008 -8.74613306e-008 -9.03977551e-008
      -9.00534474e-008 -9.28121224e-008 -9.21349397e-008
      -9.37495628e-008 -9.67815765e-008 -1.02775338e-007
      -1.01260902e-007 -1.04000961e-007 -1.05900710e-007
      -1.09540906e-007 -1.07301659e-007 -1.07414749e-007
      -1.05689985e-007 -1.03282431e-007 -9.93902205e-008
      -1.01273343e-007 -1.05006279e-007 -1.08773762e-007
      -1.11037870e-007 -1.17463614e-007 -1.30032632e-007
      -1.39550608e-007 -1.47088898e-007 -1.54883097e-007
      -1.68348777e-007 -1.75735863e-007 -1.79095210e-007
      -1.79634398e-007 -1.77834067e-007 -1.77584155e-007
      -1.68552361e-007 -1.60632368e-007 -1.55185219e-007
      -1.51398282e-007 -1.38975835e-007 -1.30325930e-007
      -1.29783388e-007 -1.24752901e-007 -1.27497060e-007
      -1.27260677e-007 -1.30412701e-007 -1.37120509e-007
      -1.39694663e-007 -1.35533099e-007 -1.39761511e-007
      -1.42535654e-007 -1.39939573e-007 -1.38717880e-007
      -1.29950124e-007 -1.22038500e-007 -1.14453968e-007
      -9.97317926e-008 -8.89335610e-008 -7.97383777e-008
      -6.81660950e-008 -5.92106133e-008 -6.08143793e-008
      -5.95782801e-008 -5.76104782e-008 -5.58491671e-008
      -5.65365319e-008 -5.95925691e-008 -6.75749092e-008
      -8.30716118e-008 -1.02304078e-007 -1.21725961e-007
      -1.35477251e-007 -1.49583201e-007 -1.59146353e-007
      -1.69433406e-007 -1.72299778e-007 -1.76656485e-007
      -1.80457604e-007 -1.82116622e-007 -1.90010354e-007
      -1.88123636e-007 -1.78478430e-007 -1.67424957e-007
      -1.53585859e-007 -1.42649881e-007 -1.38898912e-007
      -1.30488360e-007 -1.12805857e-007 -9.65861418e-008
      -7.15938597e-008 -5.67229321e-008 -4.98401640e-008
      -5.11944975e-008 -6.65559412e-008 -7.62490160e-008
      -8.65389396e-008 -1.06775843e-007 -1.30790980e-007
      -1.50262579e-007 -1.66925702e-007 -1.77279020e-007
      -1.87189343e-007 -1.89762517e-007 -1.84084882e-007
      -1.82431080e-007 -1.81745790e-007 -1.73174385e-007
      -1.73045365e-007 -1.77057430e-007 -1.77059505e-007
      -1.81652496e-007 -1.78104443e-007 -1.78776858e-007
      -1.74288019e-007 -1.68036706e-007 -1.55992169e-007
      -1.49583244e-007 -1.36291789e-007 -1.17789263e-007
      -1.02842826e-007 -9.20793113e-008 -7.91849075e-008
      -6.85776840e-008 -6.34342996e-008 -6.01783725e-008
      -5.47555601e-008 -4.85983023e-008 -4.96136536e-008
      -5.24196047e-008 -5.48395676e-008 -5.54027899e-008
      -5.82172603e-008 -5.74756243e-008 -6.14900699e-008
      -6.70006344e-008 -7.45775850e-008 -7.89791059e-008
      -7.87583261e-008 -7.37892023e-008 -7.55536433e-008
      -7.90118264e-008 -8.56889812e-008 -9.17962453e-008
      -9.14583893e-008 -8.74302160e-008 -8.26013675e-008
      -7.85126346e-008 -7.60131087e-008 -7.11336483e-008
      -6.24664764e-008 -5.63205127e-008 -5.35853957e-008
      -5.55175674e-008 -5.35160645e-008 -4.69375401e-008
      -3.93174844e-008 -3.50414204e-008 -2.83409776e-008
      -2.90358422e-008 -2.85477171e-008 -2.83096071e-008
      -2.51399239e-008 -1.44812180e-008 -1.08438289e-008
      -1.57521285e-008 -2.58039705e-008 -3.27326717e-008
      -4.16501749e-008 -5.49153825e-008 -7.39751727e-008
      -8.89988456e-008 -1.09283143e-007 -1.32057096e-007
      -1.55032865e-007 -1.75153914e-007 -1.98270953e-007
      -2.20126552e-007 -2.40659688e-007 -2.49777770e-007
      -2.49063106e-007 -2.52081378e-007 -2.41518165e-007
      -2.29374422e-007 -2.09846533e-007 -1.86062138e-007
      -1.56434581e-007 -1.29740187e-007 -9.95162495e-008
      -6.88196025e-008 -4.64826080e-008 -2.49034073e-008
      -1.45749306e-008 -8.08011080e-009 -1.79180082e-009
      -8.13170686e-009 -2.02064605e-008 -3.47728069e-008
      -5.69391077e-008 -7.63620633e-008 -9.53731600e-008
      -1.14952996e-007 -1.28593697e-007 -1.43061683e-007
      -1.58392353e-007 -1.62779642e-007 -1.67953218e-007
      -1.75172715e-007 -1.77180340e-007 -1.85569007e-007
      -1.92258000e-007 -1.95789980e-007 -1.99521949e-007
      -2.05623806e-007 -2.15006395e-007 -2.27896678e-007
      -2.37508701e-007 -2.42466569e-007 -2.48889251e-007
      -2.48601140e-007 -2.44744740e-007 -2.37975328e-007
      -2.30915475e-007 -2.25411881e-007 -2.18773948e-007
      -2.09026382e-007 -2.05250856e-007 -1.98224370e-007
      -1.88458941e-007 -1.79484431e-007 -1.71881751e-007
      -1.64532977e-007 -1.58863998e-007 -1.51764709e-007
      -1.46750580e-007 -1.44243600e-007 -1.39937072e-007
      -1.39322225e-007 -1.44325981e-007 -1.51758059e-007
      -1.60556027e-007 -1.73047709e-007 -1.84769846e-007
      -1.95545297e-007 -2.02924653e-007 -2.06886540e-007
      -2.13022844e-007 -2.16171756e-007 -2.22961646e-007
      -2.24636992e-007 -2.24624458e-007 -2.22681606e-007
      -2.26241440e-007 -2.25526989e-007 -2.34905713e-007
      -2.45944591e-007 -2.56756493e-007 -2.70436061e-007
      -2.74929675e-007 -2.86433192e-007 -2.98329155e-007
      -3.12509826e-007 -3.20130198e-007 -3.21280794e-007
      -3.22810166e-007 -3.15194342e-007 -3.11157407e-007
      -2.94038358e-007 -2.83105379e-007 -2.74721060e-007
      -2.64829424e-007 -2.51076671e-007 -2.36279831e-007
      -2.26445991e-007 -2.19820052e-007 -2.18858261e-007
      -2.12546581e-007 -2.07108485e-007 -2.04541962e-007
      -1.97133758e-007 -1.90680893e-007 -1.85035418e-007
      -1.81192746e-007 -1.77746742e-007 -1.70334772e-007
      -1.65993256e-007 -1.59437064e-007 -1.59434521e-007
      -1.59164330e-007 -1.60860296e-007 -1.62586787e-007
      -1.64529155e-007 -1.66010437e-007 -1.69187416e-007
      -1.71700208e-007 -1.73107281e-007 -1.82464802e-007
      -1.89203035e-007 -1.92010788e-007 -1.91712772e-007
      -1.97010152e-007 -2.03153689e-007 -2.07252754e-007
      -2.07789569e-007 -2.09937980e-007 -2.10378730e-007
      -2.12232322e-007 -2.12024673e-007 -2.15993339e-007
      -2.13281808e-007 -2.08753022e-007 -2.03938441e-007
      -1.98851438e-007 -2.00216419e-007 -1.95992897e-007
      -1.94491307e-007 -1.89213225e-007 -1.82673531e-007
      -1.79408147e-007 -1.82347009e-007 -1.79630433e-007
      -1.82964598e-007 -1.80812577e-007 -1.75733348e-007
      -1.75784550e-007 -1.71205912e-007 -1.72613767e-007
      -1.74357638e-007 -1.68800725e-007 -1.68813315e-007
      -1.73529131e-007 -1.73867704e-007 -1.76773540e-007
      -1.79349911e-007 -1.84133043e-007 -1.87718555e-007
      -1.88282769e-007 -1.87958634e-007 -1.90218259e-007
      -1.90392626e-007 -1.84547929e-007 -1.74460880e-007
      -1.69517406e-007 -1.64044678e-007 -1.59840027e-007
      -1.60484049e-007 -1.63933890e-007 -1.64150251e-007
      -1.66449908e-007 -1.64251361e-007 -1.65384662e-007
      -1.64306158e-007 -1.61000756e-007 -1.63342634e-007
      -1.64494026e-007 -1.58564731e-007 -1.51314822e-007
      -1.59966191e-007 -1.68989700e-007 -1.82274476e-007
      -1.97234939e-007 -2.15409571e-007 -2.34139975e-007
      -2.46637683e-007 -2.59076984e-007 -2.67807565e-007
      -2.74038655e-007 -2.67540599e-007 -2.56625498e-007
      -2.39133442e-007 -2.18816425e-007 -2.03409130e-007
      -1.90414980e-007 -1.80718558e-007 -1.68776154e-007
      -1.60196606e-007 -1.51349568e-007 -1.50610063e-007
      -1.51654874e-007 -1.56263553e-007 -1.59669028e-007
      -1.67812331e-007 -1.71178684e-007 -1.70790784e-007
      -1.72722636e-007 -1.79460926e-007 -1.88315312e-007
      -1.89970763e-007 -1.92985766e-007 -1.96586328e-007
      -2.00036737e-007 -2.04293144e-007 -2.07090281e-007
      -2.12345526e-007 -2.14873410e-007 -2.16669534e-007
      -2.23629925e-007 -2.26297544e-007 -2.26920918e-007
      -2.23060013e-007 -2.20115737e-007 -2.17700403e-007
      -2.14379114e-007 -2.09081477e-007 -2.07401655e-007
      -1.99668420e-007 -1.89724460e-007 -1.78642395e-007
      -1.65120071e-007 -1.56861660e-007 -1.51239263e-007
      -1.34378311e-007 -1.24175614e-007 -1.14836382e-007
      -1.03483330e-007 -9.47241787e-008 -9.03755577e-008
      -8.73753052e-008 -9.20401533e-008 -9.81423440e-008
      -9.52755244e-008 -1.00417481e-007 -1.05673159e-007
      -1.06337097e-007 -1.09804546e-007 -1.10916666e-007
      -1.11679292e-007 -1.14100530e-007 -1.12339556e-007
      -1.08092479e-007 -1.09884709e-007 -1.13429252e-007
      -1.13423397e-007 -1.10723306e-007 -1.13322926e-007
      -1.18887705e-007 -1.21246302e-007 -1.18741347e-007
      -1.15012654e-007 -1.11850092e-007 -1.11656973e-007
      -1.05869759e-007 -1.01396459e-007 -1.00125327e-007
      -9.41293834e-008 -8.42599945e-008 -7.78148248e-008
      -7.57689307e-008 -7.50940501e-008 -7.28937906e-008
      -7.20159576e-008 -7.82328939e-008 -7.86093608e-008
      -7.93676946e-008 -8.35859666e-008 -8.12975784e-008
      -8.18454993e-008 -7.76273765e-008 -7.71304727e-008
      -7.56318599e-008 -7.20766522e-008 -6.30574348e-008
      -5.15365954e-008 -4.11585113e-008 -2.84596897e-008
      -1.82530773e-008 -9.97265914e-009 -2.65782663e-009 4.92951147e-009
      -1.50760282e-009 2.17784207e-010 -4.99114261e-009 -1.49231276e-008
      -2.57292125e-008 -3.93391097e-008 -5.73612553e-008
      -7.18434947e-008 -8.30456059e-008 -9.71613190e-008
      -9.85832784e-008 -1.01869333e-007 -1.06512026e-007
      -1.12270243e-007 -1.15041580e-007 -1.15849446e-007
      -1.12521398e-007 -1.08571264e-007 -1.12589625e-007
      -1.15398130e-007 -1.23486004e-007 -1.31784972e-007
      -1.36481077e-007 -1.37588415e-007 -1.40100354e-007
      -1.48203171e-007 -1.50170607e-007 -1.54179745e-007
      -1.54302583e-007 -1.54163288e-007 -1.53134579e-007
      -1.54846134e-007 -1.59349611e-007 -1.64991860e-007
      -1.70361346e-007 -1.73919148e-007 -1.80223338e-007
      -1.85346295e-007 -1.95322528e-007 -2.02916937e-007
      -2.11798778e-007 -2.20257931e-007 -2.23183122e-007
      -2.27721600e-007 -2.28544735e-007 -2.29780767e-007
      -2.35328912e-007 -2.38945177e-007 -2.38805711e-007
      -2.39099336e-007 -2.28007551e-007 -2.14522046e-007
      -2.02626012e-007 -1.92627510e-007 -1.86596935e-007
      -1.79231009e-007 -1.78108607e-007 -1.76387260e-007
      -1.73544137e-007 -1.66945682e-007 -1.72403531e-007
      -1.72482572e-007 -1.75370261e-007 -1.84598022e-007
      -1.90800549e-007 -1.91349343e-007 -1.90841789e-007
      -1.89162563e-007 -1.87003636e-007 -1.90672637e-007
      -1.89711656e-007 -1.90181851e-007 -1.88840744e-007
      -1.83583012e-007 -1.76194433e-007 -1.75383931e-007
      -1.64718330e-007 -1.58652711e-007 -1.53165360e-007
      -1.45104451e-007 -1.32307335e-007 -1.20103920e-007
      -1.06405778e-007 -9.22671504e-008 -8.74773178e-008
      -8.32425897e-008 -8.53654072e-008 -8.56706066e-008
      -9.31219759e-008 -9.45800238e-008 -9.93833638e-008
      -1.07340398e-007 -1.23232127e-007 -1.35872298e-007
      -1.36489462e-007 -1.42868288e-007 -1.47077486e-007
      -1.50765544e-007 -1.54930675e-007 -1.61889474e-007
      -1.70993658e-007 -1.77873048e-007 -1.84863481e-007
      -1.97069184e-007 -2.10668617e-007 -2.24264909e-007
      -2.41740622e-007 -2.63580318e-007 -2.84073764e-007
      -3.02747992e-007 -3.31860946e-007 -3.61435212e-007
      -3.93460709e-007 -4.20348186e-007 -4.49127072e-007
      -4.72516348e-007 -4.92680954e-007 -5.04814068e-007
      -5.06518461e-007 -5.09055667e-007 -4.99944292e-007
      -4.81352970e-007 -4.52958432e-007 -4.24622272e-007
      -3.92683233e-007 -3.54378898e-007 -3.15697662e-007
      -2.79396573e-007 -2.46740484e-007 -2.12909967e-007
      -1.82143339e-007 -1.60420512e-007 -1.49746214e-007
      -1.42561802e-007 -1.44010386e-007 -1.50782355e-007
      -1.65444717e-007 -1.86831826e-007 -2.10973994e-007
      -2.35937293e-007 -2.58430134e-007 -2.75453004e-007
      -2.86712492e-007 -2.92014875e-007 -2.99750781e-007
      -3.04282509e-007 -3.04380052e-007 -2.95286839e-007
      -2.83275000e-007 -2.72392725e-007 -2.69294645e-007
      -2.61716110e-007 -2.55899494e-007 -2.51052739e-007
      -2.42005910e-007 -2.33522186e-007 -2.26520640e-007
      -2.18963791e-007 -2.18209152e-007 -2.17890602e-007
      -2.20058652e-007 -2.29306991e-007 -2.38958989e-007
      -2.53930693e-007 -2.71809427e-007 -2.93019582e-007
      -3.12461708e-007 -3.38894012e-007 -3.54672238e-007
      -3.68782707e-007 -3.85443286e-007 -3.92181079e-007
      -3.98048428e-007 -3.99024742e-007 -3.99974425e-007
      -4.02242733e-007 -4.02362616e-007 -3.96333434e-007
      -3.87455486e-007 -3.76558802e-007 -3.59365032e-007
      -3.43153033e-007 -3.26073490e-007 -3.08905271e-007
      -2.89209197e-007 -2.67860258e-007 -2.48527613e-007
      -2.32927420e-007 -2.25972940e-007 -2.16435652e-007
      -2.11341359e-007 -2.09659376e-007 -2.09063614e-007
      -2.07246003e-007 -2.12309970e-007 -2.10108112e-007
      -2.10712926e-007 -2.08214956e-007 -2.10157367e-007
      -2.12415856e-007 -2.15051941e-007 -2.16714895e-007
      -2.19059274e-007 -2.21114661e-007 -2.23336187e-007
      -2.28886961e-007 -2.33155816e-007 -2.35049285e-007
      -2.35765185e-007 -2.32449509e-007 -2.26157866e-007
      -2.24792160e-007 -2.25465243e-007 -2.28329412e-007
      -2.25276509e-007 -2.27974354e-007 -2.29863119e-007
      -2.31594768e-007 -2.34730081e-007 -2.39830996e-007
      -2.47695226e-007 -2.49877559e-007 -2.46288096e-007
      -2.43356709e-007 -2.41509184e-007 -2.36573072e-007
      -2.33569864e-007 -2.33285959e-007 -2.32301176e-007
      -2.28701353e-007 -2.27931039e-007 -2.22701843e-007
      -2.25734340e-007 -2.22295498e-007 -2.22889739e-007
      -2.21933718e-007 -2.18609415e-007 -2.14132342e-007
      -2.10463838e-007 -2.10647400e-007 -2.10243314e-007
      -2.14402519e-007 -2.10950901e-007 -2.13666539e-007
      -2.11219501e-007 -2.11766874e-007 -2.12155129e-007
      -2.08037136e-007 -2.06018129e-007 -2.04376065e-007
      -1.98594847e-007 -1.88289334e-007 -1.83598459e-007
      -1.76468205e-007 -1.70084505e-007 -1.60222811e-007
      -1.55490369e-007 -1.52570777e-007 -1.50801910e-007
      -1.42892929e-007 -1.32995908e-007 -1.30439091e-007
      -1.23135507e-007 -1.19522568e-007 -1.15976896e-007
      -1.13935009e-007 -1.09075430e-007 -1.09696856e-007
      -1.06679479e-007 -1.04803036e-007 -1.05362936e-007
      -1.03083032e-007 -9.85666517e-008 -8.95104080e-008
      -8.04775624e-008 -7.49379154e-008 -6.69891946e-008
      -6.06304056e-008 -5.08042959e-008 -4.42429737e-008
      -3.99977722e-008 -3.35525741e-008 -3.69559459e-008
      -4.58875427e-008 -5.14623864e-008 -5.61180080e-008
      -6.11119475e-008 -6.24540206e-008 -7.26687190e-008
      -8.32224956e-008 -9.20631393e-008 -1.02175406e-007
      -1.10630197e-007 -1.13651545e-007 -1.20084678e-007
      -1.20607922e-007 -1.21525659e-007 -1.25353921e-007
      -1.24243854e-007 -1.28569738e-007 -1.27533781e-007
      -1.28364292e-007 -1.28240330e-007 -1.29349985e-007
      -1.31760856e-007 -1.31143466e-007 -1.35573075e-007
      -1.36558640e-007 -1.31431733e-007 -1.30845152e-007
      -1.32474270e-007 -1.31067083e-007 -1.32073566e-007
      -1.28297899e-007 -1.26721204e-007 -1.28107587e-007
      -1.20658697e-007 -1.14048568e-007 -1.13597189e-007
      -1.08578050e-007 -1.04282812e-007 -1.05020526e-007
      -1.03216685e-007 -1.02403810e-007 -9.86373223e-008
      -9.21819563e-008 -8.88192204e-008 -8.69159180e-008
      -8.47952535e-008 -8.35747045e-008 -7.84523380e-008
      -7.24410043e-008 -6.36743209e-008 -6.27926298e-008
      -5.95728729e-008 -6.06045418e-008 -6.59811903e-008
      -6.86313371e-008 -7.25752329e-008 -7.73668347e-008
      -8.43973709e-008 -9.14059441e-008 -1.02423051e-007
      -1.09091907e-007 -1.15217674e-007 -1.23292210e-007
      -1.29223636e-007 -1.33340109e-007 -1.42397184e-007
      -1.51249409e-007 -1.55961331e-007 -1.63679090e-007
      -1.66345089e-007 -1.60317327e-007 -1.58315999e-007
      -1.53418824e-007 -1.47846279e-007 -1.42242655e-007
      -1.32512739e-007 -1.23820925e-007 -1.18823330e-007
      -1.10876996e-007 -1.06538991e-007 -1.08445171e-007
      -1.09802009e-007 -1.12397501e-007 -1.19151572e-007
      -1.23859550e-007 -1.27351186e-007 -1.35244349e-007
      -1.37155567e-007 -1.38083124e-007 -1.37189502e-007
      -1.38351268e-007 -1.36603205e-007 -1.35716320e-007
      -1.33534883e-007 -1.37870202e-007 -1.38417889e-007
      -1.33316462e-007 -1.32682416e-007 -1.34442899e-007
      -1.41326893e-007 -1.43381627e-007 -1.48334479e-007
      -1.56784154e-007 -1.60191419e-007 -1.62010721e-007
      -1.67442280e-007 -1.70965194e-007 -1.79782063e-007
      -1.85269840e-007 -1.81405483e-007 -1.81006754e-007
      -1.77798952e-007 -1.70094353e-007 -1.62903206e-007
      -1.54841786e-007 -1.44237021e-007 -1.33290371e-007
      -1.23441367e-007 -1.11000624e-007 -1.04117255e-007
      -9.65946398e-008 -8.97244092e-008 -8.51976338e-008
      -8.19237513e-008 -8.07764948e-008 -7.89180419e-008
      -8.64665921e-008 -9.51508738e-008 -1.06607573e-007
      -1.17030631e-007 -1.24879421e-007 -1.31010580e-007
      -1.39371693e-007 -1.47211395e-007 -1.53305621e-007
      -1.61068328e-007 -1.64563275e-007 -1.60944182e-007
      -1.57366387e-007 -1.53891293e-007 -1.51714289e-007
      -1.43574411e-007 -1.34448243e-007 -1.24949580e-007
      -1.19248512e-007 -1.21687421e-007 -1.23706215e-007
      -1.31723709e-007 -1.42638541e-007 -1.55659265e-007
      -1.74308781e-007 -2.07146144e-007 -2.38068296e-007
      -2.63060031e-007 -2.85883658e-007 -3.02760895e-007
      -3.22843221e-007 -3.33795413e-007 -3.40770157e-007
      -3.49031524e-007 -3.54435315e-007 -3.46327823e-007
      -3.40922156e-007 -3.34383685e-007 -3.22671013e-007
      -3.05261949e-007 -2.82128042e-007 -2.60172925e-007
      -2.39623091e-007 -2.14794611e-007 -1.94396478e-007
      -1.83526950e-007 -1.74545562e-007 -1.64361794e-007
      -1.56743042e-007 -1.53197874e-007 -1.50278140e-007
      -1.54867593e-007 -1.60881982e-007 -1.69846302e-007
      -1.79143981e-007 -1.86633144e-007 -1.89977911e-007
      -1.99384928e-007 -2.08614281e-007 -2.16473950e-007
      -2.28072096e-007 -2.33523181e-007 -2.39373009e-007
      -2.39698494e-007 -2.41288546e-007 -2.45758201e-007
      -2.45349042e-007 -2.39420615e-007 -2.35003000e-007
      -2.32001724e-007 -2.31619552e-007 -2.33762677e-007
      -2.33571029e-007 -2.35483597e-007 -2.36161256e-007
      -2.33206350e-007 -2.36105834e-007 -2.38089896e-007
      -2.38216970e-007 -2.38176170e-007 -2.39880023e-007
      -2.41005267e-007 -2.42513352e-007 -2.38313561e-007
      -2.37760887e-007 -2.39869564e-007 -2.38015289e-007
      -2.33017630e-007 -2.33924183e-007 -2.30085121e-007
      -2.25223800e-007 -2.17863530e-007 -2.11561215e-007
      -2.07462932e-007 -1.95240062e-007 -1.90668928e-007
      -1.84885394e-007 -1.80618002e-007 -1.75807997e-007
      -1.76744550e-007 -1.77109214e-007 -1.79207447e-007
      -1.80298642e-007 -1.86871802e-007 -1.99950591e-007
      -2.03686568e-007 -2.09375429e-007 -2.15503675e-007
      -2.19329124e-007 -2.22937672e-007 -2.28918807e-007
      -2.36566905e-007 -2.43116745e-007 -2.54128338e-007
      -2.65822365e-007 -2.80925576e-007 -3.00412097e-007
      -3.14310029e-007 -3.27630630e-007 -3.38319097e-007
      -3.43746564e-007 -3.41829150e-007 -3.38831910e-007
      -3.26502288e-007 -3.10434160e-007 -2.90729616e-007
      -2.63753236e-007 -2.47509917e-007 -2.34669102e-007
      -2.20760967e-007 -2.08809411e-007 -2.00804379e-007
      -1.96626331e-007 -1.91759312e-007 -1.91273301e-007
      -1.91647445e-007 -1.92323540e-007 -1.87934120e-007
      -1.81764648e-007 -1.76902333e-007 -1.75624010e-007
      -1.79022337e-007 -1.77762644e-007 -1.80372837e-007
      -1.85602758e-007 -1.87525416e-007 -1.94567718e-007
      -2.02796144e-007 -2.10121897e-007 -2.16039410e-007
      -2.25395112e-007 -2.27048560e-007 -2.34068523e-007
      -2.37683977e-007 -2.37759934e-007 -2.40848664e-007
      -2.42886586e-007 -2.43027387e-007 -2.43707717e-007
      -2.47501021e-007 -2.46621710e-007 -2.44821678e-007
      -2.43966753e-007 -2.43666676e-007 -2.48531450e-007
      -2.53440760e-007 -2.49972345e-007 -2.49119068e-007
      -2.48046234e-007 -2.50600692e-007 -2.49455894e-007
      -2.53060165e-007 -2.53974946e-007 -2.54218889e-007
      -2.48114958e-007 -2.41466267e-007 -2.36107056e-007
      -2.27219658e-007 -2.17229896e-007 -2.02352069e-007
      -1.94634310e-007 -1.90691196e-007 -1.86746192e-007
      -1.81170734e-007 -1.75173412e-007 -1.70842156e-007
      -1.67097653e-007 -1.66721449e-007 -1.66408441e-007
      -1.66443400e-007 -1.59626111e-007 -1.51632861e-007
      -1.47100536e-007 -1.43098092e-007 -1.38321255e-007
      -1.32812431e-007 -1.29410438e-007 -1.23362085e-007
      -1.16372810e-007 -1.13556773e-007 -1.12231874e-007
      -1.08381165e-007 -1.01468601e-007 -9.77695080e-008
      -9.67297211e-008 -9.32468325e-008 -9.29827806e-008
      -9.45817007e-008 -9.91115456e-008 -1.06569630e-007
      -1.12285932e-007 -1.20027025e-007 -1.26927773e-007
      -1.34154106e-007 -1.38829009e-007 -1.43832011e-007
      -1.48216287e-007 -1.54784175e-007 -1.57852526e-007
      -1.56719551e-007 -1.54541567e-007 -1.55712797e-007
      -1.55832169e-007 -1.53433234e-007 -1.45950054e-007
      -1.42479820e-007 -1.35739185e-007 -1.30507146e-007
      -1.24819607e-007 -1.15585998e-007 -1.06036651e-007
      -9.60623012e-008 -9.09477578e-008 -9.01643062e-008
      -8.57725979e-008 -8.26531874e-008 -7.71065771e-008
      -7.29205354e-008 -7.46767270e-008 -8.29580955e-008
      -8.89283882e-008 -9.24792758e-008 -9.04712962e-008
      -8.44109280e-008 -8.67696812e-008 -8.49592965e-008
      -8.26800886e-008 -7.80000349e-008 -6.70746942e-008
      -5.16485379e-008 -3.54434455e-008 -2.57848480e-008
      -1.70804597e-008 -6.01699224e-009 -1.47729529e-009 3.30698868e-009
      5.29101829e-009 5.27142063e-009 1.17920795e-009 -5.29177679e-009
      -1.33120199e-008 -1.98999324e-008 -3.16238271e-008
      -4.41592469e-008 -5.06969720e-008 -5.69312064e-008
      -6.31886650e-008 -6.66655851e-008 -6.53670753e-008
      -6.05163351e-008 -5.66202480e-008 -5.60174698e-008
      -4.66454146e-008 -3.59531036e-008 -3.08488204e-008
      -3.07022212e-008 -2.91381834e-008 -2.42070932e-008
      -1.98105266e-008 -2.19135323e-008 -1.93747542e-008
      -1.96045331e-008 -1.98045171e-008 -2.66789488e-008
      -2.86637292e-008 -3.17270619e-008 -3.75905884e-008
      -5.23351282e-008 -7.18438855e-008 -9.11295857e-008
      -1.12397423e-007 -1.32000451e-007 -1.54596250e-007
      -1.67123844e-007 -1.82472377e-007 -1.95789397e-007
      -2.04535269e-007 -2.05917090e-007 -2.07772274e-007
      -2.01585948e-007 -1.93003785e-007 -1.79469765e-007
      -1.57772462e-007 -1.43760758e-007 -1.28794412e-007
      -1.12234176e-007 -9.53520498e-008 -8.55069331e-008
      -7.45030633e-008 -6.79367815e-008 -6.49748699e-008
      -6.44432845e-008 -6.72406841e-008 -6.62856507e-008
      -6.56095480e-008 -6.78314223e-008 -7.15699358e-008
      -7.70354873e-008 -8.02233728e-008 -8.25920097e-008
      -8.48110986e-008 -8.51924611e-008 -8.73909300e-008
      -9.02928647e-008 -9.54756985e-008 -9.46232532e-008
      -9.80796173e-008 -1.00418767e-007 -1.01799863e-007
      -1.01239202e-007 -1.00232420e-007 -9.73392957e-008
      -9.91270923e-008 -9.69794485e-008 -9.49998196e-008
      -9.50661132e-008 -9.18470846e-008 -9.19739236e-008
      -8.99367905e-008 -9.51179828e-008 -1.04724002e-007
      -1.11787877e-007 -1.15709987e-007 -1.21704872e-007
      -1.20280191e-007 -1.23093955e-007 -1.32563883e-007
      -1.34142823e-007 -1.38867179e-007 -1.43212773e-007
      -1.41490929e-007 -1.45216603e-007 -1.50171459e-007
      -1.55087037e-007 -1.64324234e-007 -1.75783541e-007
      -1.77370651e-007 -1.82030206e-007 -1.83595859e-007
      -1.90629734e-007 -1.98758116e-007 -2.00361910e-007
      -2.00806454e-007 -1.98922237e-007 -1.93902892e-007
      -1.82291629e-007 -1.74290577e-007 -1.64476589e-007
      -1.58276649e-007 -1.47874559e-007 -1.33310991e-007
      -1.23179362e-007 -1.12454529e-007 -1.06417168e-007
      -1.06172457e-007 -1.10176103e-007 -1.15308389e-007
      -1.20026243e-007 -1.24548436e-007 -1.29851870e-007
      -1.36500759e-007 -1.45029318e-007 -1.55063489e-007
      -1.60160951e-007 -1.64833494e-007 -1.68495859e-007
      -1.71503885e-007 -1.73950113e-007 -1.70925304e-007
      -1.67657674e-007 -1.62799950e-007 -1.54660697e-007
      -1.44748583e-007 -1.39075581e-007 -1.30313325e-007
      -1.28908695e-007 -1.24651763e-007 -1.23510645e-007
      -1.22873416e-007 -1.22663920e-007 -1.21222186e-007
      -1.23154194e-007 -1.26459909e-007 -1.25769773e-007
      -1.25726018e-007 -1.19834240e-007 -1.15135109e-007
      -1.13852714e-007 -1.17064644e-007 -1.17714052e-007
      -1.26803045e-007 -1.35157293e-007 -1.41807462e-007
      -1.49822782e-007 -1.56399466e-007 -1.64028080e-007
      -1.72681624e-007 -1.74229257e-007 -1.75982791e-007
      -1.81654997e-007 -1.82344024e-007 -1.82137398e-007
      -1.84164620e-007 -1.89444492e-007 -1.89900945e-007
      -1.92357959e-007 -1.90326617e-007 -1.87994118e-007
      -1.86058045e-007 -1.85942952e-007 -1.84915663e-007
      -1.83347396e-007 -1.81992959e-007 -1.78425566e-007
      -1.77318142e-007 -1.80196480e-007 -1.83215661e-007
      -1.81977981e-007 -1.89057474e-007 -1.90424203e-007
      -1.90894497e-007 -1.92338774e-007 -1.88912736e-007
      -1.87862497e-007 -1.87704757e-007 -1.84526186e-007
      -1.86416329e-007 -1.93231728e-007 -1.94558808e-007
      -1.97867664e-007 -2.01895091e-007 -2.05007083e-007
      -2.08836994e-007 -2.11875843e-007 -2.18643535e-007
      -2.21863800e-007 -2.24646826e-007 -2.24695398e-007
      -2.21786792e-007 -1.90704213e-007 -1.85539321e-007
      -1.82612666e-007 -1.81497100e-007 -1.78943310e-007
      -1.69275680e-007 -1.60744804e-007 -1.56709206e-007
      -1.53841384e-007 -1.53964180e-007 -1.57111430e-007
      -1.60266339e-007 -1.60318137e-007 -1.54856252e-007
      -1.51549827e-007 -1.53745390e-007 -1.55404592e-007
      -1.57403278e-007 -1.59473757e-007 -1.62155146e-007
      -1.61003896e-007 -1.63426918e-007 -1.64668819e-007
      -1.70944077e-007 -1.76834291e-007 -1.80762385e-007
      -1.87508064e-007 -1.91471926e-007 -1.98945870e-007
      -2.04762401e-007 -2.09398507e-007 -2.13587739e-007
      -2.20474277e-007 -2.20874711e-007 -2.19758263e-007
      -2.17198036e-007 -2.07488270e-007 -2.01706044e-007
      -1.91986075e-007 -1.81282317e-007 -1.72854968e-007
      -1.61608739e-007 -1.55272048e-007 -1.53049029e-007
      -1.51593170e-007 -1.46030686e-007 -1.52160126e-007
      -1.53148235e-007 -1.57595750e-007 -1.61502172e-007
      -1.67792351e-007 -1.81093455e-007 -1.89469347e-007
      -1.98257609e-007 -2.13399474e-007 -2.35962958e-007
      -2.54416250e-007 -2.73009334e-007 -2.91943707e-007
      -3.17882979e-007 -3.34241548e-007 -3.46232525e-007
      -3.60012706e-007 -3.69692174e-007 -3.71379627e-007
      -3.63970287e-007 -3.56664060e-007 -3.46526463e-007
      -3.35351842e-007 -3.17416578e-007 -2.99079375e-007
      -2.87916606e-007 -2.71217971e-007 -2.57463284e-007
      -2.51018321e-007 -2.41791241e-007 -2.35358243e-007
      -2.29906462e-007 -2.23971838e-007 -2.17575433e-007
      -2.14423039e-007 -2.09524586e-007 -2.04964451e-007
      -2.00729147e-007 -1.95258465e-007 -1.95324859e-007
      -1.91824640e-007 -1.92483853e-007 -1.89408539e-007
      -1.94103805e-007 -1.97637220e-007 -1.98505603e-007
      -1.98670946e-007 -1.98244322e-007 -2.02365939e-007
      -2.13071360e-007 -2.29001529e-007 -2.47764689e-007
      -2.59863128e-007 -2.73555912e-007 -2.88967271e-007
      -3.04297771e-007 -3.23781023e-007 -3.40905700e-007
      -3.53450872e-007 -3.57441678e-007 -3.52612233e-007
      -3.43938837e-007 -3.40096676e-007 -3.30287264e-007
      -3.21051800e-007 -3.09451565e-007 -2.94948791e-007
      -2.84890262e-007 -2.71325462e-007 -2.62550486e-007
      -2.57971209e-007 -2.54829615e-007 -2.52161186e-007
      -2.53195509e-007 -2.53569283e-007 -2.54475651e-007
      -2.55749370e-007 -2.52821081e-007 -2.53428283e-007
      -2.54876113e-007 -2.53626183e-007 -2.56101430e-007
      -2.59990770e-007 -2.62362079e-007 -2.61396622e-007
      -2.66020862e-007 -2.69428256e-007 -2.68752444e-007
      -2.72358449e-007 -2.70647234e-007 -2.71416269e-007
      -2.70926762e-007 -2.71373523e-007 -2.69067300e-007
      -2.69547229e-007 -2.65565575e-007 -2.64466848e-007
      -2.66369938e-007 -2.64694705e-007 -2.64356771e-007
      -2.62695465e-007 -2.56939643e-007 -2.51739010e-007
      -2.49350990e-007 -2.44447818e-007 -2.42014011e-007
      -2.40941347e-007 -2.38709561e-007 -2.40060729e-007
      -2.35317955e-007 -2.33796072e-007 -2.38094316e-007
      -2.42593927e-007 -2.36494927e-007 -2.29107783e-007
      -2.25677638e-007 -2.25132808e-007 -2.23992132e-007
      -2.22715727e-007 -2.28804510e-007 -2.25137043e-007
      -2.21963177e-007 -2.16481894e-007 -2.12266059e-007
      -2.10732097e-007 -2.08421937e-007 -1.98638901e-007
      -1.87450240e-007 -1.76883077e-007 -1.63529975e-007
      -1.50657513e-007 -1.35920686e-007 -1.25848672e-007
      -1.22042096e-007 -1.16823038e-007 -1.07384167e-007
      -1.04658305e-007 -1.04909780e-007 -1.01172589e-007
      -1.02118662e-007 -1.05917103e-007 -1.08135346e-007
      -1.07973655e-007 -1.04805991e-007 -1.03773402e-007
      -1.03315045e-007 -1.02401181e-007 -9.84766402e-008
      -1.01248482e-007 -9.88278046e-008 -9.72422285e-008
      -9.95434917e-008 -9.80826158e-008 -1.01764464e-007
      -1.03589350e-007 -1.06385890e-007 -1.07222426e-007
      -1.08826406e-007 -1.06763743e-007 -1.09644773e-007
      -1.07074342e-007 -1.06816316e-007 -1.08838250e-007
      -1.08126493e-007 -1.11355426e-007 -1.14693755e-007
      -1.18918855e-007 -1.21787792e-007 -1.25649620e-007
      -1.28142048e-007 -1.35805223e-007 -1.43724037e-007
      -1.48066846e-007 -1.55865422e-007 -1.62101074e-007
      -1.66537603e-007 -1.71885489e-007 -1.77351666e-007
      -1.78427456e-007 -1.80470536e-007 -1.76961365e-007
      -1.76326310e-007 -1.74318572e-007 -1.73681144e-007
      -1.70375472e-007 -1.68125140e-007 -1.67670649e-007
      -1.68640327e-007 -1.72797101e-007 -1.75997585e-007
      -1.75985775e-007 -1.73654684e-007 -1.71460272e-007
      -1.67482497e-007 -1.63411855e-007 -1.60682973e-007
      -1.51989042e-007 -1.45768482e-007 -1.39702379e-007
      -1.32335529e-007 -1.30496559e-007 -1.33985864e-007
      -1.33248903e-007 -1.33472170e-007 -1.35467729e-007
      -1.37089501e-007 -1.38808915e-007 -1.41185978e-007
      -1.42550988e-007 -1.45492280e-007 -1.45136852e-007
      -1.46142199e-007 -1.49665212e-007 -1.45233571e-007
      -1.50834936e-007 -1.54999242e-007 -1.56639871e-007
      -1.57603225e-007 -1.61404927e-007 -1.67076053e-007
      -1.71080941e-007 -1.75878498e-007 -1.76965614e-007
      -1.83056784e-007 -1.82497189e-007 -1.83595077e-007
      -1.87208457e-007 -1.89030757e-007 -1.90974959e-007
      -1.92078303e-007 -1.94563853e-007 -1.99841040e-007
      -2.06856683e-007 -2.17329244e-007 -2.26855093e-007
      -2.33818696e-007 -2.39538167e-007 -2.41389415e-007
      -2.42156233e-007 -2.45474922e-007 -2.43511550e-007
      -2.39708243e-007 -2.32710065e-007 -2.25775366e-007
      -2.19991904e-007 -2.12591971e-007 -2.04685989e-007
      -2.01583745e-007 -1.95794797e-007 -1.91100639e-007
      -1.91916044e-007 -1.93052600e-007 -1.93195376e-007
      -1.96047594e-007 -1.97692614e-007 -2.00239157e-007
      -2.06646078e-007 -2.10035253e-007 -2.17018609e-007
      -2.22136649e-007 -2.25799440e-007 -2.29248712e-007
      -2.32418898e-007 -2.34517842e-007 -2.36162208e-007
      -2.36682496e-007 -2.39620590e-007 -2.37870907e-007
      -2.35029717e-007 -2.31483057e-007 -2.28411508e-007
      -2.26078541e-007 -2.23216631e-007 -2.18730491e-007
      -2.16500837e-007 -2.15568974e-007 -2.17865590e-007
      -2.20911730e-007 -2.23884996e-007 -2.30089142e-007
      -2.30769714e-007 -2.31466444e-007 -2.35521767e-007
      -2.43237793e-007 -2.47979159e-007 -2.56052743e-007
      -2.60445972e-007 -2.65129529e-007 -2.65707968e-007
      -2.68664223e-007 -2.74427691e-007 -2.78858153e-007
      -2.78900899e-007 -2.77776394e-007 -2.76428722e-007
      -2.73155820e-007 -2.62341104e-007 -2.53789295e-007
      -2.42023020e-007 -2.34278033e-007 -2.16391996e-007
      -2.07620474e-007 -1.96485772e-007 -1.82398551e-007
      -1.68673139e-007 -1.63599097e-007 -1.62305085e-007
      -1.60984285e-007 -1.68189075e-007 -1.70165578e-007
      -1.78950543e-007 -1.82387851e-007 -1.90603302e-007
      -1.97422452e-007 -2.06664680e-007 -2.09524742e-007
      -2.08675246e-007 -2.09673757e-007 -2.04892132e-007
      -2.06398525e-007 -2.13196401e-007 -2.24365635e-007
      -2.37349226e-007 -2.50860637e-007 -2.61563315e-007
      -2.79982146e-007 -3.05217611e-007 -3.28792510e-007
      -3.55836249e-007 -3.73190232e-007 -3.85470258e-007
      -3.93328293e-007 -3.97869826e-007 -3.99869464e-007
      -3.98514374e-007 -3.86642938e-007 -3.70963534e-007
      -3.51924399e-007 -3.35728060e-007 -3.22737321e-007
      -3.10396558e-007 -2.99642579e-007 -2.86969453e-007
      -2.73327288e-007 -2.65869261e-007 -2.63462908e-007
      -2.56889649e-007 -2.46724198e-007 -2.37072641e-007
      -2.31144327e-007 -2.19153023e-007 -2.14241894e-007
      -2.09640334e-007 -2.05856580e-007 -2.03032684e-007
      -1.99802031e-007 -1.97583773e-007 -1.95658558e-007
      -1.92908843e-007 -1.89944629e-007 -1.87361067e-007
      -1.79159869e-007 -1.73831651e-007 -1.74121411e-007
      -1.71601926e-007 -1.67404821e-007 -1.68587448e-007
      -1.68996081e-007 -1.74420094e-007 -1.77017128e-007
      -1.80868824e-007 -1.84701463e-007 -1.86733573e-007
      -1.86944817e-007 -1.91012546e-007 -1.93837138e-007
      -1.95791202e-007 -1.95734444e-007 -1.95044180e-007
      -1.96388797e-007 -1.97025003e-007 -2.01851137e-007
      -2.04026890e-007 -2.08421795e-007 -2.08417390e-007
      -2.11685787e-007 -2.11496115e-007 -2.16756277e-007
      -2.20451980e-007 -2.25401152e-007 -2.27831634e-007
      -2.25473542e-007 -2.23173444e-007 -2.21251298e-007
      -2.18590060e-007 -2.19892044e-007 -2.19930598e-007
      -2.23439187e-007 -2.24623207e-007 -2.26377708e-007
      -2.31590960e-007 -2.41828843e-007 -2.53925293e-007
      -2.68708106e-007 -2.83432939e-007 -2.95207144e-007
      -3.12020461e-007 -3.30892078e-007 -3.49052073e-007
      -3.62999401e-007 -3.74858729e-007 -3.85770392e-007
      -3.92761223e-007 -3.96522864e-007 -3.98523156e-007
      -3.99170773e-007 -3.92629318e-007 -3.77488021e-007
      -3.66793188e-007 -3.53754388e-007 -3.37628904e-007
      -3.19833873e-007 -2.97523457e-007 -2.76053498e-007
      -2.57943071e-007 -2.36580320e-007 -2.17304901e-007
      -1.97244134e-007 -1.76278633e-007 -1.51804173e-007
      -1.31295380e-007 -1.16172657e-007 -1.00529853e-007
      -8.94169148e-008 -7.92441526e-008 -7.43082893e-008
      -7.55768426e-008 -8.01002997e-008 -9.14771121e-008
      -1.11812263e-007 -1.37287046e-007 -1.58549383e-007
      -1.86342717e-007 -2.03865284e-007 -2.20988369e-007
      -2.35113021e-007 -2.49188531e-007 -2.60495682e-007
      -2.64912899e-007 -2.63590152e-007 -2.58902674e-007
      -2.48473214e-007 -2.40629220e-007 -2.41649815e-007 1.24417255e-007
      1.11473867e-007 9.96628486e-008 8.94852406e-008 8.22977952e-008
      7.98839608e-008 7.94510697e-008 8.05116613e-008 8.33661744e-008
      8.49550261e-008 9.32062534e-008 9.62362279e-008 9.94588021e-008
      1.01381396e-007 1.00020792e-007 9.72009815e-008 9.18387713e-008
      8.81171616e-008 8.80074040e-008 8.49677306e-008 8.42339318e-008
      8.99159431e-008 9.41278415e-008 9.71439675e-008 9.81547856e-008
      9.75072183e-008 1.03406869e-007 1.01888027e-007 1.01197671e-007
      1.02613242e-007 1.02524893e-007 1.00027954e-007 9.32690085e-008
      9.33528597e-008 9.33776008e-008 9.37611304e-008 9.34083388e-008
      9.50867474e-008 9.70906271e-008 9.52282306e-008 9.65198197e-008
      9.70702274e-008 9.80797381e-008 9.68408500e-008 1.02413523e-007
      9.78090142e-008 9.32642479e-008 9.65493570e-008 1.03083210e-007
      1.13969087e-007 1.23260151e-007 1.36052037e-007 1.59041264e-007
      1.80706365e-007 1.99740199e-007 2.28262010e-007 2.59001325e-007
      2.90079583e-007 3.22788566e-007 3.54223886e-007 3.83781270e-007
      4.04388942e-007 4.05320662e-007 3.96207355e-007 3.74498455e-007
      3.41288853e-007 3.04936805e-007 2.66739903e-007 2.21853114e-007
      1.73527667e-007 1.22838188e-007 7.39470281e-008 4.46618280e-008
      2.78925274e-008 1.57422644e-008 1.68773955e-008 1.93729210e-008
      1.99410159e-008 1.95957011e-008 2.57205084e-008 2.92700424e-008
      3.40806672e-008 3.55574024e-008 3.29641772e-008 3.35526202e-008
      3.27169580e-008 3.08257100e-008 2.54604871e-008 2.04376835e-008
      1.33401965e-008 7.17960447e-009 3.55804874e-009 -3.17178128e-009
      -7.40302042e-009 -1.26588313e-008 -2.16356479e-008
      -3.53975160e-008 -4.62059901e-008 -5.19978762e-008
      -6.28053485e-008 -7.48095133e-008 -8.43903507e-008
      -9.11953748e-008 -9.42976612e-008 -9.70855183e-008
      -9.69369367e-008 -9.56933590e-008 -1.00558999e-007
      -1.05741670e-007 -1.04228974e-007 -1.08302125e-007
      -1.18025667e-007 -1.37049668e-007 -1.59611773e-007
      -1.82935295e-007 -2.05009940e-007 -2.31054585e-007
      -2.46988861e-007 -2.59359553e-007 -2.71172041e-007
      -2.74301101e-007 -2.69473475e-007 -2.56204856e-007
      -2.43736366e-007 -2.27108956e-007 -2.11359080e-007
      -1.84753546e-007 -1.65915750e-007 -1.53396655e-007
      -1.42484083e-007 -1.31877343e-007 -1.19335681e-007
      -1.04947269e-007 -9.25128631e-008 -8.60096847e-008
      -8.06423444e-008 -7.43579065e-008 -6.69071625e-008
      -6.27053467e-008 -6.07964026e-008 -6.37252313e-008
      -6.56064643e-008 -7.50015232e-008 -8.47703703e-008
      -9.16057914e-008 -9.63484155e-008 -1.02360310e-007
      -1.05275909e-007 -1.08029212e-007 -1.08801075e-007
      -1.04552676e-007 -1.00070835e-007 -9.26373360e-008
      -8.30763938e-008 -7.67889219e-008 -8.12057905e-008
      -8.55827693e-008 -8.84123850e-008 -9.00837449e-008
      -9.00405368e-008 -9.00502712e-008 -9.52890531e-008
      -9.97351677e-008 -1.00839848e-007 -9.51177910e-008
      -9.16281095e-008 -8.71972858e-008 -8.97375969e-008
      -8.80527864e-008 -8.73387904e-008 -8.48339710e-008
      -7.96671316e-008 -7.52855911e-008 -7.43496571e-008
      -7.83981235e-008 -7.92528070e-008 -7.83669236e-008
      -7.43157145e-008 -6.95491025e-008 -6.50908660e-008
      -6.94605475e-008 -6.70522411e-008 -6.54448016e-008
      -6.19438012e-008 -5.88796354e-008 -5.81408699e-008
      -5.88418381e-008 -5.82380224e-008 -5.69959511e-008
      -6.18467126e-008 -5.83720450e-008 -5.72613885e-008
      -6.15294340e-008 -6.71122677e-008 -7.07347851e-008
      -7.17458732e-008 -7.19892981e-008 -8.05238400e-008
      -8.42385148e-008 -8.71609842e-008 -8.88426683e-008
      -8.90798262e-008 -8.75889299e-008 -8.63811138e-008
      -8.23974062e-008 -7.80597205e-008 -7.73002995e-008
      -7.05345897e-008 -6.95838409e-008 -6.75316514e-008
      -6.58710988e-008 -6.70474236e-008 -6.89044839e-008
      -7.31340464e-008 -7.74553470e-008 -8.08240372e-008
      -8.31342817e-008 -8.56988436e-008 -8.88419578e-008
      -9.38065412e-008 -1.01635166e-007 -1.13855627e-007
      -1.26061821e-007 -1.32152721e-007 -1.43614756e-007
      -1.59561907e-007 -1.73719712e-007 -1.85475926e-007
      -2.01371321e-007 -2.09861767e-007 -2.19753247e-007
      -2.25396477e-007 -2.28857687e-007 -2.28724275e-007
      -2.26533956e-007 -2.13755797e-007 -2.02137784e-007
      -1.76115037e-007 -1.51803022e-007 -1.22956664e-007
      -8.66259455e-008 -4.78197428e-008 -7.69415109e-009 3.60912686e-008
      7.36467456e-008 1.08197916e-007 1.30464230e-007 1.39118129e-007
