<?xml version="1.0"?>
<opencv_storage>
<my_svm type_id="opencv-ml-svm">
  <svm_type>C_SVC</svm_type>
  <kernel><type>LINEAR</type></kernel>
  <C>5.0000000000000000e-001</C>
  <term_criteria><epsilon>2.2204460492503131e-016</epsilon>
    <iterations>96</iterations></term_criteria>
  <var_all>60000</var_all>
  <var_count>60000</var_count>
  <class_count>2</class_count>
  <class_labels type_id="opencv-matrix">
    <rows>1</rows>
    <cols>2</cols>
    <dt>i</dt>
    <data>
      0 1</data></class_labels>
  <sv_total>1</sv_total>
  <support_vectors>
    <_>
      1.48781879e-007 1.57466275e-007 1.56318052e-007 1.60646039e-007
      1.69977838e-007 1.60123989e-007 1.44003948e-007 1.40308231e-007
      1.39712427e-007 1.37371629e-007 1.25763322e-007 1.09190097e-007
      1.05124229e-007 9.72022320e-008 8.49450714e-008 8.36966407e-008
      7.85548124e-008 6.88205972e-008 6.81744154e-008 6.27272527e-008
      6.17911056e-008 6.03760313e-008 5.67746810e-008 6.26066807e-008
      6.94657132e-008 7.34553893e-008 9.19558119e-008 1.02543154e-007
      1.07455136e-007 1.25500321e-007 1.41658575e-007 1.59787049e-007
      1.73207340e-007 1.85160289e-007 1.97907823e-007 2.02823102e-007
      2.00646454e-007 1.98663571e-007 2.02371425e-007 2.04632997e-007
      1.98662590e-007 2.00736565e-007 2.00513895e-007 1.90318858e-007
      1.87730919e-007 1.94211822e-007 1.97367740e-007 2.08885012e-007
      2.13400227e-007 2.04905206e-007 2.11005755e-007 2.16650292e-007
      2.30474200e-007 2.46298043e-007 2.52232155e-007 2.63678629e-007
      2.74816216e-007 2.99045098e-007 3.26130049e-007 3.53731366e-007
      3.74589973e-007 3.93770080e-007 3.94480764e-007 3.99775814e-007
      4.04218980e-007 3.97777342e-007 3.97135665e-007 3.81771258e-007
      3.61683362e-007 3.47099842e-007 3.31794155e-007 3.06835034e-007
      2.89543635e-007 2.70196836e-007 2.44347291e-007 2.28431020e-007
      2.11513765e-007 1.96405693e-007 1.82714700e-007 1.67760646e-007
      1.52330642e-007 1.42737534e-007 1.34538794e-007 1.28209962e-007
      1.23430866e-007 1.16874453e-007 1.17467948e-007 1.13875188e-007
      1.19706215e-007 1.28855831e-007 1.36979111e-007 1.56435249e-007
      1.78899583e-007 1.97603754e-007 2.28066753e-007 2.49899159e-007
      2.57646036e-007 2.58815277e-007 2.57164402e-007 2.55686075e-007
      2.46969336e-007 2.32234399e-007 2.09087915e-007 1.93808219e-007
      1.78338908e-007 1.67195495e-007 1.62418942e-007 1.67961218e-007
      1.68892427e-007 1.75777231e-007 1.91392630e-007 1.98290294e-007
      2.16513229e-007 2.20911232e-007 2.16431246e-007 2.10805766e-007
      1.91171637e-007 1.73213408e-007 1.53492081e-007 1.23425167e-007
      9.48144816e-008 7.22350890e-008 4.58486973e-008 4.05303666e-008
      3.43646001e-008 1.83719244e-008 2.31425297e-008 2.59556483e-008
      3.26029941e-008 4.52249367e-008 5.44372547e-008 6.80237733e-008
      7.79897817e-008 7.08371601e-008 6.91085376e-008 7.34447170e-008
      7.89154910e-008 7.89109649e-008 7.94574646e-008 7.81226177e-008
      7.21511597e-008 5.97095209e-008 4.63655354e-008 3.75153242e-008
      2.81452248e-008 2.85523214e-008 3.30626229e-008 4.30620268e-008
      5.46977859e-008 6.07681514e-008 6.94622315e-008 8.03881122e-008
      1.04422384e-007 1.19618988e-007 1.31917588e-007 1.33259860e-007
      1.26306531e-007 1.07340135e-007 8.94137528e-008 7.55099165e-008
      6.12968947e-008 3.88720878e-008 1.14174128e-008 -1.07644604e-008
      -1.95143084e-008 -3.01680458e-008 -3.22240190e-008
      -3.09925525e-008 -2.49187675e-008 -2.15868337e-008
      -1.47018389e-008 1.79375603e-009 2.11568167e-008 4.54471483e-008
      4.73203983e-008 4.79907172e-008 5.06654665e-008 5.43473142e-008
      5.46443779e-008 6.14457250e-008 6.13526154e-008 6.42233999e-008
      6.89366715e-008 7.17768174e-008 8.90046863e-008 1.01406116e-007
      1.06891363e-007 1.14282869e-007 1.15596279e-007 1.03696856e-007
      9.65597735e-008 8.46358716e-008 6.38374971e-008 4.30683258e-008
      1.17533192e-008 -1.03575157e-008 -3.48615039e-008 -5.64291227e-008
      -5.90629625e-008 -5.70774752e-008 -6.28024139e-008
      -6.63792719e-008 -5.88154094e-008 -4.55012987e-008
      -2.33679422e-008 -5.63163183e-010 2.90119164e-008 4.98048927e-008
      5.30512771e-008 6.58073631e-008 7.42636317e-008 8.11920913e-008
      8.94900225e-008 9.10088502e-008 9.12399045e-008 8.02193014e-008
      6.39780495e-008 5.41797256e-008 4.61954635e-008 4.45183801e-008
      4.69124899e-008 5.89398716e-008 6.06015718e-008 6.35641584e-008
      6.09726030e-008 6.67206592e-008 7.73471456e-008 8.31406695e-008
      8.13537255e-008 7.25130960e-008 6.56211228e-008 5.32946416e-008
      4.41281749e-008 2.91644362e-008 1.32574725e-008 -6.82164236e-009
      -2.62050364e-008 -3.43647919e-008 -4.73420876e-008
      -5.61684352e-008 -5.11562561e-008 -5.00620452e-008
      -4.53263702e-008 -3.90143953e-008 -2.86735400e-008
      -2.15182894e-008 -1.68352976e-008 -2.15085940e-008
      -1.09646727e-008 3.55779339e-009 7.83142262e-009 1.99784775e-008
      2.28199983e-008 3.40022943e-008 4.25312088e-008 6.59531167e-008
      9.12308806e-008 1.14354400e-007 1.35105097e-007 1.48801149e-007
      1.59848767e-007 1.62455038e-007 1.67882916e-007 1.72950564e-007
      1.67509327e-007 1.55594549e-007 1.46379065e-007 1.34908674e-007
      1.22423231e-007 1.03556218e-007 8.54874713e-008 6.27618206e-008
      4.20489314e-008 8.38319014e-009 -1.45475436e-008 -3.85305015e-008
      -5.94331659e-008 -7.63610686e-008 -8.93418246e-008
      -8.22458475e-008 -7.88206833e-008 -7.22520994e-008
      -6.26871852e-008 -4.05388043e-008 -2.16056399e-008
      -5.27587574e-009 1.39353098e-008 3.55139989e-008 5.81382409e-008
      6.64788828e-008 8.74619914e-008 9.54528332e-008 1.03006890e-007
      1.17814331e-007 1.33503420e-007 1.59044490e-007 1.85667062e-007
      2.12300250e-007 2.28301857e-007 2.41022548e-007 2.44613773e-007
      2.59592468e-007 2.68964556e-007 2.59482789e-007 2.52524472e-007
      2.41374210e-007 2.25263733e-007 2.04740815e-007 1.93942370e-007
      1.93743105e-007 1.92004777e-007 1.91635664e-007 1.94821595e-007
      1.94757448e-007 1.90223830e-007 1.79395826e-007 1.68009763e-007
      1.49543624e-007 1.23715637e-007 8.87818246e-008 6.64675994e-008
      6.12797137e-008 6.12930933e-008 7.70830226e-008 8.88990286e-008
      1.05349365e-007 1.26495550e-007 1.58586033e-007 1.98391092e-007
      2.31116644e-007 2.55860300e-007 2.55323698e-007 2.54472269e-007
      2.48830617e-007 2.43293158e-007 2.31095086e-007 2.10888601e-007
      1.86910640e-007 1.64177976e-007 1.56782946e-007 1.49170944e-007
      1.51018170e-007 1.42750139e-007 1.39314139e-007 1.32926459e-007
      1.39936148e-007 1.53514094e-007 1.67376939e-007 1.77934126e-007
      1.81395620e-007 1.82847074e-007 1.76329010e-007 1.76649294e-007
      1.79824269e-007 1.85016518e-007 1.81589343e-007 1.76756672e-007
      1.72690392e-007 1.67707938e-007 1.61050139e-007 1.55317949e-007
      1.58147586e-007 1.64360131e-007 1.54540402e-007 1.43233862e-007
      1.38714270e-007 1.31975497e-007 1.34095785e-007 1.39535871e-007
      1.47280545e-007 1.50452024e-007 1.55760048e-007 1.61942381e-007
      1.77044313e-007 1.91385396e-007 1.95616877e-007 2.01311224e-007
      1.98606259e-007 1.96631220e-007 2.00200361e-007 1.93774468e-007
      1.82076477e-007 1.74123613e-007 1.60764287e-007 1.48690603e-007
      1.46805831e-007 1.49156520e-007 1.60731744e-007 1.61288909e-007
      1.54697602e-007 1.64888277e-007 1.74508529e-007 1.72156348e-007
      1.79268696e-007 1.80917439e-007 1.86522826e-007 1.91734998e-007
      1.84788775e-007 1.90625968e-007 1.91755746e-007 1.89505798e-007
      1.81619768e-007 1.79015203e-007 1.69137039e-007 1.63978484e-007
      1.56005484e-007 1.47250475e-007 1.45278392e-007 1.40696969e-007
      1.43841518e-007 1.45157358e-007 1.41402566e-007 1.38661179e-007
      1.48569185e-007 1.56833806e-007 1.62624517e-007 1.68222627e-007
      1.64702556e-007 1.66856580e-007 1.68772445e-007 1.71067683e-007
      1.68409954e-007 1.68787707e-007 1.65031892e-007 1.55211211e-007
      1.49629159e-007 1.40422870e-007 1.38943960e-007 1.36528243e-007
      1.42075464e-007 1.44006734e-007 1.65773685e-007 1.78983370e-007
      1.86354455e-007 1.93309702e-007 2.00298089e-007 2.03564625e-007
      2.04900772e-007 2.02761541e-007 1.94431806e-007 2.01984648e-007
      1.95139137e-007 1.89532258e-007 1.93359895e-007 2.07190510e-007
      2.06463199e-007 2.13378783e-007 2.18862098e-007 2.16675559e-007
      2.16192603e-007 1.99013513e-007 1.80826234e-007 1.61781401e-007
      1.40906877e-007 1.12644948e-007 9.06078341e-008 6.10591400e-008
      3.27322027e-008 7.06326908e-009 -1.83328819e-008 -4.06823872e-008
      -5.10469604e-008 -3.53686715e-008 -2.44631568e-008
      -8.50647108e-009 1.73486931e-008 4.86017129e-008 8.02980296e-008
      1.08726248e-007 1.40202488e-007 1.64807176e-007 1.83267431e-007
      1.94839657e-007 2.06866389e-007 2.13588265e-007 2.10262641e-007
      2.05174089e-007 2.00679963e-007 1.99090692e-007 1.92347798e-007
      1.79485809e-007 1.64074692e-007 1.45179612e-007 1.23337855e-007
      1.01526680e-007 8.94921257e-008 9.36673388e-008 1.01745236e-007
      1.05315010e-007 1.06908871e-007 1.14200390e-007 1.21876667e-007
      1.11677934e-007 1.06363885e-007 1.07447541e-007 1.12451218e-007
      1.06458899e-007 9.33568458e-008 8.22389481e-008 7.66850263e-008
      6.78448657e-008 6.10783530e-008 5.82178643e-008 5.59166793e-008
      4.61398528e-008 3.58032501e-008 2.71744511e-008 2.45868392e-008
      2.26200498e-008 1.63096594e-008 1.71282490e-008 1.18398722e-008
      1.36384228e-008 2.04843378e-008 3.30003722e-008 4.00535178e-008
      4.88766219e-008 6.09735196e-008 7.94202748e-008 9.74596261e-008
      1.11927129e-007 1.29272522e-007 1.38762260e-007 1.36434096e-007
      1.33327632e-007 1.28349271e-007 1.21053304e-007 1.07094529e-007
      7.86936099e-008 5.70436143e-008 3.34225625e-008 2.00388950e-008
      1.03149267e-008 1.64008174e-009 -1.47899737e-009 1.45651602e-009
      -3.30142114e-009 -9.88494175e-009 -5.78845460e-009
      -3.74027698e-009 6.92499746e-009 8.18820123e-009 5.09281550e-009
      5.87808469e-009 -2.67964073e-009 -1.07634293e-008 -1.05155200e-008
      -4.44218839e-009 5.88927707e-009 2.13445506e-009 -8.28138091e-009
      -6.34202513e-009 -8.08469114e-009 -1.11625456e-008
      -1.36388518e-008 -9.35781763e-009 -1.52948587e-008
      -4.40328796e-009 -6.62489397e-009 4.30866542e-009 1.54131801e-008
      2.04481054e-008 3.38718316e-008 5.20261700e-008 7.12215353e-008
      8.43153884e-008 1.06862316e-007 1.14899954e-007 1.22753136e-007
      1.39331604e-007 1.49990456e-007 1.50435767e-007 1.49035998e-007
      1.56896334e-007 1.59016693e-007 1.53312300e-007 1.43697036e-007
      1.38039098e-007 1.30695284e-007 1.03937488e-007 8.45913632e-008
      7.11949824e-008 6.13721838e-008 5.16385015e-008 6.15926865e-008
      8.01938640e-008 9.99490055e-008 1.19216608e-007 1.43428394e-007
      1.85080467e-007 2.24375924e-007 2.57180488e-007 2.85648838e-007
      3.04983018e-007 3.13678612e-007 3.13650588e-007 3.16624835e-007
      3.13902206e-007 3.03914646e-007 2.92883726e-007 2.84062338e-007
      2.68320406e-007 2.50287513e-007 2.38962969e-007 2.22081169e-007
      2.20764790e-007 2.07490302e-007 1.99440649e-007 1.96567782e-007
      1.85492624e-007 1.78527287e-007 1.67782616e-007 1.58134199e-007
      1.54140707e-007 1.49284645e-007 1.38713204e-007 1.34550589e-007
      1.26101085e-007 1.07406258e-007 9.52119237e-008 9.08935931e-008
      9.52312504e-008 1.04515294e-007 1.10682336e-007 1.13604465e-007
      1.19455521e-007 1.27980087e-007 1.35200025e-007 1.54435270e-007
      1.59074602e-007 1.55609044e-007 1.52669742e-007 1.54530767e-007
      1.56982338e-007 1.55657048e-007 1.51694124e-007 1.50471308e-007
      1.46105634e-007 1.52943997e-007 1.68708340e-007 1.85845522e-007
      2.07885705e-007 2.23629939e-007 2.39900345e-007 2.54846384e-007
      2.66767643e-007 2.74855921e-007 2.82649296e-007 2.74605043e-007
      2.63528392e-007 2.53022478e-007 2.40727644e-007 2.30288279e-007
      2.11459323e-007 1.98678848e-007 1.99162159e-007 1.90484982e-007
      1.79419573e-007 1.82609867e-007 1.89534859e-007 1.99825834e-007
      1.97633014e-007 1.87322087e-007 1.88692013e-007 1.76236711e-007
      1.56482812e-007 1.52046027e-007 1.53192516e-007 1.44030139e-007
      1.35118427e-007 1.32982663e-007 1.31899881e-007 1.41102319e-007
      1.56362745e-007 1.79788557e-007 2.01950670e-007 2.13858073e-007
      2.29969203e-007 2.29031571e-007 2.25305399e-007 2.05495439e-007
      1.94433895e-007 1.81489796e-007 1.56934433e-007 1.38613473e-007
      1.17102594e-007 1.06836957e-007 9.79457226e-008 1.05719565e-007
      1.12823983e-007 1.31205979e-007 1.43516871e-007 1.53611921e-007
      1.74665132e-007 1.96881714e-007 2.19883717e-007 2.32231216e-007
      2.34732454e-007 2.43712151e-007 2.50836223e-007 2.57600334e-007
      2.58823178e-007 2.55342457e-007 2.50599470e-007 2.35016373e-007
      2.18086328e-007 2.05745323e-007 1.92044283e-007 1.78294925e-007
      1.65683758e-007 1.49376987e-007 1.31930662e-007 1.25140673e-007
      1.21492604e-007 1.29344954e-007 1.28718156e-007 1.31636583e-007
      1.23070620e-007 1.16740374e-007 1.15768081e-007 1.12600418e-007
      1.18459269e-007 1.20918585e-007 1.17893997e-007 1.14771694e-007
      1.11379748e-007 9.96682417e-008 9.65417399e-008 8.85250273e-008
      8.39293861e-008 7.32471506e-008 5.71376901e-008 4.01610158e-008
      2.89217681e-008 1.72135266e-008 1.12256009e-008 9.84818982e-009
      1.30679698e-008 2.03993533e-008 2.27282193e-008 3.32664492e-008
      5.33416511e-008 7.14518507e-008 7.55139808e-008 6.93196398e-008
      7.30794483e-008 6.71324187e-008 4.92039689e-008 3.37343984e-008
      2.20359730e-008 6.74907774e-009 -1.31480933e-008 -3.84487500e-008
      -4.77761297e-008 -4.33040945e-008 -5.01603985e-008
      -5.22251611e-008 -4.76378688e-008 -4.73809862e-008
      -4.14052650e-008 -3.10815551e-008 -1.65796052e-008 1.25470683e-008
      2.55380037e-008 3.91728179e-008 6.76408760e-008 9.89645557e-008
      1.28258378e-007 1.57503848e-007 1.81228557e-007 2.03453709e-007
      2.12787995e-007 2.16819473e-007 2.24741584e-007 2.23832188e-007
      2.14118330e-007 2.08874482e-007 2.00712506e-007 1.93565938e-007
      1.86393777e-007 1.84641848e-007 1.92226068e-007 1.99018672e-007
      2.13780112e-007 2.22038750e-007 2.40112854e-007 2.58614449e-007
      2.73657605e-007 2.87133076e-007 2.93465746e-007 2.97840927e-007
      2.94003968e-007 2.82571875e-007 2.71788196e-007 2.62634217e-007
      2.43884557e-007 2.12472287e-007 1.83348774e-007 1.63695162e-007
      1.47477152e-007 1.31192962e-007 1.24292114e-007 1.16408870e-007
      1.02033638e-007 1.04798005e-007 1.03349400e-007 1.18454295e-007
      1.30208733e-007 1.36311755e-007 1.42936386e-007 1.54129808e-007
      1.53654270e-007 1.54987092e-007 1.62012412e-007 1.63144676e-007
      1.60650217e-007 1.41000356e-007 1.37028849e-007 1.39056468e-007
      1.46280541e-007 1.45380227e-007 1.44370276e-007 1.44949169e-007
      1.39172116e-007 1.40458653e-007 1.49489125e-007 1.63211652e-007
      1.67492132e-007 1.66299529e-007 1.59060463e-007 1.56206696e-007
      1.53903287e-007 1.60749096e-007 1.57893950e-007 1.39356729e-007
      1.23353814e-007 1.07594957e-007 8.71203980e-008 6.52963266e-008
      4.40668266e-008 2.30406751e-008 5.18786436e-009 -1.91842027e-008
      -4.01482225e-008 -5.46592709e-008 -6.35704254e-008
      -7.15175261e-008 -7.00588316e-008 -7.27819298e-008
      -7.68861170e-008 -7.89388963e-008 -7.57474936e-008
      -7.23237292e-008 -5.60953097e-008 -3.01533447e-008
      -1.53694035e-008 9.11990750e-009 2.55470383e-008 6.08331092e-008
      9.34089996e-008 1.21377894e-007 1.47476825e-007 1.78665459e-007
      2.02002525e-007 2.14493198e-007 2.35498931e-007 2.52320859e-007
      2.62625861e-007 2.70207181e-007 2.88608476e-007 3.03332627e-007
      3.17357944e-007 3.22918993e-007 3.27654078e-007 3.32169719e-007
      3.22842141e-007 3.17186618e-007 3.07182574e-007 2.86554183e-007
      2.47302864e-007 2.10704314e-007 1.82854038e-007 1.63133095e-007
      1.58060658e-007 1.51785571e-007 1.55548960e-007 1.59069430e-007
      1.66516514e-007 1.79438331e-007 1.99126902e-007 2.22688257e-007
      2.33212916e-007 2.32742821e-007 2.25732933e-007 2.24465367e-007
      2.14920604e-007 2.02523395e-007 1.91091459e-007 1.79581122e-007
      1.62390066e-007 1.45285441e-007 1.34150000e-007 1.41443806e-007
      1.47662490e-007 1.48248873e-007 1.56244070e-007 1.63938424e-007
      1.67450963e-007 1.72133213e-007 1.80300546e-007 1.82406112e-007
      1.71167216e-007 1.50681714e-007 1.37444616e-007 1.38059818e-007
      1.32593271e-007 1.25264904e-007 1.26767645e-007 1.25990283e-007
      1.27077271e-007 1.34824717e-007 1.55105695e-007 1.69445954e-007
      1.80744649e-007 1.77266230e-007 1.82528396e-007 1.91135001e-007
      1.93725910e-007 1.99038169e-007 1.97724617e-007 1.89309958e-007
      1.84807377e-007 1.79976325e-007 1.78001827e-007 1.75798121e-007
      1.73394639e-007 1.68698406e-007 1.64450299e-007 1.58826964e-007
      1.63336324e-007 1.75856187e-007 1.79004928e-007 1.78335270e-007
      1.76886985e-007 1.75429761e-007 1.68638962e-007 1.59864371e-007
      1.48098394e-007 1.43447096e-007 1.24332658e-007 1.01810642e-007
      8.40307735e-008 7.13543713e-008 6.38192432e-008 5.20741921e-008
      3.49521230e-008 1.63224296e-008 1.39084699e-008 7.62970220e-009
      1.02263575e-008 1.32862725e-008 2.60266209e-008 3.77681033e-008
      4.62480507e-008 6.39326174e-008 9.90777593e-008 1.34327934e-007
      1.64271853e-007 1.85624359e-007 2.15776282e-007 2.38086159e-007
      2.51280596e-007 2.74286464e-007 2.92992212e-007 2.98989079e-007
      2.97138257e-007 2.99534548e-007 2.98415074e-007 3.05709818e-007
      3.07105921e-007 2.98671011e-007 2.98066311e-007 2.89911725e-007
      2.78858181e-007 2.77188036e-007 2.85088788e-007 2.86074140e-007
      2.91648377e-007 2.88788470e-007 2.95661835e-007 3.10514991e-007
      3.25221350e-007 3.34606369e-007 3.50533583e-007 3.73659901e-007
      3.89664024e-007 4.02353209e-007 4.06424419e-007 4.07496401e-007
      4.14172206e-007 4.16276094e-007 4.11780235e-007 4.09697577e-007
      4.08164993e-007 3.84900488e-007 3.68703923e-007 3.57233517e-007
      3.44707985e-007 3.41412772e-007 3.29525221e-007 3.29822427e-007
      3.27990278e-007 3.22435454e-007 3.23779972e-007 3.29382630e-007
      3.26652241e-007 3.24279597e-007 3.18910168e-007 3.13999806e-007
      3.06930758e-007 3.04417000e-007 3.00598032e-007 2.94742165e-007
      2.84153401e-007 2.74325487e-007 2.64938791e-007 2.50637328e-007
      2.38664114e-007 2.33316527e-007 2.24958683e-007 2.11164760e-007
      1.97696707e-007 1.77409518e-007 1.68495220e-007 1.60998709e-007
      1.53923096e-007 1.54464502e-007 1.65424467e-007 1.66128714e-007
      1.61847410e-007 1.58922646e-007 1.66065647e-007 1.79264376e-007
      1.87462859e-007 1.92928098e-007 1.94253801e-007 1.95877831e-007
      1.91161490e-007 1.79660233e-007 1.69399343e-007 1.34191041e-007
      7.86464085e-008 2.89258963e-008 -1.72466113e-008 -5.68575480e-008
      -8.02416906e-008 -1.01277095e-007 -1.19167737e-007
      -1.31078409e-007 -1.28346429e-007 -1.04261495e-007
      -6.37217497e-008 -3.31984644e-008 -1.66610215e-009 2.55465231e-008
      4.31713190e-008 5.47094672e-008 6.77006327e-008 8.42308125e-008
      9.64625713e-008 1.11047974e-007 1.22105689e-007 1.40852336e-007
      1.60339312e-007 1.75053003e-007 1.88343364e-007 2.14067484e-007
      2.44200038e-007 2.63503836e-007 2.79563039e-007 2.89412299e-007
      2.93626840e-007 2.96687034e-007 2.94118735e-007 2.88509597e-007
      2.79034367e-007 2.59139540e-007 2.35445967e-007 2.04495720e-007
      1.80133924e-007 1.53248209e-007 1.28157765e-007 1.03155934e-007
      7.48746771e-008 5.71245060e-008 4.99726553e-008 4.97602244e-008
      5.17686551e-008 5.92840834e-008 6.46624727e-008 7.33331689e-008
      8.28547044e-008 9.16912200e-008 1.03678545e-007 1.09220828e-007
      1.09211427e-007 9.86700428e-008 8.40807317e-008 7.63552421e-008
      7.76568498e-008 7.29323730e-008 7.48862519e-008 7.84918086e-008
      8.52724327e-008 9.72460867e-008 1.06960300e-007 1.26976644e-007
      1.39358875e-007 1.55276510e-007 1.67722987e-007 1.79325369e-007
      1.93982359e-007 2.18418208e-007 2.38734088e-007 2.61246612e-007
      2.88371382e-007 3.13249501e-007 3.47506557e-007 3.67529708e-007
      3.85227565e-007 4.15471106e-007 4.36270483e-007 4.44893089e-007
      4.41754082e-007 4.33606147e-007 4.26644675e-007 4.22615017e-007
      4.10715131e-007 4.06249825e-007 4.02775186e-007 3.85074031e-007
      3.73799310e-007 3.71397221e-007 3.68409957e-007 3.71575766e-007
      3.70237359e-007 3.64928439e-007 3.61260845e-007 3.59349286e-007
      3.53806115e-007 3.51822109e-007 3.51229318e-007 3.39075569e-007
      3.40500605e-007 3.36653386e-007 3.37441861e-007 3.46614939e-007
      3.49410584e-007 3.50086339e-007 3.49659416e-007 3.48751882e-007
      3.57150640e-007 3.65559941e-007 3.70563413e-007 3.79731318e-007
      3.90051525e-007 3.99734262e-007 4.03061563e-007 4.03871923e-007
      4.01592814e-007 3.87804903e-007 3.64866025e-007 3.52726488e-007
      3.35259216e-007 3.18309418e-007 2.98550390e-007 2.69714974e-007
      2.47257503e-007 2.32430011e-007 2.18625985e-007 2.10717886e-007
      1.96122372e-007 1.76580727e-007 1.46314378e-007 1.10241814e-007
      7.05287349e-008 4.60413219e-008 2.79778600e-008 4.88974550e-009
      -1.82305513e-008 -4.75517083e-008 -7.04960144e-008
      -8.52743014e-008 -9.13436153e-008 -8.70911308e-008
      -8.13346190e-008 -7.90592054e-008 -7.75577291e-008
      -7.56693410e-008 -6.62326869e-008 -4.17280752e-008
      -2.33706192e-008 -1.10563487e-008 8.31037461e-009 1.88292884e-008
      2.89175048e-008 3.38042838e-008 3.83617937e-008 4.50245778e-008
      4.80472480e-008 4.25992113e-008 3.84597811e-008 3.32720838e-008
      3.19953735e-008 3.36739774e-008 2.63425335e-008 3.32629639e-008
      4.28857376e-008 4.65321719e-008 4.73870259e-008 4.66497454e-008
      5.61223850e-008 5.85735123e-008 5.94014331e-008 5.19801411e-008
      5.64749456e-008 4.73928026e-008 3.74982356e-008 2.97644203e-008
      3.66893644e-008 3.57250798e-008 3.50481670e-008 3.89478778e-008
      4.04588114e-008 5.63215146e-008 6.13431439e-008 6.28690842e-008
      6.87567834e-008 8.19973849e-008 7.77489646e-008 9.03054271e-008
      9.42960838e-008 8.77631763e-008 7.84675080e-008 6.44852207e-008
      6.37805968e-008 6.21193479e-008 5.98032983e-008 5.19744141e-008
      6.05692136e-008 5.86769922e-008 6.63611246e-008 8.64441461e-008
      1.08201561e-007 1.33700809e-007 1.56559068e-007 1.72987384e-007
      1.95305205e-007 2.16486526e-007 2.35798112e-007 2.61185420e-007
      2.77365473e-007 2.94654512e-007 3.09389975e-007 3.14068103e-007
      3.23796002e-007 3.42128658e-007 3.56145591e-007 3.64059872e-007
      3.63754481e-007 3.53293728e-007 3.45878732e-007 3.35846124e-007
      3.11531693e-007 2.97134164e-007 2.77578579e-007 2.50268727e-007
      2.18672540e-007 2.01399516e-007 1.92147411e-007 1.89225375e-007
      1.80444800e-007 1.71630674e-007 1.70665160e-007 1.60579503e-007
      1.47902298e-007 1.38993158e-007 1.45619452e-007 1.43814290e-007
      1.39295352e-007 1.28829356e-007 1.26877282e-007 1.25005684e-007
      1.32236039e-007 1.39797891e-007 1.49490589e-007 1.58124990e-007
      1.66610036e-007 1.73744908e-007 1.81735743e-007 2.00858537e-007
      2.05025898e-007 2.07758859e-007 2.08210380e-007 2.10123304e-007
      2.10684846e-007 2.11347540e-007 2.02018526e-007 1.99984754e-007
      1.96802944e-007 1.88946359e-007 1.85906885e-007 1.84460987e-007
      1.77777935e-007 1.67459859e-007 1.54601281e-007 1.44293239e-007
      1.43263435e-007 1.28580012e-007 1.14996531e-007 1.08418568e-007
      9.32671256e-008 8.41695496e-008 7.50026530e-008 6.22376390e-008
      4.96055748e-008 3.60500110e-008 2.36567725e-008 1.59520201e-008
      7.91591770e-009 -5.09375520e-009 -1.10049436e-008 -1.71587988e-008
      -1.84312139e-008 -1.31849536e-008 -1.25580089e-008
      -7.89981147e-009 -1.37367076e-010 1.22682158e-008 1.65033871e-008
      2.75628818e-008 3.69809712e-008 5.01340303e-008 6.41606590e-008
      8.13059984e-008 9.88129756e-008 1.13027482e-007 1.11026139e-007
      1.06204908e-007 1.11465774e-007 1.02441199e-007 8.05678084e-008
      5.68778802e-008 2.20135448e-008 -1.47134775e-008 -4.54091591e-008
      -9.15180465e-008 -1.21412441e-007 -1.46150768e-007
      -1.72485940e-007 -1.93732220e-007 -2.03962173e-007
      -2.09795232e-007 -2.02174718e-007 -1.85798797e-007
      -1.70318245e-007 -1.47506896e-007 -1.32587829e-007
      -1.11170678e-007 -8.62285034e-008 -6.36016182e-008
      -4.91853420e-008 -4.11590690e-008 -3.61595660e-008
      -3.53452023e-008 -3.03032763e-008 -1.64089897e-008
      -3.55557050e-009 -7.77092612e-009 -1.91726830e-008
      -2.35414888e-008 -3.04183025e-008 -3.57647423e-008
      -3.89029466e-008 -3.55824064e-008 -3.27564429e-008
      -1.64215042e-008 1.93005834e-009 4.06098266e-008 7.15418551e-008
      1.06738895e-007 1.47920758e-007 2.03110019e-007 2.67496659e-007
      3.09458045e-007 3.47216343e-007 3.80042167e-007 3.93106603e-007
      3.89370939e-007 3.81605560e-007 3.65771314e-007 3.51157297e-007
      3.16520271e-007 2.68156128e-007 2.25564932e-007 1.91430374e-007
      1.49325132e-007 1.22387902e-007 1.04180565e-007 9.18545666e-008
      8.20951414e-008 8.11338552e-008 7.43252997e-008 6.17665137e-008
      5.09138509e-008 2.50809578e-008 4.33724789e-009 -1.72861530e-008
      -4.57156020e-008 -6.31697432e-008 -7.77580240e-008
      -1.00263570e-007 -1.06446912e-007 -9.75030616e-008
      -8.19776034e-008 -6.08605291e-008 -2.80686674e-008 6.85021817e-009
      4.21704556e-008 7.74931763e-008 1.17185010e-007 1.64706492e-007
      2.05584854e-007 2.24226497e-007 2.48689872e-007 2.67283781e-007
      2.65336297e-007 2.50649492e-007 2.34791329e-007 2.18298098e-007
      1.91469766e-007 1.60798180e-007 1.26864037e-007 1.12860967e-007
      9.03165756e-008 6.83048498e-008 4.88515433e-008 4.27785096e-008
      4.05201348e-008 4.55243878e-008 6.12825417e-008 7.54361551e-008
      9.50615942e-008 1.07368393e-007 1.24123005e-007 1.59835736e-007
      1.98351231e-007 2.37474936e-007 2.70971981e-007 2.94710276e-007
      3.05389250e-007 3.17566787e-007 3.33652991e-007 3.40334935e-007
      3.38953043e-007 3.23402361e-007 3.09588046e-007 2.94276390e-007
      2.82528418e-007 2.72811747e-007 2.65755403e-007 2.59362565e-007
      2.55628436e-007 2.63104084e-007 2.61721453e-007 2.59389338e-007
      2.70920566e-007 2.79690738e-007 2.87545845e-007 2.95100023e-007
      3.00418435e-007 3.03472746e-007 3.03493749e-007 3.02454055e-007
      3.08594821e-007 3.22287178e-007 3.15805750e-007 3.05715872e-007
      2.92083854e-007 2.74746753e-007 2.59491628e-007 2.49032723e-007
      2.26564822e-007 2.02964998e-007 1.81823268e-007 1.51472449e-007
      1.30377302e-007 1.13911831e-007 1.08282784e-007 9.80433867e-008
      9.67162350e-008 8.71156089e-008 9.17732663e-008 8.62571312e-008
      8.35238083e-008 8.83836719e-008 9.08645390e-008 8.82028957e-008
      8.44956816e-008 8.85720723e-008 8.86257610e-008 8.55028617e-008
      8.68882495e-008 9.31195530e-008 9.71667973e-008 1.08238929e-007
      1.27438014e-007 1.38209160e-007 1.50200705e-007 1.52218817e-007
      1.48996492e-007 1.48911838e-007 1.46240538e-007 1.50578643e-007
      1.46705446e-007 1.33022212e-007 1.26504233e-007 1.13361772e-007
      9.08275197e-008 7.38642925e-008 6.71002596e-008 6.59649331e-008
      6.29198951e-008 5.42904957e-008 4.23780797e-008 3.86217849e-008
      2.87856121e-008 2.96007610e-008 4.03141378e-008 5.08631111e-008
      5.34199174e-008 5.42398091e-008 6.71403484e-008 7.74508990e-008
      8.42791508e-008 7.95080339e-008 7.44488560e-008 7.04615033e-008
      6.23906118e-008 5.46380683e-008 5.26488790e-008 4.63704453e-008
      2.14078870e-008 -4.78355633e-010 -1.47235664e-008 -3.09093053e-008
      -4.36654375e-008 -5.66402001e-008 -6.78112855e-008
      -7.58099645e-008 -8.18565482e-008 -8.52597353e-008
      -8.62194440e-008 -7.46067670e-008 -6.51906973e-008
      -5.56652822e-008 -5.04446156e-008 -4.16263397e-008
      -3.51489113e-008 -2.09153352e-008 -1.04952296e-008
      -1.05522613e-008 -3.24196503e-010 1.23048360e-009 2.33547115e-009
      2.84892732e-009 6.29768593e-009 1.53428310e-008 2.78683867e-008
      2.77725363e-008 3.72895066e-008 5.36409992e-008 5.95451937e-008
      6.56523298e-008 7.87594914e-008 9.15253580e-008 1.05635323e-007
      1.17107795e-007 1.20253205e-007 1.30793310e-007 1.40050631e-007
      1.48418820e-007 1.65785821e-007 1.81946291e-007 1.86875269e-007
      1.97541283e-007 2.10789892e-007 2.18487642e-007 2.21798260e-007
      2.27480342e-007 2.24849686e-007 2.26226817e-007 2.21886694e-007
      2.16359467e-007 2.16296016e-007 2.05734437e-007 1.90839373e-007
      1.85951620e-007 1.76117879e-007 1.69037136e-007 1.54401192e-007
      1.37798452e-007 1.16930529e-007 1.01673557e-007 8.70800321e-008
      9.14785048e-008 1.03897285e-007 1.10346392e-007 1.12354904e-007
      1.15436755e-007 1.30290289e-007 1.29176001e-007 1.47282904e-007
      1.59062637e-007 1.71171223e-007 1.68352116e-007 1.51919480e-007
      1.46483828e-007 1.45306828e-007 1.45635880e-007 1.40191560e-007
      1.42509336e-007 1.32181185e-007 1.25901821e-007 1.15084390e-007
      1.16813723e-007 1.17107717e-007 1.07157199e-007 9.30273742e-008
      8.00060675e-008 6.93250968e-008 5.03017894e-008 3.29831806e-008
      1.52986526e-010 -2.42442706e-008 -6.50313083e-008 -9.90755993e-008
      -1.25486125e-007 -1.45483739e-007 -1.66210882e-007
      -1.77138062e-007 -1.77064308e-007 -1.70898730e-007
      -1.64923463e-007 -1.50183141e-007 -1.20130778e-007
      -9.93500748e-008 -7.76116380e-008 -6.09353847e-008
      -4.31712692e-008 -3.38260904e-008 -2.42099638e-008
      -1.47336783e-008 4.51397231e-009 3.21558424e-009 -3.59661434e-009
      -1.16952883e-008 -7.18144388e-009 -7.15216819e-009
      -4.74688866e-009 7.12171966e-009 2.18027072e-008 3.64110058e-008
      5.31278133e-008 7.44104938e-008 9.11346945e-008 1.15991618e-007
      1.27041972e-007 1.50686517e-007 1.63574811e-007 1.65631434e-007
      1.59298835e-007 1.53360034e-007 1.41430235e-007 1.41285142e-007
      1.53952911e-007 1.63593668e-007 1.72247482e-007 1.81607575e-007
      1.96114655e-007 2.02667991e-007 2.10575806e-007 2.20413014e-007
      2.29525199e-007 2.38249228e-007 2.40129594e-007 2.38690404e-007
      2.37222864e-007 2.37582540e-007 2.37713948e-007 2.35549493e-007
      2.32275625e-007 2.29590910e-007 2.32018891e-007 2.36116847e-007
      2.42543535e-007 2.43808046e-007 2.50935983e-007 2.54557165e-007
      2.55594188e-007 2.50739078e-007 2.50294875e-007 2.50489052e-007
      2.50493770e-007 2.44020356e-007 2.26552501e-007 2.16200291e-007
      1.97404248e-007 1.85860927e-007 1.63411215e-007 1.57154091e-007
      1.41714793e-007 1.24918984e-007 1.08163945e-007 9.85415056e-008
      1.07574714e-007 1.20172587e-007 1.30828056e-007 1.39261104e-007
      1.53320855e-007 1.57203885e-007 1.68567169e-007 1.76176997e-007
      1.83236722e-007 1.88711567e-007 1.87076935e-007 1.82109645e-007
      1.79782091e-007 1.75051298e-007 1.64513210e-007 1.63414384e-007
      1.66268904e-007 1.65289308e-007 1.62426417e-007 1.60371229e-007
      1.52331282e-007 1.52778526e-007 1.57018420e-007 1.56681025e-007
      1.63630290e-007 1.62789334e-007 1.59303951e-007 1.58362369e-007
      1.56952353e-007 1.48530404e-007 1.48140785e-007 1.45325060e-007
      1.45393599e-007 1.52821002e-007 1.45824501e-007 1.57323555e-007
      1.73194024e-007 1.86998918e-007 2.05578615e-007 2.22126729e-007
      2.37144334e-007 2.53731145e-007 2.56373170e-007 2.42981884e-007
      2.33618778e-007 2.13909487e-007 1.88689782e-007 1.61013645e-007
      1.38656802e-007 1.15295421e-007 9.85501245e-008 8.06966867e-008
      6.16922264e-008 6.01253873e-008 6.10584081e-008 6.23847427e-008
      6.67713138e-008 6.90660613e-008 6.65677362e-008 6.62623663e-008
      6.20302316e-008 5.41285026e-008 5.79238311e-008 6.00659007e-008
      6.79914720e-008 7.29108436e-008 7.27063494e-008 8.46042880e-008
      1.04793109e-007 1.17013840e-007 1.37065442e-007 1.64764444e-007
      1.88896095e-007 2.12411578e-007 2.26799855e-007 2.48057233e-007
      2.71538738e-007 2.89064189e-007 2.98441051e-007 3.04819309e-007
      3.03802295e-007 2.97780787e-007 2.83665969e-007 2.66600466e-007
      2.57219682e-007 2.44411098e-007 2.20452080e-007 2.05559601e-007
      1.88874239e-007 1.75826600e-007 1.68568860e-007 1.58779173e-007
      1.52162386e-007 1.51393010e-007 1.52993636e-007 1.50473980e-007
      1.54382874e-007 1.55526976e-007 1.51452340e-007 1.57920979e-007
      1.60036734e-007 1.58510801e-007 1.54736171e-007 1.49147780e-007
      1.40327828e-007 1.32176268e-007 1.25044679e-007 1.14956229e-007
      1.10942366e-007 9.95377363e-008 9.51374233e-008 9.93962601e-008
      9.86161908e-008 9.74030243e-008 9.67274971e-008 9.64735136e-008
      9.95099683e-008 1.02924439e-007 9.81174537e-008 9.63103304e-008
      8.05983333e-008 6.31241619e-008 3.94805788e-008 2.85231216e-008
      1.85222628e-008 7.64982477e-009 -4.90250596e-009 -1.31399265e-008
      -2.43307028e-008 -2.91383593e-008 -2.89401250e-008
      -2.82580341e-008 -2.71281788e-008 -2.30978401e-008
      -2.60129998e-008 -1.71606001e-008 -1.86353439e-008
      -2.31951383e-008 -1.05310551e-008 -5.86991611e-009
      -2.41116060e-009 5.80941473e-009 1.28851871e-008 1.68836323e-008
      3.06457579e-008 3.60746704e-008 5.53233725e-008 6.36115729e-008
      6.57700312e-008 6.99426792e-008 8.13613070e-008 9.14024056e-008
      9.09389044e-008 9.17189027e-008 9.22478236e-008 1.02648379e-007
      1.05344867e-007 1.04959724e-007 1.05864537e-007 1.13706328e-007
      1.17176448e-007 1.10576408e-007 1.18402042e-007 1.22213592e-007
      1.19643559e-007 1.09239515e-007 1.07348029e-007 1.17597281e-007
      1.19194617e-007 1.16773585e-007 1.13276833e-007 1.13728191e-007
      1.04000129e-007 9.85735156e-008 9.83604878e-008 9.52438768e-008
      9.43120426e-008 7.82514107e-008 7.32066638e-008 7.10654859e-008
      6.17006748e-008 5.07852036e-008 4.74030273e-008 4.57406344e-008
      3.45405873e-008 2.58547672e-008 1.74480661e-008 1.79200477e-008
      1.72208665e-008 1.50098955e-008 1.54555284e-008 3.26736256e-008
      4.67443897e-008 6.40079989e-008 7.79753790e-008 9.81126860e-008
      1.16696832e-007 1.39892535e-007 1.58007254e-007 1.76246942e-007
      1.93657002e-007 2.05198205e-007 2.14320949e-007 2.14129855e-007
      2.22661583e-007 2.27414873e-007 2.33415562e-007 2.40574025e-007
      2.47927574e-007 2.43834421e-007 2.42708694e-007 2.38953362e-007
      2.37216341e-007 2.31865130e-007 2.26147023e-007 2.12205691e-007
      2.00818008e-007 1.77271730e-007 1.66990276e-007 1.59314382e-007
      1.41981047e-007 1.26736637e-007 1.22196283e-007 1.10195337e-007
      1.01015623e-007 1.00011206e-007 9.12141402e-008 9.24729591e-008
      8.82907756e-008 8.27562729e-008 8.46098160e-008 8.56681837e-008
      8.20749833e-008 8.13001293e-008 8.28206694e-008 8.19665900e-008
      8.97741330e-008 1.03659914e-007 1.14745227e-007 1.31551374e-007
      1.46622696e-007 1.53361199e-007 1.53709593e-007 1.60877889e-007
      1.56884667e-007 1.46501677e-007 1.33649550e-007 1.22677207e-007
      1.06457748e-007 8.29431670e-008 4.92979453e-008 2.13406270e-008
      -2.42136267e-009 -2.20218759e-008 -3.46204629e-008
      -3.69242272e-008 -3.33955334e-008 -3.16337108e-008
      -1.62631615e-008 1.10873675e-008 5.31568567e-008 9.43329610e-008
      1.29708909e-007 1.45996864e-007 1.57515146e-007 1.71452768e-007
      1.69668184e-007 1.54961512e-007 1.33604544e-007 1.06965736e-007
      6.66716033e-008 2.94828126e-008 2.33615172e-009 -1.63326899e-008
      -2.55075463e-008 -3.44066819e-008 -3.63195163e-008
      -3.14517550e-008 -3.18883515e-008 -3.14627222e-008
      -2.14612808e-008 -9.09402065e-009 -4.71730477e-009
      -5.38696532e-010 -3.09154202e-010 4.14197432e-009 5.15973397e-009
      7.96538480e-009 1.19946275e-008 1.91118357e-008 1.52343826e-008
      7.80890375e-009 9.14872533e-009 1.77481354e-008 2.14623022e-008
      2.00732000e-008 2.01157295e-008 2.24699690e-008 2.30325679e-008
      2.04802877e-008 2.33965132e-008 2.91128188e-008 3.61849715e-008
      3.35406547e-008 4.27487983e-008 4.50431088e-008 4.48427890e-008
      5.45790719e-008 5.62954945e-008 6.35679100e-008 7.55284191e-008
      8.24328907e-008 8.42492653e-008 1.00794033e-007 1.12599096e-007
      1.26744297e-007 1.45801550e-007 1.56582814e-007 1.75104830e-007
      1.95889498e-007 2.01523477e-007 2.09638088e-007 2.10635577e-007
      2.07835896e-007 2.04728607e-007 1.98163320e-007 1.95949056e-007
      1.98855474e-007 1.92795426e-007 1.80847479e-007 1.65634802e-007
      1.46437401e-007 1.36587104e-007 1.19682809e-007 1.09931690e-007
      9.95028984e-008 9.28448145e-008 7.96084478e-008 5.85658810e-008
      3.83423391e-008 3.39615909e-008 3.15365192e-008 1.60053553e-008
      1.21456107e-008 1.04252855e-008 1.66581238e-008 2.60682924e-008
      2.54269157e-008 3.41587594e-008 4.05300185e-008 4.52339961e-008
      5.67660443e-008 7.38277279e-008 9.36680564e-008 1.08270349e-007
      1.24903664e-007 1.50383684e-007 1.72093550e-007 1.93959465e-007
      2.08583813e-007 2.23915606e-007 2.43375240e-007 2.51727926e-007
      2.54976129e-007 2.59838657e-007 2.58681723e-007 2.45787760e-007
      2.24707435e-007 2.06473047e-007 1.91536259e-007 1.53542828e-007
      1.09849452e-007 7.88208609e-008 5.39805853e-008 2.38911166e-008
      -7.73880249e-009 -3.83444814e-008 -5.76642236e-008
      -6.80936125e-008 -6.52504326e-008 -3.98436661e-008 3.29438565e-009
      4.44445085e-008 8.94485694e-008 1.41947538e-007 1.96469315e-007
      2.50835882e-007 2.99986823e-007 3.22318243e-007 3.44053149e-007
      3.45047226e-007 3.24129928e-007 2.98249716e-007 2.67909599e-007
      2.42694142e-007 2.17049234e-007 1.96270236e-007 1.77212726e-007
      1.78139643e-007 1.74909204e-007 1.73264709e-007 1.74252975e-007
      1.73917357e-007 1.71768320e-007 1.63281854e-007 1.47867738e-007
      1.29535465e-007 1.12584509e-007 9.30851201e-008 6.62416113e-008
      4.70522465e-008 4.05005949e-008 4.44471162e-008 4.93506143e-008
      5.37434808e-008 6.52873240e-008 8.65768044e-008 1.06686151e-007
      1.24326803e-007 1.53486738e-007 1.80999933e-007 1.93805036e-007
      1.98167626e-007 2.12798952e-007 2.27749894e-007 2.38075245e-007
      2.42736689e-007 2.54327176e-007 2.59559357e-007 2.57686594e-007
      2.61640736e-007 2.66223878e-007 2.66666007e-007 2.57374438e-007
      2.44258189e-007 2.29731356e-007 2.12653006e-007 1.85597983e-007
      1.57770572e-007 1.45881373e-007 1.31680380e-007 1.18645843e-007
      1.12994307e-007 1.05786157e-007 9.83608572e-008 9.38005940e-008
      9.73109735e-008 9.91937910e-008 1.04377101e-007 9.76082077e-008
      9.44929965e-008 1.06028089e-007 1.05270146e-007 1.15799800e-007
      1.23157079e-007 1.20143184e-007 1.06419613e-007 1.09107013e-007
      1.07242393e-007 1.19881975e-007 1.30237780e-007 1.35301860e-007
      1.50405000e-007 1.54778249e-007 1.72618087e-007 1.89081860e-007
      2.12207439e-007 2.40113735e-007 2.66484221e-007 2.85856657e-007
      3.09885763e-007 3.20910232e-007 3.21477273e-007 3.16865595e-007
      3.17637273e-007 3.19189496e-007 3.23125136e-007 3.22037920e-007
      3.18141190e-007 3.11684573e-007 2.96590599e-007 2.87421983e-007
      2.80422569e-007 2.76457229e-007 2.69448094e-007 2.70658376e-007
      2.68925476e-007 2.67852812e-007 2.71339786e-007 2.63819260e-007
      2.69154441e-007 2.71983680e-007 2.76511713e-007 2.84897084e-007
      2.99438142e-007 3.04979892e-007 3.10544124e-007 3.10773487e-007
      3.20058291e-007 3.31096260e-007 3.38781177e-007 3.39643435e-007
      3.46642310e-007 3.60975633e-007 3.55182550e-007 3.47573575e-007
      3.39667821e-007 3.29514819e-007 3.04138780e-007 2.89339653e-007
      2.70395645e-007 2.53979607e-007 2.35289619e-007 2.10388691e-007
      1.93859151e-007 1.86093629e-007 1.69455035e-007 1.59533442e-007
      1.45176884e-007 1.37930613e-007 1.39576954e-007 1.39422923e-007
      1.34888438e-007 1.37939153e-007 1.39906362e-007 1.34575146e-007
      1.43019776e-007 1.48659339e-007 1.67729780e-007 1.83287625e-007
      1.87633034e-007 1.91352470e-007 1.91468203e-007 1.77361727e-007
      1.57075903e-007 1.41187016e-007 1.22695511e-007 1.16870396e-007
      1.07504079e-007 8.97086139e-008 7.87542973e-008 8.26751076e-008
      1.00979960e-007 1.14619553e-007 1.45414248e-007 1.69456428e-007
      1.90564862e-007 1.98971648e-007 2.07036663e-007 2.18779050e-007
      2.23499754e-007 2.19517844e-007 2.01191028e-007 1.83314086e-007
      1.53262292e-007 1.28650512e-007 9.09501239e-008 5.92261209e-008
      2.25525891e-008 2.88033464e-009 -1.01586544e-008 -2.46660594e-008
      -2.21190959e-008 -1.12451017e-008 2.77017920e-009 1.25531354e-008
      2.44525928e-008 4.32068923e-008 6.59289370e-008 7.81535547e-008
      8.90811549e-008 1.05704920e-007 1.11012845e-007 1.17031504e-007
      1.24718170e-007 1.27575760e-007 1.37450698e-007 1.41051117e-007
      1.37195883e-007 1.33989587e-007 1.30905619e-007 1.24793232e-007
      1.15408334e-007 1.03453601e-007 8.89319054e-008 7.86265630e-008
      7.48716005e-008 7.19995157e-008 7.07972134e-008 5.87775020e-008
      4.27627285e-008 3.43427509e-008 2.97541778e-008 2.79849690e-008
      2.66217928e-008 2.76139112e-008 2.22928982e-008 1.26952973e-008
      4.86738472e-009 9.81768800e-009 1.72416410e-008 2.17020286e-008
      2.14900115e-008 2.04832595e-008 1.87428881e-008 1.86497147e-008
      1.05763096e-008 1.44310519e-009 -7.24307814e-009 -2.42673170e-008
      -4.49024036e-008 -6.29134504e-008 -7.76978837e-008
      -1.00154679e-007 -1.16080741e-007 -1.26797744e-007
      -1.36194103e-007 -1.50508896e-007 -1.56397675e-007
      -1.45753233e-007 -1.38230305e-007 -1.30566278e-007
      -1.18349035e-007 -1.04022824e-007 -8.99928168e-008
      -8.26188895e-008 -7.02278129e-008 -5.51360344e-008
      -4.01279934e-008 -2.88282394e-008 -1.62941571e-008
      -2.22656982e-009 8.31231617e-009 2.96852658e-008 4.19195665e-008
      5.43931691e-008 6.48540635e-008 7.69068791e-008 8.42854959e-008
      8.98024481e-008 9.07334154e-008 8.80786786e-008 8.70467360e-008
      8.37961665e-008 8.24302901e-008 7.39869677e-008 7.24386595e-008
      7.16674649e-008 6.09032114e-008 5.29373381e-008 5.09305309e-008
      3.69455471e-008 2.92981088e-008 1.33026967e-008 9.11276299e-009
      4.95573715e-009 -2.83760992e-009 -6.37179864e-009 4.64072964e-012
      4.14178736e-009 8.84392648e-009 2.93520266e-008 4.18136636e-008
      6.33037374e-008 7.63315811e-008 9.45767908e-008 1.16099962e-007
      1.27813891e-007 1.35974005e-007 1.35045170e-007 1.42688805e-007
      1.30591431e-007 1.31700617e-007 1.35922306e-007 1.41880264e-007
      1.43382493e-007 1.44902842e-007 1.45932859e-007 1.49203998e-007
      1.54397696e-007 1.62443612e-007 1.71636572e-007 1.72046754e-007
      1.60117295e-007 1.55946395e-007 1.62632745e-007 1.66384154e-007
      1.73192618e-007 1.80807021e-007 1.99743042e-007 2.07244867e-007
      2.10121954e-007 2.12563975e-007 2.19394934e-007 2.19125937e-007
      2.13565613e-007 2.02374025e-007 1.92392235e-007 1.79711733e-007
      1.53775403e-007 1.32119013e-007 1.24012033e-007 1.03263531e-007
      8.30398577e-008 6.05991914e-008 4.29480842e-008 2.98272944e-008
      1.04974980e-008 -5.75078651e-010 -1.41374015e-008 -3.39936292e-008
      -4.34928467e-008 -4.70579948e-008 -5.01878183e-008
      -4.70553019e-008 -3.76048241e-008 -1.88809643e-008 3.62028163e-009
      3.24394982e-008 6.98418035e-008 1.06713415e-007 1.35683479e-007
      1.69187373e-007 2.02116553e-007 2.24542177e-007 2.30302561e-007
      2.37510676e-007 2.53082732e-007 2.59085709e-007 2.53893006e-007
      2.58302634e-007 2.61470632e-007 2.59005446e-007 2.48364472e-007
      2.43784257e-007 2.42776508e-007 2.37767864e-007 2.18463356e-007
      2.04751345e-007 1.90566411e-007 1.63490839e-007 1.33935700e-007
      1.17880141e-007 1.12546388e-007 1.05426771e-007 1.03043774e-007
      9.34395601e-008 9.00244785e-008 8.00177631e-008 8.63090506e-008
      8.59365059e-008 9.38904350e-008 9.17928702e-008 9.02327599e-008
      8.88207552e-008 8.63259686e-008 9.30379969e-008 9.93860922e-008
      1.02646787e-007 9.40733429e-008 8.80745787e-008 8.07913167e-008
      7.70928565e-008 7.39588302e-008 7.41226032e-008 7.85895935e-008
      7.31975049e-008 6.89184461e-008 6.97953340e-008 7.50934461e-008
      6.85451269e-008 6.65149358e-008 6.75780996e-008 6.25398116e-008
      5.90338480e-008 5.31284137e-008 5.52435395e-008 5.90672720e-008
      5.84373723e-008 5.49508066e-008 6.34767403e-008 7.30271026e-008
      6.71400571e-008 6.39312674e-008 6.27814529e-008 6.87600945e-008
      7.58428769e-008 7.78834348e-008 8.02919828e-008 9.13033062e-008
      9.91587186e-008 9.41052249e-008 9.33864044e-008 9.54964463e-008
      9.10073084e-008 7.58400418e-008 6.11059221e-008 5.19003329e-008
      4.09834406e-008 2.58396362e-008 1.66054104e-008 1.29127544e-008
      7.73272912e-009 4.77494666e-009 8.78331807e-009 1.52895741e-008
      2.26517951e-008 3.78755090e-008 4.24233662e-008 4.77334936e-008
      5.28112274e-008 6.49697398e-008 7.65923076e-008 7.73858844e-008
      8.67620358e-008 9.62883959e-008 1.00313848e-007 9.92401112e-008
      9.22423240e-008 8.92283865e-008 7.95838133e-008 5.79390615e-008
      3.11784554e-008 2.02312140e-008 4.42500747e-009 -2.02905817e-008
      -4.53119924e-008 -7.07972490e-008 -8.69333050e-008
      -1.04117291e-007 -1.15587895e-007 -1.17494054e-007
      -1.02458152e-007 -9.45292413e-008 -8.87905216e-008
      -6.93436988e-008 -5.00529964e-008 -2.73537815e-008 2.11536011e-009
      2.48773251e-008 4.01418703e-008 6.13839788e-008 6.73597924e-008
      7.44450759e-008 8.40992698e-008 9.90603581e-008 1.08524347e-007
      1.10320883e-007 1.08633955e-007 1.11256902e-007 1.20484628e-007
      1.18584992e-007 1.16821070e-007 1.14680368e-007 1.05886137e-007
      9.44130178e-008 7.64427170e-008 5.78907269e-008 4.37782752e-008
      3.31290337e-008 1.52810635e-008 9.11733800e-009 6.96461555e-009
      7.36045580e-009 8.14407297e-009 1.90068175e-008 3.77481086e-008
      6.77558560e-008 8.62350120e-008 9.94688989e-008 1.18443758e-007
      1.34355460e-007 1.65450018e-007 1.85885924e-007 2.15121489e-007
      2.37323206e-007 2.57062908e-007 2.69355041e-007 2.89313761e-007
      3.14322449e-007 3.30836230e-007 3.41125570e-007 3.31422939e-007
      3.23219723e-007 3.02255756e-007 2.81129900e-007 2.54004391e-007
      2.22929089e-007 1.80884911e-007 1.46811061e-007 1.16067639e-007
      8.72240093e-008 7.01516356e-008 6.57269439e-008 5.87882525e-008
      5.79589674e-008 5.96062293e-008 6.77156322e-008 8.45219432e-008
      9.16420362e-008 9.41419600e-008 9.90817810e-008 9.68910641e-008
      9.33670918e-008 9.59617950e-008 9.87796724e-008 9.57842659e-008
      9.66046159e-008 8.69911219e-008 7.87392977e-008 8.21760793e-008
      8.02441491e-008 8.42573300e-008 8.36247764e-008 8.10379248e-008
      7.14338313e-008 7.16886817e-008 6.67334490e-008 6.54938574e-008
      5.78359227e-008 5.68732155e-008 6.03197492e-008 5.69343470e-008
      5.51428769e-008 5.00209936e-008 5.61168818e-008 5.52584893e-008
      5.15307157e-008 5.38617151e-008 5.76107873e-008 5.75947290e-008
      4.82450240e-008 5.71546259e-008 5.65802587e-008 6.10712121e-008
      5.84501976e-008 5.92677516e-008 5.59699451e-008 6.36110542e-008
      6.76553711e-008 7.16383823e-008 6.79789522e-008 5.72391912e-008
      4.85241145e-008 4.00106259e-008 3.61987453e-008 3.93008541e-008
      3.98368556e-008 3.55673144e-008 3.51999638e-008 4.14616075e-008
      5.14893870e-008 5.81903059e-008 6.74876262e-008 7.42264206e-008
      6.96367977e-008 6.78932537e-008 6.89082142e-008 7.25166984e-008
      7.48682822e-008 6.56402790e-008 6.41416875e-008 6.24708534e-008
      6.12606428e-008 6.13353492e-008 5.85537094e-008 5.32704583e-008
      5.37037970e-008 4.51064217e-008 3.39258470e-008 3.04285770e-008
      1.88987883e-008 1.05670255e-008 -2.44503884e-009 -9.99239003e-009
      -4.31168257e-009 -5.72528869e-009 -1.51522990e-008
      -2.38088518e-008 -1.89261655e-008 -2.40119515e-008
      -2.94315790e-008 -3.00396543e-008 -3.26758993e-008
      -3.33567591e-008 -3.38789619e-008 -3.37510215e-008
      -2.70260685e-008 -1.79683255e-008 -1.81125923e-008
      -1.61931055e-008 -1.35795126e-008 -1.03565734e-008 4.87280127e-009
      2.56284878e-008 4.02512050e-008 6.14420870e-008 7.41575974e-008
      9.05903121e-008 1.07234335e-007 1.28639215e-007 1.56521139e-007
      1.73825342e-007 1.73467271e-007 1.60539045e-007 1.51938451e-007
      1.50986196e-007 1.53816046e-007 1.57222289e-007 1.55180459e-007
      1.57189518e-007 1.53987500e-007 1.68758405e-007 1.90604908e-007
      2.13564547e-007 2.30532237e-007 2.42161008e-007 2.52816363e-007
      2.65765863e-007 2.82503777e-007 2.91462470e-007 2.94758905e-007
      2.90523360e-007 2.83103390e-007 2.77763576e-007 2.81654650e-007
      2.81675000e-007 2.70320470e-007 2.56485322e-007 2.51687965e-007
      2.49752702e-007 2.40666878e-007 2.27916814e-007 2.21413160e-007
      2.15924842e-007 2.03635039e-007 1.91786839e-007 1.91502821e-007
      1.85348185e-007 1.81971416e-007 1.71597250e-007 1.68341828e-007
      1.66397996e-007 1.57521541e-007 1.41078445e-007 1.15650451e-007
      9.27180608e-008 6.16859666e-008 3.23191287e-008 -5.34247979e-009
      -2.92897031e-008 -4.07449896e-008 -4.45638122e-008
      -3.49214737e-008 -1.67454228e-008 1.99170653e-008 6.37981117e-008
      1.20614942e-007 1.78363734e-007 2.32911688e-007 2.78396300e-007
      3.13215168e-007 3.27266974e-007 3.25254746e-007 3.16082179e-007
      2.91247915e-007 2.63370140e-007 2.29492230e-007 1.89416781e-007
      1.59953260e-007 1.41443593e-007 1.26101810e-007 1.28491081e-007
      1.41248563e-007 1.59383376e-007 1.84712590e-007 2.03731105e-007
      2.18268525e-007 2.34217211e-007 2.45232968e-007 2.50970345e-007
      2.49456605e-007 2.46069305e-007 2.37350264e-007 2.20528378e-007
      2.12328814e-007 1.97094181e-007 1.91270658e-007 1.86145485e-007
      1.79378404e-007 1.75048754e-007 1.75047830e-007 1.75610978e-007
      1.74843862e-007 1.75442779e-007 1.67163279e-007 1.65466602e-007
      1.59110314e-007 1.47876705e-007 1.40913343e-007 1.35301960e-007
      1.38256709e-007 1.39974887e-007 1.33957215e-007 1.30166825e-007
      1.26198827e-007 1.23128729e-007 1.20907899e-007 1.18337496e-007
      1.16153210e-007 1.07912250e-007 8.94783554e-008 8.32885263e-008
      8.02639093e-008 7.81822749e-008 6.98105396e-008 5.32386082e-008
      4.09330561e-008 2.47101379e-008 1.08698694e-008 6.43011600e-009
      -7.15237247e-009 -1.93148626e-008 -2.66238676e-008
      -3.07577537e-008 -3.81192571e-008 -2.94419813e-008
      -1.20647448e-008 9.73140679e-009 2.28453132e-008 3.70037547e-008
      5.22317691e-008 6.55907542e-008 8.14903984e-008 1.00011356e-007
      1.27007013e-007 1.43677610e-007 1.56623855e-007 1.63900424e-007
      1.75466610e-007 1.87181897e-007 2.09907782e-007 2.23190213e-007
      2.35042918e-007 2.42262985e-007 2.43200105e-007 2.39331825e-007
      2.26780898e-007 2.26038296e-007 2.22326690e-007 2.14339451e-007
      1.93768145e-007 1.65362550e-007 1.41707616e-007 1.14027578e-007
      8.94246242e-008 7.15317725e-008 5.72196512e-008 4.25701998e-008
      3.54440139e-008 4.16474748e-008 5.80219286e-008 7.75535938e-008
      9.33404252e-008 1.23567517e-007 1.52506843e-007 1.70215472e-007
      1.94034627e-007 2.17973934e-007 2.33011107e-007 2.35978433e-007
      2.34605452e-007 2.33552001e-007 2.35891989e-007 2.34645924e-007
      2.23087426e-007 2.16224947e-007 2.00740786e-007 1.78614485e-007
      1.68482018e-007 1.62322678e-007 1.58666552e-007 1.67635392e-007
      1.74129042e-007 1.78928204e-007 1.82990092e-007 1.92660636e-007
      1.97381667e-007 2.01501138e-007 1.93826651e-007 1.90989880e-007
      1.82040523e-007 1.71375248e-007 1.65151150e-007 1.58975794e-007
      1.59351998e-007 1.55494220e-007 1.49303034e-007 1.51973822e-007
      1.47397984e-007 1.43238339e-007 1.45868086e-007 1.54555678e-007
      1.48759270e-007 1.44744206e-007 1.41828139e-007 1.41759728e-007
      1.35552497e-007 1.29165613e-007 1.31164867e-007 1.31595243e-007
      1.38199610e-007 1.43467489e-007 1.48844222e-007 1.58576881e-007
      1.57056604e-007 1.52834502e-007 1.58652924e-007 1.64189728e-007
      1.70253188e-007 1.70980158e-007 1.66374051e-007 1.62327453e-007
      1.58840948e-007 1.44319515e-007 1.45184856e-007 1.43158275e-007
      1.46106018e-007 1.35869598e-007 1.24178541e-007 1.07042190e-007
      9.79204060e-008 9.35655109e-008 9.88439766e-008 1.05494472e-007
      1.09164759e-007 1.16269639e-007 1.12746662e-007 1.15588591e-007
      1.18735031e-007 1.30473808e-007 1.36561326e-007 1.39182816e-007
      1.35406907e-007 1.40612514e-007 1.43702252e-007 1.44305943e-007
      1.45557621e-007 1.42549510e-007 1.40612400e-007 1.42046531e-007
      1.46408453e-007 1.45518172e-007 1.45618671e-007 1.36549076e-007
      1.22413937e-007 1.12416132e-007 1.09959878e-007 1.14491520e-007
      1.10913277e-007 9.86097675e-008 9.45013667e-008 8.68136851e-008
      8.75936550e-008 9.75682255e-008 1.11707834e-007 1.10351358e-007
      1.07420796e-007 9.80009958e-008 9.72926699e-008 1.07171253e-007
      1.06727391e-007 1.02239042e-007 9.28592243e-008 8.07509295e-008
      7.08920140e-008 6.53012222e-008 6.50726548e-008 7.40653476e-008
      7.24402867e-008 6.60240076e-008 4.97297172e-008 3.79016285e-008
      1.92880520e-008 5.17264187e-009 -1.25801956e-008 -3.68043338e-008
      -6.08119208e-008 -9.10006577e-008 -1.15186346e-007
      -1.28220918e-007 -1.35113694e-007 -1.37076185e-007
      -1.10497012e-007 -9.61039390e-008 -7.33897778e-008
      -4.12101535e-008 -4.47754234e-009 3.25296554e-008 7.84488847e-008
      1.03710498e-007 1.25453241e-007 1.44828618e-007 1.45414290e-007
      1.38741129e-007 1.29464283e-007 1.23737280e-007 1.11657961e-007
      1.04317905e-007 7.92043622e-008 7.16397821e-008 7.67810988e-008
      8.87380267e-008 1.04160968e-007 1.22307043e-007 1.31429971e-007
      1.45748800e-007 1.58601935e-007 1.71833349e-007 1.85678857e-007
      1.91467691e-007 1.98161317e-007 1.98161231e-007 1.80453540e-007
      1.69280000e-007 1.59592375e-007 1.53452348e-007 1.36180191e-007
      1.07780622e-007 8.74779644e-008 7.65055290e-008 5.76181698e-008
      4.36522853e-008 3.65239998e-008 2.78606755e-008 1.89334024e-008
      4.79671636e-009 3.10760329e-009 1.02560325e-008 1.76044637e-008
      1.96957615e-008 2.10211262e-008 2.79766112e-008 4.62131808e-008
      7.22103692e-008 9.83758426e-008 1.29050946e-007 1.48139208e-007
      1.63940371e-007 1.83120576e-007 1.97896128e-007 2.09634649e-007
      2.10035537e-007 2.06420012e-007 2.03372949e-007 2.05387465e-007
      1.98713494e-007 1.88708427e-007 1.89050326e-007 1.96412458e-007
      2.03301610e-007 2.11433303e-007 2.25579342e-007 2.41495144e-007
      2.55646711e-007 2.67073119e-007 2.82458416e-007 3.08420141e-007
      3.20135825e-007 3.16294404e-007 3.09621214e-007 3.02621203e-007
      2.93779607e-007 2.72225890e-007 2.51638937e-007 2.26860649e-007
      2.06622076e-007 1.76846768e-007 1.58840308e-007 1.39231588e-007
      1.36553311e-007 1.23721549e-007 1.07669358e-007 1.06526109e-007
      9.41839389e-008 8.35771559e-008 7.51440368e-008 8.22456485e-008
      8.48770014e-008 9.56242516e-008 9.80768959e-008 1.12460334e-007
      1.27293845e-007 1.41458088e-007 1.54916407e-007 1.66595527e-007
      1.82585424e-007 1.82417139e-007 1.81562982e-007 1.76086175e-007
      1.81791705e-007 1.86091768e-007 1.92427905e-007 1.98845598e-007
      2.20998615e-007 2.47501845e-007 2.63291298e-007 2.75492624e-007
      2.89736448e-007 3.06896112e-007 3.05005926e-007 2.91493990e-007
      2.68744003e-007 2.47784186e-007 2.16019757e-007 1.83889128e-007
      1.49418042e-007 1.26285855e-007 1.06344409e-007 9.16477987e-008
      7.64831967e-008 7.26118330e-008 7.48348299e-008 7.80518405e-008
      8.22699278e-008 8.27704980e-008 9.24798300e-008 9.07293654e-008
      8.59187139e-008 7.34483194e-008 7.43592423e-008 7.65036532e-008
      8.12258776e-008 8.35090361e-008 7.68632091e-008 8.03595412e-008
      8.27243483e-008 9.82769706e-008 1.08142160e-007 1.15567033e-007
      1.18592304e-007 1.30959876e-007 1.37386806e-007 1.36851042e-007
      1.48874292e-007 1.60394350e-007 1.64259603e-007 1.60611819e-007
      1.60701333e-007 1.62631039e-007 1.62783778e-007 1.46151521e-007
      1.21156617e-007 1.02379126e-007 7.38057011e-008 3.54763365e-008
      7.02609693e-010 -2.77613275e-008 -6.00377206e-008 -9.20974017e-008
      -1.15551678e-007 -1.33801848e-007 -1.39052844e-007
      -1.47840879e-007 -1.52205345e-007 -1.46033244e-007
      -1.23738630e-007 -1.08968429e-007 -9.53140571e-008
      -7.39795070e-008 -5.20422283e-008 -3.03932026e-008
      -8.71702088e-009 1.55982196e-008 4.25739550e-008 6.23478229e-008
      8.19436821e-008 9.38800611e-008 1.22351693e-007 1.53253936e-007
      1.69048363e-007 1.88714594e-007 2.08888537e-007 2.28250684e-007
      2.43516752e-007 2.65282438e-007 2.68539338e-007 2.82946303e-007
      2.81130639e-007 2.65954355e-007 2.66595805e-007 2.61773891e-007
      2.57938439e-007 2.55018932e-007 2.46546506e-007 2.34547812e-007
      2.31893978e-007 2.17401023e-007 2.11247269e-007 2.00107237e-007
      1.86651377e-007 1.81180994e-007 1.73743032e-007 1.75076295e-007
      1.81783378e-007 1.83038495e-007 1.80568108e-007 1.84895626e-007
      1.90702636e-007 2.06196361e-007 2.09335525e-007 2.16864748e-007
      2.21097864e-007 2.16349918e-007 2.15497622e-007 2.12535170e-007
      2.16385189e-007 2.15612260e-007 2.11870940e-007 2.14936236e-007
      2.31943261e-007 2.40010309e-007 2.53694253e-007 2.62379928e-007
      2.62144340e-007 2.62469456e-007 2.59049699e-007 2.55127418e-007
      2.50411517e-007 2.51504105e-007 2.48324625e-007 2.52765147e-007
      2.54644902e-007 2.67465879e-007 2.90807264e-007 3.15964115e-007
      3.34869640e-007 3.59506117e-007 3.85246921e-007 3.90308145e-007
      3.97676644e-007 3.99253537e-007 4.02761771e-007 3.96893512e-007
      3.86183416e-007 3.73712396e-007 3.47322270e-007 3.24257513e-007
      3.09546436e-007 3.04391051e-007 2.92392940e-007 2.75409803e-007
      2.70835301e-007 2.71954605e-007 2.71282090e-007 2.70650730e-007
      2.98735870e-007 3.13249927e-007 3.17941783e-007 3.19877671e-007
      3.14975267e-007 3.12542539e-007 2.96019522e-007 2.79165903e-007
      2.64065591e-007 2.56859096e-007 2.31875759e-007 2.24506039e-007
      2.25429915e-007 2.22583822e-007 2.28008702e-007 2.39919643e-007
      2.54017976e-007 2.64991883e-007 2.78549209e-007 2.80670605e-007
      2.90947895e-007 3.00501398e-007 3.09017253e-007 3.24793746e-007
      3.38137767e-007 3.49380372e-007 3.60395092e-007 3.66002979e-007
      3.73488433e-007 3.73960688e-007 3.71495872e-007 3.68009211e-007
      3.52533704e-007 3.36013386e-007 3.20231919e-007 2.96839175e-007
      2.81584164e-007 2.74388412e-007 2.60019846e-007 2.51703682e-007
      2.29425893e-007 2.01063898e-007 1.70188258e-007 1.38160630e-007
      1.05160289e-007 7.77240885e-008 5.85879540e-008 3.52460994e-008
      1.51066892e-008 -1.16611565e-009 -1.53210500e-009 -3.37260686e-009
      -4.83071227e-009 5.98054894e-009 1.04975104e-008 1.95355199e-008
      2.07581383e-008 3.54923770e-008 4.60443452e-008 6.23932763e-008
      7.82630138e-008 9.85238344e-008 1.16169822e-007 1.35138379e-007
      1.56689950e-007 1.74161542e-007 1.85535626e-007 1.92718190e-007
      1.98492472e-007 1.96958851e-007 1.95736490e-007 1.79566229e-007
      1.67224954e-007 1.50881959e-007 1.33805671e-007 1.20177404e-007
      1.11423439e-007 1.01176099e-007 9.41691667e-008 8.43731769e-008
      6.86326160e-008 6.62081021e-008 7.26189811e-008 7.30128278e-008
      7.77962086e-008 8.28414528e-008 8.08785785e-008 8.41970333e-008
      8.42874925e-008 8.40672101e-008 8.60275335e-008 8.85735290e-008
      8.55829683e-008 9.05889337e-008 8.90341596e-008 7.90266412e-008
      6.85136072e-008 6.37463273e-008 6.92860738e-008 7.11167303e-008
      7.34762153e-008 7.00024430e-008 5.67246943e-008 5.45590595e-008
      5.80492134e-008 6.50590763e-008 6.90105040e-008 7.02886638e-008
      6.27749230e-008 5.46419621e-008 5.29154676e-008 5.62205038e-008
      7.45673105e-008 8.07267000e-008 8.52028705e-008 1.02878801e-007
      1.28066219e-007 1.46635344e-007 1.66417990e-007 1.88513070e-007
      2.04613158e-007 2.18745882e-007 2.23269069e-007 2.23040445e-007
      2.27493004e-007 2.21054307e-007 2.16859419e-007 2.00396045e-007
      1.83594949e-007 1.61660992e-007 1.40215491e-007 1.20264218e-007
      1.10426662e-007 1.00859360e-007 8.43211581e-008 7.58969207e-008
      6.74633114e-008 6.64068907e-008 6.72452245e-008 6.72206966e-008
      7.23472482e-008 6.44325908e-008 4.82793823e-008 3.48521816e-008
      2.32107329e-008 1.29617970e-008 -1.33860114e-008 -3.88184596e-008
      -6.67969431e-008 -8.80523601e-008 -1.14886603e-007
      -1.36561397e-007 -1.41932588e-007 -1.46075621e-007
      -1.51401110e-007 -1.56135144e-007 -1.46947713e-007
      -1.26377429e-007 -1.00185432e-007 -7.75091706e-008
      -3.00444007e-008 2.24232686e-008 6.59304931e-008 1.10346662e-007
      1.46231756e-007 1.78627261e-007 2.07720618e-007 2.31584707e-007
      2.43621514e-007 2.45150176e-007 2.33182547e-007 2.06481587e-007
      1.90631383e-007 1.73577391e-007 1.58026694e-007 1.46144743e-007
      1.28944762e-007 1.10395305e-007 9.37770324e-008 8.97124153e-008
      7.95369246e-008 8.18588148e-008 7.03030949e-008 5.53985231e-008
      4.25917079e-008 4.23093596e-008 4.68010128e-008 4.88846794e-008
      4.97664345e-008 5.24936254e-008 5.57709292e-008 6.12858813e-008
      6.93834608e-008 7.41442463e-008 7.41250261e-008 6.08378627e-008
      4.52499123e-008 2.94310549e-008 1.29797648e-008 -1.38995890e-008
      -3.82316934e-008 -5.88525957e-008 -9.01463437e-008
      -1.13262693e-007 -1.27597502e-007 -1.43599479e-007
      -1.56247339e-007 -1.64406060e-007 -1.63270826e-007
      -1.50307869e-007 -1.35284679e-007 -1.20869359e-007
      -9.56537107e-008 -7.72011646e-008 -6.28272900e-008
      -3.30608003e-008 -9.47340606e-009 1.53058597e-008 3.98148146e-008
      6.41375948e-008 7.40624344e-008 8.82124809e-008 9.84758088e-008
      1.19011681e-007 1.29861476e-007 1.35494489e-007 1.33822965e-007
      1.23476795e-007 1.06228939e-007 8.09196834e-008 6.40443858e-008
      3.86033818e-008 1.44021204e-008 -1.10137384e-008 -3.13534798e-008
      -5.27470156e-008 -6.99177178e-008 -7.24408977e-008
      -6.64089512e-008 -6.55011760e-008 -6.03436092e-008
      -3.73055293e-008 -1.67987011e-008 3.75002340e-009 2.89519928e-008
      5.76617438e-008 8.55772129e-008 1.06422370e-007 1.18965929e-007
      1.27173806e-007 1.52570564e-007 1.54361501e-007 1.63639911e-007
      1.69454893e-007 1.67364817e-007 1.63942687e-007 1.59262072e-007
      1.51836304e-007 1.50753934e-007 1.42064167e-007 1.25580840e-007
      1.13680130e-007 1.00998548e-007 7.95191823e-008 6.75594265e-008
      5.22121901e-008 3.45262734e-008 1.77529564e-008 8.25222735e-009
      8.16753065e-009 -2.25642349e-009 -4.26841273e-009 -1.63481950e-009
      1.41326492e-010 -1.27397093e-010 -8.21073598e-010 4.79458073e-009
      2.02387263e-008 2.81806010e-008 4.30334381e-008 5.27041344e-008
      5.18709342e-008 5.28609618e-008 5.95342620e-008 7.35656087e-008
      7.40580219e-008 8.93699408e-008 9.36781532e-008 9.67006102e-008
      1.01708295e-007 1.12277533e-007 1.26618744e-007 1.33202803e-007
      1.32283319e-007 1.31226301e-007 1.32880572e-007 1.29695309e-007
      1.28421092e-007 1.35560313e-007 1.35150430e-007 1.44000182e-007
      1.49163881e-007 1.56901450e-007 1.71224940e-007 1.76944042e-007
      1.85657086e-007 1.91379968e-007 1.94756069e-007 1.95827525e-007
      1.92825212e-007 1.80290300e-007 1.72640910e-007 1.62762333e-007
      1.55997341e-007 1.52121316e-007 1.57215524e-007 1.55365925e-007
      1.56705283e-007 1.58116535e-007 1.66236120e-007 1.78426205e-007
      1.88214742e-007 1.93677337e-007 1.99974863e-007 2.08427466e-007
      2.08910180e-007 2.09808107e-007 2.14304677e-007 2.11050263e-007
      2.06972771e-007 2.04437271e-007 2.02622545e-007 1.97055613e-007
      1.88806055e-007 1.76212552e-007 1.68083020e-007 1.67140172e-007
      1.67276113e-007 1.68449958e-007 1.70350432e-007 1.71025818e-007
      1.65382787e-007 1.66451116e-007 1.68083488e-007 1.75810129e-007
      1.77333291e-007 1.76916970e-007 1.82596750e-007 1.86717259e-007
      1.96940547e-007 2.07142833e-007 2.07103994e-007 2.06709615e-007
      2.00557352e-007 1.95865411e-007 1.93636140e-007 1.90286258e-007
      1.86483661e-007 1.85906060e-007 1.80265914e-007 1.66868702e-007
      1.78898816e-007 1.87024696e-007 1.92517604e-007 1.91268782e-007
      1.93696053e-007 1.94051694e-007 1.92274982e-007 1.95130681e-007
      2.02958248e-007 2.12157531e-007 2.07256690e-007 1.99632510e-007
      1.93980313e-007 1.95498188e-007 1.94350264e-007 1.89842353e-007
      1.81414691e-007 1.67648849e-007 1.44772926e-007 1.28699796e-007
      1.15600741e-007 1.07407061e-007 1.03302028e-007 8.72122072e-008
      7.36985868e-008 6.18562623e-008 5.32299751e-008 5.36508793e-008
      5.37301048e-008 5.28631325e-008 5.95449734e-008 6.02658687e-008
      5.98033694e-008 6.61754811e-008 7.03073724e-008 7.35669019e-008
      6.86852388e-008 6.53758292e-008 6.94217945e-008 7.13872623e-008
      7.07315309e-008 7.90901495e-008 8.44644248e-008 9.45692236e-008
      9.87100037e-008 1.13133723e-007 1.21027796e-007 1.24550837e-007
      1.32313488e-007 1.42883252e-007 1.55451133e-007 1.64491979e-007
      1.81478171e-007 1.93276108e-007 2.14199886e-007 2.34120151e-007
      2.50363485e-007 2.72403383e-007 2.93185423e-007 3.08978514e-007
      3.14343140e-007 3.18769594e-007 3.02730541e-007 2.78856106e-007
      2.39410753e-007 1.89298234e-007 1.50841402e-007 1.00375118e-007
      5.36351017e-008 2.03211270e-009 -4.61457255e-008 -9.73884511e-008
      -1.30015053e-007 -1.51751308e-007 -1.70899881e-007
      -1.79538361e-007 -1.92818831e-007 -1.90012813e-007
      -1.77529131e-007 -1.47633912e-007 -9.86083180e-008
      -4.40914043e-008 4.35818243e-010 4.80937707e-008 9.00877026e-008
      1.36822734e-007 1.92428445e-007 2.26769544e-007 2.47141145e-007
      2.50525432e-007 2.42174536e-007 2.32748775e-007 2.33350448e-007
      2.29555312e-007 2.33344650e-007 2.29752644e-007 2.17545065e-007
      2.17584343e-007 2.11340492e-007 2.21366435e-007 2.27668195e-007
      2.32313781e-007 2.24305793e-007 2.22612385e-007 2.19954785e-007
      2.18581931e-007 2.13763798e-007 2.08563080e-007 2.14262940e-007
      1.99106552e-007 1.88252784e-007 1.86207586e-007 1.93213310e-007
      1.92068114e-007 1.84449661e-007 1.75229289e-007 1.68866606e-007
      1.69231924e-007 1.65001779e-007 1.64897941e-007 1.79063164e-007
      1.83520953e-007 1.75905384e-007 1.78992053e-007 1.85792658e-007
      1.99217851e-007 2.08014612e-007 2.07818971e-007 2.04241005e-007
      2.02895208e-007 1.94928305e-007 1.83935427e-007 1.81599816e-007
      1.74120672e-007 1.64066321e-007 1.43365355e-007 1.30940293e-007
      1.16258200e-007 1.03334720e-007 9.46621483e-008 8.80143460e-008
      8.27374862e-008 8.01755107e-008 7.23245748e-008 6.06852240e-008
      5.54322668e-008 5.08659603e-008 5.25014734e-008 5.96710734e-008
      7.75273321e-008 9.74175194e-008 1.23613404e-007 1.56540125e-007
      1.85986082e-007 2.19760466e-007 2.53648466e-007 2.81236169e-007
      2.95354283e-007 3.15110668e-007 3.21306061e-007 3.08401894e-007
      2.88561438e-007 2.58989303e-007 2.35405693e-007 2.15151474e-007
      2.02482610e-007 1.90352353e-007 1.84810204e-007 1.79921315e-007
      1.69845052e-007 1.63464335e-007 1.54737705e-007 1.53328088e-007
      1.51066047e-007 1.40229986e-007 1.29531657e-007 1.23490324e-007
      1.20356461e-007 1.06077231e-007 8.90247449e-008 7.64513786e-008
      6.25939336e-008 4.97315291e-008 3.78825149e-008 3.14860600e-008
      1.86598719e-008 1.33949891e-008 8.67698713e-009 1.16285230e-008
      2.73439511e-008 5.09644984e-008 8.04921285e-008 1.17667170e-007
      1.59513661e-007 1.95259304e-007 2.36795344e-007 2.64365326e-007
      2.88189568e-007 3.06322619e-007 2.99699366e-007 2.83514794e-007
      2.57398398e-007 2.21363962e-007 1.90013850e-007 1.60657251e-007
      1.16404131e-007 8.19348855e-008 4.78498627e-008 1.01039719e-008
      -7.98143596e-009 -2.50677115e-008 -3.91620745e-008
      -4.14698107e-008 -5.35117799e-008 -7.24529201e-008
      -7.66400134e-008 -8.38928784e-008 -8.98368384e-008
      -9.47239300e-008 -9.93382869e-008 -1.01726911e-007
      -9.11418141e-008 -9.80601627e-008 -9.67052571e-008
      -8.97835832e-008 -7.47086091e-008 -5.25009547e-008
      -2.35246791e-008 1.16914158e-008 3.57980738e-008 6.15388842e-008
      8.63028689e-008 1.08240776e-007 1.29977920e-007 1.53789372e-007
      1.65290047e-007 1.63467803e-007 1.57893396e-007 1.48674118e-007
      1.43685810e-007 1.39645621e-007 1.36549644e-007 1.37380340e-007
      1.33908742e-007 1.25123563e-007 1.20939390e-007 1.19115732e-007
      1.16837285e-007 1.16245275e-007 1.19188194e-007 1.17216743e-007
      1.15496761e-007 1.22184176e-007 1.23027235e-007 1.32219427e-007
      1.40172787e-007 1.53625464e-007 1.77158540e-007 1.96380498e-007
      2.15863139e-007 2.36368052e-007 2.49907998e-007 2.57835751e-007
      2.68396320e-007 2.77420583e-007 2.75306803e-007 2.70340934e-007
      2.51845591e-007 2.43620690e-007 2.38061986e-007 2.23369668e-007
      2.13123514e-007 2.06146581e-007 1.97593224e-007 1.90592701e-007
      1.88392704e-007 1.92118577e-007 2.00947810e-007 1.95658600e-007
      1.80370208e-007 1.81104795e-007 1.74733898e-007 1.65872336e-007
      1.60312325e-007 1.57567968e-007 1.61802774e-007 1.59700420e-007
      1.54264356e-007 1.61031920e-007 1.66671683e-007 1.69931866e-007
      1.69436646e-007 1.71374737e-007 1.69013887e-007 1.69478653e-007
      1.72521951e-007 1.68455188e-007 1.69459582e-007 1.63680838e-007
      1.62806742e-007 1.66572363e-007 1.73181022e-007 1.83111453e-007
      1.91093704e-007 1.94695218e-007 1.93751490e-007 2.02416203e-007
      2.13421330e-007 2.20330278e-007 2.25276224e-007 2.23631133e-007
      2.15203116e-007 2.09265153e-007 2.04668268e-007 2.06438486e-007
      2.07127286e-007 2.00627383e-007 1.84454848e-007 1.67024268e-007
      1.55112332e-007 1.40901435e-007 1.30994479e-007 1.22058921e-007
      1.11098068e-007 9.41212264e-008 7.19404341e-008 5.42120659e-008
      5.21593577e-008 4.17335784e-008 3.28664669e-008 2.04154773e-008
      1.05598099e-008 2.17768537e-009 -7.91179744e-009 -1.08279856e-008
      -9.60498436e-009 -1.60640923e-008 -1.67058136e-008
      -1.87125515e-008 -2.48005811e-008 -3.28644632e-008
      -3.98169959e-008 -4.39860415e-008 -5.15211198e-008
      -6.40618083e-008 -7.34672767e-008 -7.84730574e-008
      -9.03162558e-008 -9.71856267e-008 -9.25057506e-008
      -9.61452216e-008 -9.83495596e-008 -1.00447544e-007
      -1.03711905e-007 -1.03773765e-007 -9.90818450e-008
      -9.30063280e-008 -9.21615566e-008 -9.29023543e-008
      -9.22058518e-008 -8.18169283e-008 -7.77247777e-008
      -8.15341821e-008 -8.14402199e-008 -7.87939456e-008
      -8.01157398e-008 -8.33606535e-008 -8.14608825e-008
      -8.38769552e-008 -8.04812643e-008 -7.82776581e-008
      -6.43362270e-008 -5.32540660e-008 -3.39456570e-008
      -2.11065547e-008 -6.13866691e-009 1.39363543e-008 2.85288930e-008
      4.14317896e-008 4.83096549e-008 5.39384573e-008 5.38781322e-008
      6.18585645e-008 6.45899476e-008 6.51346213e-008 6.17774987e-008
      5.04651609e-008 4.73426276e-008 4.67803858e-008 5.05105113e-008
      5.69489629e-008 6.50500880e-008 7.46517728e-008 7.55617364e-008
      8.29595805e-008 9.34903071e-008 9.52446584e-008 9.41520426e-008
      9.45522132e-008 9.36454043e-008 8.04878226e-008 5.93578626e-008
      3.78303504e-008 1.37101566e-008 -4.70647432e-009 -2.62733995e-008
      -3.23811271e-008 -2.93863760e-008 -1.60310147e-008
      -2.71328959e-009 1.37282070e-008 3.07540162e-008 4.53326905e-008
      6.35032791e-008 8.02587508e-008 9.11098326e-008 1.04348167e-007
      1.17009542e-007 1.21477214e-007 1.31991982e-007 1.49898000e-007
      1.76462450e-007 2.01810266e-007 2.30071407e-007 2.49234802e-007
      2.67292052e-007 2.69206708e-007 2.58393328e-007 2.41436965e-007
      2.12960870e-007 1.84110192e-007 1.57599771e-007 1.35139686e-007
      9.52271151e-008 6.43318572e-008 4.20457091e-008 2.70241820e-008
      2.39049953e-008 3.44648576e-008 4.24711253e-008 4.96765686e-008
      4.69403822e-008 4.38645280e-008 5.38351230e-008 5.31595425e-008
      3.74241367e-008 2.53371155e-008 4.80220486e-009 -1.23542421e-008
      -2.31628015e-008 -4.25155662e-008 -5.83853321e-008
      -7.12046528e-008 -7.83035858e-008 -6.30079029e-008
      -3.91858315e-008 -1.53057993e-008 1.56263038e-008 4.03251619e-008
      5.65940255e-008 8.90503387e-008 1.02109617e-007 1.04802609e-007
      9.07613540e-008 7.02753695e-008 5.07707512e-008 4.51570514e-008
      3.37306965e-008 1.79419928e-008 9.27596044e-009 -1.40762699e-008
      -2.08515072e-008 -3.15136575e-008 -2.29583215e-008
      -1.67968786e-008 -1.02787601e-008 -1.74660446e-008
      -2.11609947e-008 -1.75705122e-008 -1.07769944e-008
      -6.81413637e-009 1.63432157e-009 2.27877024e-008 3.71716382e-008
      3.98822770e-008 4.18290576e-008 4.60654981e-008 4.32505196e-008
      4.45639472e-008 4.38862848e-008 5.10955189e-008 5.82825130e-008
      6.47111378e-008 6.96957940e-008 7.18311597e-008 7.13745436e-008
      7.50824043e-008 8.30652382e-008 9.23324635e-008 1.03860600e-007
      1.06559703e-007 1.09440592e-007 1.11257108e-007 1.08463801e-007
      1.11486052e-007 1.12799754e-007 1.13065965e-007 1.07147976e-007
      1.02280993e-007 9.23947567e-008 8.77221638e-008 8.11106133e-008
      6.17273912e-008 4.92304402e-008 3.41959279e-008 2.32115092e-008
      1.92094411e-008 1.06099804e-008 -1.38102896e-009 -7.43743067e-009
      -1.57355338e-008 -2.52256278e-008 -2.56066119e-008
      -3.12664348e-008 -2.82121988e-008 -3.02181320e-008
      -3.23792122e-008 -3.84886825e-008 -4.05048546e-008
      -4.59499532e-008 -4.71724277e-008 -4.97441768e-008
      -4.73634110e-008 -4.50231674e-008 -5.24867474e-008
      -5.37102274e-008 -5.26182973e-008 -3.45258435e-008
      -2.86316855e-008 -1.89114768e-008 -1.10975877e-008 2.78865864e-009
      1.63669451e-008 3.07119805e-008 5.23599830e-008 7.37555013e-008
      8.23669879e-008 8.70169430e-008 1.06397302e-007 1.12502740e-007
      1.06105325e-007 9.61285664e-008 8.86647058e-008 7.30149310e-008
      6.02227530e-008 4.67689070e-008 4.08309049e-008 3.09238715e-008
      1.76076416e-008 2.15763727e-008 3.59444812e-008 4.33571650e-008
      5.38362244e-008 6.46232152e-008 6.52390426e-008 7.27603719e-008
      7.51273745e-008 8.08400742e-008 7.67703554e-008 6.96058677e-008
      5.79837902e-008 5.28415178e-008 4.30331326e-008 3.68451722e-008
      2.85327477e-008 2.00844621e-008 1.05985736e-008 -4.47398030e-009
      -7.86637777e-009 -1.52847459e-008 -2.06436717e-008
      -2.23330154e-008 -2.11641531e-008 -2.21753247e-008
      -2.53735255e-008 -2.65175721e-008 -2.59164956e-008
      -2.19576073e-008 -9.79517711e-009 -1.33635325e-009 2.98235636e-009
      -7.61928687e-010 -3.48534468e-009 -3.36817974e-009 2.39972098e-010
      -7.97891142e-010 1.04443183e-008 1.43857770e-008 1.06851701e-008
      1.14251808e-008 1.06887956e-008 1.29080924e-008 1.04478550e-008
      7.14899828e-009 3.57137830e-009 -8.86842821e-010 -6.60892452e-009
      -1.06434426e-008 -1.70639947e-008 -2.06472279e-008
      -2.17919371e-008 -1.70173706e-008 -6.94554769e-009 4.26457092e-009
      1.91187173e-008 3.91907200e-008 5.73036907e-008 7.25013578e-008
      9.14077205e-008 1.10798453e-007 1.29254218e-007 1.47042343e-007
      1.64755434e-007 1.76755606e-007 1.88467439e-007 1.99426282e-007
      2.05978992e-007 2.08934239e-007 2.11866734e-007 2.12336261e-007
      2.16073602e-007 2.07607968e-007 1.86724236e-007 1.73315712e-007
      1.59196176e-007 1.45236996e-007 1.31001059e-007 1.20164813e-007
      1.05136550e-007 8.49044142e-008 6.52103083e-008 5.37231557e-008
      5.66098848e-008 5.64711833e-008 5.70041863e-008 5.20189190e-008
      4.35959038e-008 2.25707861e-008 6.30569463e-009 -9.78857440e-009
      -2.13685745e-008 -3.68765569e-008 -5.37459144e-008
      -6.89388315e-008 -1.00386700e-007 -1.23006942e-007
      -1.35283898e-007 -1.36794796e-007 -1.36444626e-007
      -1.29205588e-007 -1.21992827e-007 -1.14243207e-007
      -1.07467400e-007 -8.95038141e-008 -6.48077148e-008
      -3.85616481e-008 -2.15288551e-008 2.55732968e-009 1.19558949e-008
      1.68854353e-008 1.82622699e-008 1.99044248e-008 2.00319317e-008
      1.27251951e-008 9.53448520e-009 6.85188084e-009 2.27084707e-009
      -3.85929400e-010 -2.66325828e-009 8.19324253e-009 4.94381691e-009
      5.09882137e-009 3.34933703e-009 4.79319873e-009 5.26108179e-009
      1.06450875e-008 2.37943727e-008 3.98032292e-008 4.94499233e-008
      5.94820548e-008 7.64316468e-008 8.52877307e-008 1.00419285e-007
      1.15102971e-007 1.22192816e-007 1.22590123e-007 1.08932156e-007
      8.37753404e-008 6.67119622e-008 4.43003785e-008 3.32909842e-008
      1.92486951e-008 8.53110205e-009 7.91403298e-009 6.97261027e-010
      9.62629887e-009 2.55124455e-008 4.92293069e-008 7.43089714e-008
      9.03690633e-008 1.01478456e-007 1.27242672e-007 1.40424021e-007
      1.48333655e-007 1.61313594e-007 1.61769776e-007 1.56896505e-007
      1.42431361e-007 1.25189317e-007 1.05747752e-007 8.62460183e-008
      5.78833337e-008 4.10156424e-008 1.04993090e-008 -1.45888368e-008
      -3.34419319e-008 -4.33586926e-008 -4.19339798e-008
      -4.20423909e-008 -3.89726118e-008 -4.10770511e-008
      -4.57686617e-008 -5.48907515e-008 -5.26572883e-008
      -5.67883234e-008 -7.13836457e-008 -9.88708990e-008
      -1.23786705e-007 -1.37352927e-007 -1.61585987e-007
      -1.74372119e-007 -1.93352577e-007 -2.20230717e-007
      -2.56249905e-007 -2.84862637e-007 -3.09944056e-007
      -3.23069344e-007 -3.41062730e-007 -3.71996521e-007
      -3.75138114e-007 -3.86509072e-007 -3.79014693e-007
      -3.59091445e-007 -3.33301813e-007 -3.14098003e-007
      -2.79828981e-007 -2.38347326e-007 -2.02917931e-007
      -1.65050210e-007 -1.45202634e-007 -1.21751526e-007
      -1.07529011e-007 -9.57822763e-008 -8.75008084e-008
      -6.88026773e-008 -5.76712686e-008 -5.00337620e-008
      -3.42791537e-008 -2.11072653e-008 -5.77310688e-009 8.32590796e-009
      2.53278376e-008 4.34536602e-008 6.18644904e-008 7.57983329e-008
      7.87919063e-008 7.19466868e-008 7.63998926e-008 7.44381481e-008
      7.34541103e-008 7.85200811e-008 7.82731036e-008 7.55093694e-008
      6.06730524e-008 4.91359771e-008 4.65430929e-008 4.67402685e-008
      4.58389415e-008 4.36114505e-008 5.19466603e-008 5.06611073e-008
      5.51848842e-008 5.52736985e-008 6.76502907e-008 7.96062025e-008
      9.10565348e-008 9.69591838e-008 9.08452904e-008 9.11917866e-008
      8.89784673e-008 9.11673865e-008 9.03230628e-008 8.66788241e-008
      8.32692990e-008 8.35205185e-008 7.90360986e-008 6.44282707e-008
      5.50167059e-008 4.34400107e-008 2.07975077e-008 1.56222624e-009
      -1.09273346e-008 -1.62893770e-008 -2.60012758e-008
      -3.86911196e-008 -4.72315698e-008 -4.16187014e-008
      -3.82591239e-008 -2.74815708e-008 -7.15276416e-009 8.26818347e-009
      1.79787190e-008 3.09149293e-008 4.93949948e-008 6.72626896e-008
      7.58427277e-008 8.30710931e-008 8.80460078e-008 8.98175685e-008
      8.20040498e-008 8.37380156e-008 8.91272620e-008 9.01278057e-008
      8.38273806e-008 7.75295774e-008 8.55520028e-008 8.55329390e-008
      8.72125341e-008 9.00927475e-008 9.86881119e-008 9.92795393e-008
      9.77981145e-008 9.86446835e-008 1.02969032e-007 1.03225887e-007
      1.02317578e-007 9.58207522e-008 1.03511070e-007 1.13959786e-007
      1.23732704e-007 1.32370090e-007 1.42601962e-007 1.49429212e-007
      1.51893374e-007 1.61148051e-007 1.68102972e-007 1.77989591e-007
      1.78859651e-007 1.87819779e-007 1.81282644e-007 1.71059042e-007
      1.67199389e-007 1.68472511e-007 1.60298185e-007 1.49459012e-007
      1.44500859e-007 1.34761336e-007 1.29984087e-007 1.29362007e-007
      1.32091259e-007 1.45053335e-007 1.56903837e-007 1.64929830e-007
      1.80403660e-007 1.92048802e-007 2.03830723e-007 2.16891763e-007
      2.19926847e-007 2.22633588e-007 2.22907346e-007 2.13888313e-007
      2.02117775e-007 1.86921852e-007 1.73702475e-007 1.60785518e-007
      1.48755021e-007 1.38177782e-007 1.37869222e-007 1.46305183e-007
      1.57689669e-007 1.69631633e-007 1.83331210e-007 2.09209261e-007
      2.39641309e-007 2.77037856e-007 2.93930299e-007 3.11213313e-007
      3.18408553e-007 3.13540653e-007 3.00212150e-007 2.87295649e-007
      2.72429332e-007 2.57961716e-007 2.33054365e-007 2.07717434e-007
      1.94250049e-007 1.87485384e-007 1.97288486e-007 2.05638102e-007
      2.25213313e-007 2.45007016e-007 2.62687450e-007 2.77854951e-007
      2.94451553e-007 3.03157776e-007 3.15992594e-007 3.24377083e-007
      3.16336866e-007 3.05553982e-007 2.86947767e-007 2.67068913e-007
      2.44083395e-007 2.36306590e-007 2.24974428e-007 2.22512540e-007
      2.16469545e-007 2.09794905e-007 2.09166629e-007 2.11801336e-007
      2.29376525e-007 2.42585145e-007 2.62158011e-007 2.62803241e-007
      2.70057484e-007 2.63668227e-007 2.69056329e-007 2.78731846e-007
      2.82434002e-007 2.82271486e-007 2.68470899e-007 2.67139086e-007
      2.56827235e-007 2.39862260e-007 2.27776695e-007 2.21976322e-007
      2.07245080e-007 1.87175928e-007 1.69345981e-007 1.44131718e-007
      1.21360713e-007 9.57589492e-008 7.75435325e-008 6.67464946e-008
      6.46158753e-008 6.38987601e-008 7.31322487e-008 8.41815293e-008
      9.94232181e-008 1.30224166e-007 1.74312191e-007 2.01962010e-007
      2.28881760e-007 2.54814410e-007 2.72796655e-007 2.94212867e-007
      3.01711452e-007 2.99795033e-007 3.05050946e-007 3.01379458e-007
      2.88862964e-007 2.84593426e-007 2.75625808e-007 2.73588455e-007
      2.61420922e-007 2.45876521e-007 2.32090812e-007 2.35081899e-007
      2.39362862e-007 2.34550640e-007 2.37308399e-007 2.39629713e-007
      2.43659144e-007 2.44992975e-007 2.48047002e-007 2.57092807e-007
      2.60785043e-007 2.63507673e-007 2.54184954e-007 2.67474633e-007
      2.70033752e-007 2.76933037e-007 2.89101422e-007 2.99559019e-007
      3.07592273e-007 3.07411909e-007 3.11949407e-007 3.03582851e-007
      2.94681485e-007 2.74514406e-007 2.61424958e-007 2.42133638e-007
      2.25117262e-007 2.08443709e-007 1.99643495e-007 1.89103730e-007
      1.80373704e-007 1.87022394e-007 1.96483583e-007 2.02775922e-007
      2.11624752e-007 2.21324939e-007 2.25206350e-007 2.29629052e-007
      2.34101805e-007 2.46604060e-007 2.56438398e-007 2.63179572e-007
      2.66660948e-007 2.84634524e-007 2.89419120e-007 2.86416281e-007
      2.86694615e-007 2.92156983e-007 2.82507813e-007 2.72085259e-007
      2.61544045e-007 2.59590962e-007 2.58603137e-007 2.31798680e-007
      2.24897562e-007 2.23645415e-007 2.19391808e-007 2.03792993e-007
      1.99942860e-007 1.96518542e-007 1.85111773e-007 1.56539571e-007
      1.24804927e-007 1.05033855e-007 7.35369312e-008 3.38921566e-008
      -2.82135248e-009 -1.94616554e-008 -4.41216557e-008
      -6.67495783e-008 -8.06922529e-008 -8.71553425e-008
      -8.05407012e-008 -6.93825442e-008 -6.61138770e-008
      -4.88764655e-008 -1.72860393e-008 1.87582971e-009 2.33197213e-008
      3.93259008e-008 5.92124252e-008 8.72463914e-008 1.12170682e-007
      1.34057373e-007 1.60281957e-007 1.75085702e-007 1.80338134e-007
      1.92627610e-007 1.96146615e-007 2.02645225e-007 2.13065562e-007
      2.09030873e-007 2.06105952e-007 1.94682727e-007 1.83486677e-007
      1.75192199e-007 1.70376637e-007 1.50734095e-007 1.44145858e-007
      1.27570900e-007 1.15195505e-007 1.01971658e-007 8.82301947e-008
      8.24440249e-008 9.19372880e-008 1.08726837e-007 1.13811417e-007
      1.33540993e-007 1.41599827e-007 1.60775528e-007 1.66800831e-007
      1.76676281e-007 1.87492120e-007 1.95079679e-007 1.75549275e-007
      1.54145383e-007 1.34785992e-007 1.09923086e-007 8.92880152e-008
      6.15638669e-008 4.32292779e-008 3.41359083e-008 2.71733338e-008
      1.92049594e-008 2.57716568e-008 2.94856957e-008 3.51425342e-008
      5.18515542e-008 7.29777980e-008 1.01259111e-007 1.21816100e-007
      1.30046544e-007 1.45145052e-007 1.61181589e-007 1.73428802e-007
      1.87031546e-007 1.94656650e-007 1.89990558e-007 1.83083287e-007
      1.79372947e-007 1.72687649e-007 1.63348602e-007 1.69957389e-007
      1.63562532e-007 1.58820853e-007 1.51440716e-007 1.52618355e-007
      1.61493858e-007 1.65617095e-007 1.60705724e-007 1.61291837e-007
      1.65197221e-007 1.54220658e-007 1.57472201e-007 1.52880375e-007
      1.51851097e-007 1.58411098e-007 1.63037640e-007 1.69155015e-007
      1.79319429e-007 1.79034473e-007 1.81578315e-007 1.76782351e-007
      1.75357556e-007 1.77681613e-007 1.75843880e-007 1.68892242e-007
      1.59912545e-007 1.44198395e-007 1.35855331e-007 1.38741186e-007
      1.36677784e-007 1.42308224e-007 1.36530730e-007 1.38183111e-007
      1.40776905e-007 1.43374066e-007 1.45162986e-007 1.55696426e-007
      1.56144807e-007 1.67594649e-007 1.68094090e-007 1.70056595e-007
      1.76601745e-007 1.81735288e-007 1.89867436e-007 1.93697488e-007
      1.90476868e-007 1.85062973e-007 1.90198918e-007 1.82325650e-007
      1.72484576e-007 1.63378729e-007 1.57625877e-007 1.50434175e-007
      1.31111761e-007 1.14166603e-007 1.11701013e-007 1.07990765e-007
      9.71020171e-008 9.45041378e-008 9.88298439e-008 1.19103539e-007
      1.33110760e-007 1.45760481e-007 1.58296260e-007 1.68720817e-007
      1.84041966e-007 2.03752734e-007 2.28601152e-007 2.41760262e-007
      2.56509566e-007 2.65679745e-007 2.70221619e-007 2.75724858e-007
      2.87378640e-007 2.99716220e-007 2.95962735e-007 2.89607215e-007
      2.84761455e-007 2.90352347e-007 2.90019784e-007 2.84858288e-007
      2.94557054e-007 3.14545190e-007 3.39421717e-007 3.62708391e-007
      3.79252754e-007 3.93074373e-007 4.03077166e-007 4.02174123e-007
      3.87745132e-007 3.76253439e-007 3.50421004e-007 3.15845000e-007
      2.76208766e-007 2.46921985e-007 2.17956185e-007 1.92066892e-007
      1.73817511e-007 1.64926561e-007 1.65740715e-007 1.63065707e-007
      1.64729130e-007 1.62012654e-007 1.60564625e-007 1.52868878e-007
      1.50596691e-007 1.56032058e-007 1.61332892e-007 1.79648083e-007
      1.98872414e-007 2.15521382e-007 2.39305166e-007 2.72204176e-007
      3.04165809e-007 3.23722332e-007 3.41506620e-007 3.61710363e-007
      3.69748648e-007 3.67081668e-007 3.60492635e-007 3.48160711e-007
      3.24855847e-007 3.07980628e-007 2.88340203e-007 2.79554200e-007
      2.72424046e-007 2.55505711e-007 2.30017719e-007 2.14108496e-007
      1.92712918e-007 1.82729693e-007 1.66571468e-007 1.33324505e-007
      1.08250397e-007 8.52137987e-008 6.56462191e-008 4.43742394e-008
      2.73978742e-008 -2.49826138e-009 -1.93097538e-008 -3.52222997e-008
      -5.03531510e-008 -5.34867937e-008 -5.58826265e-008
      -5.86324873e-008 -5.46436887e-008 -5.05517619e-008
      -4.15338555e-008 -2.14575504e-008 -3.78427867e-009 7.61355246e-009
      2.66305520e-008 5.10908613e-008 5.91700839e-008 6.56725945e-008
      5.17897831e-008 3.41689663e-008 1.47163375e-008 -8.69268124e-009
      -3.93196018e-008 -6.27437018e-008 -9.16652851e-008
      -1.28629949e-007 -1.59135439e-007 -1.75511204e-007
      -1.80217683e-007 -1.75367632e-007 -1.61569389e-007
      -1.46456813e-007 -1.25751711e-007 -1.02509340e-007
      -7.04175562e-008 -3.41735529e-008 -2.29483363e-010 3.17793081e-008
      6.08305299e-008 8.78755912e-008 1.03632097e-007 1.15645236e-007
      1.31642224e-007 1.42866270e-007 1.44096305e-007 1.34757258e-007
      1.32819267e-007 1.23271036e-007 1.17684301e-007 1.06640634e-007
      1.00715035e-007 8.52464623e-008 7.75384521e-008 6.53637073e-008
      6.58883934e-008 7.39023065e-008 7.68194042e-008 8.49744239e-008
      9.18216898e-008 9.78139170e-008 1.06841462e-007 1.21200245e-007
      1.29111001e-007 1.39745723e-007 1.39997013e-007 1.41851771e-007
      1.36671218e-007 1.32336510e-007 1.38299015e-007 1.39299971e-007
      1.46241476e-007 1.58570813e-007 1.70463750e-007 1.84553429e-007
      1.92650688e-007 2.02741859e-007 2.19856332e-007 2.40075025e-007
      2.48163474e-007 2.68994199e-007 2.71965291e-007 2.63953922e-007
      2.43542331e-007 2.30116399e-007 2.20981988e-007 1.95683114e-007
      1.64832414e-007 1.38037862e-007 1.08076868e-007 8.15781789e-008
      5.79265098e-008 4.30329123e-008 3.84905761e-008 3.10356825e-008
      2.76116232e-008 3.41511708e-008 4.63763179e-008 5.22785477e-008
      6.55314025e-008 6.67263649e-008 7.58878755e-008 7.76123983e-008
      7.37516785e-008 7.17743944e-008 -2.76366325e-008 -2.16588436e-008
      -2.49743568e-008 -3.54397613e-008 -4.04001703e-008
      -4.68028460e-008 -5.03631483e-008 -5.17871577e-008
      -4.83216382e-008 -4.53788758e-008 -4.28117772e-008
      -4.40713457e-008 -3.79369425e-008 -3.58155496e-008
      -3.42755975e-008 -3.23705613e-008 -3.28975887e-008
      -3.09830810e-008 -2.18837073e-008 -1.89095637e-008
      -1.02142836e-008 -4.62435951e-010 5.67800607e-009 2.22518040e-008
      3.79168483e-008 5.81728230e-008 8.82533442e-008 1.06044006e-007
      1.17821529e-007 1.42176319e-007 1.61700328e-007 1.83695448e-007
      2.00811186e-007 2.20024958e-007 2.29967782e-007 2.35399526e-007
      2.31913575e-007 2.32156836e-007 2.30227087e-007 2.27533945e-007
      2.17329472e-007 2.06255862e-007 2.02735578e-007 1.95637952e-007
      1.94137002e-007 1.84399440e-007 1.76805216e-007 1.71395996e-007
      1.69900403e-007 1.64185678e-007 1.57102690e-007 1.48365388e-007
      1.36935100e-007 1.21878955e-007 1.01874491e-007 8.68799788e-008
      7.11190467e-008 6.12742213e-008 4.35502621e-008 2.75417129e-008
      1.47711177e-008 8.31182589e-009 9.15369380e-009 2.38263116e-008
      4.17497574e-008 6.54419381e-008 8.67499708e-008 1.07269358e-007
      1.38115908e-007 1.70866429e-007 2.09632589e-007 2.37277902e-007
      2.54064247e-007 2.62175121e-007 2.51794262e-007 2.40098530e-007
      2.34735552e-007 2.28210141e-007 2.14152919e-007 1.99519519e-007
      1.87449615e-007 1.77775419e-007 1.68918675e-007 1.63432659e-007
      1.60033835e-007 1.66664577e-007 1.58135833e-007 1.48393525e-007
      1.42125671e-007 1.44974166e-007 1.53159775e-007 1.70855984e-007
      1.96765313e-007 2.23876015e-007 2.51989434e-007 2.76224199e-007
      2.98564856e-007 3.24014223e-007 3.41464045e-007 3.55749648e-007
      3.55172688e-007 3.45502912e-007 3.26487537e-007 3.08737782e-007
      2.93906453e-007 2.82901681e-007 2.77750502e-007 2.78114612e-007
      2.80476939e-007 2.91579113e-007 3.13738838e-007 3.41156920e-007
      3.83015475e-007 4.15724742e-007 4.48470956e-007 4.66023039e-007
      4.68643236e-007 4.73753346e-007 4.68937145e-007 4.50722609e-007
      4.26748244e-007 3.97346497e-007 3.58387979e-007 3.31721765e-007
      3.00270699e-007 2.73136237e-007 2.70955923e-007 2.61843979e-007
      2.60100933e-007 2.59742279e-007 2.63568126e-007 2.64010481e-007
      2.65401042e-007 2.55758664e-007 2.54169549e-007 2.62569472e-007
      2.67466021e-007 2.73438843e-007 2.75278381e-007 2.74971541e-007
      2.62719823e-007 2.45602621e-007 2.26808226e-007 2.03755661e-007
      1.75226020e-007 1.63043794e-007 1.59184296e-007 1.51289129e-007
      1.48665862e-007 1.46648489e-007 1.53410838e-007 1.58108094e-007
      1.66774512e-007 1.77625054e-007 1.92617478e-007 1.72537511e-007
      1.46233418e-007 1.07926560e-007 7.70652591e-008 4.18458477e-008
      -8.13994927e-010 -4.82990856e-008 -1.01262458e-007
      -1.44212706e-007 -1.82074189e-007 -1.92554950e-007
      -1.88729700e-007 -1.74567461e-007 -1.60466612e-007
      -1.45384575e-007 -1.13684358e-007 -7.01914189e-008
      -2.21470202e-008 2.91463191e-008 6.42679723e-008 8.95766021e-008
      1.06293029e-007 1.22345483e-007 1.39148227e-007 1.62223216e-007
      1.71089070e-007 1.83337960e-007 1.96098412e-007 2.08192475e-007
      2.18317936e-007 2.29593923e-007 2.36060600e-007 2.44315089e-007
      2.53237147e-007 2.52942641e-007 2.57579330e-007 2.59196526e-007
      2.48923357e-007 2.30346288e-007 2.08860044e-007 1.89639366e-007
      1.68029430e-007 1.41937846e-007 1.22783220e-007 1.00564968e-007
      7.83228842e-008 6.82438497e-008 6.48291447e-008 6.61248478e-008
      7.60437970e-008 8.62895391e-008 8.92184744e-008 9.89820848e-008
      1.02331320e-007 1.20253617e-007 1.35795247e-007 1.38283497e-007
      1.35702294e-007 1.23332967e-007 1.18935560e-007 1.09527797e-007
      1.08763501e-007 1.07136145e-007 1.08285292e-007 9.95481173e-008
      9.54360715e-008 9.46267846e-008 9.64342632e-008 1.05460330e-007
      1.01025599e-007 1.05604990e-007 1.07544906e-007 1.08132497e-007
      9.98273677e-008 9.51118722e-008 8.93343426e-008 8.03274531e-008
      7.19276017e-008 6.37726103e-008 6.08426092e-008 4.87570340e-008
      3.98399607e-008 4.21645403e-008 4.29019273e-008 4.79505786e-008
      5.47185479e-008 5.67184841e-008 6.56932002e-008 7.66568036e-008
      8.69101626e-008 9.56756026e-008 1.03617580e-007 9.52578745e-008
      8.61446523e-008 7.84502490e-008 6.83349626e-008 5.65183562e-008
      4.10395202e-008 2.13266755e-008 4.76661732e-009 -3.91806410e-009
      -6.13958440e-009 1.28287536e-009 7.71521069e-009 1.04999636e-008
      1.18332348e-008 1.56476148e-008 2.57355204e-008 3.62409338e-008
      4.32803340e-008 4.38059047e-008 4.31520917e-008 4.39800409e-008
      3.67905422e-008 2.77138703e-008 1.32259794e-008 -8.92415830e-009
      -3.92882171e-008 -8.35992253e-008 -1.29048573e-007
      -1.71965866e-007 -2.19107434e-007 -2.57955890e-007
      -2.92799513e-007 -3.15058827e-007 -3.36042461e-007
      -3.48052509e-007 -3.48175348e-007 -3.36464893e-007
      -3.19934344e-007 -3.02725397e-007 -2.79734309e-007
      -2.59376606e-007 -2.33392825e-007 -2.15148205e-007
      -1.92494369e-007 -1.79471058e-007 -1.68392674e-007
      -1.53675160e-007 -1.36048413e-007 -1.21731972e-007
      -1.05182906e-007 -9.45354302e-008 -9.46556256e-008
      -9.76324657e-008 -1.21286050e-007 -1.30425562e-007
      -1.43935807e-007 -1.63573219e-007 -1.83117692e-007
      -2.06283602e-007 -2.31362847e-007 -2.49907487e-007
      -2.54800142e-007 -2.46456494e-007 -2.17834071e-007
      -1.83821243e-007 -1.46867634e-007 -1.18079093e-007
      -8.63509939e-008 -6.12751165e-008 -5.82446837e-008
      -7.56855698e-008 -1.04200623e-007 -1.45184543e-007
      -2.02696299e-007 -2.63558746e-007 -3.31095265e-007
      -3.89546869e-007 -4.45150363e-007 -4.96143741e-007
      -5.19522757e-007 -5.13212171e-007 -4.94989536e-007
      -4.74598721e-007 -4.35567699e-007 -4.08210781e-007
      -3.73669678e-007 -3.28471231e-007 -2.91491062e-007
      -2.53177831e-007 -2.28735274e-007 -2.16978961e-007
      -2.16127532e-007 -2.04710020e-007 -1.99088873e-007
      -1.83933921e-007 -1.78573345e-007 -1.78242260e-007
      -1.80821857e-007 -1.77822471e-007 -1.68340094e-007
      -1.60707430e-007 -1.52864132e-007 -1.47122236e-007
      -1.44415566e-007 -1.46926382e-007 -1.42936685e-007
      -1.32751993e-007 -1.21912819e-007 -1.14300107e-007
      -1.11141823e-007 -1.07107191e-007 -1.03010052e-007
      -1.00776319e-007 -9.59571622e-008 -9.65801235e-008
      -9.93792924e-008 -1.07795351e-007 -1.18058431e-007
      -1.20023572e-007 -1.23890629e-007 -1.17453432e-007
      -1.04464647e-007 -8.65084644e-008 -6.68616593e-008
      -3.76161786e-008 -1.61082037e-009 4.22607620e-008 8.97458392e-008
      1.30209628e-007 1.61447630e-007 1.70420620e-007 1.84394949e-007
      1.97637263e-007 1.88879014e-007 1.72710756e-007 1.50052642e-007
      1.18355196e-007 8.16021739e-008 5.30597397e-008 4.00753102e-008
      3.32650032e-008 1.47433434e-008 -6.48047171e-009 -1.05201554e-008
      -4.23455004e-009 -5.44430234e-009 -5.21859556e-010 3.82017262e-009
      1.30074014e-008 1.79362125e-008 2.84389170e-008 3.72499009e-008
      4.44584920e-008 5.37327054e-008 6.42165432e-008 7.75993740e-008
      8.12157595e-008 9.64371196e-008 1.02916836e-007 1.07980803e-007
      1.20886853e-007 1.45034619e-007 1.59987835e-007 1.72819597e-007
      1.78310387e-007 1.91387912e-007 2.16239897e-007 2.41864456e-007
      2.67184987e-007 3.03128701e-007 3.24717917e-007 3.45760526e-007
      3.72340423e-007 3.97809742e-007 4.10070555e-007 4.17351288e-007
      4.15477615e-007 4.05895548e-007 4.02907517e-007 3.88442174e-007
      3.73187817e-007 3.55964573e-007 3.38854505e-007 3.16730819e-007
      3.16352242e-007 3.14670217e-007 3.06963159e-007 3.05456922e-007
      2.87284678e-007 2.73081099e-007 2.66634373e-007 2.54052708e-007
      2.35618387e-007 2.20621217e-007 2.02196475e-007 1.88555831e-007
      1.83505563e-007 1.72973117e-007 1.56351177e-007 1.38869069e-007
      1.18120631e-007 9.57329576e-008 7.94028097e-008 6.09019892e-008
      4.04300842e-008 1.49288297e-008 -2.06111253e-008 -5.62705971e-008
      -7.70109807e-008 -1.11706427e-007 -1.54528223e-007
      -1.93252873e-007 -2.28972056e-007 -2.50489563e-007
      -2.54920025e-007 -2.38292273e-007 -2.17402516e-007
      -1.94305571e-007 -1.67474155e-007 -1.33026191e-007
      -8.22394384e-008 -3.41424453e-008 1.35760150e-008 4.46983073e-008
      6.22085210e-008 7.10765136e-008 7.97605750e-008 9.51594643e-008
      9.84955406e-008 1.05416355e-007 1.14589895e-007 1.23147174e-007
      1.27464261e-007 1.37450087e-007 1.42138106e-007 1.46023297e-007
      1.46391884e-007 1.47537492e-007 1.44582813e-007 1.40216315e-007
      1.36686396e-007 1.31888086e-007 1.21954415e-007 1.20182662e-007
      1.16872762e-007 1.10968699e-007 9.99034881e-008 9.30937532e-008
      9.19778458e-008 9.04982187e-008 8.59984368e-008 9.03913602e-008
      1.00618230e-007 9.70863070e-008 9.97719383e-008 1.04487768e-007
      1.02987379e-007 1.00868391e-007 9.84823743e-008 9.81622250e-008
      1.02058713e-007 9.65262430e-008 9.21383077e-008 9.57233084e-008
      8.75336283e-008 8.38454213e-008 9.46238217e-008 1.03677742e-007
      1.13978871e-007 1.15661145e-007 1.23877925e-007 1.30183679e-007
      1.39585310e-007 1.51521633e-007 1.77926267e-007 1.96816217e-007
      2.04986705e-007 2.12509164e-007 2.14576332e-007 2.17188969e-007
      2.11381249e-007 1.98153273e-007 1.83156800e-007 1.68073925e-007
      1.50292166e-007 1.33979938e-007 1.18726355e-007 1.03650166e-007
      8.96644679e-008 7.91341748e-008 7.10413204e-008 6.83261447e-008
      6.76848231e-008 7.06172116e-008 6.43353815e-008 6.34912212e-008
      5.75205910e-008 4.84805938e-008 4.03239824e-008 3.37689627e-008
      3.15856390e-008 3.17849889e-008 2.79194694e-008 1.67542193e-008
      1.59979443e-008 1.15737908e-008 1.08042224e-008 1.20128192e-008
      1.65900182e-008 1.55518727e-008 1.99064036e-008 2.12096083e-008
      3.62938835e-008 4.59670453e-008 5.72528229e-008 7.52586615e-008
      1.03951983e-007 1.32674217e-007 1.58568810e-007 1.89124762e-007
      2.14996959e-007 2.45128092e-007 2.67922786e-007 2.85592961e-007
      2.97745032e-007 3.03416556e-007 2.91543387e-007 2.73735367e-007
      2.54930967e-007 2.32386171e-007 2.04416949e-007 1.69647251e-007
      1.31280515e-007 9.36652640e-008 5.77896451e-008 1.76623676e-008
      -1.93446947e-008 -5.75965480e-008 -9.32229582e-008
      -1.27139415e-007 -1.59025731e-007 -1.81888765e-007
      -1.80709534e-007 -1.63794269e-007 -1.43890972e-007
      -1.13662608e-007 -7.95437671e-008 -4.12384402e-008 3.64321640e-009
      5.21527319e-008 1.01159884e-007 1.46548757e-007 1.76137590e-007
      1.95393213e-007 2.06229956e-007 2.10275203e-007 2.19928538e-007
      2.28877880e-007 2.35124730e-007 2.28386455e-007 2.26505122e-007
      2.21015355e-007 2.14577383e-007 2.09063302e-007 2.05679058e-007
