<?xml version="1.0"?>
<opencv_storage>
<my_svm type_id="opencv-ml-svm">
  <svm_type>C_SVC</svm_type>
  <kernel><type>LINEAR</type></kernel>
  <C>1.0000000000000001e-001</C>
  <term_criteria><epsilon>2.2204460492503131e-016</epsilon>
    <iterations>96</iterations></term_criteria>
  <var_all>60000</var_all>
  <var_count>60000</var_count>
  <class_count>2</class_count>
  <class_labels type_id="opencv-matrix">
    <rows>1</rows>
    <cols>2</cols>
    <dt>i</dt>
    <data>
      0 1</data></class_labels>
  <sv_total>1</sv_total>
  <support_vectors>
    <_>
      7.16865713e-008 6.34325872e-008 7.02203309e-008 6.40063362e-008
      6.75927296e-008 6.71606912e-008 7.43965884e-008 6.76813485e-008
      6.72289957e-008 7.09209402e-008 7.28001410e-008 6.98275500e-008
      7.00431997e-008 6.77294523e-008 7.01397482e-008 6.67378472e-008
      6.62412916e-008 6.49392859e-008 7.38120960e-008 6.88926676e-008
      7.07076424e-008 6.87630290e-008 6.79170427e-008 7.10715398e-008
      6.80686654e-008 6.86243666e-008 7.47778728e-008 6.63620270e-008
      6.56707755e-008 7.22289428e-008 6.61110917e-008 6.72016753e-008
      6.88697881e-008 6.97576894e-008 6.94279976e-008 6.61590391e-008
      7.33258361e-008 6.79310972e-008 6.61212738e-008 6.65598563e-008
      6.61856419e-008 6.46328218e-008 6.52714149e-008 6.42635740e-008
      6.30926493e-008 6.42872209e-008 6.60008865e-008 6.70265123e-008
      6.55793571e-008 6.23790228e-008 6.16952107e-008 5.90909686e-008
      5.96278227e-008 5.83204240e-008 5.98793974e-008 6.20072456e-008
      6.55568257e-008 6.43492868e-008 6.53017054e-008 6.04746901e-008
      6.65984956e-008 6.26047481e-008 6.33873185e-008 6.15179161e-008
      5.82349635e-008 6.38264055e-008 6.16515692e-008 5.95764504e-008
      6.22365164e-008 6.02946670e-008 6.44815614e-008 6.68646223e-008
      6.29226449e-008 6.60419559e-008 5.97533258e-008 6.59379396e-008
      6.55073435e-008 6.29210817e-008 6.27950456e-008 6.18668352e-008
      6.44097184e-008 5.73465826e-008 6.07655295e-008 5.97674230e-008
      5.21106784e-008 5.25737143e-008 5.31864188e-008 5.58657831e-008
      4.59875622e-008 4.52729303e-008 4.42641088e-008 4.82876246e-008
      4.04928038e-008 4.75925788e-008 4.61938043e-008 4.73339234e-008
      5.00415673e-008 5.64336204e-008 5.92585465e-008 7.04624412e-008
      6.91520441e-008 7.48172511e-008 7.94781059e-008 8.73298163e-008
      9.00399826e-008 8.54013962e-008 9.20432228e-008 7.95151607e-008
      8.16782091e-008 7.95103290e-008 7.32631946e-008 7.18622886e-008
      6.51946479e-008 7.42147463e-008 5.48730661e-008 5.90442042e-008
      5.11904155e-008 4.73054769e-008 4.62235263e-008 4.03431244e-008
      4.38197496e-008 4.40103065e-008 4.15299155e-008 4.45528094e-008
      4.17198791e-008 3.84787775e-008 4.08942675e-008 4.54011335e-008
      3.94279809e-008 4.25462794e-008 4.05268032e-008 3.92638242e-008
      3.67485171e-008 4.42878729e-008 3.49606033e-008 3.58859218e-008
      3.70866111e-008 4.24615827e-008 3.62284922e-008 4.24761417e-008
      4.46759856e-008 4.20260484e-008 4.72626986e-008 4.30540901e-008
      4.74720849e-008 5.06253706e-008 5.30953486e-008 5.41993117e-008
      5.17014378e-008 5.46708776e-008 5.46501795e-008 6.30673753e-008
      5.77142423e-008 6.53087895e-008 6.08879773e-008 5.89921783e-008
      5.88706328e-008 6.21186089e-008 6.29708410e-008 6.57148931e-008
      6.29136210e-008 5.94374470e-008 6.77410270e-008 6.31649968e-008
      6.65412401e-008 6.72913956e-008 6.14412770e-008 6.47829452e-008
      6.14485742e-008 6.39380815e-008 6.47810978e-008 6.26720933e-008
      6.48146568e-008 6.27518517e-008 6.74879672e-008 6.56307222e-008
      6.68399736e-008 6.67675337e-008 6.68389362e-008 6.63278996e-008
      6.41301270e-008 6.50414407e-008 6.29453183e-008 7.33000505e-008
      6.66615989e-008 6.37627693e-008 6.84564014e-008 6.86157691e-008
      6.44143086e-008 6.94757176e-008 7.00413736e-008 6.91971849e-008
      6.97281664e-008 7.15720745e-008 6.96251021e-008 7.42085220e-008
      7.33734495e-008 7.40090869e-008 8.19475190e-008 7.79502898e-008
      7.60048593e-008 8.20656396e-008 7.70277495e-008 7.96421133e-008
      7.98428772e-008 7.90960328e-008 7.94462807e-008 7.97357345e-008
      7.53742384e-008 7.43344728e-008 8.36589535e-008 7.48007452e-008
      7.19362347e-008 6.92606221e-008 7.65130110e-008 7.77381786e-008
      7.00900529e-008 7.28643457e-008 7.46241113e-008 7.01198317e-008
      7.38517087e-008 7.36702930e-008 7.53770593e-008 7.52675504e-008
      8.37023109e-008 7.21980769e-008 7.19104492e-008 7.17925488e-008
      7.33923287e-008 7.52665485e-008 7.57488650e-008 7.00225158e-008
      7.26469978e-008 7.15389490e-008 7.22035196e-008 7.30816296e-008
      7.62323040e-008 6.78692871e-008 7.58556311e-008 6.99884595e-008
      7.59026690e-008 7.24087741e-008 6.69641906e-008 7.09662089e-008
      6.67484059e-008 6.87965951e-008 6.42810107e-008 6.67598457e-008
      6.00563297e-008 6.40138182e-008 5.87413247e-008 5.66055682e-008
      5.41243956e-008 4.98093478e-008 4.53692337e-008 4.53330600e-008
      4.25233644e-008 4.36660450e-008 4.74406043e-008 4.81977303e-008
      4.80924349e-008 5.51144517e-008 5.40121228e-008 5.57168782e-008
      6.02621100e-008 6.28806021e-008 5.95669150e-008 5.96917360e-008
      6.28361789e-008 5.94199854e-008 5.73052255e-008 6.28802397e-008
      5.87418825e-008 5.63017046e-008 5.92564859e-008 6.00434404e-008
      6.49586624e-008 6.17177704e-008 5.95695475e-008 6.08266717e-008
      5.83602038e-008 6.01353420e-008 7.39306145e-008 6.27103987e-008
      6.45136637e-008 6.73396201e-008 7.49474296e-008 7.03286105e-008
      6.43817160e-008 7.16720550e-008 6.66316637e-008 7.25563822e-008
      6.57490702e-008 6.36698232e-008 6.47948326e-008 6.19955216e-008
      6.21290610e-008 6.21896987e-008 6.47879048e-008 6.57061747e-008
      6.45899050e-008 6.37242579e-008 6.00086310e-008 5.97504979e-008
      6.29307380e-008 7.30957836e-008 5.86024349e-008 6.43353530e-008
      6.00123542e-008 5.78645576e-008 6.18260003e-008 5.28564073e-008
      5.76394186e-008 5.97915246e-008 6.31086010e-008 5.82103752e-008
      6.29131094e-008 5.97691852e-008 6.15336617e-008 6.80606718e-008
      6.35698925e-008 6.04380546e-008 6.65997106e-008 7.01063456e-008
      6.52192185e-008 5.73834598e-008 5.78636197e-008 5.89691318e-008
      6.17010230e-008 6.02277552e-008 5.32246816e-008 5.64164182e-008
      5.95290750e-008 5.83200404e-008 5.49735972e-008 5.62057814e-008
      5.92947025e-008 5.81690927e-008 5.50638823e-008 5.59498829e-008
      5.56086057e-008 5.59236852e-008 6.24155945e-008 5.60626567e-008
      6.08843251e-008 6.25059826e-008 6.28669170e-008 6.30858281e-008
      6.36346087e-008 6.64001192e-008 6.49821317e-008 6.56070753e-008
      6.57939125e-008 6.61861961e-008 5.95965695e-008 5.38666107e-008
      4.87290031e-008 4.24958273e-008 4.35525820e-008 4.03282598e-008
      3.99097644e-008 3.50677567e-008 3.25154232e-008 2.70831819e-008
      3.33849179e-008 2.86827166e-008 2.97842160e-008 3.40505686e-008
      3.62753205e-008 3.35398269e-008 3.53801681e-008 4.25079669e-008
      3.46925333e-008 3.81954983e-008 4.04639700e-008 3.95261530e-008
      3.84286309e-008 3.88417156e-008 3.59827332e-008 3.54798786e-008
      3.65753827e-008 3.48297320e-008 3.91965251e-008 3.81901089e-008
      4.02261406e-008 3.40094708e-008 3.78797189e-008 4.08778575e-008
      3.83474799e-008 3.57875578e-008 4.27853522e-008 4.08231955e-008
      4.35786269e-008 4.11639434e-008 5.33915419e-008 4.74139696e-008
      5.11044327e-008 4.64550638e-008 5.51833210e-008 4.98674275e-008
      4.87830469e-008 5.36846372e-008 5.61027917e-008 5.36883249e-008
      6.02567098e-008 5.46195906e-008 5.89906151e-008 6.02986034e-008
      6.10308888e-008 5.79459467e-008 5.99501746e-008 6.41538165e-008
      6.16575448e-008 6.53460859e-008 6.24237799e-008 6.09072970e-008
      6.75701415e-008 6.09214723e-008 6.45471374e-008 6.09560402e-008
      5.91823621e-008 5.93154361e-008 6.13146938e-008 5.73791255e-008
      5.82963153e-008 6.33852295e-008 6.07128285e-008 6.12413800e-008
      6.16535800e-008 6.17213303e-008 6.25924912e-008 6.64939890e-008
      6.53559837e-008 6.82486814e-008 6.88749182e-008 7.37754249e-008
      7.74537767e-008 7.59755707e-008 7.81709062e-008 7.41143324e-008
      8.23766015e-008 7.70730040e-008 8.18581896e-008 8.11938392e-008
      8.12705068e-008 8.00682045e-008 8.36846183e-008 8.12707128e-008
      8.13778271e-008 8.09383636e-008 8.09503788e-008 8.67630945e-008
      7.82436302e-008 7.86105403e-008 8.30313951e-008 7.85509258e-008
      8.11539422e-008 8.30352320e-008 7.78323255e-008 8.20777259e-008
      8.13731731e-008 8.03436109e-008 8.13305761e-008 7.85313077e-008
      8.38518588e-008 8.18391399e-008 8.37164364e-008 8.09065668e-008
      8.29466273e-008 7.95310768e-008 7.62522276e-008 8.49065387e-008
      7.61273213e-008 7.48548459e-008 7.82934109e-008 7.92908779e-008
      7.69378516e-008 7.49765832e-008 7.54342366e-008 7.80504692e-008
      7.65322810e-008 7.23967446e-008 7.39905133e-008 7.40246833e-008
      7.23136608e-008 6.99967586e-008 6.88774406e-008 7.22428908e-008
      6.76689424e-008 7.07208372e-008 7.39361070e-008 6.74138860e-008
      7.36564232e-008 7.06734440e-008 7.40461132e-008 6.64389859e-008
      6.71683935e-008 6.37718642e-008 6.66646898e-008 6.44647216e-008
      7.00517688e-008 6.89372257e-008 6.27978025e-008 6.62133743e-008
      6.18252329e-008 6.22482617e-008 6.16576585e-008 6.87159059e-008
      6.64519675e-008 6.72960283e-008 6.69570284e-008 6.21044904e-008
      6.79271324e-008 6.46930260e-008 6.37631459e-008 6.36221600e-008
      5.97705778e-008 6.18188096e-008 6.16570119e-008 5.91202820e-008
      5.83694515e-008 5.92157505e-008 5.70591006e-008 5.73996743e-008
      6.31247730e-008 6.13356548e-008 6.73165559e-008 6.01832539e-008
      6.27682297e-008 6.76167389e-008 6.90248427e-008 7.29696552e-008
      6.85807819e-008 7.19161761e-008 6.91240842e-008 7.13201374e-008
      6.79625884e-008 6.65966553e-008 6.59590285e-008 6.82400341e-008
      6.14751130e-008 6.54089476e-008 6.76648853e-008 6.48842686e-008
      6.03450303e-008 6.83020644e-008 6.09859967e-008 6.08050073e-008
      6.50004282e-008 6.68944722e-008 6.57878942e-008 6.24958361e-008
      6.16823996e-008 7.14996702e-008 6.88559680e-008 6.66250060e-008
      6.45486722e-008 6.52076579e-008 6.66067521e-008 6.80078713e-008
      6.75176324e-008 6.57232135e-008 6.36832809e-008 6.53448495e-008
      6.57327774e-008 6.24847303e-008 5.90133169e-008 5.82512598e-008
      5.91614793e-008 5.96777809e-008 5.29733626e-008 4.66704790e-008
      4.63214889e-008 4.98084098e-008 4.25045812e-008 3.91246253e-008
      3.91673396e-008 4.34133121e-008 4.21629913e-008 4.35244303e-008
      5.31099751e-008 4.91506498e-008 5.21217345e-008 6.24273966e-008
      5.96782286e-008 6.43730829e-008 6.46494271e-008 6.60245547e-008
      6.95202758e-008 6.87337334e-008 6.71504239e-008 7.79273179e-008
      7.26753342e-008 6.96666689e-008 7.32624201e-008 7.61216654e-008
      7.37567802e-008 6.89875321e-008 7.14704456e-008 6.54923795e-008
      6.22431457e-008 5.77094106e-008 5.73707553e-008 5.75851189e-008
      5.13811926e-008 4.51794477e-008 4.67169947e-008 4.17656274e-008
      4.66833399e-008 4.31255245e-008 4.57041445e-008 4.71906674e-008
      4.84646314e-008 4.60887151e-008 5.04853972e-008 4.81403468e-008
      4.80647948e-008 4.52143603e-008 4.89404499e-008 5.65172975e-008
      4.64880614e-008 4.93428516e-008 5.17637950e-008 4.71735966e-008
      4.99515735e-008 5.26793968e-008 4.58448888e-008 4.70438870e-008
      4.84928186e-008 5.25138084e-008 4.73762931e-008 4.88726002e-008
      4.93819421e-008 5.60491529e-008 5.60179885e-008 5.41026033e-008
      6.03684711e-008 5.92781930e-008 5.82602588e-008 5.59712348e-008
      5.78094372e-008 6.01869772e-008 6.81095287e-008 6.40798987e-008
      6.22790850e-008 6.47870593e-008 6.56047874e-008 7.14324742e-008
      6.79149892e-008 6.43163673e-008 7.21033899e-008 6.97619598e-008
      6.57126051e-008 6.92253934e-008 6.98584799e-008 6.90224837e-008
      6.65001991e-008 6.75006220e-008 7.11548509e-008 6.64371598e-008
      6.67834854e-008 7.36032533e-008 6.66869369e-008 7.79182869e-008
      7.00291025e-008 6.91455639e-008 7.26307832e-008 7.56787415e-008
      7.50550342e-008 7.65426407e-008 7.09014643e-008 7.87663552e-008
      7.35483141e-008 7.59233032e-008 7.36270707e-008 7.49540874e-008
      6.87559947e-008 7.12536874e-008 7.12491754e-008 8.00064228e-008
      7.50760591e-008 7.13335666e-008 7.26046920e-008 7.05745009e-008
      7.15804305e-008 7.78230600e-008 6.96582205e-008 7.53574341e-008
      7.69722561e-008 7.36569703e-008 8.10280198e-008 7.20870688e-008
      7.57909149e-008 7.95689985e-008 7.65913555e-008 7.92497303e-008
      7.84455381e-008 8.07581415e-008 7.72355477e-008 7.73155051e-008
      7.80643035e-008 7.81138638e-008 8.10913576e-008 7.98986193e-008
      8.16332530e-008 7.66547075e-008 8.05822467e-008 8.07336349e-008
      7.89634385e-008 7.81837883e-008 8.13927770e-008 7.93060906e-008
      7.73236408e-008 8.10724572e-008 7.82525120e-008 7.36190913e-008
      7.96731996e-008 6.91400643e-008 7.24608284e-008 6.82009471e-008
      6.67943212e-008 6.27353032e-008 6.63618351e-008 6.28430783e-008
      6.51256187e-008 6.16715568e-008 6.28131360e-008 6.44437677e-008
      6.60907205e-008 6.22193426e-008 6.21290823e-008 6.41379998e-008
      6.35785682e-008 6.37866151e-008 6.33013499e-008 5.57441773e-008
      5.95250427e-008 5.63111655e-008 5.37918758e-008 5.80669628e-008
      5.73929810e-008 5.65766740e-008 5.08234947e-008 4.87001941e-008
      5.13291205e-008 5.09737923e-008 5.14450349e-008 5.52819195e-008
      5.32813260e-008 5.81511728e-008 6.07543242e-008 5.86849325e-008
      6.59850556e-008 5.96385803e-008 6.63113795e-008 6.18899350e-008
      6.23757330e-008 5.33190025e-008 5.52139134e-008 5.23637205e-008
      4.85255534e-008 5.39399743e-008 4.48944490e-008 5.21546504e-008
      5.28142721e-008 5.61935138e-008 5.34355351e-008 5.13612655e-008
      5.44327357e-008 5.50911246e-008 5.64481866e-008 5.78262274e-008
      6.46535412e-008 6.35660626e-008 5.94856147e-008 6.13171096e-008
      6.64539144e-008 6.29736263e-008 6.30957260e-008 6.30556016e-008
      6.34528519e-008 6.13290254e-008 5.87683644e-008 6.58518005e-008
      6.56482726e-008 5.99685421e-008 6.20800833e-008 6.08183726e-008
      6.30011670e-008 5.70453587e-008 6.14944398e-008 5.93546616e-008
      6.18974809e-008 6.23281622e-008 5.73780454e-008 6.19791081e-008
      6.19168503e-008 5.52445698e-008 5.81172408e-008 5.86680819e-008
      5.54415607e-008 5.59866145e-008 5.37931264e-008 5.70140521e-008
      5.60971287e-008 5.90907305e-008 6.32086667e-008 5.56617721e-008
      5.70073517e-008 5.86772231e-008 5.24983079e-008 5.83099684e-008
      5.21223242e-008 5.06567517e-008 5.45500605e-008 5.20569543e-008
      5.51944517e-008 5.02768032e-008 5.50128973e-008 5.56193633e-008
      4.77626898e-008 5.08054612e-008 5.43565974e-008 5.18375138e-008
      5.73229961e-008 5.11130267e-008 5.25666515e-008 5.22752046e-008
      5.27432178e-008 5.65744500e-008 5.30362172e-008 5.44565033e-008
      5.42754677e-008 5.22567696e-008 5.76766652e-008 6.15910167e-008
      6.36644373e-008 6.76509373e-008 6.79478092e-008 7.33455963e-008
      7.21762987e-008 6.74660185e-008 7.47430988e-008 6.89181476e-008
      6.83137671e-008 6.05694481e-008 6.30033909e-008 5.62907161e-008
      5.02713142e-008 4.91351244e-008 4.79875020e-008 4.73258979e-008
      4.01456077e-008 3.78272631e-008 3.73171467e-008 3.95191257e-008
      3.70693307e-008 4.47046489e-008 4.51974671e-008 4.08746033e-008
      3.69439519e-008 3.76241758e-008 4.13525818e-008 4.01967597e-008
      4.05080840e-008 3.98837017e-008 3.57495544e-008 4.01586355e-008
      4.15055261e-008 3.92315123e-008 3.86574648e-008 4.35823573e-008
      4.00454958e-008 4.02658138e-008 5.05991444e-008 4.68883776e-008
      5.09803080e-008 4.49382469e-008 4.76447291e-008 5.27799280e-008
      4.66775028e-008 5.37709965e-008 5.13816545e-008 5.16889749e-008
      4.88596221e-008 5.05626829e-008 4.86900582e-008 4.87943979e-008
      5.23433137e-008 4.93287082e-008 4.49256703e-008 4.38285817e-008
      4.42648087e-008 4.60372007e-008 4.74105519e-008 5.12343021e-008
      4.83295892e-008 6.10535409e-008 6.17587190e-008 5.73884620e-008
      6.27838901e-008 6.50563905e-008 6.84615316e-008 6.92069690e-008
      7.56716645e-008 6.84702286e-008 7.61445946e-008 7.31552134e-008
      7.31655518e-008 6.76189487e-008 7.12501489e-008 7.05992278e-008
      7.06873777e-008 6.81488572e-008 7.43397166e-008 7.05091381e-008
      6.96684097e-008 7.31492236e-008 7.08138828e-008 7.34646193e-008
      7.31000966e-008 7.52893143e-008 6.95513478e-008 7.34694154e-008
      7.36524157e-008 7.32007166e-008 7.26107530e-008 7.31488186e-008
      7.54017648e-008 7.51753646e-008 7.21216509e-008 7.51462110e-008
      8.04925264e-008 8.10640230e-008 7.68668187e-008 7.49762279e-008
      8.07637548e-008 8.14074994e-008 7.63679679e-008 7.59481935e-008
      7.97456678e-008 7.42874491e-008 7.46564979e-008 7.28309786e-008
      7.36096837e-008 7.97456323e-008 7.86653658e-008 7.57859766e-008
      7.82829233e-008 8.10022769e-008 7.48404787e-008 7.53069855e-008
      7.43595976e-008 7.16684170e-008 7.13703017e-008 7.22381728e-008
      7.23842390e-008 6.87865267e-008 6.58989521e-008 6.58829080e-008
      6.33661301e-008 6.39343085e-008 6.28354400e-008 7.07824199e-008
      6.97374176e-008 7.49345688e-008 7.37481685e-008 7.02720158e-008
      7.90495776e-008 7.45602051e-008 6.99839049e-008 7.44437330e-008
      7.00654113e-008 6.87534722e-008 6.56740227e-008 7.62711778e-008
      6.75565701e-008 6.36968807e-008 6.35584314e-008 6.83579842e-008
      6.92885749e-008 6.48732907e-008 6.26481125e-008 6.52991332e-008
      6.73999523e-008 6.55106192e-008 6.96867914e-008 6.19879899e-008
      6.44818599e-008 6.22648457e-008 6.52835226e-008 6.34122301e-008
      6.26690095e-008 6.11176674e-008 6.46846559e-008 6.66315287e-008
      6.37154685e-008 6.19430907e-008 6.00405201e-008 5.88415894e-008
      6.25170884e-008 6.16754861e-008 6.17809519e-008 6.20768787e-008
      6.18321323e-008 6.27458689e-008 6.71060505e-008 6.56061303e-008
      7.12491754e-008 6.71009914e-008 7.45060049e-008 7.45060191e-008
      7.28009155e-008 7.21931102e-008 7.43187130e-008 6.82610946e-008
      6.71324898e-008 6.93160587e-008 6.75248941e-008 6.85212243e-008
      6.75258534e-008 6.36621209e-008 6.70473028e-008 6.49319176e-008
      6.33867998e-008 6.05246981e-008 5.90290625e-008 5.74467904e-008
      6.16705194e-008 5.47371215e-008 5.95261724e-008 5.84948729e-008
      5.78931463e-008 5.91297074e-008 6.02306329e-008 6.32609201e-008
      5.78590473e-008 5.52363915e-008 6.04776531e-008 5.49868560e-008
      5.77546189e-008 5.70356171e-008 5.96710521e-008 5.38991962e-008
      5.41777219e-008 5.44113838e-008 5.67707872e-008 5.58395428e-008
      5.28710906e-008 5.72735459e-008 5.94371166e-008 6.15844158e-008
      5.97633090e-008 5.72924002e-008 6.13353350e-008 5.74619357e-008
      5.70498067e-008 6.13210602e-008 5.81058579e-008 6.39926583e-008
      6.30848618e-008 5.90444280e-008 6.04398736e-008 6.07940720e-008
      6.17913045e-008 6.21351717e-008 6.60547670e-008 6.63859367e-008
      6.62683632e-008 6.54550760e-008 6.98626934e-008 6.34710560e-008
      6.72600535e-008 5.94369283e-008 6.70021834e-008 6.64058533e-008
      5.85963811e-008 6.07931767e-008 5.95695013e-008 6.74785312e-008
      6.35903987e-008 6.39070450e-008 6.72985863e-008 7.01813576e-008
      6.53856560e-008 6.35592912e-008 6.26712193e-008 5.84394542e-008
      5.61388909e-008 5.52900943e-008 5.09198550e-008 4.52576572e-008
      3.86585413e-008 3.05482750e-008 3.33958319e-008 2.49732395e-008
      2.49432155e-008 2.77954708e-008 2.73723231e-008 2.76775101e-008
      3.35069856e-008 3.05042995e-008 3.66712172e-008 3.81798060e-008
      4.31165006e-008 4.26045368e-008 4.30950990e-008 4.62546836e-008
      5.25240651e-008 4.52373463e-008 4.82519411e-008 4.34668088e-008
      4.66980588e-008 4.47381012e-008 4.37927241e-008 4.74001247e-008
      4.14920862e-008 4.13908268e-008 4.63977265e-008 4.25453415e-008
      4.92647523e-008 4.80692961e-008 4.43345947e-008 4.83865108e-008
      4.97761725e-008 5.43387557e-008 5.85399320e-008 5.06869071e-008
      5.59153754e-008 5.89803832e-008 5.71698386e-008 5.79445079e-008
      6.05670394e-008 5.95684604e-008 6.04370243e-008 6.33551380e-008
      6.18667997e-008 6.77920298e-008 6.51896244e-008 6.72932714e-008
      6.47671001e-008 7.17142825e-008 7.12888308e-008 6.87041180e-008
      7.01598921e-008 7.37898489e-008 6.68091573e-008 7.06412067e-008
      6.92048303e-008 7.31095611e-008 6.86191015e-008 7.01380500e-008
      6.98969629e-008 7.02769114e-008 7.38999901e-008 7.58406742e-008
      6.94487170e-008 7.09875323e-008 7.12390573e-008 7.33727816e-008
      7.17162507e-008 7.61009389e-008 7.10541102e-008 7.32539931e-008
      7.40776684e-008 7.49952349e-008 8.12155108e-008 7.38545225e-008
      8.08714518e-008 7.41510036e-008 7.37650225e-008 7.33805479e-008
      8.25868440e-008 7.61478844e-008 7.57462502e-008 7.48710818e-008
      7.16038500e-008 8.05910574e-008 7.00237734e-008 7.07584746e-008
      6.95013327e-008 7.81134375e-008 7.20928242e-008 8.07961555e-008
      7.90557237e-008 8.28862241e-008 8.12997172e-008 8.31099314e-008
      9.05030930e-008 8.63973639e-008 9.00643613e-008 8.54337401e-008
      8.55202771e-008 8.57860982e-008 8.34361842e-008 7.95709667e-008
      8.80907081e-008 7.80925191e-008 8.05508620e-008 7.78457760e-008
      8.53484892e-008 7.71681243e-008 7.16671735e-008 6.46041869e-008
      6.54324808e-008 6.19375271e-008 6.18242098e-008 6.49127898e-008
      6.32183443e-008 6.66333975e-008 6.52239294e-008 6.97107723e-008
      7.40493888e-008 7.68221753e-008 6.96185509e-008 7.59752368e-008
      7.27140161e-008 7.36965404e-008 7.34873851e-008 8.41660537e-008
      7.22811251e-008 7.74309825e-008 6.95467435e-008 7.62030652e-008
      6.96882623e-008 7.30063121e-008 7.13777268e-008 7.13250330e-008
      7.39963610e-008 7.50918332e-008 6.65487789e-008 6.71299958e-008
      7.20745064e-008 6.84460915e-008 6.57763053e-008 7.09747638e-008
      7.01606950e-008 6.70606468e-008 6.98104259e-008 6.32928163e-008
      6.48703349e-008 6.79203751e-008 6.48054410e-008 7.08814198e-008
      6.71316727e-008 6.47614016e-008 6.79014391e-008 7.01124776e-008
      6.39498481e-008 6.44874874e-008 6.55075922e-008 6.80229277e-008
      7.10044858e-008 6.55008776e-008 6.91489745e-008 6.74003147e-008
      6.48032312e-008 6.51303296e-008 6.60180959e-008 6.57905872e-008
      6.94890687e-008 6.33210462e-008 6.32629806e-008 6.45815916e-008
      6.35059223e-008 6.55139871e-008 6.93043916e-008 6.22658973e-008
      6.98715823e-008 6.25693275e-008 6.64840769e-008 6.23767136e-008
      6.10671407e-008 6.53549179e-008 6.27959693e-008 6.39736086e-008
      6.70181421e-008 6.27121892e-008 6.57480683e-008 6.58164510e-008
      6.95441287e-008 6.38565965e-008 6.57915677e-008 6.47434817e-008
      6.55447465e-008 6.88149342e-008 7.16034165e-008 6.77290330e-008
      7.29007112e-008 7.07085093e-008 6.85942751e-008 7.09417876e-008
      7.35820223e-008 7.62219656e-008 6.53237677e-008 7.32586045e-008
      7.47875433e-008 6.86805635e-008 6.97624500e-008 7.00385669e-008
      6.21151841e-008 7.33573842e-008 6.52773977e-008 7.01992349e-008
      6.13008524e-008 7.39625250e-008 6.41204707e-008 6.28648706e-008
      6.09285351e-008 6.64514843e-008 6.24231120e-008 6.49482459e-008
      5.89903628e-008 6.64342465e-008 5.80871600e-008 6.11486186e-008
      5.89787490e-008 6.32616022e-008 6.39232098e-008 6.07548998e-008
      6.77671039e-008 6.24414227e-008 6.55722445e-008 6.64839490e-008
      6.78078464e-008 7.16237452e-008 6.90431818e-008 6.98544156e-008
      6.52893917e-008 5.99851688e-008 5.82490856e-008 5.87531446e-008
      5.62349882e-008 4.93376220e-008 4.72102322e-008 4.63049936e-008
      4.31191793e-008 4.00257534e-008 3.96072402e-008 4.20313633e-008
      4.00702262e-008 4.14640908e-008 4.37273187e-008 4.01247213e-008
      4.17647144e-008 4.30723262e-008 4.07966212e-008 4.16965520e-008
      4.67390322e-008 4.61112108e-008 4.44761952e-008 4.43337598e-008
      4.37666827e-008 4.75168136e-008 4.57349607e-008 5.05783717e-008
      5.74451882e-008 5.42716805e-008 5.31202176e-008 5.30806403e-008
      5.55764288e-008 5.25643422e-008 5.51413351e-008 5.74210297e-008
      5.85923168e-008 6.57159944e-008 5.68641632e-008 6.07428490e-008
      6.52915801e-008 6.06396284e-008 6.55733317e-008 6.42827231e-008
      6.56030679e-008 6.25577385e-008 6.24806518e-008 6.91122395e-008
      6.86171830e-008 6.95633631e-008 6.83934971e-008 6.97159805e-008
      7.14456547e-008 6.88794231e-008 7.19960127e-008 6.81466119e-008
      7.80356828e-008 7.55817737e-008 7.95391486e-008 6.72892710e-008
      7.11542327e-008 7.10036971e-008 7.17965349e-008 6.87971564e-008
      7.44102948e-008 7.04127530e-008 7.67976047e-008 6.92794302e-008
      6.57504629e-008 6.57972379e-008 6.80162771e-008 6.78891254e-008
      7.36425179e-008 6.70877967e-008 6.63734880e-008 7.10421588e-008
      7.80551304e-008 7.41268167e-008 7.89119809e-008 8.17626855e-008
      8.05505707e-008 8.22879613e-008 7.98617350e-008 8.43855688e-008
      7.95779869e-008 8.16941110e-008 8.43396890e-008 8.00399036e-008
      7.79532741e-008 7.71142368e-008 7.73567095e-008 6.98452070e-008
      7.44099822e-008 7.39042036e-008 7.09532557e-008 7.71857174e-008
      7.61170682e-008 8.03704765e-008 8.09084213e-008 8.33650589e-008
      8.67148060e-008 8.37653218e-008 8.46367456e-008 9.18779719e-008
      8.66968719e-008 8.96125414e-008 8.69834764e-008 8.49414903e-008
      8.60712390e-008 8.57706510e-008 8.92651570e-008 8.71460131e-008
      7.95281991e-008 7.92280304e-008 7.75971785e-008 7.57960166e-008
      7.90945123e-008 7.46619477e-008 8.12547043e-008 7.51216618e-008
      7.76660514e-008 7.70085649e-008 7.24135489e-008 7.55101155e-008
      7.68854349e-008 7.06166219e-008 7.20602102e-008 7.60677210e-008
      7.21283797e-008 7.43511279e-008 6.97398761e-008 7.28368477e-008
      7.16607005e-008 6.96147140e-008 6.97202935e-008 6.88604445e-008
      6.74323672e-008 6.88949982e-008 6.66392452e-008 6.76221390e-008
      7.13304473e-008 7.14871931e-008 6.89535398e-008 7.16738668e-008
      6.91469353e-008 6.96415796e-008 7.28337497e-008 7.26881879e-008
      6.71376625e-008 6.91720174e-008 6.71262228e-008 7.00934493e-008
      7.33479411e-008 7.01972880e-008 6.94593254e-008 7.25089748e-008
      7.43957571e-008 6.77287773e-008 6.80047663e-008 6.82154067e-008
      7.18775794e-008 7.04311773e-008 6.95174904e-008 7.41915969e-008
      7.77992213e-008 7.22509412e-008 7.96104160e-008 7.28708969e-008
      7.29115257e-008 7.27781924e-008 7.83116647e-008 7.15951600e-008
      7.17970252e-008 7.04234324e-008 7.15875501e-008 7.22629210e-008
      6.99946696e-008 6.71819720e-008 7.29676657e-008 7.37045482e-008
      7.26169489e-008 6.99402065e-008 6.64208599e-008 7.07421961e-008
      6.53916956e-008 6.46007337e-008 6.67393252e-008 5.88953171e-008
      5.77682329e-008 6.14344344e-008 5.24242942e-008 5.54096680e-008
      4.62392151e-008 5.06629512e-008 5.56446373e-008 4.75840203e-008
      5.31908206e-008 5.59783864e-008 5.74639749e-008 5.63108919e-008
      6.20306722e-008 6.86773731e-008 6.54511254e-008 7.01875180e-008
      6.61490773e-008 6.68418778e-008 6.75431764e-008 7.41247348e-008
      6.67618210e-008 6.79967727e-008 6.59758470e-008 7.08164265e-008
      6.61277539e-008 6.94293902e-008 6.67261304e-008 6.53634302e-008
      6.57741452e-008 6.04794224e-008 6.32031387e-008 6.86221568e-008
      6.54985826e-008 6.50416609e-008 5.93959619e-008 6.20158076e-008
      5.97631384e-008 6.29561683e-008 6.38818136e-008 5.73281547e-008
      6.23149177e-008 5.73267975e-008 5.99585874e-008 6.69552165e-008
      6.06436927e-008 6.07364896e-008 6.52692904e-008 6.63015456e-008
      6.65029916e-008 7.35385441e-008 6.61093509e-008 6.67417481e-008
      6.83529322e-008 6.88409898e-008 6.37913189e-008 6.57483739e-008
      6.06347470e-008 6.28970867e-008 5.30230153e-008 4.96349308e-008
      4.75629136e-008 4.13255172e-008 4.41374297e-008 3.84675474e-008
      4.48314026e-008 4.18709405e-008 4.03479987e-008 4.13622807e-008
      3.88403620e-008 4.27129372e-008 4.85706266e-008 3.95368573e-008
      4.03553031e-008 4.09309919e-008 4.41268746e-008 4.01682740e-008
      4.50754811e-008 4.17285158e-008 4.56608653e-008 4.17924220e-008
      4.78044946e-008 3.60467709e-008 4.46970070e-008 4.42944312e-008
      4.25143547e-008 4.10354026e-008 4.43165575e-008 4.67102694e-008
      4.44198598e-008 4.82279781e-008 5.33506643e-008 5.15970200e-008
      5.39902203e-008 5.40107550e-008 5.41344995e-008 6.03597883e-008
      5.71399461e-008 6.01776975e-008 6.72065497e-008 6.72174352e-008
      6.77590748e-008 6.55656436e-008 7.00185581e-008 6.98276637e-008
      6.71057947e-008 7.31208232e-008 6.87784691e-008 7.19179312e-008
      7.15465944e-008 6.94664237e-008 7.39289305e-008 7.39523145e-008
      7.07423879e-008 6.58299371e-008 6.64373161e-008 6.90420450e-008
      6.86587853e-008 7.30129628e-008 6.93833826e-008 8.00092010e-008
      8.12479044e-008 7.77651721e-008 7.72442448e-008 7.76756082e-008
      8.32601685e-008 9.17417395e-008 8.70593055e-008 8.65281322e-008
      8.30958200e-008 9.35146574e-008 8.05986460e-008 8.23159425e-008
      8.28067570e-008 8.10339742e-008 7.87827261e-008 8.31276736e-008
      8.04645950e-008 8.74240982e-008 8.10826748e-008 8.45214458e-008
      8.34271319e-008 9.01505643e-008 8.50649755e-008 9.03228567e-008
      9.00101043e-008 9.02028887e-008 9.14361351e-008 8.70342518e-008
      8.75064288e-008 9.44133944e-008 8.90126088e-008 8.97403822e-008
      9.40565883e-008 9.60211963e-008 9.13418319e-008 9.31940818e-008
      9.23090795e-008 9.43491756e-008 9.41738563e-008 9.42540836e-008
      9.28358190e-008 9.78904851e-008 9.00981263e-008 8.94247165e-008
      9.31706339e-008 8.54142073e-008 8.61156906e-008 8.85243665e-008
      8.51698019e-008 8.70360068e-008 8.81255886e-008 8.27379623e-008
      8.78545876e-008 8.90418335e-008 8.68845191e-008 8.71748966e-008
      8.74242687e-008 8.19440729e-008 8.31813907e-008 8.21333899e-008
      8.49541451e-008 7.72488846e-008 7.76009728e-008 7.92753738e-008
      7.87908547e-008 8.05610512e-008 7.63437313e-008 7.57593597e-008
      8.37294465e-008 7.78235574e-008 7.70844508e-008 7.92018753e-008
      7.89005554e-008 7.27595335e-008 7.97587063e-008 7.86215537e-008
      7.29396845e-008 7.71511353e-008 8.04538516e-008 7.33911492e-008
      7.28007663e-008 6.95128364e-008 6.89958242e-008 7.11400006e-008
      7.01314349e-008 7.47055537e-008 7.03040683e-008 6.96015832e-008
      7.52069980e-008 7.04971299e-008 7.09949006e-008 7.26976879e-008
      7.19390130e-008 7.02057932e-008 7.72684743e-008 7.60951693e-008
      7.18138935e-008 7.17981123e-008 7.76170666e-008 7.56047882e-008
      7.33862393e-008 7.66685631e-008 7.17758439e-008 7.86348551e-008
      7.11962898e-008 7.14957977e-008 7.23616296e-008 7.06767622e-008
      7.05323018e-008 6.97000644e-008 6.78869725e-008 6.45786784e-008
      6.97397482e-008 7.45365298e-008 7.37048893e-008 6.74371705e-008
      7.19959985e-008 7.48208961e-008 7.55561231e-008 8.15165535e-008
      7.52613047e-008 8.85273153e-008 7.52310925e-008 8.27653963e-008
      7.77160736e-008 7.82266980e-008 7.38722932e-008 7.28794163e-008
      7.29837097e-008 7.35870032e-008 7.11252781e-008 7.35966381e-008
      7.27879410e-008 7.33094012e-008 7.54394591e-008 7.28230276e-008
      6.97493761e-008 7.15277579e-008 7.23571603e-008 7.35577927e-008
      7.28257064e-008 7.67686288e-008 7.62897301e-008 7.13835817e-008
      7.98818363e-008 7.27522433e-008 7.37203081e-008 7.97606035e-008
      8.13592891e-008 7.44906501e-008 8.05317981e-008 7.72831257e-008
      7.73781537e-008 8.05327716e-008 8.36747205e-008 7.90893893e-008
      7.93879096e-008 7.37541157e-008 7.55964038e-008 7.14927850e-008
      7.42136308e-008 7.51902363e-008 7.10480776e-008 6.90856510e-008
      7.05802776e-008 7.12670456e-008 7.18398852e-008 7.85481404e-008
      7.65496964e-008 7.27860012e-008 7.79647493e-008 7.77503644e-008
      7.36284207e-008 7.64612906e-008 7.22020772e-008 7.42347694e-008
      6.64748541e-008 6.80608352e-008 6.08626465e-008 5.76704551e-008
      5.57741799e-008 5.16448253e-008 5.17923837e-008 4.77466777e-008
      5.22040651e-008 4.72298574e-008 5.44325651e-008 4.87485892e-008
      5.26933839e-008 5.61231381e-008 5.12029530e-008 5.56507871e-008
      5.30244364e-008 5.52665931e-008 5.31047881e-008 5.29206510e-008
      5.26100372e-008 4.84761813e-008 4.08083984e-008 3.92834103e-008
      3.35699752e-008 3.15672253e-008 2.86884045e-008 3.44459608e-008
      3.26181393e-008 3.22735048e-008 3.70452504e-008 3.99677269e-008
      4.32489813e-008 4.91638232e-008 5.19960786e-008 5.34295452e-008
      5.70590046e-008 6.67228903e-008 6.85463419e-008 6.42917612e-008
      6.58569235e-008 7.28302538e-008 6.86748436e-008 6.68864288e-008
      6.55426717e-008 7.07705468e-008 7.58739276e-008 7.07710512e-008
      6.98032068e-008 7.57364305e-008 7.04098255e-008 7.23696942e-008
      7.36861239e-008 7.48524727e-008 7.25948510e-008 7.60311565e-008
      7.35371444e-008 7.38528314e-008 7.04275607e-008 7.63117853e-008
      7.08375367e-008 7.09777268e-008 6.99947336e-008 7.14542949e-008
      7.42721795e-008 8.05988662e-008 7.81367504e-008 7.84778038e-008
      7.84469023e-008 8.43587955e-008 8.79390001e-008 8.44080432e-008
      9.24113124e-008 9.04160373e-008 8.35588807e-008 8.67316103e-008
      8.91247680e-008 8.28199944e-008 8.02371716e-008 8.67028263e-008
      8.15787260e-008 8.35578504e-008 8.38826324e-008 8.27317308e-008
      8.87586324e-008 9.35403364e-008 9.39203204e-008 8.99509658e-008
      8.69156196e-008 9.30115149e-008 8.57153850e-008 8.95670951e-008
      8.60467040e-008 9.61273159e-008 9.43171088e-008 8.29521341e-008
      8.82165239e-008 8.30317219e-008 8.49171187e-008 8.50490025e-008
      8.23801187e-008 8.55774047e-008 8.22041031e-008 8.66196004e-008
      8.74374919e-008 8.27425382e-008 8.45230801e-008 8.25259860e-008
      8.04920219e-008 8.38104555e-008 8.45693080e-008 8.03540630e-008
      8.07302385e-008 7.81454403e-008 7.55415712e-008 8.01014366e-008
      7.89472381e-008 7.57274350e-008 7.48824860e-008 7.71363133e-008
      7.47525633e-008 8.39591365e-008 7.94727342e-008 7.41452766e-008
      7.66356507e-008 7.63640742e-008 7.47614735e-008 7.22888771e-008
      6.91205955e-008 7.36263104e-008 7.07556538e-008 6.51923742e-008
      6.32533386e-008 6.07891764e-008 6.39477946e-008 6.82984265e-008
      5.99117200e-008 6.08245756e-008 6.31558947e-008 6.36587458e-008
      6.62493349e-008 6.09873680e-008 6.43820286e-008 7.18864470e-008
      5.97750045e-008 6.10571718e-008 6.50298873e-008 6.70317917e-008
      6.66743460e-008 6.65667130e-008 6.52602665e-008 6.57364794e-008
      6.52767227e-008 7.02611089e-008 6.60012986e-008 7.06156484e-008
      7.31951246e-008 7.26235214e-008 7.33636867e-008 7.03610326e-008
      7.28890015e-008 7.49280034e-008 7.62933112e-008 7.42575352e-008
      7.73983686e-008 8.03816462e-008 7.85180063e-008 7.67384378e-008
      8.10503380e-008 8.26758679e-008 8.13065526e-008 8.20680910e-008
      8.11304375e-008 8.60879652e-008 8.16038650e-008 8.04621934e-008
      7.79883749e-008 8.01714251e-008 8.33843146e-008 7.70408946e-008
      7.57006049e-008 8.05151075e-008 7.93906096e-008 7.92874104e-008
      7.33238963e-008 7.23596827e-008 7.15287669e-008 7.97163366e-008
      7.02225407e-008 6.98079532e-008 6.90697206e-008 6.84495376e-008
      7.02594178e-008 6.77110563e-008 8.11128373e-008 7.06842158e-008
      7.00456653e-008 6.63368240e-008 6.62342288e-008 6.80334011e-008
      6.20072385e-008 6.18507485e-008 6.63406610e-008 6.12502760e-008
      6.56754438e-008 6.02493486e-008 6.41844409e-008 6.41297220e-008
      6.24946637e-008 6.65962219e-008 6.82300580e-008 6.77196041e-008
      6.73290472e-008 6.83963535e-008 6.92603379e-008 7.03315521e-008
      7.39108614e-008 7.29843634e-008 6.95719820e-008 6.72777034e-008
      6.88941952e-008 6.49227374e-008 7.14431323e-008 6.84132431e-008
      6.79522145e-008 6.48357599e-008 6.45467040e-008 6.59811974e-008
      6.75640521e-008 6.85332893e-008 6.97246634e-008 7.14664594e-008
      7.17603186e-008 7.79337839e-008 7.88703218e-008 8.06543028e-008
      8.24172588e-008 8.19555268e-008 8.51292512e-008 7.90723078e-008
      7.94324109e-008 7.51319504e-008 7.42112505e-008 6.58295320e-008
      6.12339193e-008 5.80864921e-008 5.50814327e-008 4.62426186e-008
      4.66871555e-008 4.31849934e-008 3.71450959e-008 3.94171416e-008
      4.26137667e-008 4.22344790e-008 3.93945108e-008 3.81286895e-008
      3.32567325e-008 3.55235024e-008 3.49974130e-008 3.70464441e-008
      3.84991985e-008 4.30519513e-008 4.45180461e-008 3.94628721e-008
      4.37954277e-008 4.39998402e-008 4.42147439e-008 5.26151247e-008
      4.65017465e-008 5.01952648e-008 4.97767942e-008 4.71218939e-008
      4.74914934e-008 5.31693694e-008 5.11749150e-008 5.15551903e-008
      5.68870853e-008 5.66923894e-008 5.85992801e-008 5.22166701e-008
      5.69196068e-008 5.83208646e-008 5.49132295e-008 5.60153417e-008
      6.12178468e-008 5.97551804e-008 5.70776955e-008 5.69879042e-008
      6.61117383e-008 6.01465828e-008 6.35722728e-008 6.03549708e-008
      6.12211863e-008 6.18013161e-008 6.45867999e-008 6.44140243e-008
      6.52596484e-008 6.89398902e-008 6.96003397e-008 7.20428943e-008
      6.61930670e-008 6.87247095e-008 7.57732082e-008 6.98948810e-008
      7.13670545e-008 6.81084700e-008 7.08981176e-008 6.59780994e-008
      6.17783797e-008 6.56835297e-008 6.46152429e-008 6.19685423e-008
      6.69746498e-008 6.67701059e-008 7.11470705e-008 7.19656796e-008
      8.14219590e-008 7.52440172e-008 8.02826889e-008 8.30755269e-008
      8.21905246e-008 8.57619114e-008 8.90867895e-008 8.89375755e-008
      8.74961401e-008 7.94692809e-008 8.52914397e-008 7.97527733e-008
      7.57752616e-008 7.89592889e-008 7.87080197e-008 7.88575960e-008
      7.94675685e-008 7.27780289e-008 7.42953503e-008 7.80681901e-008
      7.53986811e-008 7.83092489e-008 7.04753376e-008 7.35622052e-008
      6.90437219e-008 6.48792380e-008 6.65080222e-008 5.83913540e-008
      5.21135703e-008 5.44097780e-008 5.66236729e-008 5.76425663e-008
      5.08278752e-008 5.85902278e-008 5.84888937e-008 6.20918854e-008
      6.40891571e-008 6.71654163e-008 6.71492089e-008 6.99395741e-008
      7.19351405e-008 6.90014019e-008 6.97324936e-008 7.24377074e-008
      7.77859412e-008 6.70604337e-008 6.60775328e-008 6.91599595e-008
      7.21569222e-008 6.63965096e-008 6.39852544e-008 6.54237127e-008
      6.53713528e-008 6.84725805e-008 6.33822026e-008 6.44029754e-008
      6.39525481e-008 6.13345463e-008 5.91715619e-008 6.04369177e-008
      6.46524541e-008 6.01739103e-008 6.12387367e-008 5.46381465e-008
      5.46090462e-008 5.92033587e-008 5.75428203e-008 5.51953612e-008
      5.52683517e-008 6.22241956e-008 6.37788418e-008 5.62075186e-008
      6.05468173e-008 6.60123263e-008 6.18826590e-008 6.06739832e-008
      5.82588164e-008 5.92765090e-008 6.17655473e-008 5.77736685e-008
      6.35324398e-008 6.44534310e-008 6.30742107e-008 6.07008417e-008
      6.33837942e-008 5.82881299e-008 6.11547151e-008 5.80903503e-008
      6.06991790e-008 6.25766532e-008 6.53164491e-008 6.39736015e-008
      6.75823486e-008 6.46264908e-008 6.79235868e-008 6.66402329e-008
      7.13252817e-008 6.65852795e-008 6.98060987e-008 7.16337709e-008
      6.85407358e-008 6.73685179e-008 6.79265710e-008 6.68169093e-008
      6.76152609e-008 6.74568383e-008 7.02982135e-008 6.49102958e-008
      6.52506813e-008 6.25085050e-008 7.22616775e-008 6.39864552e-008
      6.59536852e-008 6.55163959e-008 6.59232953e-008 6.21572198e-008
      6.74206646e-008 6.13865794e-008 6.33025152e-008 6.65087612e-008
      6.04668173e-008 6.96453029e-008 6.04276238e-008 6.72279867e-008
      6.12611615e-008 6.09743012e-008 6.01534040e-008 6.05649504e-008
      5.88026516e-008 5.91119473e-008 6.39763371e-008 5.82546420e-008
      6.21510310e-008 6.23945340e-008 5.96386300e-008 6.47374137e-008
      6.00470784e-008 5.52644401e-008 6.24825205e-008 5.87679096e-008
      5.82729811e-008 5.42283445e-008 5.98333756e-008 6.37958024e-008
      5.81170703e-008 6.33374455e-008 5.62730555e-008 5.31951798e-008
      5.75920325e-008 6.19530738e-008 5.14084455e-008 5.29774056e-008
      5.45920145e-008 5.25348192e-008 6.18878886e-008 5.61325884e-008
      5.83009019e-008 5.93649041e-008 5.96769354e-008 6.34419735e-008
      6.30746797e-008 6.94474451e-008 7.93319046e-008 6.72715288e-008
      7.47546025e-008 7.46108668e-008 7.41731014e-008 6.59374706e-008
      6.49985594e-008 5.95640408e-008 6.45546052e-008 5.01606081e-008
      5.07484614e-008 5.00895858e-008 4.11829930e-008 4.17153743e-008
      3.93737807e-008 4.32604672e-008 3.73713469e-008 4.36012826e-008
      4.38692531e-008 4.78969753e-008 4.82747922e-008 4.78892055e-008
      4.56337759e-008 4.66793288e-008 4.93078502e-008 4.92344086e-008
      5.57413138e-008 4.64665888e-008 4.97014838e-008 4.86218426e-008
      4.86767000e-008 5.28289092e-008 4.87904508e-008 4.94564105e-008
      5.34782032e-008 5.49807453e-008 4.56447680e-008 4.85027911e-008
      5.03298239e-008 5.21093675e-008 5.33988107e-008 5.01730923e-008
      6.11358857e-008 5.92222911e-008 5.45883907e-008 6.24312406e-008
      5.80579638e-008 6.03185839e-008 6.93812297e-008 6.36148982e-008
      6.83569752e-008 6.41669047e-008 7.08688432e-008 7.01001994e-008
      7.16404287e-008 7.37125205e-008 7.13170749e-008 7.07574159e-008
      7.58082024e-008 7.76224169e-008 6.90877471e-008 7.08411889e-008
      7.55194733e-008 6.64331452e-008 7.04599685e-008 6.82494274e-008
      7.61793615e-008 6.72506886e-008 6.41056630e-008 7.22234574e-008
      7.59334498e-008 7.10925860e-008 7.77150433e-008 7.76730218e-008
      7.96611985e-008 8.23522797e-008 8.12462559e-008 7.89155408e-008
      8.63213359e-008 8.23855473e-008 8.14026819e-008 7.77121869e-008
      8.07777383e-008 7.81006690e-008 8.09050391e-008 7.55101652e-008
      8.18746315e-008 7.96097055e-008 8.30583247e-008 7.95346935e-008
      7.85670551e-008 8.44107433e-008 8.15319439e-008 8.43864427e-008
      8.22081248e-008 7.96356545e-008 8.57852669e-008 8.30564773e-008
      7.91705261e-008 7.84477692e-008 8.10802305e-008 8.03723879e-008
      7.96392428e-008 7.90445611e-008 7.93661030e-008 8.21577473e-008
      8.07238862e-008 7.74077336e-008 7.90394594e-008 7.72950202e-008
      8.51258477e-008 8.50944701e-008 8.35221599e-008 8.75738806e-008
      8.98417198e-008 8.48955040e-008 8.26885227e-008 8.59348717e-008
      8.87405918e-008 8.53315498e-008 8.66923600e-008 8.18505228e-008
      8.13382144e-008 8.32312992e-008 8.44023802e-008 7.84979619e-008
      8.27894198e-008 7.75748958e-008 8.11010992e-008 8.07831739e-008
      8.42812256e-008 7.60206547e-008 8.10418825e-008 7.55651257e-008
      8.84697187e-008 7.43896962e-008 7.42452073e-008 7.38335046e-008
      7.28713232e-008 7.86114072e-008 7.01295590e-008 7.16956094e-008
      7.33346255e-008 6.92493387e-008 6.75804941e-008 6.93684470e-008
      7.22996560e-008 6.82377816e-008 6.73484450e-008 6.69124063e-008
      6.56843326e-008 6.62879813e-008 6.85702730e-008 6.33386676e-008
      7.21286071e-008 6.29465191e-008 7.02322822e-008 6.83988404e-008
      6.74635814e-008 6.85712394e-008 6.93778617e-008 7.35155723e-008
      6.82042867e-008 7.40569206e-008 7.45552171e-008 7.38513677e-008
      7.69689947e-008 7.60038645e-008 7.91136259e-008 7.60430439e-008
      7.88854564e-008 8.33157898e-008 8.27459061e-008 7.85381147e-008
      7.89621879e-008 7.42962598e-008 7.79436249e-008 7.05446013e-008
      6.85674379e-008 7.23754781e-008 6.57633876e-008 6.29756585e-008
      6.21591241e-008 5.96194951e-008 6.21962499e-008 6.13006677e-008
      6.23476595e-008 6.52947847e-008 6.72534242e-008 6.70066242e-008
      7.36908419e-008 7.63758550e-008 7.40094137e-008 7.74062059e-008
      8.66561649e-008 7.60084475e-008 7.74660123e-008 7.73192994e-008
      7.35537782e-008 7.64489343e-008 7.34412069e-008 7.43054756e-008
      7.05582863e-008 7.83143861e-008 6.72923619e-008 7.35361425e-008
      7.45612283e-008 7.47136966e-008 7.23344726e-008 7.21178992e-008
      6.98872569e-008 7.14364035e-008 7.52434275e-008 7.24069551e-008
      7.21079729e-008 8.03398663e-008 7.35028181e-008 7.35395957e-008
      7.12386310e-008 6.96594071e-008 6.86557300e-008 6.82866457e-008
      7.15099162e-008 6.63378259e-008 7.03656013e-008 7.07961192e-008
      6.49220340e-008 6.74289851e-008 6.39963389e-008 6.82418886e-008
      6.64571331e-008 6.22374330e-008 6.59376838e-008 6.88488413e-008
      6.64642386e-008 6.73226097e-008 6.80816044e-008 7.29035676e-008
      7.05817200e-008 7.13549682e-008 7.86659129e-008 7.51021219e-008
      7.63537642e-008 7.98689328e-008 7.55650547e-008 7.62534427e-008
      8.25679152e-008 7.89735353e-008 7.63370167e-008 6.91373572e-008
      6.64868978e-008 6.27193018e-008 5.94775358e-008 6.32260253e-008
      5.94694072e-008 4.84940195e-008 5.08147586e-008 4.23314290e-008
      4.38514434e-008 4.37045884e-008 4.87860916e-008 4.54506726e-008
      4.95148704e-008 4.47127846e-008 4.29188916e-008 4.55081803e-008
      4.15850607e-008 4.41850254e-008 4.67282142e-008 4.41562982e-008
      4.05609448e-008 3.95500628e-008 4.38082139e-008 4.01054869e-008
      4.24328839e-008 4.30691394e-008 4.52339570e-008 4.42996431e-008
      4.53043647e-008 5.05006845e-008 4.57881946e-008 5.96495795e-008
      5.24836352e-008 4.92358758e-008 5.14863032e-008 5.85051865e-008
      5.68835539e-008 5.79912971e-008 6.45163496e-008 6.10221704e-008
      6.44166747e-008 6.70504150e-008 6.90811106e-008 6.52248318e-008
      6.79772327e-008 6.69974369e-008 7.38257029e-008 7.04268359e-008
      6.97180340e-008 6.97520193e-008 7.71066411e-008 7.09289978e-008
      7.00321081e-008 6.89578101e-008 6.67554403e-008 6.50313723e-008
      6.98773093e-008 6.55976535e-008 7.14521136e-008 7.24399953e-008
      7.07517174e-008 7.52722755e-008 7.72924409e-008 8.17058989e-008
      9.05445319e-008 8.46997850e-008 9.29407946e-008 8.67395329e-008
      9.69382086e-008 8.86191174e-008 8.98653170e-008 9.22028676e-008
      8.58144489e-008 8.98220733e-008 9.03084043e-008 8.87795650e-008
      8.33212610e-008 8.53649524e-008 8.48238457e-008 8.31440232e-008
      8.43830534e-008 8.61536691e-008 8.66578986e-008 8.15090786e-008
      8.07133134e-008 7.92950132e-008 8.40682546e-008 8.02703397e-008
      8.36367775e-008 8.77000303e-008 8.39064924e-008 8.61102691e-008
      8.44540153e-008 8.04230993e-008 8.20375448e-008 8.52736051e-008
      8.08293095e-008 8.48982324e-008 8.83820306e-008 8.24143740e-008
      8.22706809e-008 8.41466559e-008 8.55439950e-008 8.53803499e-008
      8.81685338e-008 8.95258125e-008 8.96700456e-008 8.84677078e-008
      8.98384585e-008 8.48371258e-008 8.77763142e-008 8.77443540e-008
      8.82419613e-008 8.25936297e-008 8.79668889e-008 8.37621741e-008
      7.95698583e-008 8.12461352e-008 7.72941817e-008 8.00050159e-008
      8.04156741e-008 7.88454031e-008 7.79062077e-008 7.66631274e-008
      7.40792601e-008 7.40950625e-008 7.19223010e-008 7.22714049e-008
      7.45515578e-008 7.91426231e-008 7.13830488e-008 7.52134852e-008
      7.87283412e-008 7.30727336e-008 7.39760253e-008 7.18903692e-008
      6.94333906e-008 7.07477312e-008 6.76595775e-008 7.02168492e-008
      7.72249322e-008 6.95923816e-008 7.65375745e-008 6.94742042e-008
      6.49137704e-008 6.57832970e-008 6.52824923e-008 6.68241640e-008
      6.57093011e-008 6.47538840e-008 6.83992241e-008 6.35542037e-008
      6.22201668e-008 6.33968753e-008 6.94610165e-008 6.58037891e-008
      6.44998650e-008 6.48761258e-008 6.31399431e-008 6.38147100e-008
      6.91658357e-008 6.32470503e-008 6.77222758e-008 7.08831891e-008
      6.78607890e-008 6.81699390e-008 6.60200996e-008 7.17379507e-008
      7.24072677e-008 7.10059140e-008 7.24017823e-008 6.79050913e-008
      7.45992423e-008 7.24965972e-008 6.74877967e-008 6.73896210e-008
      6.93601692e-008 6.72514204e-008 7.23051059e-008 6.73812934e-008
      6.44322284e-008 6.32714432e-008 6.45967546e-008 6.23888070e-008
      5.93009801e-008 5.99876344e-008 6.08820088e-008 6.21258778e-008
      5.88110538e-008 5.95557026e-008 5.81545656e-008 5.90586211e-008
      6.22794332e-008 6.22420799e-008 6.58041870e-008 6.61808031e-008
      7.51844169e-008 7.20135205e-008 7.15520301e-008 7.76901246e-008
      7.43681028e-008 8.13959389e-008 7.75409674e-008 7.93716382e-008
      7.95459059e-008 7.76047813e-008 7.64956596e-008 7.98426285e-008
      8.24987438e-008 7.94449093e-008 8.45691659e-008 8.09529368e-008
      8.29707290e-008 7.65908652e-008 7.30743395e-008 7.06001799e-008
      6.95077347e-008 6.96262674e-008 7.48473639e-008 7.10341226e-008
      7.15337620e-008 6.86971902e-008 7.93732511e-008 7.05321170e-008
      7.46817932e-008 7.51477742e-008 7.50985905e-008 8.71849508e-008
      7.79038416e-008 8.80830129e-008 7.95692259e-008 8.60945661e-008
      8.91076226e-008 9.33131830e-008 8.85758098e-008 8.83517828e-008
      9.04651500e-008 8.40254231e-008 8.09046412e-008 7.87741286e-008
      7.22461309e-008 6.48049081e-008 5.88641136e-008 5.55546755e-008
      5.71168108e-008 5.03207715e-008 4.60218637e-008 4.54460043e-008
      4.91404357e-008 5.38397522e-008 5.35794022e-008 5.57621505e-008
      6.09273627e-008 5.88433302e-008 6.31210924e-008 7.02742327e-008
      6.31754631e-008 5.80217581e-008 5.65598377e-008 5.93816942e-008
      5.44159526e-008 5.74572674e-008 6.69712392e-008 5.18176400e-008
      5.43346133e-008 5.24212780e-008 5.18517957e-008 5.35255289e-008
      5.09837221e-008 5.16645073e-008 5.69138052e-008 5.65949598e-008
      5.09621252e-008 5.53280977e-008 5.58102080e-008 5.62627456e-008
      6.33884483e-008 5.91197562e-008 6.01607439e-008 6.55609540e-008
      6.21807033e-008 6.61295161e-008 6.38564330e-008 6.89008601e-008
      6.94329998e-008 6.81062744e-008 7.02218586e-008 6.89671253e-008
      7.11790875e-008 7.28081417e-008 7.10847132e-008 7.18542026e-008
      7.23885805e-008 7.40053210e-008 7.58157483e-008 7.11856316e-008
      7.73273996e-008 7.57685044e-008 8.21003212e-008 8.50060573e-008
      8.02515032e-008 8.66319780e-008 9.10857310e-008 9.02480934e-008
      8.60602327e-008 8.18224706e-008 8.20428028e-008 7.99261173e-008
      8.05271938e-008 7.81830138e-008 8.18026962e-008 8.56638351e-008
      7.71932420e-008 8.33490148e-008 8.32110985e-008 8.18237140e-008
      7.92007739e-008 8.25246786e-008 8.12521250e-008 8.72647519e-008
      8.42178025e-008 8.95099816e-008 9.16120300e-008 8.62311680e-008
      8.72453256e-008 8.63550369e-008 8.75657733e-008 8.54416058e-008
      8.44209893e-008 8.53796678e-008 8.57045279e-008 8.64350795e-008
      8.48324930e-008 8.09580811e-008 8.17544148e-008 7.77235698e-008
      8.18177952e-008 7.72113964e-008 8.15767436e-008 8.23916153e-008
      7.54233511e-008 8.01316276e-008 7.37298009e-008 7.40364925e-008
      7.62533929e-008 8.15488121e-008 8.17008328e-008 7.90341872e-008
      7.25763556e-008 7.59117711e-008 7.56672733e-008 7.33360892e-008
      7.51280709e-008 7.83491743e-008 8.17954273e-008 8.14210850e-008
      7.80317819e-008 7.70676820e-008 7.63724302e-008 7.51893339e-008
      7.53894298e-008 7.55817808e-008 7.82652023e-008 6.82366235e-008
      7.07090280e-008 6.97453046e-008 6.60939747e-008 6.83148755e-008
      7.19871807e-008 6.50306617e-008 6.55335484e-008 6.40057038e-008
      7.23706250e-008 6.80918717e-008 6.39551843e-008 7.10630204e-008
      6.41703153e-008 6.89612776e-008 6.94213540e-008 7.10271948e-008
      6.85724544e-008 6.61124275e-008 7.10787234e-008 7.26710070e-008
      7.37381427e-008 7.44761905e-008 7.01434431e-008 6.71392968e-008
      7.62954429e-008 6.91896389e-008 7.46919966e-008 7.15237576e-008
      7.05273422e-008 7.01192064e-008 7.28103728e-008 7.00389080e-008
      7.17074116e-008 7.49270512e-008 7.85204080e-008 7.72873960e-008
      8.07252007e-008 7.97874691e-008 7.22062978e-008 7.43624398e-008
      8.19053483e-008 7.71386723e-008 7.42711137e-008 8.29383922e-008
      7.47975477e-008 8.06277001e-008 8.34503950e-008 7.66712631e-008
      7.91047015e-008 7.66044721e-008 7.88868064e-008 7.38144621e-008
      7.44463833e-008 7.51821005e-008 7.27890637e-008 7.50352029e-008
      8.25113702e-008 7.89055221e-008 7.86161394e-008 8.32071549e-008
      7.21995619e-008 7.38606332e-008 6.99494223e-008 7.25968690e-008
      7.39714707e-008 7.30116980e-008 7.04924332e-008 7.13338508e-008
      7.47006936e-008 7.26478504e-008 7.59159207e-008 7.75047866e-008
      7.82727412e-008 7.25680849e-008 7.39436956e-008 7.62951231e-008
      7.96946011e-008 7.29612779e-008 7.19773681e-008 7.41537107e-008
      7.57214593e-008 7.07688059e-008 7.53050458e-008 6.80869121e-008
      7.08607004e-008 6.70783606e-008 7.27896960e-008 7.51478737e-008
      6.81545842e-008 6.95197997e-008 7.52623919e-008 6.46745306e-008
      6.90225832e-008 6.79108751e-008 6.64895055e-008 6.59105197e-008
      7.18311810e-008 6.64070612e-008 6.73783305e-008 7.51322702e-008
      6.99799472e-008 6.85951704e-008 7.43256834e-008 6.95142788e-008
      6.88216062e-008 6.86671910e-008 7.30339806e-008 7.08089729e-008
      6.89628337e-008 7.55944640e-008 7.64708759e-008 8.07346439e-008
      7.91474619e-008 8.13533205e-008 8.46401207e-008 8.32867499e-008
      7.95244475e-008 8.18918977e-008 7.91210297e-008 7.04280509e-008
      7.40147570e-008 6.35274162e-008 5.82394470e-008 5.69581964e-008
      5.25307584e-008 5.74839270e-008 5.21708685e-008 4.54233522e-008
      5.21105541e-008 5.59758675e-008 5.16081329e-008 4.92669479e-008
      5.02409598e-008 4.71105679e-008 5.59409763e-008 5.35108065e-008
      5.16917531e-008 4.90170002e-008 5.76750736e-008 4.87569416e-008
      5.08417060e-008 5.29691278e-008 4.87883440e-008 5.34108828e-008
      5.19828056e-008 5.37077263e-008 4.87323355e-008 5.00099304e-008
      4.67486494e-008 5.03561104e-008 5.04063564e-008 4.81596274e-008
      5.46650334e-008 5.48693393e-008 4.99126926e-008 5.56173205e-008
      5.03397217e-008 5.56988304e-008 5.44451808e-008 5.84896789e-008
      5.74997934e-008 5.84728994e-008 5.66240281e-008 5.79847530e-008
      6.15069595e-008 6.57080008e-008 6.36127169e-008 6.64360584e-008
      7.39713286e-008 7.97042006e-008 8.50902637e-008 8.40521253e-008
      8.54751647e-008 8.63044392e-008 8.74507009e-008 8.86292852e-008
      8.73895232e-008 9.19551368e-008 8.81498892e-008 8.80273845e-008
      9.09448019e-008 8.58550919e-008 8.53662740e-008 8.25847195e-008
      7.94563917e-008 8.03803033e-008 8.47761967e-008 7.54933112e-008
      8.33256806e-008 7.53640208e-008 7.36043191e-008 7.53438201e-008
      8.31354470e-008 8.17811099e-008 8.13254459e-008 9.04929678e-008
      8.71742358e-008 9.27808301e-008 8.87705340e-008 9.27183450e-008
      9.38685005e-008 9.26962471e-008 9.39219902e-008 9.09501878e-008
      9.10844804e-008 9.09825744e-008 8.64584493e-008 9.26341315e-008
      9.29031430e-008 8.74916068e-008 9.09186539e-008 8.73291626e-008
      9.03664272e-008 8.87101237e-008 9.21988459e-008 8.91678980e-008
      8.67295498e-008 9.04735984e-008 9.20411694e-008 9.43434060e-008
      8.68274057e-008 8.58462599e-008 9.33831288e-008 8.44081143e-008
      8.76098127e-008 8.54447535e-008 8.80263329e-008 8.30281692e-008
      8.36661798e-008 8.59979465e-008 8.06713771e-008 8.37693577e-008
      8.16132086e-008 7.98769975e-008 8.03623692e-008 8.84473579e-008
      8.54007993e-008 7.75465949e-008 8.04386886e-008 7.98056661e-008
      8.20634369e-008 8.39338483e-008 7.92902242e-008 7.95532458e-008
      8.08951768e-008 7.81757237e-008 7.46608251e-008 7.95000332e-008
      7.31252214e-008 7.67826549e-008 7.50771889e-008 7.81239322e-008
      7.49945102e-008 7.23715488e-008 6.88156518e-008 7.07870527e-008
      6.99039759e-008 6.76236880e-008 7.03137459e-008 6.75700491e-008
      6.52968026e-008 6.86140709e-008 6.79755487e-008 6.76443932e-008
      7.34946894e-008 7.68292665e-008 6.63009772e-008 6.76741507e-008
      8.05910005e-008 6.76451180e-008 6.78474592e-008 6.70445601e-008
      7.63743344e-008 7.57214877e-008 7.12825283e-008 6.81064378e-008
      7.12009722e-008 7.18912290e-008 7.02844645e-008 7.11551849e-008
      7.08567498e-008 7.04460987e-008 7.69712329e-008 7.27618925e-008
      7.28268077e-008 6.91592703e-008 7.20468236e-008 7.21739895e-008
      7.15220878e-008 6.92781583e-008 7.29879730e-008 7.28521030e-008
      6.89949005e-008 6.96725309e-008 7.65446515e-008 6.98550124e-008
      6.84966182e-008 7.59311334e-008 7.34527319e-008 6.94726623e-008
      7.30454630e-008 6.77360887e-008 7.69121939e-008 7.14965864e-008
      7.12903869e-008 7.14527033e-008 7.53939986e-008 6.79123886e-008
      6.99304223e-008 6.74350034e-008 7.07126802e-008 6.77273420e-008
      6.99142007e-008 6.75755985e-008 8.12459433e-008 7.40408623e-008
      7.33550749e-008 7.41496820e-008 7.49488009e-008 7.31989047e-008
      7.99007083e-008 7.51751870e-008 7.66283677e-008 7.31341885e-008
      7.50615996e-008 7.54087779e-008 7.18974249e-008 7.10429831e-008
      7.57248344e-008 6.51093117e-008 6.84817749e-008 7.01085341e-008
      6.47361844e-008 6.40489120e-008 7.04179044e-008 6.83495713e-008
      6.54921450e-008 6.90556874e-008 7.11643011e-008 7.31657792e-008
      6.84901380e-008 6.95625815e-008 7.26003080e-008 7.14740338e-008
      7.52420917e-008 7.20308435e-008 6.93039652e-008 6.95480722e-008
      7.34197201e-008 7.67134765e-008 7.44158513e-008 7.94616142e-008
      7.66757466e-008 7.66289574e-008 7.82784966e-008 7.76634508e-008
      7.71547448e-008 7.37455466e-008 7.35829460e-008 6.74700260e-008
      6.99528471e-008 6.48765948e-008 5.71581396e-008 5.55011397e-008
      4.98752932e-008 4.94395778e-008 4.94538703e-008 4.67060879e-008
      4.79816684e-008 4.63536267e-008 4.45057466e-008 4.73396149e-008
      5.13904332e-008 5.39096305e-008 4.78165525e-008 5.14825196e-008
      5.21250101e-008 5.48902861e-008 4.84545417e-008 4.81532467e-008
      5.13149416e-008 4.96871486e-008 5.14518810e-008 4.81801727e-008
      5.09031253e-008 4.98515078e-008 5.05521243e-008 5.36153379e-008
      4.90457595e-008 5.20156682e-008 4.93353944e-008 5.13241467e-008
      5.56809105e-008 6.20165395e-008 5.60336169e-008 5.61356757e-008
      5.81885331e-008 6.08262241e-008 6.21721554e-008 6.05551875e-008
      6.16101659e-008 7.20765669e-008 6.17352569e-008 6.26841938e-008
      6.31919903e-008 6.21908072e-008 6.72200215e-008 6.96173643e-008
      6.65836026e-008 6.76364280e-008 7.16388442e-008 7.79393972e-008
      7.72666411e-008 8.45243804e-008 8.37031564e-008 8.57904467e-008
      8.12938126e-008 8.18323400e-008 8.88222189e-008 8.62627587e-008
      8.31154026e-008 8.08809730e-008 7.70792923e-008 8.12639485e-008
      7.54573151e-008 8.03172711e-008 7.52085541e-008 7.70675754e-008
      7.65621095e-008 8.07143792e-008 7.43755848e-008 7.02919323e-008
      7.08297847e-008 7.39548582e-008 7.31482288e-008 7.09372401e-008
      6.99436455e-008 7.26755616e-008 7.56125758e-008 7.54402834e-008
      7.73789992e-008 7.24572331e-008 7.53674527e-008 7.96181681e-008
      8.16793602e-008 7.76323716e-008 8.07433054e-008 8.28385893e-008
      8.58035634e-008 8.33767473e-008 8.61017782e-008 8.82122322e-008
      8.51305444e-008 8.35257694e-008 8.69020127e-008 8.27143651e-008
      8.30013747e-008 8.36512015e-008 9.10291931e-008 8.52050377e-008
      8.50254480e-008 8.88608582e-008 8.53190727e-008 8.78446897e-008
      8.62154508e-008 9.43899678e-008 8.99803538e-008 9.62231255e-008
      9.47538581e-008 9.19814767e-008 8.78949891e-008 9.27757782e-008
      8.68730439e-008 9.58928155e-008 9.08338720e-008 8.41527950e-008
      9.20166627e-008 8.63708962e-008 8.29477997e-008 8.47216626e-008
      8.07254494e-008 8.00712741e-008 7.54757252e-008 7.62782264e-008
      7.29008178e-008 7.65062680e-008 7.12545472e-008 6.89092303e-008
      7.73869075e-008 6.81123353e-008 6.86346269e-008 7.50044151e-008
      7.42011110e-008 7.06382153e-008 7.15166166e-008 7.53496323e-008
      7.37015498e-008 7.21683264e-008 7.08493459e-008 6.97462426e-008
      6.39569038e-008 6.48388294e-008 6.38369286e-008 6.26638013e-008
      6.02818702e-008 6.30174455e-008 5.72704586e-008 6.14875404e-008
      6.54148877e-008 6.42060343e-008 7.24500211e-008 7.13955046e-008
      7.50538192e-008 7.70419604e-008 8.67111112e-008 8.58760529e-008
      8.68394210e-008 8.70541825e-008 9.24526944e-008 8.71867343e-008
      8.80329196e-008 9.67323928e-008 8.81194424e-008 8.71485923e-008
      8.91984584e-008 8.59084892e-008 9.06564637e-008 9.17039173e-008
      8.68489636e-008 8.29562765e-008 9.19504330e-008 8.11742282e-008
      8.06297962e-008 8.49093738e-008 8.10234582e-008 8.54518518e-008
      8.40030410e-008 7.95796495e-008 8.59975202e-008 8.20098265e-008
      8.67544756e-008 8.17649592e-008 8.38431404e-008 8.53492566e-008
      8.40728021e-008 8.35985503e-008 8.33873557e-008 8.95690064e-008
      8.58810552e-008 8.55054694e-008 8.62118057e-008 8.64416094e-008
      8.38501322e-008 8.15342673e-008 8.16015913e-008 9.02850914e-008
      8.23039201e-008 7.84532190e-008 7.65107373e-008 8.13874266e-008
      7.56343539e-008 8.01628843e-008 8.16142034e-008 7.88889167e-008
      8.05249627e-008 7.81956899e-008 7.68519897e-008 8.00021596e-008
      7.34168353e-008 7.35680032e-008 7.25196259e-008 7.57893091e-008
      7.48235109e-008 7.83240139e-008 7.63108474e-008 7.35607557e-008
      7.16023010e-008 7.65334391e-008 7.05246421e-008 7.16956023e-008
      7.39857953e-008 7.05453829e-008 6.97320530e-008 6.65792967e-008
      7.22720301e-008 7.02827734e-008 6.82655923e-008 6.72454519e-008
      6.94473314e-008 7.23073512e-008 7.16359878e-008 6.85827573e-008
      7.28299057e-008 7.38283532e-008 7.32760910e-008 7.87908050e-008
      7.56122347e-008 7.94290926e-008 7.74241826e-008 7.48024576e-008
      7.38382226e-008 7.33009955e-008 7.06659549e-008 6.04977188e-008
      6.11138589e-008 5.61871119e-008 5.11232621e-008 5.43766632e-008
      4.61913245e-008 4.73910120e-008 4.34017302e-008 4.91393699e-008
      4.71056403e-008 4.48323867e-008 5.71539864e-008 5.19102876e-008
      5.06290370e-008 5.72275241e-008 5.35344427e-008 5.08387856e-008
      4.88331331e-008 5.80040300e-008 5.09799278e-008 5.92052452e-008
      4.96793469e-008 5.03660154e-008 5.17845500e-008 4.99800947e-008
      5.23659409e-008 4.83905183e-008 5.10189224e-008 5.19689252e-008
      4.96008283e-008 4.98420327e-008 4.96522965e-008 4.67574246e-008
      4.72943995e-008 4.44704469e-008 4.98985244e-008 4.60325715e-008
      4.72976822e-008 4.80646989e-008 5.21132826e-008 5.67336507e-008
      5.81801523e-008 7.04237237e-008 7.28180893e-008 6.97885127e-008
      6.91200910e-008 7.40733981e-008 7.51281917e-008 7.37336521e-008
      7.68539152e-008 7.72507178e-008 7.49101616e-008 7.30977376e-008
      7.31727923e-008 7.17696267e-008 7.64260051e-008 7.36498365e-008
      7.38585300e-008 7.15422601e-008 7.43112096e-008 7.49506626e-008
      7.94125796e-008 7.23560447e-008 7.27200486e-008 8.22950383e-008
      7.74750930e-008 7.42518296e-008 7.71580559e-008 8.22161184e-008
      8.43056824e-008 7.94063695e-008 7.93524606e-008 8.46511554e-008
      7.88547254e-008 8.48684394e-008 8.26406534e-008 8.42851975e-008
      8.63382823e-008 8.49822115e-008 8.51630162e-008 8.47907273e-008
      8.92994763e-008 8.16563812e-008 8.63359304e-008 8.70840609e-008
      7.97906949e-008 8.29204723e-008 7.88924268e-008 7.81615199e-008
      7.61285648e-008 7.48549098e-008 7.58564056e-008 7.60998233e-008
      7.82077052e-008 7.61747145e-008 8.01425060e-008 7.70809621e-008
      8.31235099e-008 8.10262648e-008 8.27253928e-008 7.67095401e-008
      8.18993442e-008 7.74875275e-008 8.15542336e-008 8.65726832e-008
      7.82480711e-008 8.62224283e-008 7.75866837e-008 7.80792035e-008
      7.76373952e-008 7.71404132e-008 7.99941873e-008 7.72816051e-008
      7.82358285e-008 8.18641865e-008 7.80018681e-008 7.52953966e-008
      8.14527041e-008 7.64446000e-008 7.94090198e-008 7.65903536e-008
      7.63366259e-008 7.07315451e-008 7.26003080e-008 7.90049057e-008
      6.93397908e-008 7.10981851e-008 7.41103605e-008 7.37651220e-008
      7.14462587e-008 6.76390357e-008 7.36248609e-008 6.94795830e-008
      6.91127013e-008 6.93262479e-008 6.83789452e-008 6.92483439e-008
      7.39065769e-008 7.08111969e-008 7.04738241e-008 6.79974121e-008
      7.17019120e-008 7.24952187e-008 7.54780558e-008 6.70253613e-008
      7.15114439e-008 6.71555114e-008 7.11750872e-008 6.54566747e-008
      6.62090258e-008 6.80601531e-008 6.67217464e-008 6.72159643e-008
      6.53313919e-008 7.10545436e-008 6.65483100e-008 6.70615776e-008
      6.45777263e-008 6.94822688e-008 6.64861801e-008 7.05973804e-008
      7.42918829e-008 7.15925310e-008 7.16547035e-008 6.92623416e-008
      7.14528454e-008 7.09190999e-008 7.17812654e-008 7.25605602e-008
      7.11848571e-008 7.35582617e-008 7.63909540e-008 7.06587002e-008
      7.21107796e-008 7.37386117e-008 6.84759769e-008 7.31566203e-008
      6.76384317e-008 6.94935167e-008 6.83364831e-008 6.65114044e-008
      6.73712179e-008 6.94619757e-008 6.89695270e-008 6.99749734e-008
      6.83328665e-008 6.80992684e-008 6.73014426e-008 6.78505998e-008
      7.08166468e-008 6.94562914e-008 7.09852728e-008 6.74140566e-008
      8.23216553e-008 6.98412208e-008 7.00512501e-008 6.64131932e-008
      6.65366571e-008 7.21145526e-008 6.84354688e-008 6.84965045e-008
      7.12318595e-008 6.91658286e-008 7.42547215e-008 6.54073844e-008
      6.52007657e-008 6.45766960e-008 6.90306337e-008 6.60087736e-008
      6.48844392e-008 6.32166248e-008 5.91165339e-008 5.49349082e-008
      5.94430709e-008 4.86962257e-008 4.48127402e-008 4.53056828e-008
      4.39412631e-008 4.45815722e-008 4.42280310e-008 4.97339165e-008
      4.84598850e-008 4.80047646e-008 5.26765369e-008 5.91791753e-008
      6.45517559e-008 7.00790466e-008 7.07728560e-008 7.50528812e-008
      7.79092559e-008 7.85864316e-008 8.40093151e-008 8.58194156e-008
      7.90757113e-008 8.17240675e-008 7.79079627e-008 8.32872189e-008
      8.15397101e-008 7.88111549e-008 7.90224348e-008 7.78405251e-008
      7.21890672e-008 7.23924316e-008 6.75645992e-008 6.48529053e-008
      6.02867729e-008 5.86165747e-008 5.92198290e-008 4.88981478e-008
      5.55287940e-008 4.58931275e-008 4.55426381e-008 4.61555523e-008
      4.50255797e-008 4.95938082e-008 4.81967000e-008 4.45842119e-008
      4.39319372e-008 4.35534133e-008 4.44622152e-008 4.48869386e-008
      4.96603825e-008 4.49263808e-008 4.79679620e-008 4.77808300e-008
      5.04370945e-008 5.21671737e-008 5.20465413e-008 5.52392194e-008
      5.53979937e-008 5.30460973e-008 5.43614078e-008 4.99496089e-008
      4.86340106e-008 5.15391285e-008 5.59386564e-008 5.35989244e-008
      5.74871883e-008 5.46097496e-008 6.15213338e-008 6.36010711e-008
      5.80698440e-008 6.91070241e-008 7.04819243e-008 6.39513402e-008
      6.78696708e-008 7.48860955e-008 7.23832869e-008 6.84882551e-008
      7.68260335e-008 6.85100758e-008 7.41308526e-008 7.15632495e-008
      6.96175633e-008 7.04674079e-008 7.45659960e-008 7.26277847e-008
      7.01451484e-008 7.55393970e-008 7.04751386e-008 7.87738017e-008
      7.34446530e-008 7.76047528e-008 7.53095790e-008 7.23992173e-008
      7.83847938e-008 7.58750076e-008 7.52411751e-008 7.81601202e-008
      7.60805818e-008 7.46776436e-008 7.25883353e-008 7.37382493e-008
      7.69568516e-008 7.38512540e-008 7.14946040e-008 7.51994946e-008
      7.95316382e-008 7.11848642e-008 7.21294313e-008 7.19416349e-008
      7.15898665e-008 6.88124615e-008 7.25326004e-008 7.39079482e-008
      7.00541278e-008 6.91842601e-008 8.09804277e-008 7.74312312e-008
      7.61104104e-008 7.12727655e-008 8.23503044e-008 7.54487104e-008
      7.43199990e-008 7.52470228e-008 8.07375216e-008 7.57892096e-008
      7.76186653e-008 8.01482543e-008 7.73633602e-008 7.42809902e-008
      8.04557843e-008 8.02300306e-008 7.69724053e-008 8.03211080e-008
      7.66171979e-008 7.71527979e-008 8.04930664e-008 7.63410668e-008
      7.91619641e-008 7.34214183e-008 7.32023295e-008 7.36733554e-008
      7.85411700e-008 7.79735103e-008 7.44067918e-008 7.21459301e-008
      7.72067708e-008 7.63980950e-008 7.96694266e-008 7.40747836e-008
      7.99394115e-008 7.18595601e-008 7.26322469e-008 7.77049252e-008
      7.25484242e-008 7.34930126e-008 7.26890690e-008 7.81112703e-008
      7.53279963e-008 7.34107530e-008 7.49491562e-008 8.39551717e-008
      7.40265378e-008 7.85863250e-008 7.48415090e-008 7.17145596e-008
      7.11403345e-008 7.35454577e-008 6.94115059e-008 7.81575693e-008
      7.26842231e-008 7.02229670e-008 6.86446882e-008 7.07140089e-008
      6.85527723e-008 6.99307634e-008 7.40593862e-008 6.90726765e-008
      6.95860507e-008 7.60358034e-008 7.63950752e-008 7.24951335e-008
      7.41371693e-008 7.24777749e-008 7.10006418e-008 7.13179418e-008
      7.18048838e-008 7.65312507e-008 6.91609259e-008 7.11840613e-008
      7.90188039e-008 7.23478948e-008 8.13773084e-008 7.17018338e-008
      7.76181963e-008 7.99396105e-008 7.62979369e-008 7.61457315e-008
      7.78038327e-008 7.76864013e-008 7.41956399e-008 7.51743059e-008
      8.05063038e-008 7.35233172e-008 7.50179581e-008 7.65437775e-008
      7.41662092e-008 7.98823763e-008 7.52563523e-008 7.44244986e-008
      7.76101743e-008 7.78729472e-008 7.45498241e-008 7.41142188e-008
      7.58112435e-008 6.99515539e-008 7.07954655e-008 7.82917127e-008
      7.29614484e-008 7.50115561e-008 7.30622460e-008 8.14572729e-008
      7.44856692e-008 7.34542454e-008 7.77679432e-008 7.98373279e-008
      7.47733750e-008 8.15247532e-008 7.79601805e-008 7.74173188e-008
      8.18454353e-008 7.25049532e-008 7.25037097e-008 7.29033900e-008
      7.24731564e-008 7.20521243e-008 7.07370802e-008 6.71743337e-008
      6.59528325e-008 6.65410056e-008 6.44359375e-008 7.22807343e-008
      6.40737241e-008 6.26822256e-008 6.93904809e-008 7.22860634e-008
      6.93295590e-008 6.75744118e-008 7.56444933e-008 6.37649009e-008
      6.47866045e-008 6.78831569e-008 6.60266153e-008 6.97443525e-008
      7.14595316e-008 6.54364740e-008 7.03987340e-008 6.69557352e-008
      6.74514951e-008 7.49711475e-008 7.54468914e-008 7.54500817e-008
      7.99616018e-008 7.84874743e-008 7.97203796e-008 7.85152494e-008
      8.24269790e-008 8.30250073e-008 8.23560597e-008 8.68551737e-008
      8.90016878e-008 7.93232786e-008 7.46114921e-008 7.07530390e-008
      6.85205919e-008 7.43860156e-008 6.08173210e-008 5.75889132e-008
      6.05139618e-008 5.04582012e-008 4.94748527e-008 4.80157958e-008
      4.12553618e-008 4.46085870e-008 4.47609452e-008 4.37724914e-008
      4.54246702e-008 5.27675681e-008 5.15207290e-008 5.40566667e-008
      6.02366441e-008 5.93225842e-008 5.65530378e-008 5.27756541e-008
      5.85516702e-008 5.37258913e-008 5.29791500e-008 5.17681435e-008
      4.98528223e-008 5.21566115e-008 5.00818444e-008 4.85922236e-008
      5.35575566e-008 4.91666476e-008 5.64251543e-008 5.33556168e-008
      5.98647745e-008 5.64810172e-008 5.60323663e-008 6.44190266e-008
      6.19566407e-008 5.93953153e-008 6.19435951e-008 6.22635596e-008
      6.29337080e-008 5.97131020e-008 6.51941150e-008 6.71816309e-008
      5.68283554e-008 5.98525602e-008 5.40558460e-008 5.19622887e-008
      5.02619137e-008 5.43175886e-008 5.96391772e-008 5.36957216e-008
      5.27131512e-008 6.67419471e-008 6.39041602e-008 6.17136138e-008
      7.05622014e-008 7.27857454e-008 6.96936908e-008 7.31961904e-008
      8.03538356e-008 8.39201135e-008 8.04298494e-008 8.14090697e-008
      9.16560907e-008 8.83151401e-008 8.78203608e-008 8.74862920e-008
      9.22444698e-008 8.65636736e-008 8.69597727e-008 9.46746610e-008
      8.91882621e-008 9.04828923e-008 9.49352525e-008 9.35294793e-008
      9.02226773e-008 9.87625981e-008 9.14316303e-008 9.52108508e-008
      9.77893109e-008 9.70722667e-008 9.45411784e-008 9.67304743e-008
      9.88826656e-008 9.46693248e-008 1.01143975e-007 9.56414539e-008
      1.02066977e-007 9.92113840e-008 9.95280018e-008 1.02197021e-007
      9.77156702e-008 9.72691723e-008 1.00298543e-007 1.02716712e-007
      1.00417076e-007 1.00000435e-007 9.96610581e-008 9.78350840e-008
      9.84453337e-008 1.02778735e-007 9.93814169e-008 9.84545849e-008
      9.53872288e-008 9.73895951e-008 9.72447083e-008 9.60079163e-008
      9.88950148e-008 9.73411360e-008 1.00018205e-007 9.57916768e-008
      9.72050742e-008 9.78391199e-008 9.59018465e-008 9.88249340e-008
      9.69290284e-008 9.44091880e-008 9.37927496e-008 9.22530106e-008
      9.53402406e-008 9.56207202e-008 9.80416246e-008 9.41413489e-008
      9.64606386e-008 9.02341739e-008 9.27170731e-008 9.09659406e-008
      9.09285376e-008 9.06711080e-008 8.70093899e-008 9.14364406e-008
      8.49075406e-008 9.00749129e-008 8.65736567e-008 8.34444620e-008
      8.50015525e-008 8.42163672e-008 9.05950515e-008 9.22304437e-008
      8.39939389e-008 8.63806591e-008 9.14210432e-008 8.44786570e-008
      9.01583590e-008 9.03230770e-008 9.19300192e-008 8.93473455e-008
      8.25071567e-008 8.60984244e-008 8.40530703e-008 8.01198610e-008
      8.24359603e-008 8.27996729e-008 8.97654999e-008 8.51671658e-008
      8.49489368e-008 8.98255692e-008 8.81125999e-008 8.45525960e-008
      8.54965876e-008 8.71783428e-008 8.33806908e-008 8.44819539e-008
      9.39016616e-008 8.73350814e-008 8.62210214e-008 8.95678198e-008
      9.04664290e-008 9.27747905e-008 8.62890985e-008 8.79256064e-008
      8.72722410e-008 8.48818331e-008 8.88491343e-008 8.63786553e-008
      8.57410072e-008 8.02011400e-008 8.20458439e-008 8.38981364e-008
      8.23687003e-008 7.79623477e-008 7.92094923e-008 8.55271551e-008
      7.78027882e-008 7.75832802e-008 8.15486985e-008 8.93356855e-008
      7.82701832e-008 7.69177078e-008 8.39894696e-008 8.76398190e-008
      8.28540720e-008 7.96401380e-008 8.44293879e-008 8.02701763e-008
      7.94703965e-008 7.95724020e-008 7.76800206e-008 7.89441472e-008
      7.75489397e-008 7.87329100e-008 7.70978303e-008 7.74122455e-008
      7.87586814e-008 7.89783812e-008 8.41273859e-008 8.03268989e-008
      8.22123525e-008 7.60590098e-008 7.47805373e-008 8.00642468e-008
      7.93186175e-008 7.75655664e-008 7.84306309e-008 7.96431650e-008
      7.59909753e-008 8.17270660e-008 8.00448703e-008 7.94841597e-008
      7.48454170e-008 7.54774234e-008 7.75595907e-008 7.70318920e-008
      7.96335016e-008 8.15168804e-008 7.94360844e-008 8.00762763e-008
      7.59147483e-008 8.78429560e-008 7.76924693e-008 8.37777279e-008
      8.07506311e-008 8.33265048e-008 8.18024120e-008 8.37519565e-008
      8.57895941e-008 8.00854565e-008 7.86629926e-008 7.71861082e-008
      7.73260709e-008 6.99531739e-008 6.96577516e-008 7.02862124e-008
      6.53514860e-008 5.97443659e-008 5.84738160e-008 5.24624930e-008
      5.26356310e-008 5.25647792e-008 5.45026886e-008 5.14402352e-008
      5.07754407e-008 5.75332173e-008 5.68331942e-008 5.70761962e-008
      6.08627673e-008 6.81187160e-008 7.16774551e-008 6.78612651e-008
      6.79826542e-008 6.69514435e-008 6.91427573e-008 7.18445108e-008
      6.78568384e-008 7.17378725e-008 6.39499547e-008 6.92834945e-008
      6.74569591e-008 6.39121396e-008 6.15767348e-008 6.49363585e-008
      6.24633216e-008 6.86641286e-008 6.67083597e-008 7.09811090e-008
      7.00098965e-008 6.69405154e-008 6.88708255e-008 7.30460954e-008
      7.16586399e-008 7.66310109e-008 7.21754105e-008 7.25867721e-008
      7.71689628e-008 8.28339495e-008 7.54160965e-008 8.54226840e-008
      8.20454602e-008 8.01217084e-008 8.12217493e-008 8.16443873e-008
      8.09785163e-008 8.63939178e-008 8.12134218e-008 8.48683612e-008
      9.09838178e-008 8.62760672e-008 8.21091888e-008 8.72105161e-008
      9.19259620e-008 8.94624463e-008 9.55926964e-008 9.08301203e-008
      8.63925322e-008 8.92157104e-008 9.19924332e-008 8.81837892e-008
      8.95691699e-008 9.41563059e-008 9.53534851e-008 9.39299341e-008
      9.04238320e-008 9.45218019e-008 9.10225069e-008 9.20753607e-008
      9.28784658e-008 9.22321775e-008 9.16914900e-008 8.97659831e-008
      9.08798938e-008 9.49913073e-008 8.69307613e-008 9.22224856e-008
      9.38576719e-008 9.14244751e-008 9.29057222e-008 9.73355085e-008
      9.28669905e-008 9.52206136e-008 9.69101137e-008 1.04313280e-007
      9.80865593e-008 1.02397877e-007 9.88751268e-008 9.77476446e-008
      1.00627624e-007 9.97803085e-008 1.04905119e-007 9.96909932e-008
      1.05286176e-007 9.92714533e-008 9.78584680e-008 1.06355273e-007
      9.79405144e-008 1.00696134e-007 9.64116325e-008 9.81134463e-008
      9.43676568e-008 9.62965814e-008 9.21303496e-008 9.44725826e-008
      1.04683828e-007 8.67207532e-008 8.67304237e-008 8.59297771e-008
      8.76170958e-008 7.95507660e-008 8.52758788e-008 8.05013940e-008
      7.79989264e-008 7.76382336e-008 7.83944216e-008 9.42757126e-008
      8.37647889e-008 9.17251768e-008 8.87362077e-008 9.03675357e-008
      9.20901755e-008 9.72803420e-008 9.67413598e-008 9.87196458e-008
      9.58319575e-008 9.22308345e-008 1.00924147e-007 8.94677967e-008
      8.76103528e-008 9.42558884e-008 8.18715975e-008 8.41352730e-008
      8.38792431e-008 8.39112957e-008 8.06586868e-008 7.55798979e-008
      8.03885314e-008 8.11634067e-008 8.17348749e-008 7.73390099e-008
      8.44988932e-008 8.73820625e-008 8.66328946e-008 8.76533193e-008
      8.60628333e-008 9.41230951e-008 9.08804623e-008 9.13010325e-008
      8.93410999e-008 8.91561029e-008 9.40483531e-008 8.93833985e-008
      9.14341669e-008 9.17446172e-008 8.70501751e-008 9.04745505e-008
      9.24234840e-008 8.60138343e-008 8.99088732e-008 9.46787679e-008
      8.61808900e-008 8.59995808e-008 8.34507361e-008 8.81151081e-008
      8.46365111e-008 8.32505620e-008 8.93484753e-008 8.68374599e-008
      8.82404194e-008 8.62885443e-008 8.34955358e-008 8.25844282e-008
      8.28359745e-008 8.20074675e-008 8.66784902e-008 8.16083485e-008
      8.17279684e-008 8.32185449e-008 8.29926137e-008 7.91218895e-008
      8.19380190e-008 8.00461919e-008 7.85558996e-008 8.11043606e-008
      7.64493819e-008 7.30827310e-008 7.27888292e-008 7.56943237e-008
      7.44560751e-008 7.66941213e-008 7.15359505e-008 7.78174325e-008
      8.00271351e-008 7.21095859e-008 7.15137034e-008 7.47643725e-008
      7.19813116e-008 7.40954533e-008 6.94951723e-008 7.34549488e-008
      7.29312930e-008 7.28937835e-008 8.02767133e-008 6.87227910e-008
      6.75269902e-008 6.96110902e-008 7.23561087e-008 6.87074930e-008
      6.59035209e-008 6.57794885e-008 7.13369417e-008 6.76004461e-008
      6.52202345e-008 6.70602986e-008 6.69291396e-008 7.24053848e-008
      6.28019095e-008 6.68178757e-008 6.63295694e-008 6.36985220e-008
      6.57168968e-008 6.81355630e-008 6.88563304e-008 6.45090807e-008
      6.36707611e-008 6.46236202e-008 7.19649265e-008 7.01747922e-008
      7.27999776e-008 7.47470423e-008 7.38621395e-008 8.27018596e-008
      8.50062349e-008 8.28862454e-008 7.95048152e-008 7.60786065e-008
      7.71573596e-008 6.93436419e-008 7.15843740e-008 6.76084966e-008
      6.57156676e-008 5.57742723e-008 5.53237314e-008 5.33558122e-008
      5.10332931e-008 5.53211414e-008 5.11510159e-008 5.34453548e-008
      5.28168975e-008 5.48457741e-008 5.85907998e-008 5.37741762e-008
      5.41462164e-008 5.16073442e-008 5.66407401e-008 5.39434986e-008
      5.48723449e-008 5.94969940e-008 5.24581374e-008 5.32320854e-008
      4.94290155e-008 5.12824556e-008 5.07821269e-008 5.79983528e-008
      5.05545792e-008 5.46146985e-008 5.37431752e-008 5.77024970e-008
      6.00697803e-008 5.98198113e-008 6.59655726e-008 5.89346207e-008
      6.20924752e-008 7.44217914e-008 6.43508784e-008 6.50902194e-008
      7.08607786e-008 7.94908388e-008 7.67309842e-008 8.48102957e-008
      8.58142215e-008 7.88197809e-008 8.26823268e-008 9.00084558e-008
      8.16207404e-008 8.17995414e-008 8.34034921e-008 8.76975506e-008
      8.45468193e-008 8.08587757e-008 8.17221206e-008 8.35496650e-008
      8.66585310e-008 7.91485988e-008 8.49477360e-008 8.25646111e-008
      7.87305936e-008 7.96503059e-008 8.15714429e-008 7.82861278e-008
      8.51879491e-008 8.50172981e-008 8.88296299e-008 8.33221065e-008
      7.75872451e-008 8.25552675e-008 7.82741836e-008 8.20057693e-008
      7.93743169e-008 8.06062275e-008 8.08841705e-008 8.16945729e-008
      8.47879704e-008 9.01607393e-008 8.85846987e-008 8.98536641e-008
      8.83774049e-008 8.75652404e-008 8.46100079e-008 8.70363905e-008
      9.00512873e-008 8.56809308e-008 9.41255891e-008 8.95555203e-008
      8.41223766e-008 8.44753529e-008 9.24363093e-008 8.65844356e-008
      8.93806273e-008 8.80990427e-008 8.81134667e-008 9.27329893e-008
      9.11376503e-008 9.10648907e-008 9.51927319e-008 9.17397003e-008
      8.99539856e-008 9.00725539e-008 9.41737497e-008 9.04930957e-008
      9.59801056e-008 9.23259691e-008 8.86978881e-008 9.14028320e-008
      9.26639601e-008 8.83105784e-008 8.90705394e-008 9.32852586e-008
      9.00406789e-008 9.29169204e-008 9.42552418e-008 9.44540730e-008
      9.41241538e-008 8.67323209e-008 9.41604910e-008 8.73619470e-008
      8.21704376e-008 8.41846628e-008 8.05426907e-008 8.86556464e-008
      8.35110967e-008 7.96029838e-008 8.48096349e-008 7.84873393e-008
      8.26650108e-008 8.10426926e-008 8.59282778e-008 8.36654124e-008
      7.88885828e-008 8.34771186e-008 8.84809381e-008 8.07185287e-008
      8.36585770e-008 8.96394781e-008 8.12385252e-008 8.29884002e-008
      8.17767400e-008 8.31688780e-008 8.27340827e-008 8.28688513e-008
      8.05100342e-008 8.67338983e-008 8.37357348e-008 8.20396124e-008
      8.20489277e-008 8.23556903e-008 8.66077272e-008 8.52023021e-008
      8.15527272e-008 9.11163056e-008 8.53693436e-008 7.95699222e-008
      8.62622258e-008 8.02289932e-008 8.31450464e-008 8.18242896e-008
      8.02583102e-008 8.22114856e-008 8.45848902e-008 8.59066418e-008
      8.21270874e-008 8.26068245e-008 8.64703225e-008 8.06142566e-008
      8.27484428e-008 8.14788095e-008 8.47001829e-008 8.03121338e-008
      7.94455701e-008 7.95962976e-008 8.20277819e-008 8.14812466e-008
      7.88102454e-008 7.66733947e-008 7.62385213e-008 7.74126008e-008
      7.81267104e-008 7.05252887e-008 6.88706052e-008 7.04597767e-008
      6.73882639e-008 6.11782056e-008 6.76268499e-008 5.92455436e-008
      6.19903133e-008 7.30412708e-008 6.23258032e-008 6.48862510e-008
      6.13447710e-008 6.44432419e-008 7.15284187e-008 6.58256027e-008
      7.06485324e-008 7.25402174e-008 7.01044272e-008 7.68633228e-008
      7.23255766e-008 7.60606866e-008 8.26535782e-008 7.06904331e-008
      7.44013846e-008 7.25893301e-008 7.00971086e-008 7.09181691e-008
      7.55676623e-008 7.74250211e-008 7.28077794e-008 7.52300977e-008
      7.17009812e-008 6.97454823e-008 7.03625531e-008 6.75178882e-008
      6.90535700e-008 6.89521542e-008 6.69098981e-008 6.13803977e-008
      6.65464839e-008 6.27505656e-008 6.52461338e-008 6.34269455e-008
      6.27752073e-008 6.84882693e-008 7.06851893e-008 7.24593008e-008
      7.60716148e-008 8.81235991e-008 8.54727134e-008 8.84211317e-008
      9.64999955e-008 9.27766948e-008 9.40217504e-008 1.00351883e-007
      9.88684690e-008 9.75156738e-008 9.78466517e-008 9.56740109e-008
      9.09298521e-008 9.24051875e-008 8.32480183e-008 7.97919100e-008
      7.68959509e-008 7.17411197e-008 6.66452138e-008 6.69558773e-008
      6.80786840e-008 5.92473803e-008 5.68494336e-008 6.19233376e-008
      6.28569268e-008 5.85402802e-008 5.60891031e-008 5.84973279e-008
      5.74573384e-008 5.74767078e-008 5.94864176e-008 5.62554874e-008
      6.08444211e-008 6.19689757e-008 5.88634030e-008 5.68786476e-008
      5.53734729e-008 5.17854772e-008 5.08027007e-008 5.80685509e-008
      4.84620379e-008 4.98941368e-008 5.19419920e-008 5.70342742e-008
      5.25212620e-008 5.34349525e-008 5.84424207e-008 5.97083556e-008
      6.12211863e-008 6.35235793e-008 6.13104092e-008 7.06581602e-008
      7.73301352e-008 6.64853630e-008 6.98547069e-008 7.77614346e-008
      7.12466743e-008 7.21504136e-008 7.47333218e-008 7.27070599e-008
      7.53963789e-008 7.37989225e-008 7.07665393e-008 7.62115491e-008
      7.11225425e-008 7.21120088e-008 7.77742457e-008 8.22125514e-008
      7.36938759e-008 7.36853067e-008 7.58619834e-008 7.83143790e-008
      7.69376314e-008 8.03589160e-008 8.26584383e-008 7.91043391e-008
      8.74545947e-008 7.85760932e-008 8.24707413e-008 7.84727945e-008
      8.02472542e-008 8.02520148e-008 8.22209927e-008 7.74141142e-008
      7.77312792e-008 8.11008860e-008 8.28846751e-008 7.62348620e-008
      7.71849358e-008 8.43441583e-008 8.60251745e-008 8.19281638e-008
      8.04104516e-008 8.60816982e-008 8.53271942e-008 8.38783976e-008
      9.13716747e-008 8.65810392e-008 9.07918363e-008 9.27845960e-008
      8.73701964e-008 9.05366235e-008 9.32895858e-008 9.11063012e-008
      9.60584217e-008 9.02912660e-008 9.08919233e-008 9.70363274e-008
      9.45982706e-008 9.48753751e-008 9.14264007e-008 9.45372491e-008
      9.06450737e-008 9.39100246e-008 9.20345258e-008 9.74589298e-008
      9.48650509e-008 9.56278186e-008 9.12460436e-008 9.43099820e-008
      9.12658038e-008 9.19052354e-008 9.75809868e-008 9.56805479e-008
      9.88989015e-008 9.24201657e-008 9.30946058e-008 9.56494972e-008
      9.78792158e-008 8.95798848e-008 9.68545919e-008 9.24018835e-008
      8.93572789e-008 9.59136202e-008 9.13983271e-008 9.09865534e-008
      9.15310565e-008 9.12385119e-008 8.76939339e-008 9.05240611e-008
      8.99211656e-008 8.67589094e-008 8.94451730e-008 9.19980963e-008
      8.88717011e-008 8.74349269e-008 9.05669069e-008 8.66158629e-008
      8.56989644e-008 8.72997603e-008 9.40829565e-008 9.62033866e-008
      8.94165879e-008 9.02485340e-008 8.94036418e-008 9.04278679e-008
      9.11032032e-008 8.31440090e-008 8.38879757e-008 8.20685884e-008
      8.46809627e-008 8.65303562e-008 8.04648153e-008 8.01308602e-008
      8.27557542e-008 8.86792506e-008 8.90612881e-008 8.85659190e-008
      8.31545464e-008 9.10075428e-008 8.65250769e-008 8.72195614e-008
      8.89139855e-008 9.24527583e-008 9.09831854e-008 9.23215424e-008
      8.96195047e-008 9.62145705e-008 8.99400590e-008 9.67148210e-008
      9.69423724e-008 9.78001182e-008 9.04583288e-008 9.08622866e-008
      1.00549379e-007 8.70604282e-008 9.35558262e-008 8.66848282e-008
      8.65870291e-008 8.30342728e-008 8.53437925e-008 8.54002096e-008
      8.87652547e-008 8.98630930e-008 8.05673821e-008 9.01453205e-008
      8.75805028e-008 7.97609516e-008 7.99310627e-008 8.54777653e-008
      8.27600957e-008 8.78897950e-008 8.35679401e-008 8.64449490e-008
      8.08811720e-008 8.15071388e-008 7.87320928e-008 7.90263002e-008
      8.02232805e-008 7.80040921e-008 8.65634604e-008 8.00749973e-008
      7.74286946e-008 7.82479077e-008 8.23412307e-008 9.05161315e-008
      8.29108586e-008 8.04023585e-008 8.23082544e-008 7.82545868e-008
      8.12174434e-008 7.98026178e-008 8.09967915e-008 8.44866150e-008
      8.24544131e-008 7.88264742e-008 7.99831810e-008 8.51343103e-008
      8.06861422e-008 7.87224010e-008 8.72743087e-008 7.97656341e-008
      8.38453857e-008 7.50845217e-008 7.82688687e-008 7.37494545e-008
      7.51142792e-008 7.17502502e-008 7.69563400e-008 8.28407138e-008
      7.61537038e-008 8.16011010e-008 8.40959729e-008 8.49063255e-008
      8.68818120e-008 9.67455449e-008 9.14967160e-008 9.07896975e-008
      9.70434115e-008 9.59588107e-008 9.47345882e-008 9.89866678e-008
      9.27980608e-008 9.13363323e-008 8.43375219e-008 8.14805929e-008
      7.75597400e-008 7.60284635e-008 6.99175757e-008 6.46337881e-008
      6.89490349e-008 5.97452257e-008 6.44748113e-008 5.60579778e-008
      5.63161535e-008 5.36009885e-008 5.57473108e-008 5.06129787e-008
      4.59060203e-008 4.68122856e-008 4.67664449e-008 4.89535168e-008
      4.09817744e-008 4.24575504e-008 4.28713420e-008 4.45549304e-008
      4.76762523e-008 5.62065630e-008 5.20632781e-008 5.64199887e-008
      6.41188649e-008 5.82159778e-008 6.04525141e-008 6.59650752e-008
      5.93991167e-008 5.88581983e-008 6.08405202e-008 6.01701586e-008
      6.62620607e-008 5.83127289e-008 5.51968640e-008 5.73582000e-008
      5.76165320e-008 5.91393956e-008 6.15845508e-008 6.77638496e-008
      1.33929063e-008 8.19572299e-010 1.88865323e-009 4.74450701e-009
      7.67346986e-009 7.77588749e-009 2.98977443e-009 7.76036213e-009
      8.85013307e-009 5.34917755e-009 1.12647793e-008 5.94157168e-009
      2.54603627e-009 6.22616314e-009 1.48638268e-009 6.03118711e-009
      1.63982428e-009 3.76769682e-009 3.68388475e-009 8.01467426e-009
      2.97097569e-009 7.58786456e-009 3.55398511e-009 1.07611422e-008
      5.75009240e-009 4.38317960e-009 8.53550919e-009 2.53123944e-009
      5.58581403e-009 6.79283074e-009 9.55678203e-009 4.33968550e-009
      1.22778649e-008 2.87810309e-009 3.05425152e-009 4.13581214e-009
      8.12076273e-009 7.64730856e-009 1.01892681e-008 1.59003877e-009
      5.82005555e-009 3.74057363e-009 6.21343510e-009 1.34114575e-009
      4.88022645e-009 6.20777207e-009 1.48334189e-009 6.11139361e-009
      4.86696772e-009 4.97757391e-009 5.10338216e-009 7.40464046e-009
      6.74158462e-009 7.05036030e-009 4.88287766e-009 3.84366583e-009
      4.15291712e-009 7.00387304e-009 2.65725686e-009 3.29611982e-009
      1.96320182e-009 1.95470684e-009 5.59981439e-009 1.10949436e-008
      4.73317963e-009 2.31287611e-009 1.28052404e-008 -1.91583846e-010
      3.54604390e-009 5.76351811e-009 -8.23340895e-010 4.22550617e-009
      3.10934167e-009 4.20052604e-011 4.62823424e-009 -2.18264851e-010
      3.93157423e-010 -1.46809037e-010 3.16721205e-009 -5.35748113e-010
      1.62128100e-009 2.91911517e-009 -3.87811172e-010 -5.51579449e-010
      -1.17650922e-009 9.47163389e-011 2.15724527e-009 -3.71832232e-009
      -1.55921692e-010 -2.39660758e-009 -6.56380816e-009
      -1.02774997e-008 -5.61364155e-009 -1.66881744e-008
      -1.77124786e-008 -1.91419591e-008 -2.14972751e-008
      -2.41275036e-008 -1.89920417e-008 -1.41278687e-008
      -2.34271855e-008 -1.61893290e-008 -1.19178560e-008
      -1.41114054e-008 -7.06709669e-009 -5.73365222e-009 1.10061704e-009
      2.45542831e-009 5.77542814e-009 6.31138652e-009 4.19340812e-011
      9.09605991e-009 3.44693407e-009 3.28043637e-009 5.20690735e-009
      2.22202656e-009 -1.19439048e-009 1.20057700e-010 -1.84814897e-009
      -8.94070329e-009 -1.08179643e-008 -1.12761711e-008
      -1.29143229e-008 -1.18747172e-008 -1.46962087e-008
      -1.26853807e-008 -1.02287059e-008 -1.51969370e-008
      -1.06929585e-008 -1.27684823e-008 -1.43661207e-008
      -1.13461320e-008 -8.24281354e-009 -1.19536985e-008
      -8.84643470e-009 -1.04714646e-008 -1.28831665e-008
      -8.29503577e-009 -7.13774639e-009 -7.45124318e-009
      -9.82275949e-009 -1.30083553e-008 -8.65989147e-009
      -8.63019345e-009 -1.25826505e-008 -1.14454437e-008
      -1.47040824e-008 -1.02667883e-008 -1.42687817e-008
      -1.23590116e-008 -1.26476714e-008 -1.14068719e-008
      -1.37892471e-008 -1.25399833e-008 -1.32500606e-008
      -1.00287076e-008 -9.04018282e-009 -1.34594522e-008
      -1.23294939e-008 -1.38431524e-008 -1.07129834e-008
      -1.79951272e-008 -1.91060341e-008 -1.71632450e-008
      -1.64289577e-008 -1.99945696e-008 -1.95700558e-008
      -1.39585214e-008 -2.03644710e-008 -1.83133277e-008
      -1.89539122e-008 -1.82369089e-008 -1.73997652e-008
      -1.53043089e-008 -2.22867911e-008 -1.89566620e-008
      -1.13097665e-008 -2.13694396e-008 -1.74869843e-008
      -1.34881288e-008 -1.97769285e-008 -1.82669897e-008
      -2.22643841e-008 -1.64524590e-008 -1.48689878e-008
      -1.28309834e-008 -1.57264779e-008 -1.15137055e-008
      -1.29150859e-008 -1.27607009e-008 -9.28622157e-009
      -6.19366514e-009 -8.08725442e-009 -1.01094360e-008
      -8.00562194e-009 -5.46822942e-009 -2.45812681e-009
      -1.31901368e-009 2.54983562e-010 1.84207127e-009 2.18442997e-009
      1.06497797e-008 1.07477360e-008 5.22585886e-009 9.81098580e-009
      9.20700050e-009 6.73505340e-009 1.15163949e-008 9.94046179e-009
      4.24673052e-009 1.97489980e-009 2.10256368e-009 3.07620107e-009
      1.07718190e-008 3.38984463e-009 9.32878219e-009 1.18487042e-008
      1.17606358e-009 4.28605507e-009 3.45151219e-009 2.10338191e-009
      3.68561293e-009 6.43853415e-009 5.00805086e-009 1.00321049e-008
      1.08500275e-008 7.70388997e-009 9.59885771e-009 1.51539794e-008
      1.36249669e-008 9.52298684e-009 1.43235095e-008 1.12349641e-008
      6.69359856e-009 1.15164829e-008 1.17767369e-008 6.18458351e-009
      1.51532724e-008 7.58708207e-009 1.48990518e-008 9.98838079e-009
      1.74564665e-008 1.07005436e-008 9.07613007e-009 1.23028210e-008
      7.00485536e-009 8.74597017e-009 1.03168478e-008 7.02515557e-009
      8.10417067e-009 8.13914802e-009 4.03236067e-009 3.79441811e-009
      1.16850076e-008 3.57090468e-009 5.88324234e-009 8.05917377e-009
      1.05711147e-008 4.43530723e-009 1.36530014e-008 1.02955271e-008
      8.44645864e-009 1.02020294e-008 1.06872813e-008 1.08789209e-008
      1.18668169e-008 1.12267537e-008 9.42758671e-009 1.45784620e-008
      1.89702991e-008 8.47176818e-009 7.65042429e-009 6.40851683e-009
      7.38007788e-009 1.23080355e-008 6.72546330e-009 5.80073545e-009
      1.02727311e-008 8.74554829e-009 4.56844385e-009 6.33868114e-009
      5.19141441e-009 7.34563566e-009 1.25341417e-008 8.06924394e-009
      1.43573518e-008 4.99688246e-009 9.80954873e-009 1.04919149e-008
      1.00430375e-008 9.02828212e-009 5.66150193e-009 1.61746101e-008
      5.39143707e-009 2.49632603e-009 9.81432802e-009 3.93986976e-009
      1.25368782e-008 7.44480788e-009 3.89438348e-009 8.30313596e-009
      7.23766158e-009 1.34417375e-008 8.18857782e-009 1.26725528e-008
      1.07077023e-008 1.18243957e-008 4.69175099e-009 2.35544273e-009
      1.37678513e-009 -3.94295618e-009 -8.07257106e-009 -4.74166972e-009
      -1.17328760e-008 -8.97344687e-009 -6.48086118e-009
      -8.13848011e-009 -8.15827672e-009 -7.04306746e-009
      -2.53217824e-009 4.80023576e-009 1.76405512e-009 7.62441843e-009
      1.06681668e-008 7.40444550e-009 1.10975567e-008 5.36532507e-009
      4.37259651e-009 5.91128346e-009 3.80000964e-009 2.23634578e-009
      -1.33037692e-009 -2.09195150e-009 -2.95381919e-009 1.17252250e-010
      1.72705428e-009 -2.32501596e-009 -3.75015352e-009 -4.64600003e-009
      -4.61618921e-009 -1.16562688e-008 -6.07198469e-009
      -1.33061722e-008 -1.62101852e-008 -1.17866783e-008
      -1.67432130e-008 -1.46115342e-008 -1.23370105e-008
      -1.18928138e-008 -6.23151708e-009 3.32034800e-009 -1.21782717e-009
      -2.28996377e-009 2.72096701e-009 1.85237703e-009 5.22041166e-009
      9.70837721e-009 8.10632450e-010 2.54422927e-009 3.67905401e-010
      -2.48757637e-009 -7.72293429e-009 -6.74164014e-009
      -5.66208502e-009 -1.34543638e-008 -1.11876020e-008
      -1.17585044e-008 -1.67112688e-008 -1.53360791e-008
      -2.90474311e-009 -1.44090224e-008 -1.75514376e-008
      -1.23273418e-008 -1.81449007e-008 -1.56189852e-008
      -1.31526559e-008 -1.46035806e-008 -1.76813124e-008
      -5.10852427e-009 -1.60840443e-008 -1.48009178e-008
      -7.86931675e-009 -1.70734644e-008 -1.63907199e-008
      -1.34136586e-008 -1.17229542e-008 -1.48746144e-008
      -1.51790633e-008 -1.26357858e-008 -1.65706204e-008
      -1.29863187e-008 -6.04512085e-009 -1.14232153e-008
      -8.84889229e-009 -1.03924727e-008 -7.91688315e-009
      -9.21994303e-009 -5.36024825e-009 -5.64747582e-009
      -5.59403013e-009 -7.08727832e-009 -5.50605428e-009
      -8.36046876e-009 -6.62091759e-009 -4.36546577e-009
      -2.27451236e-009 -9.55932133e-009 -5.17777954e-009
      -2.95875235e-009 -5.25033395e-009 -5.12237808e-009
      -7.52332419e-009 -2.47674858e-009 -2.95097680e-009
      -2.38134890e-009 -5.48004619e-009 -2.44941156e-009
      -1.24738653e-009 -2.46767806e-009 2.45635956e-009 8.17495582e-009
      1.02499037e-010 8.62086935e-009 5.41818501e-009 3.44486262e-009
      1.92991556e-009 5.00621589e-009 1.83248838e-009 5.08067499e-009
      6.19578788e-009 5.22301047e-009 6.70284850e-009 1.30506868e-008
      8.28960278e-009 9.92557414e-009 1.24091457e-008 1.08713687e-008
      1.03654205e-008 1.32053160e-008 1.40750087e-008 1.05219460e-008
      1.28006636e-008 1.27319471e-008 1.12877085e-008 1.74891870e-008
      1.44800820e-008 1.02739630e-008 1.34114275e-008 1.67838081e-008
      9.92629356e-009 1.25189423e-008 1.03813251e-008 1.31431417e-008
      1.38827234e-008 1.64482845e-008 1.42843213e-008 1.07055778e-008
      2.01809769e-008 1.10099583e-008 1.13883578e-008 1.36418485e-008
      1.65242753e-008 1.02025988e-008 1.28558684e-008 1.07082005e-008
      1.24744863e-008 1.69238596e-008 1.72203762e-008 1.39863134e-008
      1.51760808e-008 9.84956827e-009 8.90319285e-009 1.03160716e-008
      1.07769873e-008 8.94259067e-009 1.07915508e-008 1.25390089e-008
      8.26716118e-009 1.55164521e-008 5.84768323e-009 5.20058441e-009
      9.43711420e-009 4.16644763e-009 2.75918133e-009 9.86430937e-009
      7.51574447e-009 5.68624836e-009 8.29811242e-009 1.15034193e-009
      3.29601280e-009 7.03737824e-009 1.02793996e-008 4.87868768e-009
      7.00097535e-009 -5.73260550e-010 1.68884329e-009 4.80404427e-009
      6.93178359e-009 4.84912688e-009 6.72481099e-011 2.80012102e-009
      -1.03946574e-009 4.68513717e-009 -4.61106764e-010 6.21941210e-009
      4.91382446e-009 4.62810723e-009 -1.07123921e-009 7.17344051e-009
      5.76512038e-009 -9.76184134e-010 2.44239540e-009 -1.67799152e-009
      -1.40284662e-009 4.30031166e-009 -5.22243582e-010 1.79606696e-009
      4.97710406e-009 1.38514045e-008 2.49237608e-009 7.47876516e-009
      4.20281454e-009 3.48539242e-009 5.07694820e-009 -7.91934296e-010
      -3.62354680e-009 -5.16337417e-009 -7.53303553e-009
      -1.08760494e-008 -6.26008978e-009 -4.14026058e-009
      -2.38789322e-009 4.09803258e-009 6.15987261e-009 3.49894824e-009
      1.03247810e-008 1.42539012e-008 1.19255290e-008 1.14049676e-008
      1.05673568e-008 4.97869213e-009 3.41677708e-009 6.40188569e-009
      7.45499484e-009 2.12832041e-009 5.01411179e-009 1.80198134e-009
      6.56950316e-009 1.74070613e-009 6.20293861e-009 1.06640217e-008
      3.54628527e-009 4.39192904e-009 3.26858651e-009 9.16715681e-009
      3.26579541e-009 9.03422315e-009 1.12843290e-009 2.19702767e-009
      -6.88750668e-010 1.56793889e-009 5.93234439e-009 1.82559678e-009
      -1.87248772e-009 -4.71278083e-009 -6.50662946e-009
      -9.18908505e-009 -9.50217149e-009 -7.75066944e-009
      -1.12502576e-008 -6.93982316e-010 -1.41722971e-008
      -1.37089016e-008 -1.45225334e-008 -1.15987122e-008
      -1.19310988e-008 -1.17383987e-008 -1.37562814e-008
      -1.13161818e-008 -5.81191406e-009 -1.54662896e-008
      -8.71645245e-009 -1.65455489e-008 -1.41372336e-008
      -1.51317590e-008 -1.39868312e-008 -1.27836071e-008
      -1.44587986e-008 -1.66528320e-008 -2.07350723e-008
      -2.27223982e-008 -2.21726566e-008 -1.92148164e-008
      -1.79302440e-008 -2.00405275e-008 -1.27822144e-008
      -1.33771021e-008 -8.60162164e-009 -1.15892451e-008
      -9.34563538e-009 -5.71674530e-009 -4.99150854e-009
      -4.19659596e-009 -1.78350046e-009 -2.17271257e-010
      -8.56307825e-009 -6.30392538e-009 -1.00945865e-008 5.65523295e-010
      -8.35381631e-009 -1.10563727e-008 -1.30720617e-008
      -1.15242456e-008 -1.19828982e-008 -1.14982184e-008
      -1.01959845e-008 -4.50289006e-009 -9.23827148e-009
      -5.03495823e-009 -7.71697906e-009 -3.82966414e-009
      -4.33787006e-009 -2.58022093e-009 8.44691694e-009 -4.52876847e-010
      6.48179332e-009 1.84512206e-009 5.03128650e-009 3.15963922e-009
      6.28861896e-009 6.96941216e-009 8.76017214e-009 2.40945219e-009
      5.94367178e-009 6.01246208e-009 6.65699185e-009 3.98399047e-009
      6.18040819e-009 8.46860626e-009 2.83549184e-009 7.40195727e-009
      4.29668212e-009 7.93674992e-009 2.87481106e-009 6.64285560e-009
      5.78777293e-009 6.78096734e-009 6.71363898e-009 1.05767652e-008
      1.04301789e-009 1.52562496e-009 1.29301236e-008 5.79404258e-009
      7.54469376e-009 4.58273686e-009 7.48874207e-009 6.75727829e-009
