<?xml version="1.0"?>
<opencv_storage>
<my_svm type_id="opencv-ml-svm">
  <svm_type>C_SVC</svm_type>
  <kernel><type>LINEAR</type></kernel>
  <C>5.0000000000000000e-001</C>
  <term_criteria><epsilon>2.2204460492503131e-016</epsilon>
    <iterations>96</iterations></term_criteria>
  <var_all>60000</var_all>
  <var_count>60000</var_count>
  <class_count>2</class_count>
  <class_labels type_id="opencv-matrix">
    <rows>1</rows>
    <cols>2</cols>
    <dt>i</dt>
    <data>
      0 1</data></class_labels>
  <sv_total>1</sv_total>
  <support_vectors>
    <_>
      2.34329427e-008 2.63476210e-008 2.67784568e-008 2.34250308e-008
      1.66435861e-008 8.29254176e-009 -1.63245184e-009 -1.28726940e-008
      -2.25086119e-008 -2.67020592e-008 -3.06424823e-008
      -3.94942354e-008 -4.36157528e-008 -4.35787477e-008
      -3.94834778e-008 -4.27320188e-008 -4.37475300e-008
      -3.87735248e-008 -3.51817420e-008 -3.52089096e-008
      -3.58490695e-008 -3.59718086e-008 -3.39994841e-008
      -3.43817170e-008 -3.23381748e-008 -2.86449371e-008
      -2.34728450e-008 -2.53150318e-008 -2.62481450e-008
      -1.86403089e-008 -8.71165717e-009 -1.36494416e-009 4.03799438e-010
      5.35371747e-009 4.53920368e-009 6.48675025e-009 6.63142830e-009
      7.24194127e-009 3.80638676e-009 9.51550783e-011 -5.77563330e-009
      -4.03085121e-009 -5.21504306e-009 -9.68994751e-009
      -4.93150942e-009 -5.89411364e-009 -6.05742834e-009
      -1.64883829e-009 2.13759410e-009 8.61394778e-009 1.54895528e-008
      1.79220692e-008 2.76321046e-008 3.69366866e-008 4.04381417e-008
      4.74706319e-008 5.26321315e-008 6.26510186e-008 6.90892321e-008
      7.56668186e-008 8.03625468e-008 8.35698231e-008 7.88083838e-008
      7.38807699e-008 6.65844340e-008 6.25915106e-008 6.09235684e-008
      5.58140449e-008 5.09351459e-008 4.38178276e-008 3.85379870e-008
      3.28031504e-008 3.00470582e-008 2.58152557e-008 2.22994316e-008
      1.83358697e-008 1.37819898e-008 9.28101596e-009 7.51782636e-009
      6.58383881e-009 -4.24135838e-010 -3.97572952e-009 -1.21290178e-008
      -1.83753510e-008 -2.72847167e-008 -3.30193330e-008
      -4.03121554e-008 -5.50797026e-008 -6.63762449e-008
      -7.28636920e-008 -7.71471704e-008 -7.36827914e-008
      -6.54717951e-008 -5.15062837e-008 -3.27250902e-008
      -2.73670437e-008 -1.85769142e-008 -2.29849739e-009 1.59269753e-008
      3.46201112e-008 4.87803682e-008 6.19580831e-008 6.97382987e-008
      7.11934831e-008 7.55104352e-008 8.43108481e-008 9.23677490e-008
      9.76167200e-008 9.95348159e-008 9.93832785e-008 1.00631127e-007
      9.70466516e-008 9.31484223e-008 9.07394551e-008 8.44259702e-008
      7.82887497e-008 6.79333567e-008 5.81085189e-008 4.19547312e-008
      2.24617285e-008 2.47400989e-009 -1.66420779e-008 -3.00117797e-008
      -3.75452132e-008 -4.08981506e-008 -4.40316619e-008
      -3.45006619e-008 -2.61764992e-008 -1.43312313e-008 4.23836433e-009
      1.96490380e-008 3.39525670e-008 4.90278431e-008 5.94280003e-008
      6.24824423e-008 6.40259898e-008 5.98280820e-008 5.95199765e-008
      5.85774096e-008 5.31693836e-008 4.78003130e-008 4.31666898e-008
      3.63172994e-008 2.90120816e-008 2.69666049e-008 2.53072994e-008
      3.04116092e-008 3.14642463e-008 3.58544696e-008 4.65910439e-008
      5.30752544e-008 6.12400441e-008 7.59777876e-008 8.82208866e-008
      9.83675008e-008 1.05039256e-007 1.02717799e-007 1.03549283e-007
      1.06518932e-007 1.02854372e-007 1.05250422e-007 1.03783272e-007
      9.14655303e-008 7.57576828e-008 6.60418635e-008 5.59474600e-008
      4.65419241e-008 3.41018094e-008 2.04209805e-008 9.44116163e-009
      -4.88915042e-009 -8.13392287e-009 -5.51007950e-009 7.39875272e-009
      1.30197106e-008 2.08657607e-008 3.03699359e-008 4.49133815e-008
      6.04515336e-008 7.74953719e-008 9.49934744e-008 1.08002872e-007
      1.20372221e-007 1.27759733e-007 1.36386760e-007 1.38154846e-007
      1.45063609e-007 1.49637557e-007 1.48805341e-007 1.42995688e-007
      1.42335892e-007 1.38817754e-007 1.32600576e-007 1.19047520e-007
      1.06993326e-007 9.65468772e-008 8.10451368e-008 6.23872083e-008
      5.48351942e-008 4.23414690e-008 1.96045242e-008 6.28447427e-009
      3.31588379e-009 1.07070375e-009 -4.62127447e-009 -7.05437619e-009
      -5.56451196e-009 -2.60090260e-009 -1.13607062e-008
      -1.09440386e-008 -4.21501251e-010 5.06445774e-010 -6.77465151e-009
      -1.04147695e-008 -1.17809051e-008 -1.39945371e-008
      -1.59659450e-008 -1.51840425e-008 -8.62571259e-009
      -3.61473029e-009 -9.44227141e-010 -6.52718490e-010 4.46417625e-010
      5.98361538e-009 5.15650678e-009 8.31440783e-009 1.16378711e-008
      1.11114611e-008 7.21820603e-009 5.38881872e-009 1.80895787e-009
      -1.36251721e-009 -2.36009945e-009 -8.85433593e-009
      -5.05965803e-009 -4.86893104e-009 -8.00626676e-009
      -8.21310042e-009 -1.01345128e-008 -1.38694158e-008
      -1.57782427e-008 -1.46434003e-008 -1.35798617e-008
      -1.56247566e-008 -1.49873784e-008 -1.54084567e-008
      -1.41306273e-008 -1.27470186e-008 -7.96347699e-009 5.55489832e-009
      1.70858350e-008 2.38316531e-008 3.22328688e-008 4.48645849e-008
      4.89246226e-008 5.46757057e-008 6.06645756e-008 6.85915609e-008
      7.50225695e-008 6.81998316e-008 6.12698940e-008 5.61000952e-008
      5.38472840e-008 4.78578599e-008 3.59965497e-008 2.81468751e-008
      1.92461318e-008 6.70285827e-009 -2.83894197e-009 -9.67105418e-009
      -1.25469954e-008 -1.94887111e-008 -3.11517709e-008
      -4.38846612e-008 -4.93017609e-008 -5.53280479e-008
      -6.04245471e-008 -5.89011506e-008 -5.92684799e-008
      -6.37088107e-008 -6.68896263e-008 -6.64534383e-008
      -6.61543140e-008 -6.31969428e-008 -6.17314626e-008
      -6.09420212e-008 -6.34933812e-008 -7.09704011e-008
      -7.20864364e-008 -6.99145275e-008 -6.64053843e-008
      -6.72157370e-008 -6.71327953e-008 -6.49976641e-008
      -6.43962395e-008 -6.47678178e-008 -6.40995523e-008
      -6.28010568e-008 -6.08905140e-008 -6.10193638e-008
      -6.36980388e-008 -6.40915729e-008 -5.92394116e-008
      -5.39193721e-008 -4.72531063e-008 -3.33086412e-008
      -1.78054993e-008 -2.17614066e-010 1.69378396e-008 3.56176457e-008
      5.99070020e-008 8.95819738e-008 1.17690526e-007 1.40835439e-007
      1.65126693e-007 1.87912988e-007 2.00975791e-007 2.05452608e-007
      2.04476692e-007 1.97145980e-007 1.84370592e-007 1.65368064e-007
      1.44844336e-007 1.27267484e-007 1.08005409e-007 8.45920951e-008
      6.74819205e-008 6.26381151e-008 6.42362750e-008 6.49369056e-008
      7.05586700e-008 7.12691772e-008 7.46512896e-008 8.01815858e-008
      8.62588010e-008 9.20303052e-008 9.61925011e-008 9.51422834e-008
      9.40534832e-008 9.45946681e-008 9.06643294e-008 9.25387695e-008
      8.53621742e-008 8.10771610e-008 7.88646162e-008 7.86053320e-008
      7.87021790e-008 7.86295047e-008 7.92561252e-008 7.57487513e-008
      7.44293658e-008 7.09218781e-008 7.67039552e-008 7.79641169e-008
      7.55037917e-008 7.40098827e-008 7.02813523e-008 6.69608298e-008
      5.93481317e-008 5.67808129e-008 5.04560838e-008 4.61524330e-008
      3.67876716e-008 2.90980910e-008 1.58819269e-008 -1.98391992e-009
      -1.68300431e-008 -2.83493673e-008 -4.06056664e-008
      -5.20031733e-008 -5.57315900e-008 -5.95178093e-008
      -5.69091654e-008 -5.85725424e-008 -5.04851592e-008
      -3.58286414e-008 -2.02196020e-008 -5.47354251e-009 1.43590011e-008
      3.53462219e-008 4.70012722e-008 5.40644187e-008 5.89202926e-008
      6.43346496e-008 6.58870007e-008 6.65404869e-008 6.21559550e-008
      6.07215398e-008 5.55522170e-008 4.84587126e-008 4.59715359e-008
      4.21951079e-008 3.51740574e-008 3.25232428e-008 2.86722628e-008
      2.57740300e-008 2.62805759e-008 2.82201675e-008 3.19856142e-008
      3.17984146e-008 3.41549367e-008 3.66871937e-008 4.26581721e-008
      4.73159218e-008 5.36582618e-008 5.94343241e-008 6.47503526e-008
      6.97292819e-008 7.07061432e-008 7.91534873e-008 8.18757044e-008
      8.53218580e-008 8.47119566e-008 8.83756073e-008 9.03686654e-008
      9.37727762e-008 9.30667099e-008 9.15042051e-008 8.92800784e-008
      8.76635511e-008 9.12260560e-008 8.66049490e-008 8.30680804e-008
      7.71730200e-008 7.19727353e-008 6.74772238e-008 6.66672051e-008
      6.56615526e-008 7.01596505e-008 7.53748211e-008 7.64353203e-008
      8.89800233e-008 1.03655886e-007 1.14681455e-007 1.22841556e-007
      1.29914582e-007 1.35714245e-007 1.36753073e-007 1.34163088e-007
      1.27778947e-007 1.24371383e-007 1.20168266e-007 1.10675920e-007
      1.05781304e-007 1.04125355e-007 9.24258146e-008 8.43345376e-008
      7.89709986e-008 7.49139772e-008 7.06268679e-008 6.07915851e-008
      4.94064878e-008 4.45056649e-008 3.78187650e-008 3.11191002e-008
      3.32867636e-008 3.27724088e-008 3.79915903e-008 4.60861322e-008
      5.62412126e-008 6.51078764e-008 7.93095793e-008 9.21925221e-008
      1.06321409e-007 1.23965805e-007 1.34693153e-007 1.48849210e-007
      1.53535112e-007 1.57337382e-007 1.59523111e-007 1.59641772e-007
      1.56734814e-007 1.59345930e-007 1.54633952e-007 1.44528215e-007
      1.37960015e-007 1.26809155e-007 1.26273633e-007 1.19807822e-007
      1.16386168e-007 1.13031682e-007 1.11074918e-007 1.01184504e-007
      9.10411515e-008 9.01796042e-008 8.93692160e-008 9.44620524e-008
      9.83181607e-008 9.98148124e-008 9.59290603e-008 8.99924544e-008
      7.87096752e-008 7.15708239e-008 6.64682673e-008 5.35978657e-008
      4.16227479e-008 2.63834448e-008 8.49781934e-009 -4.22702451e-009
      -9.87016069e-009 -1.64553491e-008 -1.24651596e-008
      -1.16524479e-008 -6.45670895e-009 2.48107268e-009 9.64242819e-009
      1.87791791e-008 2.82643953e-008 3.38029089e-008 3.36458221e-008
      3.89034653e-008 3.36117694e-008 3.03950110e-008 2.36883491e-008
      1.53705191e-008 1.06525215e-008 3.80007981e-009 -3.92190458e-009
      -8.46486614e-009 -7.32706384e-009 -8.89580187e-010 9.12993414e-009
      1.24670665e-008 1.98203463e-008 3.06786632e-008 4.27961631e-008
      5.13712806e-008 6.40357456e-008 7.91770205e-008 8.94844163e-008
      8.51614246e-008 8.63290595e-008 9.19405565e-008 9.17213185e-008
      9.31597341e-008 8.67023644e-008 7.63696875e-008 6.69381706e-008
      5.42964003e-008 4.55612934e-008 4.53975488e-008 3.56896024e-008
      2.58054396e-008 1.83305691e-008 4.73516693e-009 -2.06783901e-009
      -6.71286182e-009 -1.25793242e-008 -1.49770720e-008
      -1.76617423e-008 -2.49589434e-008 -2.66014748e-008
      -2.49844483e-008 -2.24304220e-008 -1.75264301e-008
      -1.60911693e-008 -1.33269920e-008 -5.40561640e-009 1.07847564e-009
      5.43116396e-009 1.11696039e-008 1.39848320e-008 1.91300238e-008
      1.86806801e-008 2.12976197e-008 2.77169718e-008 3.95676949e-008
      4.52299744e-008 4.95081203e-008 6.04257693e-008 7.50690887e-008
      9.36486160e-008 1.10146452e-007 1.30021533e-007 1.42275937e-007
      1.50722045e-007 1.54390307e-007 1.55902839e-007 1.51748338e-007
      1.37189730e-007 1.18201079e-007 9.63423190e-008 7.32382048e-008
      5.19586472e-008 4.13075441e-008 2.71538987e-008 1.38147431e-008
      8.36508285e-009 6.26157481e-009 7.85349652e-009 9.27802990e-009
      1.70194596e-008 2.51515768e-008 2.98204874e-008 3.02645660e-008
      3.49461331e-008 4.39959287e-008 5.11681364e-008 5.82512349e-008
      6.42805063e-008 7.04183805e-008 6.72569556e-008 6.62688109e-008
      7.04739875e-008 7.77390383e-008 8.55671445e-008 8.45094732e-008
      8.40265457e-008 7.80763969e-008 7.77073765e-008 7.35611323e-008
      7.26948102e-008 7.19299962e-008 7.07446475e-008 6.39003943e-008
      5.18114973e-008 4.95858785e-008 4.46314417e-008 4.01595237e-008
      3.63924961e-008 3.83262702e-008 3.83292296e-008 3.93662596e-008
      3.99371771e-008 4.00559479e-008 4.61824747e-008 5.01651982e-008
      5.74875649e-008 6.56244836e-008 6.89145523e-008 7.02789791e-008
      7.50197913e-008 7.57639143e-008 7.67612605e-008 7.91809285e-008
      8.24917876e-008 8.03453943e-008 8.10785394e-008 8.25219288e-008
      8.33278548e-008 8.51723740e-008 9.01479851e-008 9.13477649e-008
      9.51680406e-008 9.86613244e-008 9.98720679e-008 1.02957522e-007
      1.05255083e-007 1.03776514e-007 1.07726535e-007 1.13385312e-007
      1.10315661e-007 1.13132685e-007 1.09807203e-007 1.02004677e-007
      1.04023250e-007 1.04280495e-007 9.84468187e-008 9.84717801e-008
      9.32102537e-008 8.84863169e-008 8.56093934e-008 8.03442077e-008
      8.26330719e-008 8.35806802e-008 8.64410197e-008 8.67566285e-008
      9.68065237e-008 1.05265897e-007 1.17713924e-007 1.29225484e-007
      1.40964502e-007 1.53004237e-007 1.66828769e-007 1.79202175e-007
      1.84862145e-007 1.91077845e-007 1.93542064e-007 1.91609814e-007
      1.87220564e-007 1.76177096e-007 1.61976288e-007 1.50282901e-007
      1.37943417e-007 1.31669225e-007 1.23462982e-007 1.15572014e-007
      1.04674861e-007 1.01574543e-007 9.64821609e-008 9.93701050e-008
      1.06439622e-007 1.13868616e-007 1.18449798e-007 1.18431444e-007
      1.26510258e-007 1.31109729e-007 1.39215601e-007 1.40851867e-007
      1.43311055e-007 1.44921017e-007 1.44377196e-007 1.40913414e-007
      1.40646065e-007 1.35980059e-007 1.26758849e-007 1.20677242e-007
      1.11682446e-007 1.06034307e-007 1.02668430e-007 9.76966774e-008
      9.26138242e-008 8.78521007e-008 8.41858991e-008 8.46111803e-008
      8.14624670e-008 8.33777705e-008 8.42250003e-008 8.21910575e-008
      8.15281354e-008 7.89847121e-008 8.15648633e-008 7.86612873e-008
      7.66649393e-008 7.61701457e-008 7.63775105e-008 7.03263296e-008
      6.79700634e-008 6.63709585e-008 6.55070806e-008 6.18898071e-008
      5.80115014e-008 5.40573346e-008 4.59929659e-008 4.05535303e-008
      4.10061851e-008 4.05707716e-008 4.13179144e-008 4.75148383e-008
      5.33238911e-008 5.96306862e-008 6.70286227e-008 7.94363402e-008
      9.67921778e-008 1.10119764e-007 1.24370104e-007 1.43034356e-007
      1.54338366e-007 1.58516045e-007 1.64351036e-007 1.72117169e-007
      1.73564203e-007 1.70311679e-007 1.62436280e-007 1.55967655e-007
      1.42602843e-007 1.23722813e-007 1.09816767e-007 9.31989703e-008
      7.20610771e-008 5.21141921e-008 4.22844941e-008 3.68061812e-008
      3.01444807e-008 2.97835108e-008 3.33090853e-008 3.87016250e-008
      4.96941936e-008 6.21585770e-008 8.01920237e-008 9.73819283e-008
      1.03556985e-007 1.08920290e-007 1.13883161e-007 1.15112556e-007
      1.14573901e-007 1.11810735e-007 1.03817236e-007 9.92504781e-008
      9.27660082e-008 9.25222565e-008 9.59156949e-008 1.00401721e-007
      1.12765214e-007 1.18550538e-007 1.31321045e-007 1.46031240e-007
      1.62757544e-007 1.75005283e-007 1.79661455e-007 1.76843542e-007
      1.73141942e-007 1.68653628e-007 1.56536814e-007 1.49427422e-007
      1.39190405e-007 1.19474137e-007 9.90473268e-008 7.67360078e-008
      6.30358699e-008 5.09759452e-008 4.02467535e-008 3.74183067e-008
      3.68944200e-008 3.26631131e-008 2.93341031e-008 4.05564933e-008
      4.67799026e-008 5.46374217e-008 6.20908622e-008 7.57898562e-008
      8.68854144e-008 8.54077626e-008 8.86205527e-008 9.62940518e-008
      9.98182870e-008 9.34935613e-008 9.06035567e-008 9.10480651e-008
      9.09893458e-008 7.68667050e-008 6.39935607e-008 5.94678760e-008
      5.40132490e-008 4.63574814e-008 4.18057660e-008 4.38401244e-008
      4.49738344e-008 4.26839222e-008 4.10294660e-008 4.14985486e-008
      4.45401760e-008 4.59877505e-008 4.33623519e-008 3.63502402e-008
      3.13483994e-008 2.43952059e-008 1.86415949e-008 1.28443194e-008
      5.70346970e-009 1.26451305e-009 -4.22695789e-009 -1.10201386e-008
      -1.83160616e-008 -2.06401687e-008 -2.88588868e-008
      -3.04627541e-008 -3.75663802e-008 -4.31905747e-008
      -4.65665870e-008 -4.81111613e-008 -5.04881150e-008
      -5.62677869e-008 -5.98675953e-008 -6.50882512e-008
      -7.09728951e-008 -8.60425970e-008 -9.39772207e-008
      -9.76315278e-008 -9.35412316e-008 -9.27669745e-008
      -8.59406839e-008 -7.60672378e-008 -5.96501977e-008
      -4.63929162e-008 -2.70224305e-008 3.03760628e-010 2.18016876e-008
      4.64965417e-008 6.87213770e-008 9.03035442e-008 1.05894287e-007
      1.23200948e-007 1.36640182e-007 1.52477384e-007 1.61623319e-007
      1.66704993e-007 1.69927702e-007 1.65730100e-007 1.51722574e-007
      1.40735793e-007 1.33593062e-007 1.27445432e-007 1.18489943e-007
      1.12137592e-007 1.05001099e-007 9.87201503e-008 8.90304364e-008
      7.86896877e-008 7.58128706e-008 6.93091806e-008 6.51277006e-008
      4.99110584e-008 3.89846555e-008 2.46864662e-008 1.46999977e-008
      6.98347158e-009 6.88381530e-009 4.95641439e-009 8.39759906e-009
      7.86944643e-009 1.05138165e-008 1.77431119e-008 2.56709622e-008
      3.57664156e-008 4.32028635e-008 4.43626575e-008 4.87928133e-008
      5.54660637e-008 5.33194182e-008 5.50955477e-008 5.40289982e-008
      5.34880797e-008 5.09070688e-008 5.39817933e-008 5.37848202e-008
      6.06154344e-008 5.77250461e-008 5.64661846e-008 5.94624687e-008
      5.53400241e-008 5.53525155e-008 5.15819707e-008 4.76031090e-008
      3.77193032e-008 3.07311154e-008 2.22410179e-008 1.38886378e-008
      4.37026593e-009 -5.75937742e-009 -1.51096877e-008 -2.74327991e-008
      -3.28970664e-008 -3.67361501e-008 -4.46970390e-008
      -4.47049366e-008 -4.53668427e-008 -4.35105747e-008
      -4.14683754e-008 -3.75810743e-008 -2.65811035e-008
      -1.66904890e-008 -9.08517173e-009 -3.14707038e-009 8.65352234e-009
      1.71972978e-008 2.58911772e-008 3.24213971e-008 4.09818597e-008
      5.24733927e-008 5.88123825e-008 6.12917006e-008 6.65898341e-008
      7.90135530e-008 9.01999186e-008 9.79091013e-008 1.00594612e-007
      1.09483857e-007 1.10537037e-007 1.09863606e-007 1.10903073e-007
      1.16492735e-007 1.14032623e-007 1.07599554e-007 1.02756275e-007
      9.50480512e-008 9.07130726e-008 8.49928270e-008 7.94905333e-008
      7.14009758e-008 6.55715553e-008 6.19514822e-008 7.61140555e-008
      7.79624614e-008 7.94195856e-008 8.45707362e-008 9.15279159e-008
      1.00050251e-007 1.11725008e-007 1.27031669e-007 1.35156199e-007
      1.40658713e-007 1.34340326e-007 1.37381178e-007 1.42978948e-007
      1.48382554e-007 1.49358456e-007 1.51156087e-007 1.52275732e-007
      1.55769015e-007 1.66411098e-007 1.70731440e-007 1.71690047e-007
      1.80015988e-007 1.88140291e-007 1.96125796e-007 2.02614359e-007
      2.06489702e-007 2.08729446e-007 2.10601939e-007 2.08271430e-007
      2.09377831e-007 2.11409699e-007 2.11833978e-007 2.00735073e-007
      1.93956609e-007 1.88162005e-007 1.79770154e-007 1.70643744e-007
      1.59833505e-007 1.52641704e-007 1.41579278e-007 1.29142990e-007
      1.13870691e-007 1.07058376e-007 1.00331832e-007 9.09981139e-008
      8.57680931e-008 7.91291157e-008 7.44795514e-008 7.12343180e-008
      6.81461003e-008 7.14275643e-008 7.13737336e-008 6.91071378e-008
      6.36000408e-008 5.85671174e-008 5.03658697e-008 4.63176164e-008
      3.88325638e-008 3.08633261e-008 2.29933246e-008 7.24178584e-009
      -4.72590056e-009 -1.55338729e-008 -2.71821037e-008
      -3.07923180e-008 -2.62976290e-008 -2.35430555e-008
      -1.95001402e-008 -8.49928661e-009 6.60466259e-009 2.57345096e-008
      4.78430913e-008 7.11328525e-008 9.01059352e-008 1.05684677e-007
      1.15445545e-007 1.24923943e-007 1.34364399e-007 1.27145370e-007
      1.15261770e-007 1.06355131e-007 9.56968407e-008 8.18719599e-008
      7.40715507e-008 6.50196625e-008 5.71799461e-008 4.93195103e-008
      4.71064112e-008 4.76940798e-008 5.36019336e-008 5.73507677e-008
      5.90357132e-008 6.07723791e-008 6.16452951e-008 6.18236484e-008
      6.19542888e-008 6.22405381e-008 5.95153118e-008 6.61908643e-008
      7.25028997e-008 8.06237210e-008 8.61042935e-008 9.11992188e-008
      9.37684703e-008 1.00588402e-007 1.13299649e-007 1.27216538e-007
      1.35733970e-007 1.36842218e-007 1.30391555e-007 1.23814459e-007
      1.13738444e-007 1.01636111e-007 9.40731226e-008 7.78541249e-008
      6.08798914e-008 3.93576904e-008 2.02738288e-008 5.27516875e-009
      -9.08289799e-009 -2.85948953e-008 -4.06187475e-008
      -4.21971755e-008 -4.81041731e-008 -4.71400696e-008
      -4.33490897e-008 -3.54977949e-008 -2.74230185e-008
      -1.97824068e-008 -8.53697113e-009 7.56919594e-009 2.04801101e-008
      2.79592847e-008 3.61566812e-008 3.85503327e-008 3.86172410e-008
      4.02090379e-008 4.12466576e-008 4.17360155e-008 4.31333156e-008
      4.30718892e-008 4.96006116e-008 5.42267387e-008 5.75458543e-008
      6.49760494e-008 6.81008956e-008 6.94884363e-008 6.94685269e-008
      7.11767001e-008 7.20218338e-008 7.27378549e-008 6.65096138e-008
      5.95987224e-008 5.47853460e-008 5.14208764e-008 4.88724226e-008
      4.35548912e-008 4.16896029e-008 4.03728002e-008 4.20408206e-008
      3.79055791e-008 3.26013705e-008 3.09026440e-008 3.30307621e-008
      3.29303340e-008 3.36049943e-008 3.90307733e-008 4.37460557e-008
      4.47742927e-008 4.74410413e-008 4.97169275e-008 4.89543517e-008
      4.83828622e-008 4.69172612e-008 4.39081234e-008 3.89065420e-008
      3.52766207e-008 3.25428751e-008 2.51772558e-008 1.83331643e-008
      1.84860873e-008 2.03982466e-008 2.50825831e-008 3.36437367e-008
      3.72382765e-008 4.05276772e-008 4.28313065e-008 4.59793839e-008
      4.95623560e-008 5.07324991e-008 4.79060098e-008 5.36285221e-008
      5.37362475e-008 5.03808302e-008 4.82606843e-008 4.47891075e-008
      4.24715232e-008 4.05262135e-008 4.01815647e-008 3.75079843e-008
      3.67402322e-008 2.92096658e-008 2.16621583e-008 1.59342335e-008
      1.02758948e-008 5.97075100e-009 6.03558625e-009 4.78191087e-009
      3.10415516e-009 2.77951329e-009 4.31284164e-009 8.04623213e-009
      1.18118564e-008 1.40180134e-008 1.87901126e-008 2.74018177e-008
      2.95869995e-008 3.08454524e-008 2.98821092e-008 2.90914350e-008
      2.80125967e-008 2.49640308e-008 2.26514096e-008 2.30140795e-008
      2.00175378e-008 1.70281886e-008 1.46034456e-008 1.52141570e-008
      2.03390567e-008 2.37045406e-008 2.60824660e-008 2.89574835e-008
      2.88249833e-008 2.36467894e-008 2.40332358e-008 1.89330986e-008
      1.05042712e-008 1.47988000e-009 -9.79392123e-009 -2.44079530e-008
      -3.43289486e-008 -4.69121844e-008 -5.66723841e-008
      -6.33456523e-008 -6.73529144e-008 -6.69317544e-008
      -6.39433040e-008 -6.26248138e-008 -5.79711070e-008
      -4.79077720e-008 -4.38840644e-008 -3.79778911e-008
      -3.44999584e-008 -3.17367004e-008 -3.08131689e-008
      -3.29465379e-008 -3.50229215e-008 -3.67458739e-008
      -3.95760189e-008 -4.15300576e-008 -4.56689406e-008
      -4.71801869e-008 -4.48390445e-008 -4.54190179e-008
      -4.86177427e-008 -5.46311334e-008 -5.56370381e-008
      -6.00148340e-008 -6.19176745e-008 -6.38795825e-008
      -6.67652102e-008 -7.61855716e-008 -8.64085123e-008
      -9.05230166e-008 -9.42907832e-008 -9.73531584e-008
      -1.01797099e-007 -9.96229161e-008 -1.00081216e-007
      -9.87168534e-008 -9.12990288e-008 -7.78617419e-008
      -6.20310061e-008 -4.96962080e-008 -4.21136797e-008
      -2.79319252e-008 -1.59848650e-008 -2.97950176e-009 1.06245768e-008
      1.90304803e-008 2.42645743e-008 2.72579879e-008 2.51443542e-008
      2.73505698e-008 3.56781982e-008 3.44030688e-008 3.21510143e-008
      3.18192050e-008 3.08039567e-008 3.07475077e-008 2.95270119e-008
      2.51356393e-008 2.65120352e-008 2.30322801e-008 1.78989836e-008
      1.46535548e-008 1.94833181e-008 1.97112513e-008 1.75791932e-008
      1.32450353e-008 1.07420863e-008 8.23635204e-009 2.68505529e-009
      -2.77147061e-009 -1.03419877e-008 -9.92797844e-009
      -1.32814648e-008 -1.34156641e-008 -1.86882669e-008
      -1.71850942e-008 -1.37316372e-008 -1.08709006e-008
      -1.18694077e-008 -1.25516539e-008 -1.30569582e-008
      -1.81442203e-008 -2.39704310e-008 -3.50482239e-008
      -4.26282263e-008 -5.65117091e-008 -7.21051236e-008
      -7.96618735e-008 -8.40135925e-008 -8.82812259e-008
      -8.91528487e-008 -8.64923493e-008 -7.86586014e-008
      -6.50547705e-008 -4.73344031e-008 -2.78908576e-008
      -8.12733081e-009 2.26868591e-009 1.76254495e-008 3.34845289e-008
      4.49536337e-008 5.89697677e-008 6.65070985e-008 7.39717407e-008
      8.04128177e-008 8.70114434e-008 9.34377198e-008 1.06920908e-007
      1.13654117e-007 1.21296452e-007 1.28363638e-007 1.36232984e-007
      1.47120673e-007 1.52534042e-007 1.59708947e-007 1.61923410e-007
      1.66380914e-007 1.67812402e-007 1.69980694e-007 1.73362793e-007
      1.77055171e-007 1.74347448e-007 1.72535962e-007 1.70804498e-007
      1.64432350e-007 1.59161374e-007 1.52224928e-007 1.45112196e-007
      1.33235972e-007 1.19058690e-007 1.05656973e-007 9.03829900e-008
      7.10907173e-008 5.31003863e-008 2.98525400e-008 5.90090421e-009
      -1.76802786e-008 -4.20245811e-008 -6.27690468e-008
      -8.14639094e-008 -9.01295394e-008 -9.76298793e-008
      -1.04499023e-007 -1.02848368e-007 -9.40969542e-008
      -8.27112245e-008 -6.81689372e-008 -4.86698220e-008
      -2.80912413e-008 -4.35084768e-009 9.58462287e-009 2.41503955e-008
      4.13302956e-008 5.08087723e-008 5.67837972e-008 6.02491710e-008
      6.85760924e-008 6.91699640e-008 7.11881825e-008 7.10009402e-008
      7.43418411e-008 7.39715134e-008 6.70912357e-008 6.62413910e-008
      6.75419187e-008 6.81419579e-008 6.07120896e-008 5.35092148e-008
      4.82158917e-008 4.52155007e-008 4.03434655e-008 3.89067729e-008
      4.10632879e-008 4.43609167e-008 4.73716000e-008 5.52825306e-008
      7.08128596e-008 8.75014834e-008 9.82726149e-008 1.08254589e-007
      1.19895574e-007 1.28186244e-007 1.37686371e-007 1.36287696e-007
      1.34466873e-007 1.29866919e-007 1.23615393e-007 1.17633384e-007
      1.15441743e-007 1.16530266e-007 1.10550410e-007 1.08893332e-007
      1.07747880e-007 1.07921949e-007 1.11588186e-007 1.16424907e-007
      1.14819535e-007 1.14512176e-007 1.10859219e-007 9.92934872e-008
      8.69622099e-008 7.27121758e-008 5.92882223e-008 4.57410110e-008
      3.29269554e-008 1.63082046e-008 8.01438471e-009 2.85208812e-009
      -1.69302072e-009 1.06801257e-009 9.53154089e-009 2.16049880e-008
      3.38412960e-008 4.83649387e-008 6.19721519e-008 7.71045663e-008
      8.49091251e-008 8.37829504e-008 9.09008335e-008 9.24137353e-008
      8.47198933e-008 7.51855112e-008 6.55341950e-008 5.77257744e-008
      5.11497369e-008 4.16009875e-008 4.01356708e-008 4.44199202e-008
      4.36065868e-008 3.95932922e-008 3.59505599e-008 3.64995003e-008
      3.30810508e-008 2.93234592e-008 2.71032050e-008 2.17673826e-008
      1.22964199e-008 8.61155058e-009 5.32189004e-009 7.70028219e-009
      1.63817742e-008 2.33653665e-008 2.78115913e-008 3.24799316e-008
      3.68883057e-008 4.28211706e-008 5.44000329e-008 5.97774346e-008
      6.38314006e-008 6.63569537e-008 6.67171633e-008 7.05795173e-008
      7.80512437e-008 8.41570085e-008 8.32086613e-008 8.47896260e-008
      8.36288407e-008 8.05305547e-008 7.45999031e-008 7.15512769e-008
      7.11857524e-008 6.40689422e-008 5.84068900e-008 5.58739970e-008
      5.41760876e-008 4.81211799e-008 4.27273150e-008 4.03006837e-008
      3.82097980e-008 3.78159513e-008 3.38769723e-008 3.32167431e-008
      2.97476568e-008 2.26790977e-008 1.99917896e-008 1.89945890e-008
      1.89244833e-008 2.07387760e-008 2.16419220e-008 2.50212562e-008
      2.54111132e-008 2.64690616e-008 3.45297444e-008 3.73836855e-008
      4.24306918e-008 4.37115055e-008 4.76425370e-008 4.82834110e-008
      4.88911311e-008 4.70264254e-008 5.09547995e-008 4.78198530e-008
      3.74377542e-008 3.13620667e-008 2.63444164e-008 2.27796839e-008
      1.90025027e-008 1.72482491e-008 1.86402218e-008 2.44014977e-008
      3.03455110e-008 3.40668436e-008 3.94910700e-008 4.46939836e-008
      5.03286124e-008 5.24685966e-008 5.28313535e-008 5.38142544e-008
      4.70529571e-008 3.37298758e-008 1.99439878e-008 8.81479423e-009
      -9.42427292e-009 -2.11514966e-008 -3.35469608e-008
      -4.07536156e-008 -4.49772593e-008 -5.08535223e-008
      -5.19076195e-008 -5.26288559e-008 -4.93493673e-008
      -4.47525323e-008 -3.15593773e-008 -2.80782348e-008
      -2.01075334e-008 -1.23062831e-008 -5.12911180e-009 4.42075532e-009
      1.11051168e-008 1.00907389e-008 5.92793903e-009 9.17524989e-009
      6.20467633e-009 6.47505471e-009 2.05253281e-009 -4.09037559e-009
      -1.61150098e-008 -2.74399206e-008 -4.23644906e-008
      -4.77520778e-008 -5.13794767e-008 -5.54082931e-008
      -5.89756368e-008 -6.45842277e-008 -6.98386557e-008
      -6.74251339e-008 -5.72963579e-008 -4.76106194e-008
      -3.64406603e-008 -2.81119608e-008 -1.97304182e-008
      -1.12489600e-008 -3.32676686e-009 1.15201315e-008 2.11557634e-008
      2.04595541e-008 1.87267375e-008 1.91028882e-008 1.97544630e-008
      2.11849933e-008 1.77978574e-008 1.26535387e-008 1.03261621e-008
      8.56163407e-009 9.49716661e-009 1.27675719e-008 1.43188057e-008
      1.27733699e-008 1.27337749e-008 1.17191394e-008 1.60040852e-008
      2.04871053e-008 2.24007550e-008 2.27442314e-008 2.36616735e-008
      2.75075500e-008 3.17816777e-008 3.87367685e-008 4.06785503e-008
      4.38183534e-008 4.47694823e-008 4.51243665e-008 4.74640451e-008
      5.00226847e-008 4.53249562e-008 4.47194637e-008 4.50523494e-008
      4.64248977e-008 5.45398429e-008 5.99130772e-008 6.36969162e-008
      7.25164782e-008 8.53027018e-008 9.93826106e-008 1.17732696e-007
      1.34644239e-007 1.49212866e-007 1.58056238e-007 1.64243858e-007
      1.72952554e-007 1.83384174e-007 1.88946615e-007 1.84892059e-007
      1.79687106e-007 1.75860350e-007 1.69529827e-007 1.69159165e-007
      1.67173553e-007 1.65625821e-007 1.64629256e-007 1.57563790e-007
      1.53823478e-007 1.52568560e-007 1.49841767e-007 1.49150452e-007
      1.42844883e-007 1.31490125e-007 1.24881225e-007 1.22868627e-007
      1.20538104e-007 1.21727311e-007 1.21968171e-007 1.24258122e-007
      1.26843048e-007 1.27880980e-007 1.30889902e-007 1.37429438e-007
      1.35653806e-007 1.33682121e-007 1.32170229e-007 1.30732644e-007
      1.29131394e-007 1.29920295e-007 1.27715609e-007 1.30741341e-007
      1.35359087e-007 1.40223349e-007 1.47490425e-007 1.57483200e-007
      1.68016939e-007 1.73901668e-007 1.83849451e-007 1.93583844e-007
      2.02358905e-007 2.02785102e-007 2.03830268e-007 2.03955594e-007
      2.02169630e-007 1.97701453e-007 1.93351696e-007 1.92116403e-007
      1.92035813e-007 1.86634395e-007 1.85136813e-007 1.86114718e-007
      1.90782828e-007 1.99665664e-007 2.10135241e-007 2.14272603e-007
      2.15282100e-007 2.14502762e-007 2.05204003e-007 2.02682429e-007
      1.98687331e-007 1.90949081e-007 1.76455785e-007 1.59997285e-007
      1.44895026e-007 1.35528836e-007 1.28343927e-007 1.21107973e-007
      1.17479111e-007 1.13208451e-007 1.09167942e-007 1.04197056e-007
      1.01104121e-007 9.40890885e-008 8.93416470e-008 8.69148593e-008
      9.17084364e-008 8.47389572e-008 8.10253411e-008 7.81779477e-008
      7.72667406e-008 7.82217811e-008 7.73654136e-008 8.09930469e-008
      8.44825365e-008 8.55598330e-008 8.21390316e-008 8.51971791e-008
      8.87781368e-008 9.84459305e-008 9.88947946e-008 9.48402601e-008
      9.21859211e-008 8.84086049e-008 8.70619203e-008 8.63826415e-008
      8.40068992e-008 8.05843285e-008 7.20120426e-008 5.93959442e-008
      4.71246473e-008 3.94353172e-008 3.04908028e-008 1.73776709e-008
      6.65989797e-009 -3.51785001e-009 -1.08025082e-008 -1.42081884e-008
      -1.39119489e-008 -1.19021477e-008 -5.23755794e-009 1.73436210e-009
      1.39251108e-008 3.01340890e-008 4.21154027e-008 5.32635909e-008
      5.99028880e-008 6.23861283e-008 6.40980815e-008 6.14236413e-008
      5.65546010e-008 5.11650917e-008 4.54827678e-008 3.42699664e-008
      2.65331774e-008 1.56059556e-008 7.77557130e-009 3.65806740e-009
      2.76392775e-009 4.83427431e-009 1.04438698e-008 1.58049591e-008
      2.05510666e-008 3.33177042e-008 4.34237712e-008 5.41270815e-008
      6.26167136e-008 7.36746912e-008 8.27626039e-008 9.19245053e-008
      9.98942866e-008 1.10851140e-007 1.23164298e-007 1.31260478e-007
      1.38204584e-007 1.46094948e-007 1.57998826e-007 1.64515640e-007
      1.65216932e-007 1.67004117e-007 1.61679523e-007 1.51170511e-007
      1.41713514e-007 1.31856467e-007 1.24694708e-007 1.16877253e-007
      1.07506274e-007 1.00277965e-007 9.65106395e-008 9.31672091e-008
      9.45075556e-008 9.69835341e-008 9.91354483e-008 1.00811967e-007
      9.44789775e-008 9.33172188e-008 9.10070881e-008 8.33157330e-008
      7.34020276e-008 6.77898839e-008 6.23294980e-008 5.22845305e-008
      4.09552428e-008 3.07377483e-008 2.57578492e-008 2.20121432e-008
      1.95169108e-008 2.56823647e-008 3.58418255e-008 4.02884872e-008
      4.58943568e-008 5.77284389e-008 7.37914831e-008 8.60032330e-008
      1.04678925e-007 1.13849026e-007 1.27490168e-007 1.33026617e-007
      1.38102763e-007 1.41876797e-007 1.46639621e-007 1.52381659e-007
      1.53559000e-007 1.54081619e-007 1.49310679e-007 1.47430924e-007
      1.39492386e-007 1.37100301e-007 1.36632366e-007 1.36168723e-007
      1.31908905e-007 1.25464069e-007 1.20280319e-007 1.18767773e-007
      1.18301571e-007 1.18681562e-007 1.19594816e-007 1.16334583e-007
      1.11588719e-007 1.05347183e-007 1.05956659e-007 1.06943062e-007
      1.08629870e-007 1.09203000e-007 1.09861276e-007 1.10683942e-007
      1.17632446e-007 1.27908990e-007 1.36373899e-007 1.47098106e-007
      1.50730529e-007 1.54413328e-007 1.54421500e-007 1.50073234e-007
      1.43402119e-007 1.34970620e-007 1.20060207e-007 1.02638552e-007
      8.16386887e-008 6.03030372e-008 4.24298676e-008 2.35726869e-008
      6.31712815e-009 -7.42330153e-009 -2.45523868e-008 -4.13850039e-008
      -5.48162795e-008 -6.57213093e-008 -7.21171958e-008
      -7.72501352e-008 -7.99042468e-008 -7.47926165e-008
      -7.01124137e-008 -6.08259398e-008 -4.45760158e-008
      -2.30031301e-008 -3.98903888e-009 1.76815025e-008 3.42284778e-008
      4.53636666e-008 5.57664919e-008 6.23246592e-008 6.90967283e-008
      7.42773523e-008 7.39084953e-008 7.29278042e-008 7.58268754e-008
      7.70822908e-008 7.99753508e-008 8.77779911e-008 9.36432656e-008
      1.00507563e-007 1.08563491e-007 1.13853915e-007 1.18721196e-007
      1.21339113e-007 1.20236237e-007 1.11752499e-007 1.13874840e-007
      1.09687370e-007 1.04770116e-007 9.47892715e-008 8.56508962e-008
      8.23682456e-008 8.06837832e-008 8.44097130e-008 8.62616574e-008
      9.39089659e-008 9.52973878e-008 1.05255232e-007 1.16631554e-007
      1.31076916e-007 1.46975538e-007 1.56483793e-007 1.66145881e-007
      1.76443180e-007 1.86436978e-007 1.93823126e-007 1.95483238e-007
      1.96829163e-007 1.95069390e-007 1.89060643e-007 1.82604566e-007
      1.77745804e-007 1.73951022e-007 1.68133226e-007 1.64848117e-007
      1.61966256e-007 1.61635953e-007 1.62301092e-007 1.63191515e-007
      1.66179817e-007 1.66430851e-007 1.72554252e-007 1.80341203e-007
      1.83304209e-007 1.86664906e-007 1.94094170e-007 1.96771950e-007
      1.96179982e-007 1.97625951e-007 2.00053904e-007 1.97751362e-007
      1.92649665e-007 1.84884442e-007 1.74230593e-007 1.62883097e-007
      1.46753578e-007 1.37382401e-007 1.30063512e-007 1.21368601e-007
      1.08873998e-007 1.03980341e-007 9.70305720e-008 9.62714850e-008
      9.70995302e-008 9.85955069e-008 1.06902050e-007 1.11071017e-007
      1.07422444e-007 1.11349756e-007 1.21670681e-007 1.29959162e-007
      1.33647816e-007 1.33070770e-007 1.34132804e-007 1.36013369e-007
      1.32314611e-007 1.28791598e-007 1.28334889e-007 1.21807233e-007
      1.19483431e-007 1.16571847e-007 1.18247556e-007 1.18706978e-007
      1.16150559e-007 1.16211154e-007 1.16590272e-007 1.17572093e-007
      1.24374409e-007 1.23665828e-007 1.20816566e-007 1.17889002e-007
      1.15329165e-007 1.08609683e-007 1.06460085e-007 1.02683650e-007
      1.03580149e-007 1.01107119e-007 9.27381265e-008 9.18458625e-008
      9.07115876e-008 8.67978045e-008 8.57757598e-008 8.93277559e-008
      8.68981402e-008 8.73296031e-008 8.54437658e-008 9.05027804e-008
      9.12865303e-008 8.89266545e-008 9.20922432e-008 9.52680566e-008
      9.05790003e-008 8.65624088e-008 8.30451654e-008 7.21231004e-008
      6.36047730e-008 5.32919877e-008 5.35459677e-008 5.65581750e-008
      5.70199639e-008 5.72041046e-008 6.44762252e-008 7.18785031e-008
      7.88766457e-008 9.15743996e-008 1.05252177e-007 1.14787788e-007
      1.21031945e-007 1.27236618e-007 1.32721539e-007 1.31592543e-007
      1.31460354e-007 1.25398898e-007 1.17887481e-007 1.10459141e-007
      9.96359830e-008 9.21840240e-008 8.68622791e-008 8.14415202e-008
      7.53319540e-008 7.05835959e-008 6.89366431e-008 6.72536515e-008
      6.92927458e-008 7.13921722e-008 7.87971786e-008 8.50357509e-008
      8.45104040e-008 8.23694108e-008 7.88992693e-008 8.67342322e-008
      8.88175364e-008 9.16153056e-008 8.92655763e-008 8.62867680e-008
      8.18553971e-008 7.63993953e-008 7.83145140e-008 8.12455454e-008
      8.71819736e-008 8.15335568e-008 7.56012781e-008 6.98935096e-008
      6.96273972e-008 6.86492783e-008 6.01117236e-008 4.65985757e-008
      3.51286147e-008 2.06193373e-008 7.52924123e-009 -3.21618310e-009
      -8.14619749e-009 -1.23132669e-008 -1.73155783e-008
      -1.69997705e-008 -1.56563100e-008 -6.52519150e-009
      -4.13131174e-009 2.84480239e-009 9.34161015e-009 1.80003283e-008
      1.92435170e-008 1.69676593e-008 1.63290590e-008 1.28444739e-008
      8.15443624e-009 -1.11353167e-008 -1.78393798e-008 -1.56109703e-008
      -1.22563932e-008 -4.43039827e-009 -4.08829276e-010 9.88498794e-009
      1.79640658e-008 2.29676065e-008 3.49126559e-008 5.09067348e-008
      6.84945221e-008 7.60181678e-008 8.64277112e-008 9.23874524e-008
      1.03806087e-007 1.08310815e-007 1.07450326e-007 1.08485011e-007
      1.09165754e-007 1.12458316e-007 1.14027756e-007 1.19202703e-007
      1.19420349e-007 1.18968565e-007 1.20613777e-007 1.21403872e-007
      1.29161307e-007 1.33552206e-007 1.34946731e-007 1.37412556e-007
      1.42330961e-007 1.40177079e-007 1.37455558e-007 1.37797031e-007
      1.33488896e-007 1.28982833e-007 1.28782446e-007 1.29653372e-007
      1.33744763e-007 1.37680658e-007 1.39060120e-007 1.45192828e-007
      1.57170547e-007 1.62735347e-007 1.63898989e-007 1.63987679e-007
      1.59271167e-007 1.49262689e-007 1.32688911e-007 1.10599757e-007
      9.65912434e-008 8.51953317e-008 6.63807995e-008 6.22546921e-008
      5.93379994e-008 6.47124736e-008 6.95323124e-008 7.99940310e-008
      9.73648824e-008 1.15745181e-007 1.28993932e-007 1.34729504e-007
      1.37825012e-007 1.37004150e-007 1.36239592e-007 1.25206526e-007
      1.10562254e-007 9.59505329e-008 7.83685650e-008 5.88421720e-008
      3.20735545e-008 1.70491035e-008 6.91447166e-009 -1.07031841e-008
      -2.53522234e-008 -3.72521818e-008 -3.79761111e-008
      -3.57749670e-008 -2.53098431e-008 -1.53923061e-008 2.39723907e-009
      1.69038383e-008 3.14420419e-008 5.27341832e-008 7.61935368e-008
      1.00336258e-007 1.22523730e-007 1.39876803e-007 1.42607021e-007
      1.43098021e-007 1.44561085e-007 1.40822223e-007 1.34575444e-007
      1.28069971e-007 1.14420637e-007 9.82374289e-008 8.66926300e-008
      7.34951442e-008 6.60470363e-008 6.11121465e-008 6.32409325e-008
      6.26902548e-008 6.53150138e-008 6.26624725e-008 6.56431425e-008
      6.83024481e-008 6.17834033e-008 6.22586853e-008 6.69571563e-008
      7.13882571e-008 6.89430308e-008 7.10210202e-008 6.43625881e-008
      6.41799147e-008 6.52450183e-008 6.91268696e-008 7.60737180e-008
      7.53317693e-008 7.38797326e-008 7.70410153e-008 7.89405021e-008
      8.15254069e-008 9.04195971e-008 9.43385459e-008 9.56182760e-008
      9.41312024e-008 9.47748902e-008 9.84976793e-008 1.05044933e-007
      1.10443125e-007 1.12348538e-007 1.05701311e-007 1.01452180e-007
      1.09085356e-007 1.13838965e-007 1.21512088e-007 1.26038557e-007
      1.27478344e-007 1.24000096e-007 1.11780004e-007 1.08302380e-007
      1.12119281e-007 1.13531634e-007 1.07637447e-007 1.03296379e-007
      9.98502117e-008 9.88413120e-008 1.02209853e-007 1.05569704e-007
      1.14213968e-007 1.23501906e-007 1.30819515e-007 1.32785573e-007
      1.35131870e-007 1.37127159e-007 1.39277901e-007 1.33245194e-007
      1.32724665e-007 1.29448537e-007 1.32684889e-007 1.36130595e-007
      1.41369355e-007 1.49066153e-007 1.56043129e-007 1.63210714e-007
      1.71867569e-007 1.89097094e-007 1.97161370e-007 2.06287297e-007
      2.08798227e-007 2.07203513e-007 2.01651048e-007 1.97549824e-007
      1.89506352e-007 1.80693718e-007 1.78174034e-007 1.67366764e-007
      1.58873831e-007 1.51290479e-007 1.42112967e-007 1.32041052e-007
      1.25296239e-007 1.26609635e-007 1.24536228e-007 1.22671565e-007
      1.15263035e-007 1.15584143e-007 1.22240081e-007 1.19527158e-007
      1.23772551e-007 1.29145761e-007 1.36001816e-007 1.36676846e-007
      1.42352661e-007 1.54787443e-007 1.66046306e-007 1.72455103e-007
      1.73266358e-007 1.86830377e-007 1.96651939e-007 1.99217169e-007
      1.98003917e-007 1.98400286e-007 1.94537492e-007 1.87360612e-007
      1.79647273e-007 1.69658449e-007 1.57657936e-007 1.43335555e-007
      1.28549487e-007 1.20179934e-007 1.19180008e-007 1.20918514e-007
      1.22061593e-007 1.25706904e-007 1.29353054e-007 1.39759663e-007
      1.53953067e-007 1.68676607e-007 1.83246911e-007 1.98324500e-007
      2.03162344e-007 2.07203016e-007 2.07582161e-007 2.04984929e-007
      2.04524355e-007 2.01742893e-007 2.00376803e-007 1.94540263e-007
      1.93105933e-007 1.87596541e-007 1.77467172e-007 1.67755630e-007
      1.65152699e-007 1.61119019e-007 1.53994762e-007 1.44964531e-007
      1.32262613e-007 1.26020893e-007 1.14091364e-007 1.06063766e-007
      1.04644315e-007 1.05746608e-007 1.00154693e-007 9.65511759e-008
      9.48226457e-008 9.53926715e-008 9.84615056e-008 1.01055086e-007
      9.99639482e-008 1.03488894e-007 1.01458085e-007 9.49558725e-008
      9.13495839e-008 8.88683687e-008 8.93058427e-008 8.82996076e-008
      8.51040909e-008 8.77458675e-008 9.07661999e-008 9.19526499e-008
      9.26962187e-008 1.01092887e-007 1.06356879e-007 1.12858572e-007
      1.19380189e-007 1.23976434e-007 1.28531738e-007 1.35367202e-007
      1.45350327e-007 1.54099510e-007 1.64709164e-007 1.70316582e-007
      1.75259601e-007 1.69511708e-007 1.64367506e-007 1.61920795e-007
      1.46107553e-007 1.17936025e-007 8.54760671e-008 5.60033939e-008
      2.04122284e-008 -1.25300428e-008 -4.40797088e-008 -6.90784105e-008
      -9.08206275e-008 -1.10691929e-007 -1.17845701e-007
      -1.15634997e-007 -1.10258178e-007 -1.00525028e-007
      -8.45285868e-008 -6.63386430e-008 -4.53878286e-008
      -2.80483956e-008 -1.62186886e-008 1.28213506e-009 1.77059842e-008
      2.84435036e-008 4.34940084e-008 5.56597612e-008 6.98869513e-008
      8.36701659e-008 9.36992350e-008 1.08728244e-007 1.22772036e-007
      1.31562018e-007 1.37053235e-007 1.44254443e-007 1.48628956e-007
      1.45955084e-007 1.43323589e-007 1.36897242e-007 1.36333909e-007
      1.27756053e-007 1.26667928e-007 1.24710184e-007 1.23513416e-007
      1.22398063e-007 1.17126660e-007 1.15123839e-007 1.15786804e-007
      1.13569037e-007 1.05092305e-007 1.05678424e-007 1.00201483e-007
      8.82550069e-008 7.79243692e-008 6.59536994e-008 5.75631915e-008
      5.66812375e-008 5.46925598e-008 5.48210650e-008 6.56669172e-008
      6.66986537e-008 7.23900797e-008 8.36488923e-008 9.51943306e-008
      1.07044634e-007 1.20784563e-007 1.27146436e-007 1.32244864e-007
      1.38748320e-007 1.35823186e-007 1.38301530e-007 1.40957667e-007
      1.43129640e-007 1.43843096e-007 1.41625236e-007 1.39528595e-007
      1.33559396e-007 1.28606672e-007 1.21364920e-007 1.18189156e-007
      1.13294000e-007 1.03864885e-007 8.96203360e-008 8.08181468e-008
      7.61457954e-008 6.57214301e-008 5.96391558e-008 5.06865483e-008
      4.37945928e-008 2.91067721e-008 1.83837336e-008 1.40004799e-008
      1.19164811e-008 7.08915149e-009 4.75138195e-009 4.59382621e-009
      4.52709337e-009 6.27870689e-009 1.02203872e-008 1.86344220e-008
      2.55539128e-008 3.49046800e-008 4.56085800e-008 5.87541891e-008
      6.75672709e-008 7.74401485e-008 8.72586838e-008 9.30909181e-008
      8.91884895e-008 8.59924683e-008 8.77418316e-008 8.30466220e-008
      7.47718687e-008 6.33928821e-008 5.27669428e-008 3.95799837e-008
      2.73791780e-008 1.90006268e-008 1.48036206e-008 1.06572715e-008
      2.85474067e-009 4.15399315e-009 3.04190495e-009 5.92476956e-010
      1.86038041e-009 7.43715978e-010 2.95036240e-009 9.72239711e-009
      1.80227868e-008 1.63047336e-008 1.31556197e-008 7.02708558e-009
      5.69724046e-009 3.55512975e-009 1.66536673e-009 -1.18906784e-009
      -7.44935269e-009 -1.41020511e-008 -1.78365873e-008
      -1.46626338e-008 -1.34828593e-008 -1.37607277e-008
      -1.85293647e-008 -2.16977494e-008 -2.31690702e-008
      -2.50605066e-008 -2.24889547e-008 -2.35067112e-008
      -2.05845776e-008 -1.91557632e-008 -2.24870789e-008
      -2.47916336e-008 -2.05344612e-008 -2.20323315e-008
      -2.34999611e-008 -1.76054584e-008 -1.96530756e-008
      -2.29942341e-008 -3.27386154e-008 -3.33706289e-008
      -2.91065785e-008 -2.65170623e-008 -2.55589772e-008
      -2.09404174e-008 -1.76857604e-008 -2.36355202e-008
      -2.49838408e-008 -1.98695389e-008 -2.03822204e-008
      -1.99903685e-008 -2.14629523e-008 -2.38419915e-008
      -2.28857520e-008 -2.48071697e-008 -2.30735733e-008
      -1.75929351e-008 -1.16854162e-008 -1.12346958e-008
      -3.73641917e-009 -1.67131231e-009 3.02410608e-009 1.58979052e-008
      1.91590281e-008 2.13075104e-008 2.31023609e-008 2.48029277e-008
      2.30701946e-008 2.22624923e-008 1.99174366e-008 1.77544806e-008
      2.00898249e-008 1.49044652e-008 1.02810045e-008 1.25265522e-008
      1.58862967e-008 1.77819057e-008 1.99199697e-008 2.37316495e-008
      3.01570857e-008 3.98647870e-008 4.22902744e-008 4.53597657e-008
      5.34859730e-008 5.48807328e-008 5.10392262e-008 5.37283391e-008
      5.69273197e-008 6.12442435e-008 5.48326291e-008 4.61609133e-008
      3.51057601e-008 2.67675304e-008 2.05930579e-008 1.11421317e-008
      2.79112644e-009 -3.07898995e-009 -6.53005028e-009 -1.35571092e-008
      -1.17066516e-008 -6.91276481e-010 1.25880621e-008 2.90240401e-008
      4.19180779e-008 5.94156084e-008 7.95883039e-008 8.97846562e-008
      9.98114871e-008 1.10445029e-007 1.16195785e-007 1.13054796e-007
      1.10051630e-007 1.04141222e-007 9.47897760e-008 9.06823701e-008
      8.37359977e-008 8.20068351e-008 7.69210686e-008 7.30330214e-008
      8.09276841e-008 9.10951385e-008 9.88489006e-008 1.10129172e-007
      1.28317410e-007 1.39147701e-007 1.52927043e-007 1.56308175e-007
      1.61891506e-007 1.76039165e-007 1.79455967e-007 1.73248935e-007
      1.71431793e-007 1.67518465e-007 1.56665095e-007 1.46716260e-007
      1.44302703e-007 1.56204251e-007 1.65535909e-007 1.68988748e-007
      1.77381580e-007 1.95824398e-007 2.16471150e-007 2.33156726e-007
      2.49295312e-007 2.64495611e-007 2.70643852e-007 2.67375839e-007
      2.63597457e-007 2.56647326e-007 2.47835459e-007 2.30453779e-007
      2.08682053e-007 1.94400826e-007 1.80859161e-007 1.65203204e-007
      1.53949657e-007 1.45960101e-007 1.40378575e-007 1.33721230e-007
      1.28394944e-007 1.35839898e-007 1.42748434e-007 1.47228306e-007
      1.55817418e-007 1.62223785e-007 1.62116521e-007 1.64428755e-007
      1.64354660e-007 1.62700644e-007 1.61657255e-007 1.56136110e-007
      1.52436186e-007 1.47155717e-007 1.40742642e-007 1.32490399e-007
      1.26709196e-007 1.24183572e-007 1.20654278e-007 1.19868943e-007
      1.16222274e-007 1.12874979e-007 1.11087111e-007 1.11185301e-007
      1.09843015e-007 1.13125658e-007 1.16439878e-007 1.12500793e-007
      1.15193963e-007 1.13937425e-007 1.14460718e-007 1.11102800e-007
      1.07454042e-007 1.00854230e-007 9.39400167e-008 8.79380266e-008
      7.95282844e-008 7.21526874e-008 6.03741910e-008 5.21090620e-008
      3.50258027e-008 2.46408103e-008 1.49561146e-008 9.73324799e-009
      6.07689188e-009 5.07553288e-009 7.67628794e-010 -3.80904508e-009
      -6.04094241e-009 -7.40555040e-009 2.34764141e-009 1.35926372e-008
      2.21762857e-008 2.55622705e-008 3.32412604e-008 4.28764189e-008
      5.83365640e-008 6.90781405e-008 7.80884051e-008 8.90133478e-008
      9.71261969e-008 1.01103453e-007 1.06601412e-007 1.10082844e-007
      1.08034278e-007 1.02532638e-007 9.62065343e-008 9.58040189e-008
      9.31361726e-008 8.76532908e-008 8.09810956e-008 7.65958461e-008
      7.14829298e-008 6.38727826e-008 5.59387558e-008 4.88717511e-008
      4.13635988e-008 3.27572991e-008 2.51834837e-008 1.35843319e-008
      1.08124638e-008 1.88373983e-009 -5.40263501e-010 -1.18879218e-009
      4.03444361e-010 -7.56561591e-010 2.09018847e-009 3.52616181e-009
      2.54877075e-009 7.29170901e-009 5.70381875e-009 3.56982843e-009
      -7.24822202e-010 -5.79514081e-009 -1.26789352e-008
      -1.82660838e-008 -1.91197067e-008 -1.61698530e-008
      -1.14494494e-008 -1.13838308e-008 -1.28021842e-008
      -1.07968896e-008 -1.58044227e-008 -1.25343798e-008
      -8.44183834e-009 -1.07219689e-009 -5.23020383e-009
      -1.25633717e-008 -1.84074338e-008 -2.33707897e-008
      -2.63124011e-008 -1.97509546e-008 -1.06544160e-008
      -3.68023323e-009 -3.84966903e-009 3.42090267e-009 1.02768150e-008
      1.91873912e-008 3.06635926e-008 4.03952676e-008 4.92084382e-008
      4.92414891e-008 5.14203471e-008 4.76051909e-008 5.37048699e-008
      5.05840383e-008 4.95101240e-008 4.79951154e-008 4.55356997e-008
      4.90894472e-008 5.64940663e-008 5.94297127e-008 6.44400302e-008
      7.22515878e-008 7.77490783e-008 8.21884996e-008 8.25565607e-008
      8.39702423e-008 7.99778732e-008 6.82372985e-008 5.45574181e-008
      4.79535771e-008 3.47533771e-008 2.40043594e-008 1.21444801e-008
      1.85257898e-009 -4.61824801e-009 -8.32146441e-009 -8.86551721e-009
      -3.34543948e-009 -1.48112911e-010 7.84616871e-010 8.58378646e-012
      -7.50262519e-010 -2.22107266e-009 3.84664256e-009 1.45622048e-008
      2.55035495e-008 3.71414401e-008 4.61520102e-008 5.91283076e-008
      7.33616758e-008 9.12561120e-008 1.10139013e-007 1.32431765e-007
      1.47967484e-007 1.54111078e-007 1.53047054e-007 1.56630506e-007
      1.57937137e-007 1.57999764e-007 1.52299705e-007 1.47662846e-007
      1.39412919e-007 1.29844793e-007 1.19194581e-007 1.16720244e-007
      1.16679487e-007 1.14657368e-007 1.12883711e-007 1.08880599e-007
      1.13132778e-007 1.11484653e-007 1.06781805e-007 1.00530187e-007
      9.32094650e-008 8.41449292e-008 7.58718244e-008 6.03387491e-008
      5.02857915e-008 4.58773854e-008 3.74031828e-008 3.24081206e-008
      3.14630988e-008 2.96244789e-008 3.35179386e-008 3.13254169e-008
      3.50406744e-008 4.03156797e-008 4.28367706e-008 4.16767811e-008
      4.10081000e-008 4.46805970e-008 4.68590216e-008 4.58355345e-008
      4.21621422e-008 4.51021656e-008 4.33926530e-008 4.23608739e-008
      4.15801509e-008 3.95061761e-008 3.64713699e-008 3.38500747e-008
      3.19550146e-008 3.48232518e-008 3.81973280e-008 4.01082012e-008
      4.27459099e-008 4.37845955e-008 4.47462263e-008 4.18080290e-008
      4.00440143e-008 2.98695966e-008 1.65978697e-008 5.76141268e-009
      -5.31230526e-009 -2.76593184e-008 -4.82620379e-008
      -6.22427550e-008 -7.67107409e-008 -8.45910435e-008
      -8.51612398e-008 -7.58272662e-008 -6.74883793e-008
      -5.97987579e-008 -4.70576538e-008 -2.44621194e-008
      -4.04688461e-009 1.62214615e-008 3.36377788e-008 5.32750200e-008
      6.65309585e-008 6.86352806e-008 7.00154885e-008 6.77915111e-008
      6.21142888e-008 5.58514017e-008 5.17670422e-008 4.02106899e-008
      3.37383099e-008 2.85642958e-008 2.39787887e-008 1.76817636e-008
      2.09165041e-008 2.93183717e-008 3.54437830e-008 4.13384349e-008
      5.06280813e-008 6.26946459e-008 7.26724423e-008 8.17892953e-008
      9.39048093e-008 1.11623464e-007 1.22228940e-007 1.36257171e-007
      1.51074744e-007 1.67726270e-007 1.75149623e-007 1.83538916e-007
      1.88343947e-007 1.90680794e-007 1.88854415e-007 1.87183858e-007
      1.87478093e-007 1.79805440e-007 1.74135977e-007 1.63630389e-007
      1.55548022e-007 1.46682652e-007 1.38095359e-007 1.23866215e-007
      1.16637686e-007 1.10227163e-007 1.02399483e-007 9.53429407e-008
      8.45743529e-008 8.30235862e-008 8.45582946e-008 8.23179320e-008
      8.62733813e-008 9.36718223e-008 9.38563645e-008 8.89712410e-008
      9.04511381e-008 9.31177979e-008 9.53121386e-008 9.07308788e-008
      8.56289262e-008 8.60556710e-008 8.60010729e-008 8.52810942e-008
      8.52237960e-008 9.23970660e-008 9.44774570e-008 8.88404372e-008
      8.80156037e-008 9.58622977e-008 1.02952242e-007 1.07181421e-007
      1.08517206e-007 1.14969872e-007 1.20240159e-007 1.13525275e-007
      1.14700029e-007 1.19549725e-007 1.26065530e-007 1.23343199e-007
      1.27618947e-007 1.31939998e-007 1.34450460e-007 1.36641447e-007
      1.45059417e-007 1.55413858e-007 1.60651780e-007 1.66795218e-007
      1.67216328e-007 1.73848548e-007 1.68416477e-007 1.68630706e-007
      1.64442241e-007 1.59947831e-007 1.50182558e-007 1.42826735e-007
      1.31786024e-007 1.18025007e-007 1.09645562e-007 1.02763742e-007
      9.74772618e-008 9.15578724e-008 8.59205969e-008 7.72143665e-008
      7.26418889e-008 6.49169607e-008 6.37941255e-008 6.20122691e-008
      5.79083803e-008 5.29512860e-008 4.61586396e-008 4.15220924e-008
      4.21228634e-008 4.48706068e-008 4.19022967e-008 4.22031405e-008
      4.35855938e-008 4.52444553e-008 4.76199489e-008 5.03775013e-008
      5.55527109e-008 5.83548889e-008 6.27028598e-008 6.01541785e-008
      6.21121998e-008 6.35401491e-008 7.05203149e-008 7.54354232e-008
      7.71666535e-008 7.80735974e-008 7.62848416e-008 8.14428134e-008
      8.66993162e-008 9.42359151e-008 1.01870178e-007 1.08329502e-007
      1.08122755e-007 1.06927210e-007 1.07369061e-007 1.06566851e-007
      1.11098949e-007 1.16654924e-007 1.21341429e-007 1.22224250e-007
      1.20297216e-007 1.24237943e-007 1.29426184e-007 1.38334940e-007
      1.51866473e-007 1.64175063e-007 1.72201666e-007 1.72057483e-007
      1.71689749e-007 1.74373298e-007 1.77936457e-007 1.73621885e-007
      1.68644888e-007 1.61120724e-007 1.46204556e-007 1.35022532e-007
      1.27167894e-007 1.21401172e-007 1.11555316e-007 1.02555624e-007
      9.76575123e-008 9.56555439e-008 1.00597248e-007 1.04669269e-007
      1.10364638e-007 1.15100619e-007 1.18675118e-007 1.26506905e-007
      1.31986710e-007 1.39541086e-007 1.45961209e-007 1.51952349e-007
      1.49302636e-007 1.46062419e-007 1.41960655e-007 1.43008492e-007
      1.41345950e-007 1.41027996e-007 1.40879280e-007 1.40813739e-007
      1.41688261e-007 1.33777547e-007 1.29490800e-007 1.27544126e-007
      1.39042129e-007 1.37657480e-007 1.37444587e-007 1.32420851e-007
      1.29791047e-007 1.26176786e-007 1.21259106e-007 1.18187529e-007
      1.10329097e-007 1.03113528e-007 8.96007464e-008 8.42284109e-008
      7.75173987e-008 6.65837803e-008 5.88138249e-008 4.79405529e-008
      3.59369245e-008 3.00157517e-008 2.83714350e-008 2.58039154e-008
      2.18165805e-008 1.65815646e-008 1.86971434e-008 3.23237543e-008
      4.39692087e-008 5.68777025e-008 7.48377005e-008 9.28258004e-008
      1.04082382e-007 1.19498651e-007 1.31424258e-007 1.43929910e-007
      1.50340043e-007 1.53060867e-007 1.54537815e-007 1.54316226e-007
      1.45590548e-007 1.37169678e-007 1.36934759e-007 1.36989513e-007
      1.42715621e-007 1.45987570e-007 1.46409391e-007 1.48367022e-007
      1.49755664e-007 1.54242372e-007 1.67721495e-007 1.74604153e-007
      1.76862216e-007 1.75313076e-007 1.67206849e-007 1.60203868e-007
      1.58126227e-007 1.53192417e-007 1.49524126e-007 1.44381502e-007
      1.36058944e-007 1.29619750e-007 1.30803954e-007 1.32385338e-007
      1.37564484e-007 1.39598569e-007 1.42586458e-007 1.46350331e-007
      1.44322499e-007 1.39463893e-007 1.34746600e-007 1.36785701e-007
      1.33947182e-007 1.30330889e-007 1.26538879e-007 1.29987825e-007
      1.32907871e-007 1.33439855e-007 1.43798289e-007 1.47749546e-007
      1.51726667e-007 1.53148761e-007 1.55621763e-007 1.57930359e-007
      1.61038543e-007 1.63389842e-007 1.67176850e-007 1.69727073e-007
      1.72156220e-007 1.82364161e-007 1.88564243e-007 1.88816500e-007
      1.92684212e-007 1.99205957e-007 2.02631483e-007 1.94942899e-007
      1.81675262e-007 1.73030614e-007 1.59731641e-007 1.47132880e-007
      1.38996185e-007 1.31993858e-007 1.21173883e-007 1.08518627e-007
      1.01181080e-007 9.69590914e-008 9.98771057e-008 1.04655165e-007
      1.03555394e-007 1.00902263e-007 9.97632981e-008 1.00216319e-007
      1.02155397e-007 1.02362421e-007 9.93381661e-008 1.01808574e-007
      1.05370418e-007 1.03220650e-007 1.06607807e-007 1.07917536e-007
      1.07417101e-007 1.11010188e-007 1.09780956e-007 1.08210727e-007
      1.09094053e-007 1.07750026e-007 1.01674402e-007 9.85041027e-008
      9.60721493e-008 9.28943606e-008 8.57316564e-008 7.73555371e-008
      6.92391637e-008 6.43810623e-008 6.02388539e-008 5.60309239e-008
      4.95794445e-008 4.76201585e-008 4.79569522e-008 5.16174197e-008
      5.85804258e-008 6.52981527e-008 8.31927807e-008 9.52890531e-008
      1.11337478e-007 1.24764540e-007 1.40530389e-007 1.51382210e-007
      1.54729705e-007 1.57354009e-007 1.62324454e-007 1.64440465e-007
      1.54880141e-007 1.51321245e-007 1.52059741e-007 1.49278776e-007
      1.43348984e-007 1.38086349e-007 1.43013040e-007 1.49064675e-007
      1.52603704e-007 1.52188903e-007 1.59477324e-007 1.66172271e-007
      1.65087812e-007 1.66614612e-007 1.71955776e-007 1.76757297e-007
      1.78493295e-007 1.80603479e-007 1.84723930e-007 1.93963473e-007
      1.97607008e-007 1.93258572e-007 1.88945080e-007 1.85395180e-007
      1.83892041e-007 1.79857111e-007 1.72644718e-007 1.65574463e-007
      1.57141244e-007 1.49251619e-007 1.45237564e-007 1.44896120e-007
      1.46517863e-007 1.50853879e-007 1.49815236e-007 1.52836108e-007
      1.56691485e-007 1.56116116e-007 1.57176771e-007 1.58177585e-007
      1.54214476e-007 1.53985013e-007 1.49073529e-007 1.42027162e-007
      1.35123045e-007 1.26291098e-007 1.13802322e-007 1.01803707e-007
      8.59021725e-008 7.33429673e-008 6.31568966e-008 5.21233154e-008
      4.29934879e-008 3.19208162e-008 2.70737353e-008 2.82121739e-008
      3.37762707e-008 5.19484544e-008 7.32201215e-008 9.02858446e-008
      1.09646862e-007 1.30454424e-007 1.50642066e-007 1.71401609e-007
      1.89858056e-007 2.07760735e-007 2.20801638e-007 2.21258802e-007
      2.17527273e-007 2.17434973e-007 2.14331152e-007 2.04749526e-007
      1.93736682e-007 1.88971725e-007 1.82386941e-007 1.68931734e-007
      1.52465574e-007 1.39377406e-007 1.30897732e-007 1.19805946e-007
      1.12831827e-007 1.06822966e-007 1.04178561e-007 9.98735175e-008
      9.78189192e-008 9.54389918e-008 1.00458742e-007 1.06969388e-007
      1.13101905e-007 1.19014260e-007 1.22192006e-007 1.24970796e-007
      1.24889198e-007 1.23810779e-007 1.19149369e-007 1.16042898e-007
      1.15873732e-007 1.17327673e-007 1.11097435e-007 1.04647043e-007
      1.00343364e-007 9.57040243e-008 9.67845679e-008 9.82697514e-008
      9.86444988e-008 9.75753878e-008 9.43338563e-008 8.86523353e-008
      8.74096173e-008 8.84346747e-008 9.27776540e-008 9.75478400e-008
      9.88979210e-008 1.01213004e-007 1.06509582e-007 1.09137019e-007
      1.11402180e-007 1.11622214e-007 1.14416601e-007 1.19592087e-007
      1.19657727e-007 1.18858281e-007 1.18378104e-007 1.14634538e-007
      1.15693624e-007 1.21627266e-007 1.26568011e-007 1.27782613e-007
      1.22488828e-007 1.13087410e-007 1.01882442e-007 8.67032881e-008
      7.52213722e-008 6.33021813e-008 5.14902325e-008 3.16987041e-008
      1.45563721e-008 4.81325335e-009 4.58217597e-009 7.91237209e-009
      1.10832508e-008 2.23855423e-008 3.11129362e-008 4.77415938e-008
      6.04036643e-008 7.74795481e-008 8.87927527e-008 9.78044810e-008
      1.00239745e-007 1.02234779e-007 1.08891406e-007 1.11042212e-007
      1.13551962e-007 1.07622590e-007 1.01300067e-007 9.64788782e-008
      9.55179473e-008 9.19353980e-008 8.58976037e-008 7.80871261e-008
      6.71307490e-008 6.03430337e-008 5.18798764e-008 4.79311772e-008
      4.76344049e-008 4.31643734e-008 4.24433928e-008 4.50155504e-008
      4.73688715e-008 5.56909505e-008 6.61759785e-008 7.29663867e-008
      7.71723165e-008 8.24446147e-008 8.56513722e-008 9.08061111e-008
      8.78767636e-008 8.18757968e-008 7.86879752e-008 7.12368262e-008
      6.45069065e-008 5.31168105e-008 4.34002807e-008 3.32218875e-008
      2.22787211e-008 1.50630424e-008 1.12061525e-008 1.29859172e-008
      9.21821552e-009 1.91880556e-009 -8.89896423e-009 -5.63519276e-009
      -2.87684121e-009 -6.22162766e-009 -7.84583243e-009
      -5.19056176e-009 -1.37730645e-008 -2.36687274e-008
      -2.09325979e-008 -1.42560221e-008 -4.61274130e-009
      -1.26524580e-009 8.76512196e-009 2.75310832e-008 4.64367105e-008
      5.92446270e-008 8.22989037e-008 1.06391290e-007 1.23800135e-007
      1.37337508e-007 1.49269013e-007 1.54004141e-007 1.55318418e-007
      1.53582334e-007 1.54432513e-007 1.54203448e-007 1.43420820e-007
      1.33051685e-007 1.22709977e-007 1.10545983e-007 9.70926592e-008
      9.22892625e-008 8.65022969e-008 8.28937132e-008 6.96909623e-008
      6.23196499e-008 5.84361928e-008 6.01815771e-008 6.71838762e-008
      7.19512983e-008 6.73394069e-008 6.66908520e-008 6.87434394e-008
      7.10127139e-008 7.09500014e-008 6.90759023e-008 7.37230934e-008
      7.45433226e-008 7.04790253e-008 6.60064501e-008 7.42031077e-008
      7.65892310e-008 7.57249126e-008 7.38847774e-008 6.94324171e-008
      7.06276282e-008 6.62880169e-008 6.20088016e-008 6.66864821e-008
      6.91319926e-008 6.56928449e-008 6.42325304e-008 6.56681181e-008
      6.69715021e-008 7.10605192e-008 7.17724546e-008 7.25121154e-008
      7.35158778e-008 7.11236652e-008 6.98627929e-008 7.32252943e-008
      8.06592908e-008 8.42244106e-008 8.77720936e-008 9.25340728e-008
      1.02981353e-007 1.09656064e-007 1.15659411e-007 1.17927065e-007
      1.19657258e-007 1.16108637e-007 1.07501158e-007 1.04262071e-007
      1.07619989e-007 1.07954826e-007 1.02930073e-007 9.34487829e-008
      8.60214868e-008 8.17202519e-008 8.22913933e-008 8.85220857e-008
      9.08798086e-008 9.56250972e-008 9.61004432e-008 1.08630594e-007
      1.18729844e-007 1.31429303e-007 1.46370965e-007 1.56875984e-007
      1.71020318e-007 1.80764815e-007 1.90293747e-007 1.92598677e-007
      1.96982285e-007 1.93871060e-007 1.91179524e-007 1.93362638e-007
      1.92335946e-007 1.89489597e-007 1.87086897e-007 1.81364712e-007
      1.74309051e-007 1.70673530e-007 1.69163798e-007 1.67751395e-007
      1.72925780e-007 1.70600643e-007 1.70673331e-007 1.72451976e-007
      1.71906009e-007 1.76994405e-007 1.86874459e-007 1.92693818e-007
      1.89541609e-007 1.87954996e-007 1.77351382e-007 1.67037371e-007
      1.53641281e-007 1.40433571e-007 1.32683013e-007 1.21800625e-007
      1.08905134e-007 1.02979996e-007 1.00336322e-007 9.67601821e-008
      1.02638310e-007 1.09138377e-007 1.14657702e-007 1.22075804e-007
      1.30852172e-007 1.40727124e-007 1.47155006e-007 1.52158577e-007
      1.57559640e-007 1.66819206e-007 1.69600497e-007 1.73486612e-007
      1.79150092e-007 1.86890929e-007 1.86926925e-007 1.88079369e-007
      1.88499470e-007 1.83373373e-007 1.79054297e-007 1.73310596e-007
      1.67961346e-007 1.66392752e-007 1.59926927e-007 1.48677969e-007
      1.43325209e-007 1.39454173e-007 1.32929955e-007 1.31839428e-007
      1.31574254e-007 1.32896787e-007 1.31157066e-007 1.25558472e-007
      1.24654321e-007 1.25279797e-007 1.20369236e-007 1.12090412e-007
      1.02592814e-007 9.90342102e-008 9.12517777e-008 8.16264460e-008
      7.76010083e-008 7.17548616e-008 6.79349270e-008 6.50656062e-008
      6.17685672e-008 6.19036982e-008 6.24515053e-008 5.87884550e-008
      5.57806636e-008 5.47723147e-008 5.29304813e-008 5.26095043e-008
      5.72642342e-008 6.19160616e-008 6.65564173e-008 7.01273208e-008
      7.43867403e-008 8.00493325e-008 8.29810034e-008 8.88315768e-008
      9.31254931e-008 1.01496099e-007 1.08894874e-007 1.16753725e-007
      1.25225796e-007 1.31400910e-007 1.42398733e-007 1.46619584e-007
      1.51806503e-007 1.54330934e-007 1.60134775e-007 1.65538069e-007
      1.64618513e-007 1.64390528e-007 1.61555803e-007 1.60781411e-007
      1.53490987e-007 1.56318137e-007 1.63764057e-007 1.66854122e-007
      1.65301870e-007 1.64680145e-007 1.64310691e-007 1.61232549e-007
      1.60095396e-007 1.58969485e-007 1.62191171e-007 1.57099350e-007
      1.48495573e-007 1.49841483e-007 1.51633415e-007 1.50607804e-007
      1.45812066e-007 1.44857779e-007 1.48412184e-007 1.47731498e-007
      1.46378312e-007 1.47430299e-007 1.47387922e-007 1.42410130e-007
      1.38666039e-007 1.35274860e-007 1.34490804e-007 1.31867210e-007
      1.26019430e-007 1.27049645e-007 1.28247692e-007 1.28010328e-007
      1.30388898e-007 1.33212311e-007 1.36233069e-007 1.35417935e-007
      1.40233936e-007 1.49145251e-007 1.54106147e-007 1.56474329e-007
      1.56600279e-007 1.62303309e-007 1.63963577e-007 1.63853244e-007
      1.66463437e-007 1.73372314e-007 1.79809405e-007 1.73059888e-007
      1.76285326e-007 1.78749914e-007 1.77276846e-007 1.71236948e-007
      1.70417124e-007 1.69546880e-007 1.67880529e-007 1.64467593e-007
      1.61629913e-007 1.63631455e-007 1.56010032e-007 1.50972824e-007
      1.50225560e-007 1.52760876e-007 1.53999849e-007 1.47635774e-007
      1.42698426e-007 1.37316306e-007 1.33905260e-007 1.32131930e-007
      1.32017178e-007 1.29121702e-007 1.32737895e-007 1.31295508e-007
      1.33437609e-007 1.36474611e-007 1.39387595e-007 1.44780074e-007
      1.53415911e-007 1.55389657e-007 1.59986115e-007 1.62384865e-007
      1.60953249e-007 1.57553231e-007 1.54263148e-007 1.53623958e-007
      1.50345713e-007 1.47225890e-007 1.39907442e-007 1.31027306e-007
      1.27478117e-007 1.20532519e-007 1.11513181e-007 1.07346523e-007
      9.92263409e-008 9.41316287e-008 8.42451158e-008 7.53471312e-008
      6.57490915e-008 6.36020374e-008 5.61965443e-008 5.72021968e-008
      6.07724218e-008 6.50266969e-008 7.07419616e-008 7.36591943e-008
      8.30442630e-008 9.43719058e-008 1.09668690e-007 1.22287844e-007
      1.32867939e-007 1.39112217e-007 1.38728666e-007 1.32006235e-007
      1.25448011e-007 1.12664821e-007 1.02883604e-007 8.66467715e-008
      7.05222760e-008 5.05178015e-008 3.47665647e-008 2.02656523e-008
      6.92541935e-009 -1.32218814e-009 -7.99182498e-009 -7.79694176e-009
      -8.50033643e-009 -6.38130571e-009 -1.09098208e-009 1.75725159e-008
      4.13964116e-008 6.41583355e-008 8.45219219e-008 1.09841572e-007
      1.29757609e-007 1.50045395e-007 1.66693596e-007 1.79584475e-007
      1.85436292e-007 1.83851085e-007 1.72382585e-007 1.65993058e-007
      1.64557662e-007 1.56368458e-007 1.51104928e-007 1.48805142e-007
      1.48582188e-007 1.46967452e-007 1.48423425e-007 1.55183088e-007
      1.57586754e-007 1.58310087e-007 1.55614188e-007 1.52616366e-007
      1.48014749e-007 1.47224569e-007 1.44138625e-007 1.40611178e-007
      1.40125962e-007 1.29455728e-007 1.23513132e-007 1.18593221e-007
      1.16096253e-007 1.19604152e-007 1.16050622e-007 1.06159888e-007
      9.98098741e-008 9.30620985e-008 8.63099388e-008 8.54669864e-008
      8.48294164e-008 8.14409447e-008 7.88792320e-008 7.92321373e-008
      8.56099263e-008 9.34494437e-008 9.59676427e-008 1.01711173e-007
      1.06135971e-007 1.12864981e-007 1.24640110e-007 1.36007429e-007
      1.47147318e-007 1.52605310e-007 1.59172302e-007 1.59528824e-007
      1.64398486e-007 1.75330243e-007 1.84221093e-007 1.88513937e-007
      1.89003174e-007 1.90782600e-007 1.93784174e-007 1.96753774e-007
      1.94710452e-007 1.97670659e-007 2.02506811e-007 2.04139127e-007
      2.04068456e-007 2.02150815e-007 1.99531996e-007 1.90517412e-007
      1.89949276e-007 1.85645376e-007 1.84025041e-007 1.80004548e-007
      1.70167269e-007 1.54267184e-007 1.42371846e-007 1.29377497e-007
      1.16364234e-007 1.10942104e-007 9.48927621e-008 8.62874074e-008
      7.69976012e-008 7.31015888e-008 7.15804234e-008 7.04493672e-008
      7.17322237e-008 7.28424965e-008 7.20223454e-008 7.20848092e-008
      7.24277456e-008 6.96265161e-008 6.44740865e-008 5.55589992e-008
      4.96885022e-008 3.87770527e-008 2.32803163e-008 9.85835413e-009
      -5.60592994e-009 -2.41221727e-008 -4.07074019e-008
      -5.77862451e-008 -8.02512190e-008 -9.88751907e-008
      -1.15374547e-007 -1.24639300e-007 -1.26041783e-007
      -1.21376630e-007 -1.09752406e-007 -9.35400095e-008
      -7.12230062e-008 -4.27539568e-008 -1.18020491e-008 2.25263612e-008
      5.13917087e-008 7.65073693e-008 9.86462680e-008 1.10543731e-007
      1.20742897e-007 1.24933564e-007 1.20951157e-007 1.14869977e-007
      1.11170507e-007 9.91132225e-008 9.32606810e-008 8.81237128e-008
      8.08886966e-008 7.63698580e-008 6.70737563e-008 6.10710131e-008
      6.15388416e-008 6.18049327e-008 5.80274602e-008 5.88948126e-008
      5.80960311e-008 5.80980313e-008 5.85201008e-008 6.23961824e-008
      6.66452920e-008 6.91759681e-008 6.53576393e-008 6.36073452e-008
      5.88426978e-008 5.72279788e-008 5.34459801e-008 4.73332022e-008
      3.58076200e-008 2.64945967e-008 1.84513631e-008 8.35761327e-009
      -7.86992160e-009 -2.05001349e-008 -2.11163318e-008
      -2.74228533e-008 -3.15201660e-008 -3.10780912e-008
      -1.99944648e-008 -1.61053126e-008 -7.78322118e-009 9.25324617e-009
      2.73748508e-008 4.35694503e-008 5.61511442e-008 6.60312622e-008
      7.83206033e-008 8.69779839e-008 8.77126922e-008 9.32880795e-008
      9.32725186e-008 8.72898553e-008 8.94522785e-008 8.76433859e-008
      8.54039612e-008 8.55882547e-008 8.46489741e-008 8.49284660e-008
      8.58157208e-008 8.77610447e-008 9.15686726e-008 9.57885931e-008
      9.49780130e-008 9.67074030e-008 9.83817827e-008 9.94022997e-008
      9.79359456e-008 9.76131602e-008 9.68428182e-008 9.46052978e-008
      8.95014409e-008 8.45660750e-008 8.10878689e-008 7.81685614e-008
      7.85184540e-008 7.44007949e-008 7.22861984e-008 7.39202477e-008
      7.30666940e-008 7.49805551e-008 7.97899631e-008 8.71334933e-008
      8.99732413e-008 9.08371121e-008 8.90552485e-008 9.39472358e-008
      9.66339400e-008 9.59135775e-008 1.00563362e-007 1.04126485e-007
      1.06761050e-007 1.03518232e-007 1.06620377e-007 1.05165526e-007
      1.08192275e-007 1.11046774e-007 1.10697499e-007 1.15567495e-007
      1.19614242e-007 1.20933777e-007 1.24768022e-007 1.29839165e-007
      1.35593112e-007 1.43531324e-007 1.48545325e-007 1.56130469e-007
      1.68604160e-007 1.75154170e-007 1.81392494e-007 1.90354172e-007
      1.96916403e-007 2.02423720e-007 2.07805897e-007 2.13306791e-007
      2.13289525e-007 2.11019795e-007 2.05578303e-007 2.00751487e-007
      1.91375790e-007 1.80444815e-007 1.68745444e-007 1.57202265e-007
      1.43949336e-007 1.28639883e-007 1.19004220e-007 1.10416536e-007
      1.02645863e-007 9.63291740e-008 8.83826985e-008 8.60927045e-008
      8.07209233e-008 8.04031473e-008 7.87037138e-008 7.92421844e-008
      8.18941217e-008 8.35473486e-008 8.34707237e-008 8.50322408e-008
      8.79978899e-008 8.17989232e-008 8.45619539e-008 8.03403069e-008
      7.67038344e-008 8.08580793e-008 8.12266165e-008 7.71183792e-008
      7.87182159e-008 8.13875189e-008 8.23840267e-008 9.33947746e-008
      9.65299094e-008 1.04530550e-007 1.11078585e-007 1.10320393e-007
      1.07688706e-007 1.09739524e-007 1.06038115e-007 1.03363824e-007
      9.93441844e-008 9.81937589e-008 1.01535790e-007 1.03516115e-007
      1.06085189e-007 1.10812785e-007 1.20430116e-007 1.25054143e-007
      1.27694364e-007 1.26508084e-007 1.27703700e-007 1.30625565e-007
      1.24915019e-007 1.21918390e-007 1.19355335e-007 1.17962571e-007
      1.13014259e-007 1.05212777e-007 1.03155102e-007 1.09227862e-007
      1.13984825e-007 1.11547998e-007 1.08265901e-007 1.07280776e-007
      1.10454437e-007 1.13219699e-007 1.10855034e-007 1.14247186e-007
      1.18039686e-007 1.15020498e-007 1.10888671e-007 1.11867720e-007
      1.10997583e-007 1.13380530e-007 1.17923356e-007 1.17481015e-007
      1.26264339e-007 1.33063324e-007 1.35149719e-007 1.37414489e-007
      1.37559624e-007 1.36069033e-007 1.32455654e-007 1.21095781e-007
      1.03274225e-007 8.50307131e-008 6.57587762e-008 4.78899587e-008
      3.29420011e-008 2.68801870e-008 2.51360142e-008 3.39660922e-008
      4.59312588e-008 6.26664374e-008 8.25127486e-008 1.03869972e-007
      1.23258133e-007 1.43301435e-007 1.64813287e-007 1.80862216e-007
      1.89080239e-007 1.93803416e-007 1.94027351e-007 1.98562560e-007
      2.01050952e-007 2.04275338e-007 2.10612839e-007 2.16926452e-007
      2.16170122e-007 2.09844018e-007 2.08421454e-007 1.99936864e-007
      1.99862882e-007 1.94367274e-007 1.83588483e-007 1.69638312e-007
      1.62979106e-007 1.48656355e-007 1.34996569e-007 1.32447610e-007
      1.33299977e-007 1.41632142e-007 1.50799380e-007 1.65584595e-007
      1.88443394e-007 2.08937976e-007 2.27096848e-007 2.50862655e-007
      2.77368343e-007 2.98804736e-007 3.15963973e-007 3.24989060e-007
      3.24242109e-007 3.18813505e-007 3.07392810e-007 3.01386820e-007
      2.93827839e-007 2.88296320e-007 2.76498298e-007 2.63448982e-007
      2.49991444e-007 2.39386566e-007 2.36316623e-007 2.34127725e-007
      2.28461147e-007 2.18671133e-007 2.07667682e-007 1.92855623e-007
      1.92013502e-007 1.89125373e-007 1.80455800e-007 1.76472483e-007
      1.69262364e-007 1.60721811e-007 1.56434979e-007 1.53873287e-007
      1.53114129e-007 1.57644408e-007 1.54738700e-007 1.53620860e-007
      1.58114432e-007 1.59485197e-007 1.61119743e-007 1.65300278e-007
      1.71007457e-007 1.76801080e-007 1.72941924e-007 1.75485354e-007
      1.80013501e-007 1.79061004e-007 1.80413736e-007 1.78691948e-007
      1.76426539e-007 1.70102894e-007 1.72229136e-007 1.71528967e-007
      1.71470518e-007 1.64284032e-007 1.56590886e-007 1.49950566e-007
      1.45470125e-007 1.42854432e-007 1.34678231e-007 1.30343452e-007
      1.23215386e-007 1.12319967e-007 1.07801952e-007 1.04144654e-007
      9.99450620e-008 9.64841718e-008 8.92338718e-008 8.32823801e-008
      8.33503861e-008 8.35974490e-008 7.81466696e-008 7.35805656e-008
      6.73088465e-008 5.86957434e-008 5.34562972e-008 4.36881464e-008
      4.06610994e-008 3.27653140e-008 2.81595423e-008 2.40509408e-008
      1.80379693e-008 2.34212223e-008 3.35642909e-008 4.18734309e-008
      4.63294256e-008 5.82808752e-008 6.89796309e-008 7.97160951e-008
      8.90448533e-008 9.82100730e-008 1.10778750e-007 1.11176405e-007
      1.12001501e-007 1.16192737e-007 1.20581973e-007 1.23274674e-007
      1.24539440e-007 1.23223046e-007 1.24326561e-007 1.27888853e-007
      1.31711843e-007 1.35890147e-007 1.38745236e-007 1.43736969e-007
      1.44966293e-007 1.49696376e-007 1.53178902e-007 1.56343731e-007
      1.49524396e-007 1.40439994e-007 1.35239944e-007 1.26880209e-007
      1.19531833e-007 1.12686003e-007 1.08387283e-007 1.01599468e-007
      9.69015090e-008 9.67302611e-008 1.04030406e-007 1.03325611e-007
      1.02346434e-007 1.00641003e-007 9.02889710e-008 7.83097249e-008
      6.57357759e-008 5.23135348e-008 3.80121463e-008 2.52081751e-008
      1.08974563e-008 6.43754161e-009 1.76508208e-009 1.90670724e-009
      2.69488543e-009 6.35519548e-009 1.23770407e-008 2.40996254e-008
      3.75589551e-008 5.04860473e-008 5.84498068e-008 6.62763355e-008
      7.56269145e-008 8.32665137e-008 8.97676529e-008 9.82047084e-008
      1.03801938e-007 1.06498121e-007 1.09384011e-007 1.12715959e-007
      1.22415145e-007 1.23874401e-007 1.25178516e-007 1.30343096e-007
      1.37858677e-007 1.40533245e-007 1.44396594e-007 1.47239049e-007
      1.44103893e-007 1.46625226e-007 1.46871670e-007 1.49454934e-007
      1.52148019e-007 1.50975794e-007 1.48099005e-007 1.48230058e-007
      1.51478915e-007 1.54875806e-007 1.60291677e-007 1.56894288e-007
      1.52358368e-007 1.52129275e-007 1.49735925e-007 1.48239565e-007
      1.46624686e-007 1.46593081e-007 1.41534727e-007 1.39819392e-007
      1.39506440e-007 1.47514172e-007 1.52381133e-007 1.60068154e-007
      1.65453926e-007 1.74329813e-007 1.77775433e-007 1.89733669e-007
      1.98538316e-007 2.02584701e-007 2.04499187e-007 2.06038592e-007
      2.10071420e-007 2.08242142e-007 2.02255350e-007 2.02346882e-007
      2.02551618e-007 1.93974756e-007 1.86277830e-007 1.79011025e-007
      1.74577607e-007 1.68548638e-007 1.63043794e-007 1.62550720e-007
      1.67668972e-007 1.55173893e-007 1.51551490e-007 1.48160368e-007
      1.45887128e-007 1.41148234e-007 1.37621711e-007 1.34581626e-007
      1.30944926e-007 1.25661174e-007 1.20957537e-007 1.20415194e-007
      1.16206245e-007 1.14935112e-007 1.19586915e-007 1.24686750e-007
      1.25081897e-007 1.30417959e-007 1.34430181e-007 1.36647444e-007
      1.35363095e-007 1.38953368e-007 1.43113965e-007 1.44361024e-007
      1.37497437e-007 1.33421509e-007 1.32045173e-007 1.22630610e-007
      1.08043551e-007 9.34266424e-008 7.93154911e-008 6.34500594e-008
      4.39546142e-008 2.17664748e-008 -1.25494715e-009 -1.92065492e-008
      -3.37494050e-008 -4.06656504e-008 -4.26235154e-008
      -3.72362656e-008 -3.41967343e-008 -2.44751579e-008
      -1.06691367e-008 1.15911467e-008 3.72257922e-008 6.54654571e-008
      9.10336766e-008 1.15326067e-007 1.37955141e-007 1.59920376e-007
      1.86528695e-007 2.08677662e-007 2.24435738e-007 2.41022832e-007
      2.60458165e-007 2.68107584e-007 2.72733814e-007 2.76876875e-007
      2.79239799e-007 2.76105766e-007 2.74076513e-007 2.72020799e-007
      2.69035183e-007 2.63031609e-007 2.52327681e-007 2.47832730e-007
      2.43664914e-007 2.34543478e-007 2.30387528e-007 2.30115845e-007
      2.23898326e-007 2.18288335e-007 2.12716188e-007 2.11735426e-007
      2.09981849e-007 2.03933226e-007 1.99363825e-007 2.02682017e-007
      1.96433547e-007 1.92398616e-007 1.94382352e-007 1.85889107e-007
      1.87214695e-007 1.80110845e-007 1.70048366e-007 1.67374921e-007
      1.70287848e-007 1.59774146e-007 1.52168241e-007 1.43338951e-007
      1.36335174e-007 1.47815570e-007 1.53303915e-007 1.57991437e-007
      1.63280419e-007 1.66367641e-007 1.67135582e-007 1.72389733e-007
      1.81893242e-007 1.95094344e-007 2.02464904e-007 2.04714595e-007
      2.08059120e-007 2.17761468e-007 2.35197462e-007 2.51706041e-007
      2.62675400e-007 2.76362584e-007 2.88448234e-007 2.94258257e-007
      3.00558213e-007 3.00994827e-007 2.95824123e-007 2.85828833e-007
      2.73663659e-007 2.57655785e-007 2.37656536e-007 2.21842797e-007
      2.06644060e-007 1.90311695e-007 1.78146948e-007 1.66369531e-007
      1.61187089e-007 1.56985323e-007 1.53273405e-007 1.56201082e-007
      1.63771219e-007 1.70746063e-007 1.77061608e-007 1.79800907e-007
      1.76798906e-007 1.79404012e-007 1.85955940e-007 1.87066945e-007
      1.80561045e-007 1.81686914e-007 1.79877148e-007 1.75860634e-007
      1.76179782e-007 1.76609390e-007 1.82559205e-007 1.79585314e-007
      1.72608750e-007 1.71687617e-007 1.74996288e-007 1.77880366e-007
      1.82099811e-007 1.86248442e-007 1.85934937e-007 1.87317283e-007
      1.84804037e-007 1.86352565e-007 1.88396385e-007 1.91766389e-007
      1.91727636e-007 1.80777960e-007 1.76355798e-007 1.72983491e-007
      1.73719400e-007 1.72788901e-007 1.71048427e-007 1.71478845e-007
      1.72940872e-007 1.69145139e-007 1.61943134e-007 1.64963964e-007
      1.63611560e-007 1.57056945e-007 1.51469720e-007 1.48023901e-007
      1.47095122e-007 1.46929096e-007 1.45494127e-007 1.40495146e-007
      1.41026263e-007 1.39481301e-007 1.34449920e-007 1.30549410e-007
      1.29113374e-007 1.20451077e-007 1.15282560e-007 1.08721984e-007
      1.03661463e-007 1.02219104e-007 9.76518635e-008 9.44550820e-008
      9.14917067e-008 9.52601127e-008 9.45413205e-008 9.67987219e-008
      9.58741353e-008 9.27472712e-008 8.90640308e-008 8.35522229e-008
      8.05939493e-008 7.32466532e-008 7.67800543e-008 6.96200004e-008
      6.46185043e-008 5.84007260e-008 5.19819991e-008 5.30326609e-008
      5.50802710e-008 5.75021666e-008 5.83441491e-008 6.23745322e-008
      6.31267056e-008 6.64965540e-008 6.72216416e-008 6.67401068e-008
      6.59487753e-008 6.20791738e-008 5.54713537e-008 4.91593717e-008
      4.86709411e-008 4.66326995e-008 4.32561365e-008 3.96032291e-008
      3.32457226e-008 2.91341795e-008 2.96012530e-008 2.73274718e-008
      2.89240827e-008 3.08381907e-008 2.38406237e-008 3.00562526e-008
      2.76237326e-008 2.15893987e-008 2.37602915e-008 2.84012938e-008
      3.49800615e-008 3.66569850e-008 3.18688649e-008 3.27374359e-008
      3.85480270e-008 3.19635483e-008 2.62302500e-008 2.90592279e-008
      2.76159913e-008 2.38909621e-008 1.67995857e-008 1.51002233e-008
      2.04301571e-008 2.38761686e-008 2.44602258e-008 2.83004340e-008
      3.54129490e-008 4.42387176e-008 5.41928316e-008 5.93542460e-008
      7.08477046e-008 8.14950312e-008 8.71910970e-008 9.05422297e-008
      9.71080141e-008 1.00132759e-007 9.92164146e-008 8.90749803e-008
      8.76935289e-008 8.34778362e-008 7.28976985e-008 6.20452241e-008
      5.10236973e-008 3.99007760e-008 3.14574571e-008 3.17033368e-008
      3.57546561e-008 4.06959764e-008 3.89688104e-008 4.01657552e-008
      4.68184957e-008 5.37491793e-008 6.08912885e-008 6.62167636e-008
      6.56343886e-008 6.26552037e-008 5.86667355e-008 5.43765459e-008
      4.99421375e-008 4.74440078e-008 5.04683122e-008 4.95415691e-008
      4.85287863e-008 4.78816773e-008 5.11192297e-008 4.98070598e-008
      4.69123371e-008 4.62588154e-008 5.11534992e-008 5.56122011e-008
      4.62938559e-008 4.27722391e-008 3.89701320e-008 4.08062952e-008
      3.87565962e-008 4.02762907e-008 4.33780123e-008 3.74440035e-008
      2.73087100e-008 1.76992501e-008 1.26636142e-008 1.00970943e-009
      -8.60129035e-009 -2.35160478e-008 -3.93171966e-008
      -5.96917786e-008 -7.92981112e-008 -8.99846384e-008
      -9.98441223e-008 -1.07011111e-007 -1.11104320e-007
      -1.08934913e-007 -1.04012024e-007 -9.85730111e-008
      -8.66375132e-008 -7.23801605e-008 -6.05080999e-008
      -4.32761702e-008 -2.89442443e-008 -1.74585857e-008
      -8.76346551e-009 -1.71245185e-009 5.35744160e-009 1.01952446e-008
      8.87827944e-009 9.78270620e-009 1.20831372e-008 6.87292312e-009
      1.25965982e-009 -2.89733726e-009 -5.72020209e-009 -1.14431931e-008
      -1.92801402e-008 -3.12916413e-008 -3.53743985e-008
      -3.89009500e-008 -4.78132876e-008 -5.38325473e-008
      -5.74133523e-008 -5.71469698e-008 -5.82291264e-008
      -6.41769162e-008 -7.00768226e-008 -7.19033011e-008
      -7.17840720e-008 -6.97991780e-008 -6.17664497e-008
      -6.31784545e-008 -6.26132035e-008 -6.40133209e-008
      -6.22958467e-008 -5.64967166e-008 -5.11167002e-008
      -4.91969843e-008 -5.02447044e-008 -5.60235200e-008
      -6.39904059e-008 -6.69473792e-008 -6.69814284e-008
      -6.76904648e-008 -6.99199703e-008 -7.30752205e-008
      -7.17598354e-008 -7.07579773e-008 -7.09190857e-008
      -7.02579186e-008 -6.76966891e-008 -6.13673024e-008
      -5.86549191e-008 -5.99776797e-008 -6.06278050e-008
      -5.74309702e-008 -5.04929716e-008 -4.78958242e-008
      -4.09579251e-008 -3.28473355e-008 -2.27872690e-008
      -1.80990458e-008 -1.87400442e-008 -1.52690500e-008
      -8.45195380e-009 -1.49697250e-008 -2.29862795e-008
      -2.95603364e-008 -3.59083501e-008 -4.18612487e-008
      -5.21874810e-008 -5.61941036e-008 -5.37384501e-008
      -5.13601250e-008 -5.02331545e-008 -4.70619739e-008
      -4.92779328e-008 -4.90474186e-008 -5.16007752e-008
      -5.89293059e-008 -6.76960568e-008 -7.86031720e-008
      -9.18159770e-008 -1.03974457e-007 -1.15159679e-007
      -1.26088565e-007 -1.31042768e-007 -1.30776783e-007
      -1.29091646e-007 -1.26504659e-007 -1.20762593e-007
      -1.16473721e-007 -1.13801292e-007 -1.09290312e-007
      -1.08450486e-007 -1.06270058e-007 -1.03238428e-007
      -1.01396658e-007 -1.00771139e-007 -9.90376634e-008
      -9.81507000e-008 -9.49033705e-008 -9.39451255e-008
      -9.23598833e-008 -8.59617515e-008 -8.36264320e-008
      -8.17080448e-008 -8.38274232e-008 -8.61962306e-008
      -8.39550509e-008 -8.35248315e-008 -8.00808522e-008
      -7.26880742e-008 -6.63452013e-008 -6.31947401e-008
      -5.77497303e-008 -5.12073655e-008 -4.21499102e-008
      -3.53257050e-008 -3.17986952e-008 -2.43659066e-008
      -1.31753097e-008 -7.34041006e-009 -4.56640681e-009 1.42234580e-009
      9.48736201e-009 1.21108554e-008 1.14974039e-008 9.89268756e-009
      9.90952653e-009 2.95500580e-009 -8.71793748e-009 -2.12352465e-008
      -3.14526680e-008 -4.34730332e-008 -4.94501329e-008
      -5.18494012e-008 -5.28353503e-008 -4.98687314e-008
      -4.02623321e-008 -2.88067294e-008 -1.94416447e-008
      -1.01805870e-008 -2.55465982e-009 9.54725365e-009 1.65538392e-008
      1.80361877e-008 1.95449488e-008 1.88126617e-008 1.60507430e-008
      1.85641493e-008 1.64282348e-008 1.77772055e-008 1.35325893e-008
      5.15179543e-009 4.54400961e-009 8.44955039e-009 7.00815450e-009
      6.85010138e-009 1.26309976e-008 1.32693252e-008 1.69589072e-008
      1.78722424e-008 2.67430611e-008 3.73044813e-008 4.20024016e-008
      3.74497162e-008 4.25877857e-008 4.74245603e-008 4.19519601e-008
      3.55180596e-008 3.27102399e-008 2.78437806e-008 2.31448762e-008
      1.14855387e-008 1.64009439e-009 -1.55005089e-011 -6.84547574e-009
      -1.36197444e-008 -1.79884658e-008 -1.80909456e-008
      -1.70863341e-008 -1.35752778e-008 -1.26644908e-008
      -8.91824126e-009 8.29862312e-009 2.33708803e-008 4.12519157e-008
      5.99886931e-008 7.67551356e-008 9.24327210e-008 1.04348992e-007
      1.20875796e-007 1.38448002e-007 1.59117334e-007 1.61351153e-007
      1.55520553e-007 1.51230012e-007 1.43424430e-007 1.39267783e-007
      1.33217767e-007 1.22503167e-007 1.07195547e-007 9.52443955e-008
      7.65563684e-008 6.10738269e-008 5.38810063e-008 4.07127274e-008
      3.15384874e-008 1.96741521e-008 6.20403995e-009 -7.76124676e-009
      -2.23550174e-008 -3.46748230e-008 -4.31615348e-008
      -4.94498167e-008 -5.52153487e-008 -5.34990008e-008
      -4.58311291e-008 -3.30104335e-008 -1.82631759e-008 4.65683625e-009
      2.77834360e-008 4.91431287e-008 7.35550572e-008 9.89685702e-008
      1.25782236e-007 1.46597586e-007 1.59529606e-007 1.72266425e-007
      1.82820898e-007 1.87083231e-007 1.93447391e-007 2.01010707e-007
      2.08503948e-007 2.09120799e-007 2.05500783e-007 2.09982261e-007
      2.14598515e-007 2.14855945e-007 2.16076572e-007 2.23222898e-007
      2.32049985e-007 2.38224430e-007 2.40477419e-007 2.46520472e-007
      2.56371379e-007 2.55621643e-007 2.51040944e-007 2.47615702e-007
      2.45440532e-007 2.36896909e-007 2.30090038e-007 2.24941488e-007
      2.16125159e-007 2.14762707e-007 2.10720941e-007 2.11474926e-007
      2.17330566e-007 2.25623495e-007 2.29817473e-007 2.37834669e-007
      2.38509557e-007 2.36785638e-007 2.43353213e-007 2.43160201e-007
      2.47789501e-007 2.50673651e-007 2.54209482e-007 2.53526338e-007
      2.57172729e-007 2.60552326e-007 2.66520118e-007 2.71163316e-007
      2.71024476e-007 2.72358136e-007 2.70429297e-007 2.66698237e-007
      2.59045208e-007 2.50607911e-007 2.39847679e-007 2.31213662e-007
      2.26216571e-007 2.23840757e-007 2.25616631e-007 2.26115418e-007
      2.20619683e-007 2.23083674e-007 2.27966851e-007 2.43391099e-007
      2.53900254e-007 2.58205745e-007 2.67213352e-007 2.76883213e-007
      2.80456192e-007 2.83044670e-007 2.90999878e-007 2.90633636e-007
      2.90955143e-007 2.83325107e-007 2.81787663e-007 2.82211118e-007
      2.78477870e-007 2.70896720e-007 2.75689189e-007 2.77144977e-007
      2.78559298e-007 2.77460401e-007 2.76902455e-007 2.74697157e-007
      2.74082225e-007 2.78531104e-007 2.79089562e-007 2.79297780e-007
      2.68000065e-007 2.59562427e-007 2.53572324e-007 2.51855113e-007
      2.50905686e-007 2.50592763e-007 2.47135404e-007 2.37964571e-007
      2.33595415e-007 2.30708537e-007 2.33393578e-007 2.37610905e-007
      2.37011861e-007 2.36960503e-007 2.44144985e-007 2.44890430e-007
      2.47671181e-007 2.59329681e-007 2.69995496e-007 2.79103517e-007
      2.86262349e-007 2.91550151e-007 2.96176722e-007 2.95636767e-007
      2.93701561e-007 2.99652982e-007 3.01817948e-007 2.93070656e-007
      2.91301461e-007 2.87123044e-007 2.91500811e-007 2.92211780e-007
      2.96235925e-007 2.96278131e-007 3.00080302e-007 2.99281311e-007
      3.04861118e-007 3.08655217e-007 3.10883138e-007 3.15390935e-007
      3.14671922e-007 3.17624767e-007 3.20933594e-007 3.25284788e-007
      3.24185521e-007 3.25965317e-007 3.20228821e-007 3.18703542e-007
      3.16145446e-007 3.15137584e-007 3.12689963e-007 3.08222980e-007
      3.03492726e-007 3.06050964e-007 3.05602981e-007 3.08638562e-007
      3.15563796e-007 3.21744380e-007 3.27795533e-007 3.32900271e-007
      3.39039161e-007 3.43585270e-007 3.45584766e-007 3.42602220e-007
      3.39030066e-007 3.32722891e-007 3.19304860e-007 3.09398700e-007
      2.97571290e-007 2.85540153e-007 2.67219747e-007 2.56661792e-007
      2.54109409e-007 2.50460261e-007 2.57181682e-007 2.65702369e-007
      2.80178114e-007 2.91694192e-007 3.06831936e-007 3.24855421e-007
      3.52553798e-007 3.70050259e-007 3.81994084e-007 3.95038825e-007
      4.04737079e-007 4.08765885e-007 1.03557227e-007 1.06380654e-007
      1.07920812e-007 1.04274619e-007 9.84105029e-008 9.36633242e-008
      9.38601872e-008 8.89654359e-008 8.69265264e-008 9.02165098e-008
      9.40946663e-008 9.43325844e-008 9.69952438e-008 9.81286448e-008
      1.00974532e-007 1.00180863e-007 9.79465042e-008 9.97932759e-008
      1.03729271e-007 1.03170066e-007 1.03466014e-007 1.06693328e-007
      1.04088443e-007 1.05878442e-007 1.09070371e-007 1.17198091e-007
      1.27218541e-007 1.31445375e-007 1.37245152e-007 1.46312047e-007
      1.55362201e-007 1.64450441e-007 1.71030905e-007 1.80060582e-007
      1.84508778e-007 1.88247071e-007 1.88365576e-007 1.91257030e-007
      1.90509482e-007 1.91557334e-007 1.86979207e-007 1.81370595e-007
      1.82927920e-007 1.82499051e-007 1.82968733e-007 1.77305665e-007
      1.75940428e-007 1.75235655e-007 1.75284910e-007 1.75344596e-007
      1.78023356e-007 1.80003710e-007 1.83066277e-007 1.83511048e-007
      1.85013718e-007 1.91914097e-007 1.90921639e-007 1.93448003e-007
      1.92200773e-007 1.88593802e-007 1.85057743e-007 1.83691895e-007
      1.79852478e-007 1.78431947e-007 1.80563774e-007 1.81055285e-007
      1.85798683e-007 1.88586881e-007 1.93311422e-007 1.97346836e-007
      2.05592158e-007 2.10709914e-007 2.13716888e-007 2.14449557e-007
      2.05729350e-007 2.00847353e-007 1.94596495e-007 1.89103005e-007
      1.82887604e-007 1.78679571e-007 1.70382421e-007 1.63789792e-007
      1.56638464e-007 1.49644634e-007 1.43999713e-007 1.39728826e-007
      1.35584969e-007 1.24464719e-007 1.11064963e-007 1.01229780e-007
      9.46121048e-008 9.40084419e-008 9.11887739e-008 9.08501079e-008
      9.33994642e-008 9.22020860e-008 9.46260101e-008 1.07531797e-007
      1.25375777e-007 1.43548419e-007 1.57498093e-007 1.71568999e-007
      1.84057797e-007 1.95476801e-007 2.03981671e-007 2.16052598e-007
      2.22721852e-007 2.26034913e-007 2.27307595e-007 2.31278904e-007
      2.36073674e-007 2.37174049e-007 2.44438866e-007 2.50695194e-007
      2.62356480e-007 2.68468852e-007 2.64354384e-007 2.63080011e-007
      2.53556124e-007 2.38748498e-007 2.25279834e-007 2.05787586e-007
      1.85764208e-007 1.70046363e-007 1.52439213e-007 1.36599851e-007
      1.35301605e-007 1.32026301e-007 1.34400096e-007 1.37218819e-007
      1.39528325e-007 1.47718168e-007 1.55409225e-007 1.62842753e-007
      1.68415951e-007 1.76744862e-007 1.83157141e-007 1.94335215e-007
      2.02039516e-007 2.07165186e-007 2.03241370e-007 1.96802361e-007
      1.86946025e-007 1.71517698e-007 1.59121214e-007 1.56318478e-007
      1.54359554e-007 1.49233017e-007 1.43415733e-007 1.44959728e-007
      1.51685981e-007 1.64293937e-007 1.76406672e-007 1.92105944e-007
      2.08152116e-007 2.09056410e-007 2.05966614e-007 2.02032396e-007
      2.01932366e-007 2.02246397e-007 2.01672123e-007 1.98093005e-007
      1.94616163e-007 1.91012276e-007 1.86493153e-007 1.88841355e-007
      1.91396097e-007 1.93662316e-007 1.91558527e-007 1.84372581e-007
      1.78608317e-007 1.74574225e-007 1.64499752e-007 1.54506324e-007
      1.40491892e-007 1.27441680e-007 1.13970032e-007 1.04951027e-007
      9.94874583e-008 9.52532559e-008 9.03185082e-008 8.71054269e-008
      8.98495784e-008 9.85907818e-008 1.03325782e-007 1.12150147e-007
      1.23034440e-007 1.30806541e-007 1.40623754e-007 1.46835632e-007
      1.53873856e-007 1.59640962e-007 1.62514198e-007 1.55931957e-007
      1.51878723e-007 1.45561927e-007 1.34426514e-007 1.21941312e-007
      1.12560500e-007 1.02684005e-007 9.17042655e-008 8.56287201e-008
      7.89955905e-008 7.68352493e-008 7.69800508e-008 7.63581838e-008
      7.44218625e-008 7.35897814e-008 6.74183056e-008 6.28947490e-008
      5.77823833e-008 4.60037235e-008 3.56324144e-008 2.17393517e-008
      1.13876846e-008 4.86908514e-010 -8.43734682e-009 -1.80734645e-008
      -2.88136874e-008 -3.81194951e-008 -4.21426662e-008
      -4.56970000e-008 -5.10396418e-008 -4.87897438e-008
      -5.01952009e-008 -5.10567943e-008 -5.04384126e-008
      -4.67180534e-008 -4.49664306e-008 -4.29605151e-008
      -4.21275210e-008 -4.08163920e-008 -3.65155053e-008
      -3.77150187e-008 -3.20966684e-008 -3.06052286e-008
      -2.99658751e-008 -2.46353959e-008 -2.34957866e-008
      -2.38188829e-008 -2.60616062e-008 -2.87385653e-008
      -3.17252180e-008 -3.33517889e-008 -3.85191470e-008
      -3.93614563e-008 -4.04305318e-008 -4.80863527e-008
      -4.98629973e-008 -4.84543463e-008 -4.66177461e-008
      -4.34828351e-008 -3.84428773e-008 -3.60156420e-008
      -3.21704157e-008 -2.85167818e-008 -2.44938327e-008
      -1.73468742e-008 -1.24134241e-008 -1.01059774e-008
      -7.61958674e-009 -6.49392140e-009 -5.52288704e-009
      -6.03536154e-009 -9.69606351e-009 -1.42064316e-008
      -1.46441774e-008 -1.44579149e-008 -1.17119736e-008
      -6.32076746e-009 5.62622893e-010 9.40471168e-009 1.21741408e-008
      1.80283681e-008 2.76987251e-008 3.79960632e-008 4.81779878e-008
      5.92545391e-008 7.12686585e-008 7.86286449e-008 8.27347861e-008
      8.40294447e-008 8.60581366e-008 8.64175860e-008 8.61647962e-008
      8.62236078e-008 8.43199501e-008 7.71555619e-008 6.84871040e-008
      6.23337755e-008 5.71602037e-008 4.69215706e-008 3.67456501e-008
      2.63693920e-008 1.41530849e-008 -5.25289323e-009 -2.42742537e-008
      -4.42660131e-008 -6.90335327e-008 -9.19583201e-008
      -1.20930935e-007 -1.37238303e-007 -1.47177616e-007
      -1.52673962e-007 -1.51303851e-007 -1.47561465e-007
      -1.44175857e-007 -1.36070980e-007 -1.26870049e-007
      -1.19366206e-007 -1.03862178e-007 -9.11675500e-008
      -7.63862786e-008 -6.61357262e-008 -5.36424594e-008
      -3.63118531e-008 -2.49593928e-008 -1.84981168e-008
      -1.45900909e-008 -9.50794288e-009 -1.16252004e-008
      -1.93124361e-008 -3.16586259e-008 -4.26068532e-008
      -5.69574823e-008 -7.55322631e-008 -8.64112053e-008
      -9.02036916e-008 -8.62160263e-008 -8.44263539e-008
      -7.38191375e-008 -6.39581117e-008 -5.18362917e-008
      -3.87692403e-008 -2.52549288e-008 -1.20008981e-008
      -4.80380935e-009 3.82012116e-010 1.67092706e-009 6.21914253e-009
      5.80954795e-009 7.84975818e-009 4.24030766e-009 1.53559088e-009
      -2.25386310e-009 -3.81026055e-009 -3.10720094e-009
      -2.35067099e-009 -4.74679673e-009 -7.27680849e-009
      -8.37253555e-009 -1.31684033e-008 -1.34733389e-008
      -1.00241691e-008 -7.88846322e-009 -7.40862038e-009
      -9.23119092e-009 -6.97031322e-009 -6.45634790e-009
      -5.54268720e-009 -7.97673039e-010 3.43410722e-009 3.33244599e-010
      -8.72052563e-009 -2.40438780e-008 -3.49940876e-008
      -4.42078054e-008 -5.03639619e-008 -5.17718313e-008
      -5.02289659e-008 -4.89434875e-008 -4.99160997e-008
      -4.52840467e-008 -3.47021647e-008 -1.83971220e-008
      -1.95429517e-009 7.73087905e-009 9.04642405e-009 1.28210340e-008
      1.57239501e-008 1.03611741e-008 4.95689445e-009 1.74098874e-010
      -7.57575958e-009 -2.09036237e-008 -3.29204433e-008
      -4.29450964e-008 -5.14152241e-008 -6.67499194e-008
      -8.67117649e-008 -9.91829694e-008 -1.09818018e-007
      -1.24989384e-007 -1.39172869e-007 -1.53934039e-007
      -1.63371183e-007 -1.67917506e-007 -1.68303671e-007
      -1.67417781e-007 -1.64377212e-007 -1.56722464e-007
      -1.44804559e-007 -1.29370477e-007 -1.14397849e-007
      -9.68588978e-008 -8.26138802e-008 -7.35682661e-008
      -6.18928340e-008 -5.02271007e-008 -4.44856134e-008
      -4.01882758e-008 -3.93965180e-008 -3.59418557e-008
      -2.82726429e-008 -1.84209838e-008 -1.28010171e-008
      -1.71690007e-009 7.46855733e-009 1.17641976e-008 2.34552537e-008
      3.64079220e-008 4.10554648e-008 4.37271623e-008 3.99315674e-008
      3.48396014e-008 3.13761603e-008 2.43541205e-008 1.55758357e-008
      1.30202791e-008 1.04550271e-008 5.44251488e-009 1.01199262e-008
      1.51030068e-008 2.25829115e-008 3.17904529e-008 3.82956244e-008
      4.38581864e-008 5.56575870e-008 6.32242561e-008 6.67009061e-008
      7.10588708e-008 7.30220791e-008 7.53691936e-008 8.01275490e-008
      8.26753705e-008 8.21900557e-008 7.97679505e-008 7.49306253e-008
      6.89474078e-008 6.45626486e-008 5.86614100e-008 5.94055329e-008
      5.83161324e-008 5.64442395e-008 5.18366008e-008 5.42602407e-008
      5.29409547e-008 4.98157107e-008 4.60532412e-008 4.22328661e-008
      4.05308889e-008 3.88737256e-008 3.87985004e-008 3.71696345e-008
      4.52470665e-008 5.05300655e-008 5.64699079e-008 6.35824549e-008
      7.10826455e-008 7.77825875e-008 8.12993477e-008 8.44331183e-008
      9.00513584e-008 8.98715555e-008 8.76248905e-008 8.44785788e-008
      8.73665300e-008 9.20722911e-008 9.51500780e-008 9.84419728e-008
      1.06236058e-007 1.14846060e-007 1.17964561e-007 1.23462556e-007
      1.31734453e-007 1.34079201e-007 1.34383001e-007 1.35731710e-007
      1.37471233e-007 1.35033702e-007 1.34677506e-007 1.28411614e-007
      1.22685790e-007 1.13548602e-007 1.01075138e-007 8.79349997e-008
      6.91370019e-008 5.19016474e-008 4.09075191e-008 3.45353328e-008
      1.91174561e-008 1.08246505e-008 4.28571845e-009 -6.66125466e-009
      -1.29464386e-008 -1.46889327e-008 -9.71534675e-009
      -6.91796709e-009 -1.00255031e-008 -1.50737147e-008
      -1.02032010e-008 -1.48748454e-008 -1.88370670e-008
      -1.44149475e-008 -1.25761117e-008 -1.43609631e-008
      -1.91554168e-008 -1.96235401e-008 -1.95641938e-008
      -1.67245560e-008 -1.23002302e-008 -8.08661384e-012 1.40155034e-008
      2.29938220e-008 3.04004075e-008 4.14187475e-008 4.96482713e-008
      5.71522421e-008 6.63295907e-008 7.62804930e-008 8.47052277e-008
      8.80084770e-008 9.17832992e-008 9.62695808e-008 1.00638445e-007
      1.00706266e-007 1.00563796e-007 9.82064421e-008 9.40950784e-008
      8.58903846e-008 8.23547737e-008 7.62818715e-008 7.09734280e-008
      6.93439688e-008 6.39739639e-008 6.10647461e-008 6.05361521e-008
      5.99301018e-008 6.29606092e-008 6.40017319e-008 5.92326010e-008
      5.88729812e-008 5.56685933e-008 5.23650456e-008 5.23098471e-008
      5.22895114e-008 4.97029475e-008 4.94251644e-008 4.54156037e-008
      4.81040558e-008 5.28542827e-008 5.65521212e-008 6.30712691e-008
      7.12035018e-008 8.07973137e-008 9.24820753e-008 1.08188082e-007
      1.22251606e-007 1.39355166e-007 1.56307763e-007 1.71608505e-007
      1.86618351e-007 1.99712389e-007 2.07092754e-007 2.09051777e-007
      2.05798671e-007 1.98874901e-007 1.89776216e-007 1.76265601e-007
      1.60046000e-007 1.43596012e-007 1.30781658e-007 1.12409360e-007
      9.31423969e-008 7.89529722e-008 6.72070897e-008 5.48555974e-008
      4.66692285e-008 4.11016323e-008 3.85002217e-008 3.87965819e-008
      3.97070572e-008 4.14066221e-008 4.62515573e-008 5.19155776e-008
      6.09597350e-008 7.12159363e-008 7.93569086e-008 8.57943192e-008
      9.00491557e-008 9.37954709e-008 9.42515825e-008 9.46782563e-008
      9.56986028e-008 9.77383934e-008 1.01725526e-007 9.96538461e-008
