<?xml version="1.0"?>
<opencv_storage>
<my_svm type_id="opencv-ml-svm">
  <svm_type>C_SVC</svm_type>
  <kernel><type>LINEAR</type></kernel>
  <C>5.0000000000000000e-001</C>
  <term_criteria><epsilon>2.2204460492503131e-016</epsilon>
    <iterations>96</iterations></term_criteria>
  <var_all>60000</var_all>
  <var_count>60000</var_count>
  <class_count>2</class_count>
  <class_labels type_id="opencv-matrix">
    <rows>1</rows>
    <cols>2</cols>
    <dt>i</dt>
    <data>
      0 1</data></class_labels>
  <sv_total>1</sv_total>
  <support_vectors>
    <_>
      2.94028961e-008 3.99946849e-008 4.13128305e-008 4.84375704e-008
      4.94383094e-008 3.63734323e-008 1.71937664e-008 1.57236069e-009
      -8.37761593e-009 -2.29689210e-008 -4.58647058e-008
      -7.53868079e-008 -9.36975582e-008 -1.22914912e-007
      -1.38491373e-007 -1.51022704e-007 -1.65937237e-007
      -1.75220137e-007 -1.74055785e-007 -1.72608537e-007
      -1.64374015e-007 -1.59075356e-007 -1.55627774e-007
      -1.51748168e-007 -1.41156889e-007 -1.34463704e-007
      -1.15559892e-007 -1.08359821e-007 -1.15202155e-007
      -1.16395860e-007 -1.24945217e-007 -1.18076755e-007
      -1.16254867e-007 -1.12264019e-007 -1.15290121e-007
      -1.13101116e-007 -1.15800674e-007 -1.18218850e-007
      -1.14278464e-007 -1.15696615e-007 -1.11892298e-007
      -1.05853715e-007 -1.02498930e-007 -1.05127455e-007
      -9.80911352e-008 -8.79496227e-008 -8.18386567e-008
      -6.47924736e-008 -4.23316990e-008 -3.01472589e-008
      -8.64784511e-009 7.60158336e-009 3.70226232e-008 5.98529297e-008
      8.55706759e-008 1.17247076e-007 1.57769890e-007 2.03125694e-007
      2.50396369e-007 3.04413874e-007 3.51022351e-007 3.92613799e-007
      4.07708484e-007 4.38931608e-007 4.51673401e-007 4.48500572e-007
      4.35914302e-007 4.19811812e-007 3.94864458e-007 3.78792208e-007
      3.50562459e-007 3.20432264e-007 2.83449879e-007 2.35744537e-007
      1.92647335e-007 1.65067149e-007 1.51861300e-007 1.34436917e-007
      1.11768927e-007 8.81053168e-008 6.67402489e-008 4.98695236e-008
      4.94143286e-008 6.09139335e-008 6.84454733e-008 7.13179844e-008
      7.40256567e-008 7.70789228e-008 8.44227301e-008 1.05237426e-007
      1.31298378e-007 1.47242972e-007 1.65018690e-007 1.73815764e-007
      1.87853246e-007 1.90925903e-007 1.89305027e-007 1.74005024e-007
      1.64523271e-007 1.41267776e-007 1.11935059e-007 8.62461107e-008
      5.04338367e-008 2.31724258e-008 -5.90693383e-010 -1.86657196e-008
      -2.71599188e-008 -2.24675460e-008 -3.12098329e-008
      -2.39610003e-008 -7.16194215e-009 1.13749730e-008 3.67488546e-008
      4.85069265e-008 4.90662195e-008 4.66531347e-008 2.65279354e-008
      1.30616478e-008 -6.28279917e-009 -3.02959151e-008 -5.48521690e-008
      -7.64481456e-008 -1.02022881e-007 -1.17712474e-007
      -1.32331294e-007 -1.50840464e-007 -1.40868011e-007
      -1.40069488e-007 -1.35256101e-007 -1.34095814e-007
      -1.26043886e-007 -1.19041097e-007 -1.10267351e-007
      -1.12627390e-007 -9.82440085e-008 -8.58648548e-008
      -8.27929512e-008 -7.67219532e-008 -6.69846187e-008
      -5.92626179e-008 -5.33507816e-008 -5.60596476e-008
      -5.67229712e-008 -5.08769240e-008 -5.83794915e-008
      -5.98141128e-008 -4.80872764e-008 -4.14429344e-008
      -4.09147596e-008 -4.49447306e-008 -5.07142275e-008
      -5.69449945e-008 -5.23834345e-008 -6.28463042e-008
      -7.18761726e-008 -9.56176365e-008 -1.31545860e-007
      -1.66097053e-007 -1.83696571e-007 -2.09488746e-007
      -2.39098966e-007 -2.81601302e-007 -3.27790247e-007
      -3.54611586e-007 -3.72931453e-007 -3.93868334e-007
      -4.03685362e-007 -4.09646447e-007 -4.11862970e-007
      -3.95581168e-007 -3.66253971e-007 -3.28224189e-007
      -2.80924127e-007 -2.41326489e-007 -2.11880874e-007
      -1.71540478e-007 -1.39485252e-007 -1.11370326e-007
      -8.47781862e-008 -6.25305674e-008 -4.78017235e-008
      -2.67044076e-008 -1.41245806e-008 8.95204622e-009 3.89993104e-008
      5.77141002e-008 7.67840049e-008 9.52507833e-008 1.04487974e-007
      1.02148945e-007 1.01912669e-007 9.79980541e-008 8.91261749e-008
      7.93113983e-008 5.96273537e-008 4.96848216e-008 4.26967937e-008
      4.03704625e-008 3.69695101e-008 4.27354685e-008 3.64265098e-008
      5.32269908e-008 7.25278539e-008 8.50503881e-008 9.64796811e-008
      1.07622064e-007 1.24392741e-007 1.28744645e-007 1.25114013e-007
      1.30376549e-007 1.37363429e-007 1.24588965e-007 1.03097967e-007
      8.13602767e-008 5.86632183e-008 3.66111905e-008 8.93098573e-009
      -1.62469309e-008 -3.04514529e-008 -3.35884636e-008
      -3.51821399e-008 -2.37529623e-008 -3.92612565e-009 1.52028559e-008
      2.81608425e-008 3.75646962e-008 4.19817496e-008 4.50251569e-008
      3.54088208e-008 1.94663752e-008 1.79641257e-009 -3.44118689e-008
      -7.12695609e-008 -1.12663663e-007 -1.51777371e-007
      -1.86091171e-007 -2.18746891e-007 -2.48491801e-007
      -2.84430683e-007 -3.06894350e-007 -3.20881782e-007
      -3.36552006e-007 -3.28819624e-007 -3.17697641e-007
      -3.09370705e-007 -3.04255167e-007 -2.94871370e-007
      -2.88928476e-007 -2.69230014e-007 -2.40051463e-007
      -2.16879741e-007 -1.83554150e-007 -1.81662827e-007
      -1.65035331e-007 -1.44980078e-007 -1.19647126e-007
      -8.94188119e-008 -6.53410268e-008 -4.60311611e-008
      -4.84170073e-008 -4.50094539e-008 -5.34089821e-008
      -4.68689372e-008 -4.44676083e-008 -5.40457634e-008
      -6.45322444e-008 -7.78008911e-008 -8.13535408e-008
      -7.72869484e-008 -8.12222538e-008 -8.73213182e-008
      -9.57691810e-008 -1.05983744e-007 -1.32103992e-007
      -1.45180579e-007 -1.69477403e-007 -1.94845754e-007
      -2.17242800e-007 -2.51929123e-007 -2.69859896e-007
      -2.98483002e-007 -3.26514368e-007 -3.52988053e-007
      -3.69377091e-007 -3.95455231e-007 -4.19304399e-007
      -4.29985789e-007 -4.35386880e-007 -4.28720568e-007
      -4.23018804e-007 -3.93852901e-007 -3.66376270e-007
      -3.36954599e-007 -2.94381124e-007 -2.33546615e-007
      -1.60038880e-007 -9.53896730e-008 -3.32241967e-008 2.45102321e-008
      6.56539498e-008 9.67554286e-008 1.23152432e-007 1.41555134e-007
      1.45168727e-007 1.27210214e-007 1.17033977e-007 1.00047593e-007
      7.13566948e-008 4.82148579e-008 2.52794212e-008 -1.56528257e-009
      -2.04089741e-008 -4.12353813e-008 -7.07551706e-008
      -9.83988713e-008 -1.42226810e-007 -1.76517830e-007
      -2.07976839e-007 -2.45114364e-007 -2.86568053e-007
      -3.13794033e-007 -3.17033340e-007 -3.06093881e-007
      -2.72057122e-007 -2.37237273e-007 -2.00563818e-007
      -1.44520712e-007 -8.78503172e-008 -2.68282818e-008 2.70053864e-008
      7.96993618e-008 9.75318315e-008 1.13497670e-007 1.13618022e-007
      1.04133079e-007 9.46678043e-008 7.09505912e-008 3.36938761e-008
      1.01658220e-008 -5.91009286e-009 -2.26301804e-008 -2.71336251e-008
      -3.41808146e-008 -3.90874249e-008 -3.82431722e-008
      -3.24416085e-008 -1.65387917e-008 6.42121645e-009 2.80171371e-008
      5.08681630e-008 6.40676632e-008 6.14147595e-008 6.24184580e-008
      7.41579100e-008 8.16996817e-008 7.59770700e-008 6.60949127e-008
      4.72279247e-008 3.01344443e-008 9.38923694e-009 -4.26091518e-009
      -1.16947252e-008 -1.15034720e-008 -3.15332684e-008
      -4.21453521e-008 -5.05179827e-008 -6.05524377e-008
      -5.33124584e-008 -5.09659444e-008 -5.03246120e-008
      -4.45529409e-008 -2.94223224e-008 -8.29306579e-009 2.12452971e-008
      5.32303588e-008 7.54502025e-008 9.08519340e-008 8.91170373e-008
      9.77993864e-008 1.04322694e-007 9.47275396e-008 6.67241906e-008
      4.28432827e-008 9.06316444e-009 -2.84967125e-008 -4.65885961e-008
      -6.40342819e-008 -6.82917687e-008 -8.77602275e-008
      -1.12568067e-007 -1.36008069e-007 -1.60337507e-007
      -1.96737687e-007 -2.21567817e-007 -2.47262903e-007
      -2.76312733e-007 -2.87436563e-007 -2.94169837e-007
      -2.89993977e-007 -2.85487005e-007 -2.61768776e-007
      -2.32182302e-007 -1.95360599e-007 -1.70716433e-007
      -1.38513428e-007 -1.14193199e-007 -1.04161586e-007
      -8.40682972e-008 -7.13195689e-008 -5.42321708e-008
      -4.81074487e-008 -5.65160079e-008 -6.18929832e-008
      -5.50005090e-008 -5.09656353e-008 -4.08165519e-008
      -2.96683744e-008 -3.41440973e-008 -3.40033175e-008
      -2.79261432e-008 -2.26843166e-008 -1.33260185e-008 9.20176824e-010
      1.27811388e-008 1.89462845e-008 2.99192635e-008 3.60860959e-008
      4.85458997e-008 5.37914175e-008 6.37418438e-008 7.73966065e-008
      9.81494708e-008 1.06786302e-007 1.12690074e-007 1.19854349e-007
      1.18170419e-007 1.10482887e-007 9.07214499e-008 6.63933619e-008
      4.35490399e-008 3.92667410e-008 1.90923153e-008 -2.70957479e-009
      -1.60619944e-008 -3.14700515e-008 -4.49227855e-008
      -4.88870953e-008 -4.20862847e-008 -3.17949151e-008
      -3.11236654e-008 -4.20775272e-008 -4.07529654e-008
      -3.82459397e-008 -4.18264321e-008 -3.19357270e-008
      -2.72278893e-008 -2.91691258e-008 -3.50813494e-008
      -3.61894585e-008 -2.88127744e-008 -1.67956333e-008
      -8.14028578e-009 2.57885198e-008 6.40585114e-008 9.01491717e-008
      1.19473697e-007 1.52306100e-007 1.77606907e-007 1.95535776e-007
      2.14654364e-007 2.21993218e-007 2.21937285e-007 2.11994120e-007
      1.90549557e-007 1.68595207e-007 1.39141832e-007 1.06112005e-007
      9.35683175e-008 8.99018104e-008 7.59391696e-008 6.32012771e-008
      3.74110520e-008 6.36481712e-009 -2.98359595e-008 -4.82211213e-008
      -4.66376981e-008 -2.00384456e-008 1.00148592e-008 3.10036299e-008
      6.06802431e-008 7.02470118e-008 9.09995137e-008 1.00551283e-007
      1.02335044e-007 1.00767231e-007 9.50277226e-008 8.23948270e-008
      6.06092385e-008 3.70913931e-008 8.17150880e-009 -8.77671891e-009
      -2.70836296e-008 -4.48531665e-008 -5.88642877e-008
      -8.29475155e-008 -9.98829819e-008 -1.24885005e-007
      -1.39586234e-007 -1.50326500e-007 -1.61914727e-007
      -1.64819085e-007 -1.70859806e-007 -1.67063163e-007
      -1.60587263e-007 -1.51963235e-007 -1.47831656e-007
      -1.33719041e-007 -1.24288206e-007 -1.11384992e-007
      -9.55643245e-008 -9.15157443e-008 -8.58339035e-008
      -8.58797407e-008 -8.37534273e-008 -8.50207158e-008
      -8.25998541e-008 -9.70800400e-008 -9.20913479e-008
      -9.57114210e-008 -1.01650443e-007 -1.07095964e-007
      -1.00078836e-007 -8.70405827e-008 -7.76417437e-008
      -6.44574740e-008 -5.72309560e-008 -4.33417142e-008
      -5.57920004e-008 -6.21593728e-008 -6.75988403e-008
      -5.42409140e-008 -6.28441228e-008 -7.46495559e-008
      -7.53045413e-008 -7.37822674e-008 -6.86931614e-008
      -5.07821873e-008 -3.33704584e-008 -1.79736350e-008
      -4.59557281e-010 3.17946913e-009 2.78182313e-008 4.13541095e-008
      4.97531438e-008 5.76624544e-008 6.89137281e-008 5.57291351e-008
      6.63296760e-008 6.99183502e-008 7.47501190e-008 8.11524501e-008
      7.92070409e-008 8.21245223e-008 9.27204269e-008 9.96303982e-008
      9.87110838e-008 1.19303820e-007 1.22635385e-007 1.26431260e-007
      1.36805397e-007 1.48703634e-007 1.53749667e-007 1.54203434e-007
      1.62245257e-007 1.69752994e-007 1.72665551e-007 1.66876561e-007
      1.65525393e-007 1.49841327e-007 1.22950340e-007 9.82271118e-008
      5.81376298e-008 2.15148841e-008 6.99190394e-009 1.90113675e-010
      7.04226633e-009 1.45299017e-008 1.65354823e-008 3.49670302e-008
      5.86366049e-008 7.55533378e-008 1.00628810e-007 1.31399617e-007
      1.52609829e-007 1.55779375e-007 1.53807036e-007 1.61212157e-007
      1.61547234e-007 1.62228375e-007 1.75075385e-007 1.97659446e-007
      2.18781423e-007 2.20845735e-007 2.22425925e-007 2.23332890e-007
      2.28621502e-007 2.35898042e-007 2.41956883e-007 2.38249640e-007
      2.26143300e-007 2.05904385e-007 1.87211555e-007 1.66022275e-007
      1.52979780e-007 1.35386486e-007 1.21515143e-007 9.53328581e-008
      7.93268811e-008 6.41214228e-008 4.04539335e-008 3.10551620e-008
      2.53174282e-008 2.82306853e-008 2.09635083e-008 1.58137077e-008
      1.66203833e-008 2.48197107e-008 2.66094098e-008 3.72930131e-008
      4.73103690e-008 5.07956877e-008 4.48233521e-008 4.25390958e-008
      5.60433868e-008 6.20359089e-008 7.12422548e-008 8.37968130e-008
      8.27990050e-008 9.40380076e-008 1.15628460e-007 1.34912113e-007
      1.63926032e-007 1.88348793e-007 2.19054883e-007 2.32259538e-007
      2.29045170e-007 2.20185072e-007 2.16932250e-007 2.03241498e-007
      1.81998274e-007 1.67774587e-007 1.47984125e-007 1.28988589e-007
      9.82401289e-008 7.43182724e-008 6.62489015e-008 5.38223190e-008
      4.15416750e-008 3.08563237e-008 2.88926820e-008 2.18845955e-008
      1.11032934e-008 -5.81119952e-009 -2.61277027e-008 -4.04504163e-008
      -6.40482014e-008 -8.06831579e-008 -9.61251558e-008
      -1.03294525e-007 -1.12777798e-007 -1.10017751e-007
      -1.17899930e-007 -1.31203947e-007 -1.31676245e-007
      -1.34548870e-007 -1.25118731e-007 -1.16277100e-007
      -1.05386178e-007 -1.07110111e-007 -1.09252170e-007
      -1.20055333e-007 -1.11995476e-007 -8.94052476e-008
      -7.23211713e-008 -4.63617909e-008 -4.58580232e-008
      -3.18204272e-008 -1.35284681e-008 4.36684289e-009 2.79600094e-008
      4.55239224e-008 5.49121459e-008 5.70232430e-008 5.92684835e-008
      5.42129079e-008 6.71077203e-008 6.33610782e-008 5.83662150e-008
      6.36937756e-008 5.97367702e-008 6.27632275e-008 5.51474031e-008
      5.14184535e-008 5.17914209e-008 5.42933236e-008 4.04151095e-008
      3.77645080e-008 3.24183347e-008 1.15590622e-008 3.20535354e-009
      -9.63503943e-009 -2.28342891e-008 -2.33172042e-008
      -3.11442676e-008 -2.46717153e-008 -2.10041904e-008
      -1.44487373e-008 -2.33004656e-008 -1.44579468e-008
      -1.95640766e-008 -2.19293188e-008 -1.52540789e-008
      -5.97965455e-009 -5.86159077e-009 -1.34057716e-008
      -1.68166121e-008 -3.55691263e-008 -3.23364517e-008
      -3.37850068e-008 -2.99644540e-008 -2.93789917e-008
      -3.39321602e-008 -4.33788188e-008 -4.56206877e-008
      -3.74226587e-008 -4.18501394e-008 -4.19222097e-008
      -3.91634778e-008 -3.52388057e-008 -1.77730826e-008
      -2.53634735e-009 2.12344222e-008 3.81132956e-008 4.97203985e-008
      3.45325404e-008 4.46059474e-008 6.57849455e-008 6.11892617e-008
      4.17252792e-008 1.88312512e-008 -1.00736814e-008 -4.25806022e-008
      -8.48462349e-008 -1.09868708e-007 -1.10106690e-007
      -1.21450356e-007 -1.45891278e-007 -1.60148943e-007
      -1.52776593e-007 -1.53162006e-007 -1.32292527e-007
      -1.05721156e-007 -6.49633947e-008 -5.12750553e-008
      -4.74691326e-008 -2.84865269e-008 -3.29803895e-009 1.26682904e-008
      7.46078577e-009 8.90927776e-009 1.01631317e-008 6.76096157e-009
      -3.20681726e-009 -1.15239285e-009 2.94964608e-009 -1.21998065e-008
      -2.04239132e-008 -3.32504975e-008 -2.90898345e-008
      -3.59853018e-008 -3.18423936e-008 -3.14488737e-008
      -3.98962570e-008 -4.23608775e-008 -4.93419741e-008
      -3.31078880e-008 -3.08021377e-008 -2.21364544e-008
      -2.18131611e-008 -1.90785148e-008 -2.63081663e-008
      -3.99214315e-008 -4.74448782e-008 -4.35821974e-008
      -5.07999083e-008 -6.66678801e-008 -9.11609561e-008
      -1.10869827e-007 -1.20669583e-007 -1.24563826e-007
      -1.34428404e-007 -1.44332233e-007 -1.49206556e-007
      -1.73927546e-007 -1.75204804e-007 -1.81829392e-007
      -1.82662021e-007 -1.93791280e-007 -2.10451901e-007
      -2.23530961e-007 -2.18844207e-007 -2.24284463e-007
      -2.28063215e-007 -2.23072234e-007 -2.18339252e-007
      -2.12908944e-007 -2.09104272e-007 -1.89818977e-007
      -1.60108485e-007 -1.34262578e-007 -1.28527915e-007
      -1.24459518e-007 -1.13098501e-007 -1.09489719e-007
      -1.07023915e-007 -1.01185876e-007 -9.09890758e-008
      -8.42556744e-008 -9.14882250e-008 -9.93142990e-008
      -9.63207540e-008 -9.52905879e-008 -8.88857414e-008
      -7.29940126e-008 -6.17341627e-008 -5.59383970e-008
      -5.33215001e-008 -5.62553844e-008 -5.26449995e-008
      -4.91521597e-008 -5.09325133e-008 -4.26402238e-008
      -4.34682086e-008 -6.26249346e-008 -7.22288505e-008
      -7.75567983e-008 -8.06287019e-008 -8.02124447e-008
      -8.57058211e-008 -9.76172529e-008 -1.11977002e-007
      -1.22735443e-007 -1.37126577e-007 -1.35161699e-007
      -1.27367485e-007 -1.17404184e-007 -1.07007281e-007
      -8.92812366e-008 -5.52721247e-008 -2.18217799e-008 1.60795981e-008
      5.68008929e-008 9.66339471e-008 1.47855403e-007 1.78855160e-007
      2.15899945e-007 2.57679773e-007 3.00981412e-007 3.43285251e-007
      3.97881934e-007 4.46488116e-007 4.89015179e-007 5.24269922e-007
      5.47190041e-007 5.63287131e-007 5.52444362e-007 5.36973175e-007
      5.02265266e-007 4.41125877e-007 3.62177872e-007 2.88673817e-007
      2.13457355e-007 1.56100754e-007 1.01218362e-007 6.23752925e-008
      5.43725278e-008 5.18204715e-008 5.63250850e-008 6.56406556e-008
      8.42779571e-008 9.61181712e-008 1.14400521e-007 1.20737113e-007
      1.25544204e-007 1.23724234e-007 9.62728777e-008 6.03432753e-008
      2.01304804e-008 -1.55746047e-008 -4.41803074e-008 -6.31148325e-008
      -8.31329388e-008 -7.95217119e-008 -7.20230489e-008
      -4.93553785e-008 -1.57843534e-008 3.82410654e-008 9.13692730e-008
      1.22280923e-007 1.23471310e-007 1.15515711e-007 9.90039624e-008
      7.38815515e-008 4.26338289e-008 7.70400987e-009 -3.73032734e-008
      -9.42133056e-008 -1.37943729e-007 -1.67993292e-007
      -1.76100826e-007 -1.76525404e-007 -1.64946869e-007
      -1.50834481e-007 -1.45783147e-007 -1.55478190e-007
      -1.59783951e-007 -1.64744051e-007 -1.81159308e-007
      -1.96117057e-007 -2.19813089e-007 -2.56160348e-007
      -2.84500402e-007 -3.16977690e-007 -3.40181657e-007
      -3.60789045e-007 -3.75353380e-007 -3.78073025e-007
      -3.72887996e-007 -3.64394339e-007 -3.45594884e-007
      -3.12474839e-007 -2.91895077e-007 -2.69245703e-007
      -2.43844340e-007 -2.28262678e-007 -2.21433652e-007
      -2.16464514e-007 -2.17347193e-007 -2.16126082e-007
      -2.24734990e-007 -2.37922734e-007 -2.51362309e-007
      -2.66445852e-007 -2.83309731e-007 -2.99167482e-007
      -3.13484520e-007 -3.39077786e-007 -3.48148774e-007
      -3.54598996e-007 -3.57408197e-007 -3.56289917e-007
      -3.37292448e-007 -3.12244197e-007 -2.76999089e-007
      -2.34504640e-007 -1.73797247e-007 -1.10019386e-007
      -5.09169666e-008 1.20256329e-008 7.36978620e-008 1.20002383e-007
      1.51927338e-007 1.87783954e-007 2.15890324e-007 2.31825680e-007
      2.41895123e-007 2.51320358e-007 2.45867597e-007 2.41114151e-007
      2.36069980e-007 2.28934610e-007 2.30182721e-007 2.22513293e-007
      2.12764860e-007 2.14989299e-007 2.11461838e-007 2.14383192e-007
      2.18493923e-007 2.15778485e-007 2.33610720e-007 2.54248647e-007
      2.79364087e-007 2.98412317e-007 3.22492298e-007 3.34773517e-007
      3.50171860e-007 3.58987421e-007 3.60901623e-007 3.53952629e-007
      3.42131841e-007 3.29613272e-007 3.00088061e-007 2.81107617e-007
      2.75071557e-007 2.61684136e-007 2.57802469e-007 2.58200146e-007
      2.63509946e-007 2.79892021e-007 2.91664833e-007 3.08653057e-007
      3.38020811e-007 3.52826959e-007 3.59238015e-007 3.65770632e-007
      3.75388026e-007 3.74046721e-007 3.67297844e-007 3.63624196e-007
      3.58160207e-007 3.61858042e-007 3.63160439e-007 3.58383687e-007
      3.61920911e-007 3.57759546e-007 3.37096395e-007 3.21947965e-007
      3.00052051e-007 2.94070475e-007 2.86926252e-007 2.62185438e-007
      2.31346519e-007 1.98454970e-007 1.73258883e-007 1.59546460e-007
      1.47949223e-007 1.42202538e-007 1.54315956e-007 1.50409974e-007
      1.50441281e-007 1.51076108e-007 1.59411471e-007 1.70952845e-007
      1.83736702e-007 1.75815600e-007 1.74835449e-007 1.71294531e-007
      1.63586222e-007 1.46415019e-007 1.09958876e-007 5.02499269e-008
      -2.55017998e-008 -9.87726665e-008 -1.79219512e-007
      -2.31806453e-007 -2.74843643e-007 -3.14052841e-007
      -3.48293526e-007 -3.70154680e-007 -3.63088361e-007
      -3.27715810e-007 -2.58731319e-007 -1.99451961e-007
      -1.33331625e-007 -6.48753868e-008 -2.64553224e-009 4.32799752e-008
      8.87779663e-008 1.25425601e-007 1.52987695e-007 1.75594323e-007
      1.91414571e-007 2.14229985e-007 2.29775694e-007 2.31285782e-007
      2.36398407e-007 2.45891044e-007 2.70499356e-007 2.87340129e-007
      3.10443937e-007 3.28602198e-007 3.36350695e-007 3.41772619e-007
      3.51221729e-007 3.55596427e-007 3.61624672e-007 3.58125305e-007
      3.54406524e-007 3.47581874e-007 3.37232933e-007 3.23612824e-007
      3.07595855e-007 2.98282117e-007 2.79607463e-007 2.59371745e-007
      2.29916708e-007 2.14951129e-007 1.85339303e-007 1.49779112e-007
      1.17160546e-007 8.53586570e-008 6.76353125e-008 4.57215634e-008
      3.27016387e-008 2.36076225e-008 1.82325017e-008 -1.75989029e-010
      -1.69726349e-008 -7.92461385e-009 9.66410152e-009 1.68277055e-008
      2.11894537e-008 1.87854834e-008 8.10392997e-009 8.88120333e-009
      2.17880363e-008 4.27979820e-008 5.43025394e-008 5.16872767e-008
      5.39036868e-008 7.23907547e-008 9.02970569e-008 1.11978331e-007
      1.40263836e-007 1.67976765e-007 1.92237195e-007 2.15836749e-007
      2.49379980e-007 2.72872086e-007 2.89618669e-007 3.12128435e-007
      3.27482155e-007 3.30869966e-007 3.18649853e-007 2.99382236e-007
      2.80227084e-007 2.69007217e-007 2.65407436e-007 2.68048296e-007
      2.74181929e-007 2.58615643e-007 2.57784734e-007 2.68237756e-007
      2.73096646e-007 2.74867290e-007 2.71668398e-007 2.61371213e-007
      2.36388900e-007 2.19672671e-007 1.96624299e-007 1.78502049e-007
      1.57143347e-007 1.36330272e-007 1.21848217e-007 1.16357377e-007
      1.15255887e-007 1.23801797e-007 1.38160672e-007 1.48798861e-007
      1.60884724e-007 1.84691871e-007 1.98474410e-007 2.10878355e-007
      2.41604198e-007 2.72673276e-007 2.97175632e-007 3.25430108e-007
      3.33631988e-007 3.34949988e-007 3.33662598e-007 3.01719041e-007
      2.66997006e-007 2.36752811e-007 1.98855531e-007 1.55793728e-007
      1.23529958e-007 7.86573437e-008 4.31927276e-008 1.41830476e-008
      -1.70561822e-008 -3.46389903e-008 -4.64962966e-008
      -4.66538204e-008 -6.64557191e-008 -9.66402780e-008
      -1.22855866e-007 -1.30175238e-007 -1.25968612e-007
      -1.20292000e-007 -1.14751444e-007 -1.11405392e-007
      -1.21166323e-007 -1.24931191e-007 -1.17759193e-007
      -1.02376482e-007 -9.44400327e-008 -9.67046176e-008
      -9.86270052e-008 -1.02059332e-007 -9.16785581e-008
      -7.45023314e-008 -6.50062191e-008 -7.84103307e-008
      -8.34803657e-008 -8.52294733e-008 -1.04208084e-007
      -1.26753889e-007 -1.57425191e-007 -1.91168454e-007
      -2.34790093e-007 -2.81136948e-007 -3.14728453e-007
      -3.39394063e-007 -3.54769981e-007 -3.74846110e-007
      -3.89264471e-007 -3.91899192e-007 -3.88418272e-007
      -3.65410159e-007 -3.39990066e-007 -3.03615934e-007
      -2.56793015e-007 -2.21739811e-007 -1.94401380e-007
      -1.88628874e-007 -1.70908180e-007 -1.63130494e-007
      -1.51209960e-007 -1.52922794e-007 -1.49556115e-007
      -1.58884447e-007 -1.66167652e-007 -1.74581757e-007
      -1.88002545e-007 -1.78427669e-007 -1.74968562e-007
      -1.80371046e-007 -1.83837059e-007 -1.82342944e-007
      -1.95593088e-007 -2.13882188e-007 -2.37834897e-007
      -2.70044154e-007 -2.96056413e-007 -3.30188215e-007
      -3.53953226e-007 -3.74612824e-007 -4.07481224e-007
      -4.37520868e-007 -4.47583233e-007 -4.64144676e-007
      -4.53298156e-007 -4.29468088e-007 -4.00311592e-007
      -3.67299947e-007 -3.32868581e-007 -2.96725858e-007
      -2.49788684e-007 -1.97472914e-007 -1.54430481e-007
      -9.65806066e-008 -5.92496470e-008 -1.25414301e-008 2.32892603e-008
      5.31524691e-008 9.02251784e-008 1.27424045e-007 1.57048504e-007
      1.72395787e-007 1.88160399e-007 1.83580795e-007 1.77528676e-007
      1.53661759e-007 1.19936928e-007 8.49651158e-008 4.41806272e-008
      -1.00279589e-008 -5.45710996e-008 -8.52284288e-008
      -1.03216117e-007 -1.11184534e-007 -1.25894829e-007
      -1.31933945e-007 -1.21919939e-007 -1.29338218e-007
      -1.33710486e-007 -1.28197740e-007 -1.18480237e-007
      -1.23066499e-007 -1.21232063e-007 -1.12612142e-007
      -1.01376315e-007 -8.86720244e-008 -7.93323309e-008
      -5.49841772e-008 -3.31621948e-008 -9.21381460e-009 2.14362839e-008
      4.85852105e-008 8.19011845e-008 1.14818121e-007 1.37786131e-007
      1.55488635e-007 1.66232283e-007 1.68973472e-007 1.71752163e-007
      1.73152969e-007 1.67701174e-007 1.55671003e-007 1.23964071e-007
      8.75172788e-008 5.67637315e-008 2.33980781e-008 -1.55156172e-008
      -5.07307618e-008 -8.23414865e-008 -1.21060268e-007
      -1.46737179e-007 -1.60500960e-007 -1.59826172e-007
      -1.46716758e-007 -1.47810567e-007 -1.31242402e-007
      -1.01413740e-007 -9.69055023e-008 -8.24695121e-008
      -6.42837890e-008 -5.26449391e-008 -4.07436183e-008
      -3.76695688e-008 -4.81858002e-008 -3.74162106e-008
      -4.44408315e-008 -5.54659927e-008 -5.70016745e-008
      -6.34897788e-008 -7.23068965e-008 -8.73763284e-008
      -9.79162067e-008 -1.14850963e-007 -1.26532399e-007
      -1.50204400e-007 -1.57064790e-007 -1.69992632e-007
      -1.65893326e-007 -1.63205087e-007 -1.65985881e-007
      -1.81190302e-007 -1.95078584e-007 -2.07309043e-007
      -2.36507816e-007 -2.77471543e-007 -3.21854856e-007
      -3.61381979e-007 -4.03896706e-007 -4.46904124e-007
      -4.99575776e-007 -5.29055342e-007 -5.65397613e-007
      -5.85785699e-007 -5.92920685e-007 -5.78260938e-007
      -5.61348315e-007 -5.34481501e-007 -4.98247971e-007
      -4.50925654e-007 -4.01102994e-007 -3.62016095e-007
      -3.10024774e-007 -2.67157361e-007 -2.33902568e-007
      -2.07358369e-007 -1.77743019e-007 -1.59720585e-007
      -1.38842637e-007 -1.26350898e-007 -1.04467645e-007
      -7.83174272e-008 -6.50240324e-008 -6.78482479e-008
      -6.61590320e-008 -7.65268240e-008 -9.86072664e-008
      -1.19211791e-007 -1.34704877e-007 -1.51696369e-007
      -1.48455200e-007 -1.47136092e-007 -1.19796894e-007
      -8.85586857e-008 -5.82665294e-008 -1.42786911e-008 3.47968765e-008
      9.77008909e-008 1.28365940e-007 1.63174519e-007 1.93532841e-007
      2.11028976e-007 1.94618636e-007 1.78765148e-007 1.69012935e-007
      1.53445001e-007 1.20995523e-007 8.35728713e-008 4.48862174e-008
      1.28759368e-008 -3.33005268e-008 -7.46366311e-008 -8.86851694e-008
      -9.58916502e-008 -1.10322070e-007 -1.12059979e-007
      -1.25623274e-007 -1.46760655e-007 -1.56768195e-007
      -1.83889512e-007 -2.09417905e-007 -2.41879235e-007
      -2.77862569e-007 -3.02266955e-007 -3.21333289e-007
      -3.38030361e-007 -3.39103735e-007 -3.30900065e-007
      -3.22640915e-007 -3.13740941e-007 -2.87617439e-007
      -2.47030215e-007 -2.07522234e-007 -1.72173372e-007
      -1.33910163e-007 -9.41342932e-008 -4.98669834e-008
      -2.34282300e-008 -1.28471969e-010 7.44642881e-009 -6.27117469e-009
      -4.24004263e-008 -8.69886350e-008 -1.43377875e-007
      -1.99136451e-007 -2.62669005e-007 -3.25311703e-007
      -3.73419027e-007 -4.15235377e-007 -4.35038231e-007
      -4.39763795e-007 -4.16582481e-007 -3.72445271e-007
      -3.13112082e-007 -2.46943159e-007 -1.70006203e-007
      -1.04264998e-007 -4.40484449e-008 9.43984091e-009 7.09166130e-008
      1.27918469e-007 1.66835235e-007 1.97882002e-007 2.25119280e-007
      2.43224434e-007 2.42471828e-007 2.45190591e-007 2.45681747e-007
      2.48098246e-007 2.33369477e-007 2.26915958e-007 2.20852243e-007
      2.12244700e-007 1.93791024e-007 1.83810968e-007 1.92334468e-007
      2.07124600e-007 2.25399589e-007 2.28557226e-007 2.40808760e-007
      2.49407350e-007 2.56390138e-007 2.62359805e-007 2.66477628e-007
      2.64215402e-007 2.56275314e-007 2.44477093e-007 2.35000599e-007
      2.29356345e-007 2.24235990e-007 2.19590234e-007 2.13616062e-007
      1.97863258e-007 1.75611191e-007 1.64192826e-007 1.54187987e-007
      1.29360686e-007 9.71808305e-008 8.56720064e-008 6.67364617e-008
      5.36835039e-008 3.89021508e-008 3.60856092e-008 3.39864989e-008
      2.21850716e-008 7.29467597e-009 1.99734842e-008 3.35364057e-008
      3.41092132e-008 4.13198258e-008 3.72651812e-008 3.67103752e-008
      3.54398075e-008 4.42661197e-008 5.97655614e-008 6.68092000e-008
      7.06236705e-008 7.46685842e-008 8.60207408e-008 1.13112399e-007
      1.51240428e-007 1.82188018e-007 2.04942495e-007 2.10561637e-007
      2.12719613e-007 2.18597350e-007 2.20590607e-007 2.21733416e-007
      2.12309857e-007 1.89608684e-007 1.70270624e-007 1.42383172e-007
      1.20641459e-007 9.62560804e-008 9.06313247e-008 8.55764242e-008
      8.36410976e-008 8.11658154e-008 7.18492643e-008 6.35418260e-008
      6.50432952e-008 7.12133712e-008 8.88867433e-008 1.13631017e-007
      1.22424524e-007 1.33361965e-007 1.55366578e-007 1.75263509e-007
      1.86320079e-007 1.83261108e-007 1.72837431e-007 1.58292309e-007
      1.33421267e-007 1.06497680e-007 8.14973617e-008 6.08302102e-008
      2.13874127e-008 -1.37554972e-008 -4.85687721e-008 -8.02558162e-008
      -9.86192248e-008 -1.13085925e-007 -1.29601958e-007
      -1.37074096e-007 -1.49509233e-007 -1.59817631e-007
      -1.60672812e-007 -1.48696671e-007 -1.31385590e-007
      -1.22719740e-007 -1.09696686e-007 -9.56534123e-008
      -8.48716013e-008 -7.50554250e-008 -6.69399185e-008
      -5.68570009e-008 -4.78818336e-008 -4.65262424e-008
      -4.66838550e-008 -5.17199013e-008 -6.75682230e-008
      -7.85032341e-008 -8.58612452e-008 -9.82642732e-008
      -1.10832808e-007 -1.13522546e-007 -1.14138359e-007
      -1.18708513e-007 -1.16342775e-007 -1.04809764e-007
      -9.03404569e-008 -7.40289678e-008 -6.34243591e-008
      -4.85880562e-008 -2.67408478e-008 -1.26009310e-008
      -1.93897720e-009 3.13265502e-009 1.59396265e-008 3.04476373e-008
      4.22883240e-008 5.22831272e-008 5.57424862e-008 6.20868619e-008
      6.04116011e-008 5.32260103e-008 4.35620535e-008 3.86519616e-008
      3.50328087e-008 2.78322982e-008 1.92251441e-008 2.42592471e-008
      3.75557399e-008 5.06564888e-008 7.09328276e-008 9.63922133e-008
      1.14176700e-007 1.29888790e-007 1.34355204e-007 1.38497725e-007
      1.56330145e-007 1.59241111e-007 1.41668835e-007 1.16221308e-007
      9.44603471e-008 5.86950826e-008 4.28269900e-008 1.94363334e-008
      4.51349513e-010 -1.98848014e-008 -4.80796487e-008 -7.65817134e-008
      -9.16475074e-008 -9.70987983e-008 -1.15033373e-007
      -1.29098780e-007 -1.58772679e-007 -1.65381053e-007
      -1.76454151e-007 -1.77850765e-007 -1.77249035e-007
      -1.70349324e-007 -1.69577646e-007 -1.66968761e-007
      -1.46346181e-007 -1.37262489e-007 -1.31444153e-007
      -1.45271926e-007 -1.49568265e-007 -1.74818837e-007
      -1.90531978e-007 -2.10208967e-007 -2.24922502e-007
      -2.39965772e-007 -2.54602185e-007 -2.71620536e-007
      -2.73696543e-007 -2.65105569e-007 -2.49820459e-007
      -2.25279706e-007 -2.08589910e-007 -1.94683579e-007
      -1.87269535e-007 -1.80165713e-007 -1.77826507e-007
      -1.65528689e-007 -1.50416270e-007 -1.43198818e-007
      -1.45971413e-007 -1.52128806e-007 -1.73078234e-007
      -1.74721194e-007 -1.80872817e-007 -1.80253991e-007
      -1.80373860e-007 -1.64112222e-007 -1.35238480e-007
      -9.79660939e-008 -6.53991137e-008 -2.90056885e-008 2.69852922e-008
      5.77957628e-008 9.83094282e-008 1.27573784e-007 1.45865499e-007
      1.38091949e-007 1.05501911e-007 7.72962707e-008 5.21243244e-008
      4.82569007e-008 3.47084068e-008 2.72039671e-008 2.17290061e-008
      2.36150637e-008 6.99247416e-009 -4.15439488e-010 2.12374718e-009
      1.04502307e-009 -2.64624989e-009 -6.45069287e-009 -1.13518457e-008
      -9.51402424e-009 -9.56418056e-009 -3.33116601e-009 6.13292395e-009
      7.82589726e-009 8.48718340e-009 1.96103027e-008 3.37355033e-008
      3.88681158e-008 4.69069938e-008 4.74990394e-008 5.17555563e-008
      5.78864849e-008 6.29850092e-008 6.31699066e-008 6.49764900e-008
      5.51563097e-008 3.79161591e-008 2.17222667e-008 -8.75206929e-009
      -3.27266676e-008 -4.69792099e-008 -8.17649521e-008
      -1.18371922e-007 -1.50379904e-007 -1.82975455e-007
      -2.04693691e-007 -2.14625047e-007 -2.04629600e-007
      -1.79372634e-007 -1.63134871e-007 -1.49198385e-007
      -1.34449138e-007 -1.21609901e-007 -1.04829248e-007
      -9.58410027e-008 -9.71451115e-008 -9.37387270e-008
      -9.52559489e-008 -1.16100495e-007 -1.09261379e-007
      -1.15623500e-007 -1.23526860e-007 -1.21935869e-007
      -1.12907223e-007 -1.04123707e-007 -8.81074982e-008
      -7.57001430e-008 -7.00776894e-008 -4.69424570e-008
      -3.81241954e-008 -3.89433765e-008 -3.46333593e-008
      -4.33242811e-008 -6.06477144e-008 -6.94281539e-008
      -7.76090232e-008 -1.02141847e-007 -1.32834444e-007
      -1.54961782e-007 -1.80326623e-007 -2.01133275e-007
      -2.13762760e-007 -2.14618439e-007 -2.05165378e-007
      -1.91732823e-007 -1.86809174e-007 -1.76090310e-007
      -1.53439856e-007 -1.38727671e-007 -1.37788788e-007
      -1.34239187e-007 -1.31240313e-007 -1.36819381e-007
      -1.43806602e-007 -1.55694138e-007 -1.65517889e-007
      -1.81893782e-007 -1.91683171e-007 -2.03185621e-007
      -2.10995196e-007 -2.05919520e-007 -2.04654469e-007
      -1.97229738e-007 -1.92193809e-007 -1.89188469e-007
      -1.87541389e-007 -1.75672923e-007 -1.68627821e-007
      -1.52093079e-007 -1.14742328e-007 -8.70259811e-008
      -5.64150469e-008 -2.17533849e-008 1.35744225e-008 5.68392267e-008
      9.27900103e-008 1.25382769e-007 1.61839907e-007 2.05537916e-007
      2.28330492e-007 2.47310055e-007 2.64284637e-007 2.88252153e-007
      3.14717113e-007 3.34879672e-007 3.64971498e-007 3.76678656e-007
      3.78235427e-007 3.64068768e-007 3.39934502e-007 3.13103044e-007
      2.80714715e-007 2.40086706e-007 1.92229834e-007 1.36281898e-007
      7.20140463e-008 1.97686969e-008 -2.21139089e-008 -6.19064338e-008
      -9.19317387e-008 -1.10509546e-007 -1.15947387e-007
      -1.18902641e-007 -1.27885798e-007 -1.30899579e-007
      -1.21838568e-007 -1.06168571e-007 -1.00471603e-007
      -1.00235184e-007 -1.14847836e-007 -1.35616204e-007
      -1.63262072e-007 -2.00079825e-007 -2.31442215e-007
      -2.60803063e-007 -2.93820733e-007 -3.38634010e-007
      -3.71360386e-007 -3.96843348e-007 -4.01507691e-007
      -3.98426096e-007 -3.88824930e-007 -3.66836446e-007
      -3.38963332e-007 -3.11912430e-007 -2.81362816e-007
      -2.50664357e-007 -2.28977711e-007 -2.14282309e-007
      -2.18394277e-007 -2.13270809e-007 -2.13531933e-007
      -2.15767216e-007 -2.21928431e-007 -2.40331218e-007
      -2.66374798e-007 -2.80072754e-007 -2.98267196e-007
      -3.08980532e-007 -3.06497100e-007 -2.96846594e-007
      -2.96128121e-007 -2.86126266e-007 -2.68606072e-007
      -2.53413447e-007 -2.18000309e-007 -1.85886051e-007
      -1.48316957e-007 -1.04341368e-007 -6.28218757e-008
      -3.04236778e-008 -1.67530601e-009 2.08350492e-008 4.23327080e-008
      6.29694270e-008 8.23378983e-008 9.90130715e-008 1.10072918e-007
      1.12746832e-007 1.09171502e-007 1.06510107e-007 1.11505010e-007
      1.13213559e-007 1.10143375e-007 9.73806209e-008 8.60743583e-008
      8.22166584e-008 8.07912102e-008 6.92303104e-008 6.16748608e-008
      6.05226660e-008 5.26139274e-008 4.09739975e-008 2.95487919e-008
      4.13499102e-008 4.14357402e-008 4.10721981e-008 4.70123709e-008
      4.97739556e-008 5.28153841e-008 6.14185183e-008 7.81326790e-008
      1.05475401e-007 1.25522462e-007 1.37178475e-007 1.50687029e-007
      1.67118529e-007 1.71478447e-007 1.72792937e-007 1.56764074e-007
      1.42107254e-007 1.24489333e-007 1.08415541e-007 9.14411089e-008
      7.35750234e-008 6.02547132e-008 4.10322052e-008 2.45460665e-008
      3.14770503e-008 5.32193916e-008 6.85784940e-008 8.96469459e-008
      1.03048102e-007 1.28884381e-007 1.60732284e-007 2.00088991e-007
      2.37513817e-007 2.77972617e-007 3.08289088e-007 3.29785024e-007
      3.46877016e-007 3.63890621e-007 3.88566377e-007 4.07607160e-007
      4.22546776e-007 4.30564000e-007 4.30477627e-007 4.23908375e-007
      4.11022341e-007 4.03757724e-007 3.89844104e-007 3.69998872e-007
      3.37975052e-007 3.03215359e-007 2.71367213e-007 2.52132651e-007
      2.26365302e-007 1.95294447e-007 1.62043008e-007 1.38606808e-007
      1.04789734e-007 7.58541532e-008 6.38957687e-008 5.97267942e-008
      5.44319683e-008 3.82216570e-008 2.38909976e-008 1.83290165e-008
      1.20126149e-008 6.00231642e-010 3.43767081e-009 9.65382352e-009
      7.23888949e-009 2.88629098e-009 3.60877106e-009 -4.30750546e-009
      -2.24561214e-009 -1.50811863e-009 -1.28526727e-008
      -1.79465811e-008 -1.64544183e-008 -3.36593189e-008
      -5.78492738e-008 -7.48794022e-008 -9.56570005e-008
      -1.15150847e-007 -1.28778822e-007 -1.64357317e-007
      -1.82799795e-007 -2.04316905e-007 -2.23007731e-007
      -2.25870224e-007 -2.17263462e-007 -2.04556031e-007
      -1.83996789e-007 -1.48730379e-007 -1.05985997e-007
      -4.47430786e-008 1.06616467e-008 6.25682901e-008 8.12021739e-008
      1.00117362e-007 1.09351895e-007 1.00840701e-007 7.67509434e-008
      4.68060044e-008 8.64666827e-009 -4.20363797e-008 -9.98079557e-008
      -1.37014254e-007 -1.46819872e-007 -1.60936878e-007
      -1.65972963e-007 -1.65665867e-007 -1.55653126e-007
      -1.55330497e-007 -1.47277177e-007 -1.33443777e-007
      -1.00762584e-007 -9.45581249e-008 -1.01367732e-007
      -1.05087395e-007 -1.12010255e-007 -1.13079345e-007
      -1.09050099e-007 -1.12226957e-007 -1.19513444e-007
      -1.27982133e-007 -1.36795151e-007 -1.34343551e-007
      -1.23360707e-007 -1.17227103e-007 -1.12718148e-007
      -9.80615980e-008 -9.33606898e-008 -7.90311532e-008
      -6.71923104e-008 -6.22401259e-008 -5.17893248e-008
      -4.24866649e-008 -3.68412927e-008 -2.43597551e-008
      -2.13974403e-008 -2.21927152e-008 -1.45635743e-008
      -8.51978843e-009 -4.20438662e-009 7.82489096e-009 9.57638413e-009
      1.01351993e-008 1.67846927e-008 1.24368071e-008 2.52194212e-008
      2.87469000e-008 2.85526678e-008 2.79655001e-008 3.14953681e-008
      1.28015580e-008 -1.40621816e-008 -4.10866683e-008 -6.53625136e-008
      -8.47822292e-008 -1.05695037e-007 -1.14268339e-007
      -1.24846920e-007 -1.34485944e-007 -1.38148522e-007
      -1.34308252e-007 -1.22895358e-007 -1.03630818e-007
      -7.72837012e-008 -5.02356237e-008 -3.46845610e-008
      -1.54082027e-008 -6.42177067e-009 3.63815400e-009 1.33263676e-008
      3.08528847e-008 4.81107989e-008 5.23148493e-008 3.73934057e-008
      3.41958213e-008 4.51652404e-008 5.37650280e-008 5.20879624e-008
      4.86439404e-008 3.61802073e-008 1.50830175e-008 -4.90493823e-009
      -1.64991860e-008 -2.29367068e-008 -3.45488793e-008
      -4.35938432e-008 -3.70102846e-008 -3.23918421e-008
      -3.08044079e-008 -3.94485724e-008 -4.38705605e-008
      -3.13873691e-008 -2.66600573e-008 -1.28402400e-008 4.43886083e-009
      2.01558468e-008 9.61731850e-009 -1.18862298e-009 -1.02602211e-008
      -6.95792446e-009 -1.27156090e-008 -2.47556908e-008
      -2.93051876e-008 -3.36724888e-008 -3.88249823e-008
      -5.27104014e-008 -6.43732889e-008 -5.77751855e-008
      -5.99043162e-008 -6.28528767e-008 -6.51700134e-008
      -5.24682342e-008 -3.89957258e-008 -2.36354136e-008
      -1.05753530e-008 6.53974874e-009 2.20259206e-008 2.29275852e-008
      8.75959660e-009 7.01011871e-009 -6.65604682e-009 -3.98591631e-008
      -7.74745388e-008 -1.01205295e-007 -1.37577544e-007
      -1.80628888e-007 -1.96952342e-007 -2.07458086e-007
      -2.07403858e-007 -2.05481186e-007 -1.99306868e-007
      -1.85059136e-007 -1.65981319e-007 -1.63324231e-007
      -1.52990324e-007 -1.39250602e-007 -1.42793070e-007
      -1.43914534e-007 -1.44506572e-007 -1.52814621e-007
      -1.71109505e-007 -1.85647323e-007 -1.84602456e-007
      -1.96069863e-007 -1.98795178e-007 -1.92240861e-007
      -1.81540273e-007 -1.72494012e-007 -1.65932761e-007
      -1.58272812e-007 -1.36105569e-007 -1.22389110e-007
      -1.26568935e-007 -1.26061892e-007 -1.27292523e-007
      -1.30294794e-007 -1.34077013e-007 -1.29368019e-007
      -1.44525728e-007 -1.55390609e-007 -1.67016665e-007
      -1.76040004e-007 -1.70343242e-007 -1.68822993e-007
      -1.73418471e-007 -1.91607185e-007 -2.13984123e-007
      -2.31290542e-007 -2.45258690e-007 -2.51891578e-007
      -2.63823068e-007 -2.71765032e-007 -2.82039480e-007
      -2.77584519e-007 -2.83155174e-007 -2.82959491e-007
      -2.83342246e-007 -2.91701554e-007 -2.80914151e-007
      -2.80890873e-007 -2.83782953e-007 -2.78185553e-007
      -2.80232200e-007 -2.83060558e-007 -2.58682803e-007
      -2.57166931e-007 -2.62051628e-007 -2.59546709e-007
      -2.64810893e-007 -2.55218254e-007 -2.29425837e-007
      -2.06947675e-007 -1.71759837e-007 -1.43968364e-007
      -1.30562782e-007 -9.27142807e-008 -4.66236294e-008
      -9.27137833e-009 3.34617241e-008 6.34371915e-008 8.79276385e-008
      1.09721888e-007 1.16454927e-007 1.15610234e-007 1.33635695e-007
      1.49787326e-007 1.73726235e-007 1.96094518e-007 2.09608629e-007
      2.13924949e-007 2.11540709e-007 2.02876066e-007 1.92495719e-007
      1.86133718e-007 1.58884589e-007 1.35630088e-007 9.95486786e-008
      7.14573716e-008 6.06837887e-008 6.20510292e-008 5.02375563e-008
      3.50454101e-008 2.51077115e-008 2.55750550e-008 3.49336169e-008
      3.82942069e-008 3.99689775e-008 4.37869012e-008 3.91777419e-008
      2.81624590e-008 3.58168499e-008 4.19811137e-008 3.92455348e-008
      4.61935343e-008 5.01208461e-008 5.30317052e-008 7.07617644e-008
      7.25228517e-008 6.25071266e-008 5.89670783e-008 5.18454684e-008
      5.08944211e-008 4.63518433e-008 2.71494649e-008 -5.24068478e-009
      -3.82419998e-008 -8.53890967e-008 -1.23948013e-007
      -1.58447051e-007 -1.94365981e-007 -2.31092926e-007
      -2.53220463e-007 -2.69884566e-007 -2.73422131e-007
      -2.62209255e-007 -2.39935702e-007 -2.07362859e-007
      -1.66371180e-007 -1.23389242e-007 -7.82327305e-008
      -2.28982007e-008 6.29215702e-009 3.67479132e-008 4.11367793e-008
      4.70417518e-008 3.98538411e-008 2.54854768e-008 1.24057964e-008
      -6.82264956e-009 -2.49782026e-008 -4.52603572e-008
      -4.32837375e-008 -3.97973459e-008 -3.09013295e-008
      -1.68247745e-008 -5.37579314e-009 7.29098026e-009 2.11769020e-008
      3.99156441e-008 5.24092130e-008 6.17594509e-008 6.23137950e-008
      5.28274917e-008 3.54628007e-008 1.08160041e-008 -1.12134080e-008
      -5.66610261e-008 -1.14283658e-007 -1.69988553e-007
      -2.04047183e-007 -2.30215178e-007 -2.67980369e-007
      -2.85383777e-007 -2.82065486e-007 -2.80927082e-007
      -2.81581265e-007 -2.57364348e-007 -2.33743563e-007
      -2.13773248e-007 -1.99536473e-007 -1.95579190e-007
      -1.78865037e-007 -1.65501746e-007 -1.53771964e-007
      -1.56443448e-007 -1.55108239e-007 -1.55100224e-007
      -1.43947048e-007 -1.29193069e-007 -1.29188280e-007
      -1.21318095e-007 -1.12326433e-007 -1.00118150e-007
      -9.71552439e-008 -8.54964952e-008 -7.98861919e-008
      -7.11502750e-008 -6.35607691e-008 -5.56173809e-008
      -5.11620399e-008 -5.17313623e-008 -4.41604655e-008
      -4.51358311e-008 -3.45351268e-008 -3.29851453e-008
      -3.72974469e-008 -4.62684788e-008 -6.69955966e-008
      -8.63929088e-008 -8.86474325e-008 -8.80944171e-008
      -1.00464717e-007 -1.07281117e-007 -1.23261998e-007
      -1.41547815e-007 -1.56815318e-007 -1.70405912e-007
      -1.78345687e-007 -1.95174096e-007 -2.18736673e-007
      -2.47849044e-007 -2.70291423e-007 -2.92413034e-007
      -3.18409718e-007 -3.43645752e-007 -3.63402734e-007
      -3.83910447e-007 -4.14149923e-007 -4.31252118e-007
      -4.28532729e-007 -4.34325131e-007 -4.38751897e-007
      -4.42434157e-007 -4.41269208e-007 -4.38727028e-007
      -4.35288030e-007 -4.27429825e-007 -4.23212299e-007
      -4.11560308e-007 -4.11153394e-007 -3.96944955e-007
      -3.75473974e-007 -3.51697082e-007 -3.06268817e-007
      -2.59623221e-007 -2.12019103e-007 -1.67481389e-007
      -1.17250238e-007 -7.25518703e-008 -3.18377396e-008
      -5.88024351e-010 2.27711254e-008 4.02468103e-008 4.06818046e-008
      4.29791100e-008 2.85133588e-008 1.77446893e-008 6.00411765e-009
      -1.38097516e-008 -3.41142226e-008 -5.63905083e-008
      -7.91364059e-008 -1.07364265e-007 -1.34347260e-007
      -1.38875549e-007 -1.39312831e-007 -1.31061597e-007
      -1.28656964e-007 -1.18035594e-007 -1.08126955e-007
      -8.79488908e-008 -5.66517713e-008 -2.02538288e-008 1.07808962e-008
      3.76796159e-008 6.10665367e-008 7.71332722e-008 1.07102167e-007
      1.33698521e-007 1.51049591e-007 1.65693621e-007 1.68983135e-007
      1.73068528e-007 1.74533056e-007 1.67235484e-007 1.51215104e-007
      1.34629033e-007 1.18329780e-007 9.76917320e-008 8.03179958e-008
      6.97348597e-008 6.16703772e-008 5.13346343e-008 4.07904821e-008
      3.91518249e-008 5.81250994e-008 7.86934820e-008 9.53297530e-008
      1.19131023e-007 1.44250549e-007 1.61602415e-007 1.76718629e-007
      1.83999290e-007 1.97523619e-007 2.00367822e-007 2.02481843e-007
      2.03160639e-007 2.01305639e-007 1.86841589e-007 1.72761645e-007
      1.48222938e-007 1.20104914e-007 8.91642813e-008 5.94146918e-008
      2.42364600e-008 -1.22769661e-008 -4.48959518e-008 -8.19173493e-008
      -1.10124972e-007 -1.35402033e-007 -1.64720745e-007
      -1.70526633e-007 -1.77133927e-007 -1.74036728e-007
      -1.70298492e-007 -1.49830441e-007 -1.29776637e-007
      -9.53282395e-008 -5.46207275e-008 -1.60581717e-008 2.09346194e-008
      3.27042535e-008 4.94194872e-008 7.00521667e-008 7.87027616e-008
      7.17212174e-008 6.89651856e-008 6.63492088e-008 5.92086131e-008
      4.82673279e-008 4.27211795e-008 4.70383235e-008 5.09602174e-008
      5.02970359e-008 6.25920364e-008 6.18294820e-008 6.78115342e-008
      5.36307070e-008 4.80390305e-008 5.03052000e-008 5.72617225e-008
      5.92513842e-008 6.75902214e-008 8.34835419e-008 9.56659036e-008
      1.19059045e-007 1.29819711e-007 1.46782881e-007 1.57452163e-007
      1.84833638e-007 1.88172365e-007 1.95150434e-007 1.89089917e-007
      1.80339626e-007 1.70387182e-007 1.69297110e-007 1.76227147e-007
      1.78956910e-007 1.76282157e-007 1.51952833e-007 1.24306140e-007
      9.18011054e-008 5.39507852e-008 2.42023095e-008 -3.65020592e-009
      -1.79170474e-008 -3.94304251e-008 -5.64256837e-008
      -7.01802279e-008 -8.52926334e-008 -9.59092148e-008
      -1.00164065e-007 -9.27464896e-008 -9.44601624e-008
      -9.72715810e-008 -1.14393302e-007 -1.19116550e-007
      -1.28231804e-007 -1.32860762e-007 -1.30421114e-007
      -1.21106993e-007 -1.24042600e-007 -1.31436138e-007
      -1.30125741e-007 -1.17532018e-007 -1.00600666e-007
      -8.33626430e-008 -7.73052591e-008 -6.96624625e-008
      -5.48407577e-008 -4.81608033e-008 -4.02748910e-008
      -4.09503969e-008 -4.28961862e-008 -5.57702293e-008
      -8.31456290e-008 -1.13012419e-007 -1.27419341e-007
      -1.44610667e-007 -1.74307047e-007 -1.99044990e-007
      -2.15273175e-007 -2.24317205e-007 -2.29567291e-007
      -2.20494343e-007 -2.00853947e-007 -1.93197039e-007
      -1.73828155e-007 -1.66488661e-007 -1.52126802e-007
      -1.36885063e-007 -1.10894511e-007 -9.14531384e-008
      -8.30301801e-008 -6.99381246e-008 -5.33501314e-008
      -3.56457974e-008 -2.31641142e-008 -2.24242136e-008
      -1.01091686e-008 -1.91313521e-009 -1.08229052e-008
      -2.74760090e-008 -3.36970878e-008 -4.55277558e-008
      -8.29891320e-008 -1.08993781e-007 -1.44176738e-007
      -1.67001645e-007 -1.99065127e-007 -2.33144931e-007
      -2.62355400e-007 -2.75674722e-007 -2.94729034e-007
      -3.03897878e-007 -2.93221603e-007 -2.72579967e-007
      -2.45025262e-007 -2.11013401e-007 -1.85186252e-007
      -1.63315917e-007 -1.20772782e-007 -8.53805275e-008
      -5.14521261e-008 -1.83159674e-008 9.40082945e-009 2.96746734e-008
      4.38051870e-008 4.94411481e-008 4.98964461e-008 5.67715439e-008
      5.47529559e-008 3.98242612e-008 2.28450574e-008 -1.05934763e-008
      -4.00432114e-008 -8.41977723e-008 -1.27065121e-007
      -1.59751139e-007 -1.77008857e-007 -2.05625042e-007
      -2.31433859e-007 -2.53960565e-007 -2.64280516e-007
      -2.46431597e-007 -2.23153421e-007 -2.02726568e-007
      -1.66802579e-007 -1.38858582e-007 -1.15030353e-007
      -8.61368576e-008 -4.63527705e-008 2.12394831e-008 8.44371897e-008
      1.37275890e-007 1.86573359e-007 2.47502413e-007 2.96020914e-007
      3.46641286e-007 3.95748827e-007 4.46235845e-007 4.71754589e-007
      4.67198532e-007 4.48650042e-007 4.17788101e-007 3.73550762e-007
      3.04534865e-007 2.44734935e-007 1.81668540e-007 1.22264510e-007
      6.40177973e-008 1.14915606e-008 -2.99943963e-008 -4.70853365e-008
      -6.00708674e-008 -5.22390842e-008 -2.51905234e-008 3.40137873e-009
      2.53885730e-008 3.42609994e-008 5.41297815e-008 7.05346608e-008
      8.96789984e-008 1.04467702e-007 1.18246625e-007 1.21747732e-007
      1.23281424e-007 1.14442258e-007 1.16794943e-007 1.23767904e-007
      1.17694867e-007 1.09513742e-007 9.86645645e-008 8.70951737e-008
      7.12599686e-008 5.81955035e-008 4.42709123e-008 4.57751561e-008
      3.80461032e-008 3.47718441e-008 3.88092189e-008 4.78094115e-008
      4.27480025e-008 4.81696816e-008 5.73383794e-008 6.48986074e-008
      6.53908074e-008 5.39163132e-008 4.74627413e-008 2.97572154e-008
      1.56595537e-008 -3.52138563e-009 -1.19318528e-008 -3.45946773e-008
      -5.50403598e-008 -8.64401315e-008 -1.09109628e-007
      -1.27730658e-007 -1.50076019e-007 -1.68323751e-007
      -1.80955254e-007 -2.12222503e-007 -2.42104704e-007
      -2.57132967e-007 -2.68144760e-007 -2.67301374e-007
      -2.62369383e-007 -2.63251820e-007 -2.51401389e-007
      -2.34762553e-007 -2.06717402e-007 -1.51935112e-007
      -1.05959153e-007 -7.20473565e-008 -3.65415005e-008
      -1.21806627e-008 8.27852009e-009 3.40134534e-008 4.81769327e-008
      6.03545871e-008 6.85510670e-008 6.37720206e-008 6.17861602e-008
      6.08201063e-008 5.50331833e-008 4.20030446e-008 4.03592324e-008
      3.53944927e-008 1.89230072e-008 1.67862755e-008 1.57126434e-009
      -8.38619751e-009 -2.35418280e-008 -3.85752159e-008
      -5.33774482e-008 -5.15485752e-008 -5.31672697e-008
      -4.91812493e-008 -4.72991353e-008 -4.53632225e-008
      -3.85515371e-008 -4.30769056e-008 -4.29636380e-008
      -3.65155621e-008 -2.39911682e-008 -2.27535253e-008
      -3.15739577e-008 -3.39017028e-008 -1.18730856e-008
      -2.67889794e-010 -4.42814674e-009 8.09451528e-009 1.96399892e-008
      4.12618348e-008 6.62654358e-008 9.95237528e-008 1.33313222e-007
      1.65509306e-007 1.84782579e-007 2.10112873e-007 2.47559086e-007
      2.73351333e-007 2.90669703e-007 2.99065164e-007 2.84183869e-007
      2.63764548e-007 2.46821969e-007 2.16754771e-007 1.83743694e-007
      1.48399721e-007 1.16774835e-007 7.58661898e-008 4.32823661e-008
      1.21695267e-008 -6.12864337e-009 -2.35413626e-008 -3.80689116e-008
      -4.98026402e-008 -6.16450464e-008 -6.01911196e-008
      -6.10132957e-008 -6.18361611e-008 -6.96953322e-008
      -8.06749796e-008 -1.00834633e-007 -1.12826704e-007
      -1.17243879e-007 -1.24336452e-007 -1.24514216e-007
      -1.29086999e-007 -1.41697925e-007 -1.44088077e-007
      -1.47374166e-007 -1.33052609e-007 -1.14476400e-007
      -1.00119735e-007 -7.53626210e-008 -6.39807709e-008
      -4.98807076e-008 -3.42123840e-008 -2.15511999e-008
      -1.79049253e-009 1.23207560e-008 7.72614861e-009 9.13631393e-010
      -1.13452909e-008 -4.33669953e-008 -7.74676252e-008
      -1.07083359e-007 -1.40291604e-007 -1.54635160e-007
      -1.75952039e-007 -1.81651288e-007 -1.78568541e-007
      -1.76073016e-007 -1.51576899e-007 -1.08259208e-007
      -5.18430028e-008 -1.49754360e-008 1.70314163e-008 2.63829971e-008
      2.76360819e-008 1.45532235e-008 -1.24704860e-008 -3.67949795e-008
      -7.19563573e-008 -1.12184942e-007 -1.49973218e-007
      -1.88943616e-007 -2.12030159e-007 -2.23337310e-007
      -2.17013664e-007 -2.01971147e-007 -1.84371387e-007
      -1.71817376e-007 -1.54859791e-007 -1.41060937e-007
      -1.25852125e-007 -1.06217762e-007 -9.85934818e-008
      -8.76960868e-008 -9.35261326e-008 -9.89507782e-008
      -9.27682180e-008 -9.32509820e-008 -8.82181368e-008
      -8.68625705e-008 -8.47880415e-008 -9.00384265e-008
      -9.17299090e-008 -9.68475860e-008 -9.89630848e-008
      -8.78751507e-008 -7.47870388e-008 -6.77126835e-008
      -8.17187740e-008 -8.70348273e-008 -8.97518078e-008
      -7.88555496e-008 -7.60572547e-008 -7.27626102e-008
      -6.44962554e-008 -6.42277058e-008 -6.90350817e-008
      -6.24443430e-008 -4.53918396e-008 -3.35365584e-008
      -2.35239064e-008 -2.73206524e-008 -1.58106861e-008
      -9.50878576e-009 -4.55641302e-009 3.29509420e-010 2.71091816e-009
      8.80479648e-011 -6.99989222e-009 -1.25237998e-008 -1.75096311e-008
      -2.54035797e-008 -4.81831428e-008 -7.10087065e-008
      -9.72912062e-008 -1.13558343e-007 -1.29237534e-007
      -1.27363649e-007 -1.33604132e-007 -1.27413315e-007
      -1.22025114e-007 -1.25065256e-007 -1.22207865e-007
      -1.07320183e-007 -9.10658002e-008 -8.00269859e-008
      -6.62224835e-008 -6.06696204e-008 -4.16766071e-008
      -3.66521142e-008 -3.59139918e-008 -2.84830790e-008
      -2.12942854e-008 -1.30329356e-008 1.31930094e-008 3.01554763e-008
      3.76620299e-008 3.81655774e-008 4.51463080e-008 4.88767640e-008
      4.27048654e-008 4.35024496e-008 4.62930210e-008 3.38275647e-008
      4.67702099e-009 -2.48910261e-008 -4.01853235e-008 -5.88125637e-008
      -7.89906736e-008 -1.01252787e-007 -1.19237086e-007
      -1.28073523e-007 -1.31101785e-007 -1.10440538e-007
      -6.72594496e-008 -2.40036808e-008 1.51822519e-008 7.32932719e-008
      1.23107569e-007 1.76687067e-007 2.38804546e-007 2.84803548e-007
      3.09685902e-007 3.10244275e-007 2.97452971e-007 2.73425428e-007
      2.54296594e-007 2.19087525e-007 1.70210427e-007 1.18229913e-007
      6.74993430e-008 2.11274553e-008 -2.25559624e-008 -4.35358238e-008
      -5.97041137e-008 -5.89844191e-008 -5.48172636e-008
      -4.41991155e-008 -3.03313286e-008 -1.35387319e-008
      -1.68844085e-008 -2.12579039e-008 -2.17888800e-008
      -2.02257180e-008 -2.95900229e-008 -3.77475935e-008
      -4.13840802e-008 -4.94118026e-008 -5.48832944e-008
      -5.18664116e-008 -4.25129230e-008 -2.97084259e-008
      -3.15552242e-008 -3.27311831e-008 -1.91251424e-008 1.36564338e-009
      2.53133536e-009 1.84880129e-008 2.62308895e-008 3.04831680e-008
      1.99119086e-008 1.18002639e-008 1.97296259e-008 2.37049456e-008
      2.33278747e-008 3.01414005e-008 3.47983260e-008 3.26062626e-008
      1.81194473e-008 9.30508115e-009 3.89811117e-009 -1.16043958e-012
      -6.02589445e-009 -1.01951390e-008 -1.05955777e-008
      -1.89704448e-008 -2.59947424e-008 -3.93979711e-008
      -3.75864850e-008 -3.39629302e-008 -2.07897006e-008
      -3.00167393e-008 -4.27624194e-008 -5.76044954e-008
      -6.18787368e-008 -5.88527449e-008 -5.02169222e-008
      -4.15022221e-008 -4.65450825e-008 -5.82638719e-008
      -8.06222928e-008 -7.34352952e-008 -6.63229827e-008
      -6.28677412e-008 -6.70250699e-008 -7.31187129e-008
      -8.22297181e-008 -7.93268811e-008 -6.74587923e-008
      -6.53790124e-008 -6.13312352e-008 -7.48513500e-008
      -8.09030212e-008 -8.59838849e-008 -9.18721241e-008
      -1.02830690e-007 -1.13816739e-007 -1.29330843e-007
      -1.46964084e-007 -1.51662263e-007 -1.36587985e-007
      -1.20625558e-007 -1.13327403e-007 -1.11795529e-007
      -1.04583350e-007 -9.45682359e-008 -7.58282184e-008
      -4.38224710e-008 -1.23838664e-008 6.63399025e-009 8.91151064e-009
      4.16329771e-009 1.52767718e-008 3.24801128e-008 3.35646320e-008
      3.47386404e-008 3.11662554e-008 1.76600885e-008 5.58668178e-009
      -1.33118885e-008 -1.68040213e-008 -1.73913985e-008
      -4.95301471e-008 -8.39093985e-008 -1.13564994e-007
      -1.48127498e-007 -1.93003288e-007 -2.35161281e-007
      -2.76215047e-007 -3.10853579e-007 -3.52188067e-007
      -3.91179924e-007 -4.06672228e-007 -4.07210052e-007
      -3.99213775e-007 -3.85822261e-007 -3.47423480e-007
      -3.03344592e-007 -2.66570282e-007 -2.21403980e-007
      -1.72508720e-007 -1.28920988e-007 -7.82780347e-008
      -4.32507328e-008 -2.89372881e-008 -3.06940322e-008
      -5.01257418e-008 -7.87002321e-008 -9.86588091e-008
      -1.20261674e-007 -1.38541793e-007 -1.42528293e-007
      -1.62816562e-007 -1.75009433e-007 -1.44172205e-007
      -1.07924407e-007 -6.10291764e-008 -2.84833437e-008 4.78796669e-010
      4.45845529e-008 7.89478278e-008 1.10511650e-007 1.40579417e-007
      1.71979053e-007 1.62764522e-007 1.60732498e-007 1.49407896e-007
      1.41696802e-007 1.43493324e-007 1.29818517e-007 1.20694693e-007
      1.03824704e-007 8.40457659e-008 6.89722057e-008 7.02846421e-008
      6.81797303e-008 6.27526333e-008 6.40383604e-008 5.29687618e-008
      4.29780407e-008 2.95553910e-008 2.46121648e-008 1.68186940e-008
      2.30299602e-009 -2.99643190e-008 -4.93103975e-008 -5.46702665e-008
      -5.13473317e-008 -4.31369713e-008 -2.80648571e-008
      -1.09971339e-008 -6.03513906e-009 9.81151604e-009 2.25020003e-008
      4.48469883e-008 5.56354145e-008 5.33002122e-008 4.81470011e-008
      4.96560375e-008 3.25903819e-008 1.69084693e-008 4.51267823e-009
      1.02636022e-009 -6.70393963e-009 -2.08547597e-008 -2.30740174e-008
      -2.76117937e-008 -2.78684844e-008 -3.23735314e-008
      -3.28038254e-008 -4.17013162e-008 -4.05280431e-008
      -5.65896698e-008 -5.27560502e-008 -3.88386212e-008
      -3.86225132e-008 -3.25601910e-008 -2.72894454e-008
      -1.65877623e-008 -1.92224037e-009 2.25236896e-008 4.61075800e-008
      6.47729266e-008 8.54018367e-008 9.44922434e-008 1.07122808e-007
      1.16070915e-007 1.25881002e-007 1.34304329e-007 1.33762214e-007
      1.40050105e-007 1.41380710e-007 1.40342749e-007 1.31794664e-007
      1.25889102e-007 1.24922366e-007 1.20527702e-007 1.24071519e-007
      1.16939120e-007 1.18137223e-007 1.10888365e-007 1.14247435e-007
      1.10379531e-007 1.16454629e-007 1.38185996e-007 1.52470363e-007
      1.65995047e-007 1.79427033e-007 2.02364944e-007 2.22735309e-007
      2.37283018e-007 2.50307636e-007 2.72620298e-007 2.96515253e-007
      2.90254633e-007 2.68092663e-007 2.55575657e-007 2.55850836e-007
      2.47938857e-007 2.35796705e-007 2.32554981e-007 2.19440182e-007
      2.13279407e-007 2.06885858e-007 2.02787348e-007 2.24113833e-007
      2.37672893e-007 2.31688659e-007 2.29871077e-007 2.28108803e-007
      2.16139725e-007 2.09892079e-007 1.95372834e-007 1.89118339e-007
      1.90221996e-007 1.84802346e-007 1.80719411e-007 1.76132886e-007
      1.70349608e-007 1.74703473e-007 1.84901893e-007 2.02182392e-007
      2.07843911e-007 2.00786559e-007 1.98332998e-007 1.99395288e-007
      1.90632846e-007 1.87183659e-007 1.84466714e-007 1.81264326e-007
      1.71211653e-007 1.50998062e-007 1.39659093e-007 1.23818481e-007
      9.13774016e-008 5.22941015e-008 1.23300623e-008 -2.39000357e-008
      -5.84271902e-008 -9.81914141e-008 -1.36795592e-007
      -1.85689359e-007 -2.33895392e-007 -2.59668184e-007
      -2.59675261e-007 -2.50276884e-007 -2.33409310e-007
      -2.18160764e-007 -2.20929365e-007 -1.92033056e-007
      -1.63201449e-007 -1.17943472e-007 -7.88059396e-008
      -4.66831338e-008 -2.58324633e-008 -6.11204598e-009 1.16439134e-008
      3.21045306e-008 6.19222433e-008 7.41532276e-008 7.43434185e-008
      7.10125221e-008 8.30921252e-008 9.30047221e-008 1.01306803e-007
      1.19501493e-007 1.35981324e-007 1.43833248e-007 1.48721711e-007
      1.44125991e-007 1.43943510e-007 1.34473623e-007 1.05074406e-007
      1.02883142e-007 9.07745061e-008 7.55188765e-008 6.48069403e-008
      4.90374816e-008 3.59859555e-008 2.31839614e-008 1.87181541e-008
      3.38660620e-008 4.29529337e-008 3.42651525e-008 4.00952516e-008
      4.37208278e-008 4.78862070e-008 5.63801734e-008 6.64719764e-008
      7.59603367e-008 6.69028850e-008 4.29835190e-008 3.98547861e-008
      2.92369062e-008 1.99156833e-008 1.45635610e-008 8.36698177e-009
      5.70475667e-009 -3.10914916e-009 1.76828252e-009 1.96531431e-008
      4.52064306e-008 6.86213824e-008 9.88544642e-008 1.28758884e-007
      1.42885710e-007 1.38879471e-007 1.30266372e-007 1.27620538e-007
      1.11575787e-007 9.21666796e-008 6.35521999e-008 3.57727288e-008
      6.99670544e-009 -2.66838907e-008 -4.86418799e-008 -4.93923551e-008
      -3.64153259e-008 -2.53851802e-008 -2.38921576e-008
      -2.22777565e-008 -1.33199691e-008 -2.11001758e-008
      -3.04031254e-008 -3.39306538e-008 -3.70059254e-008
      -5.89114038e-008 -9.43208533e-008 -1.30868614e-007
      -1.63520582e-007 -1.86883355e-007 -1.89478271e-007
      -1.73834550e-007 -1.53964152e-007 -1.34593080e-007
      -9.37533287e-008 -5.59886359e-008 -9.42490708e-009 4.63459244e-008
      1.17316461e-007 1.83575438e-007 2.16446409e-007 2.21677425e-007
      2.10010327e-007 1.91814038e-007 1.47994157e-007 1.15043015e-007
      7.78127500e-008 4.44534756e-008 -1.39719143e-008 -6.61436701e-008
      -9.52319539e-008 -1.18315540e-007 -1.23598241e-007
      -1.30073559e-007 -1.29779124e-007 -1.28315065e-007
      -1.13507809e-007 -1.16471178e-007 -9.07904649e-008
      -7.22371283e-008 -5.01489055e-008 -1.30991138e-008 1.62326561e-008
      4.96976718e-008 8.14093184e-008 1.00922513e-007 1.03010436e-007
      1.09561128e-007 1.08924617e-007 9.79347945e-008 8.83637128e-008
      7.65529720e-008 7.47221378e-008 7.02498610e-008 6.76052991e-008
      7.50256461e-008 8.37711127e-008 9.96133380e-008 9.96397631e-008
      8.75988633e-008 5.86197757e-008 1.96744470e-008 -1.63031633e-008
      -6.20481373e-008 -9.27614536e-008 -1.20205172e-007
      -1.55214380e-007 -1.86364588e-007 -2.06081268e-007
      -2.24656361e-007 -2.37277376e-007 -2.30138582e-007
      -2.34180249e-007 -2.20391001e-007 -2.09866954e-007
      -1.92622679e-007 -1.76661800e-007 -1.46971090e-007
      -1.20224115e-007 -8.54125588e-008 -4.53152111e-008
      -1.09114477e-008 2.53808867e-008 5.62559777e-008 7.82141001e-008
      9.31469444e-008 1.09521970e-007 1.08607281e-007 1.04811903e-007
      9.06649191e-008 6.90376183e-008 5.32938778e-008 2.88489499e-008
      1.04807869e-008 -6.33775432e-009 -1.59231011e-008 -2.65937992e-008
      -3.05587662e-008 -3.95874409e-008 -4.21732373e-008
      -2.82808195e-008 -2.17909069e-008 -1.01449160e-008 1.36779335e-008
      4.03008116e-008 5.83074353e-008 7.65165851e-008 8.13269736e-008
      9.26276513e-008 9.93483837e-008 8.87733052e-008 8.03386726e-008
      6.81645389e-008 4.33225580e-008 1.37719809e-008 -1.20882948e-008
      -3.39252715e-008 -4.70445443e-008 -5.91271494e-008
      -7.82667371e-008 -8.67838352e-008 -7.98732245e-008
      -6.81722341e-008 -5.09536591e-008 -3.43693856e-008
      -6.88340407e-009 8.22991986e-009 2.50676688e-008 4.42054606e-008
      6.02838597e-008 7.27493799e-008 6.88455728e-008 5.39320553e-008
      4.04564915e-008 2.87811712e-008 1.11847429e-008 -7.16967818e-009
      -2.03520099e-008 -4.00887963e-008 -5.28377626e-008
      -6.12828757e-008 -7.21085058e-008 -7.03404979e-008
      -7.10225265e-008 -6.93420148e-008 -8.68616041e-008
      -1.09261663e-007 -1.31563411e-007 -1.49117923e-007
      -1.62715367e-007 -1.73890371e-007 -1.85429940e-007
      -1.97900093e-007 -2.06581589e-007 -2.08003627e-007
      -2.02735293e-007 -1.95467990e-007 -1.87735225e-007
      -1.74080540e-007 -1.76509488e-007 -1.79306184e-007
      -1.76175746e-007 -1.79155023e-007 -1.82233791e-007
      -1.98627205e-007 -2.05058129e-007 -2.04781415e-007
      -2.15791047e-007 -2.30568673e-007 -2.22402392e-007
      -2.11719083e-007 -2.03370121e-007 -1.95590701e-007
      -1.90324357e-007 -1.74339291e-007 -1.60478606e-007
      -1.53936270e-007 -1.35767976e-007 -1.01346195e-007
      -8.68311005e-008 -6.68949482e-008 -4.15032133e-008
      -1.07494325e-008 2.14421085e-008 5.14565670e-008 9.15058820e-008
      1.34345171e-007 1.58637732e-007 1.64670894e-007 1.74513062e-007
      1.85012510e-007 1.74413088e-007 1.56509060e-007 1.43986497e-007
      1.08009246e-007 6.14628703e-008 1.04483844e-008 -2.78616969e-008
      -6.31838049e-008 -9.73548637e-008 -1.39508828e-007
      -1.69731265e-007 -1.88998811e-007 -1.95581677e-007
      -1.80183804e-007 -1.67565730e-007 -1.62927890e-007
      -1.56113060e-007 -1.51288276e-007 -1.31988983e-007
      -1.11454611e-007 -8.99035797e-008 -7.46072359e-008
      -7.62230670e-008 -8.93794976e-008 -1.05601401e-007
      -1.10939489e-007 -1.12209243e-007 -1.16092018e-007
      -1.31394899e-007 -1.58907540e-007 -1.75000991e-007
      -1.97741642e-007 -2.13623665e-007 -2.21222777e-007
      -2.26400303e-007 -2.35219275e-007 -2.31895228e-007
      -2.13194440e-007 -1.86430142e-007 -1.47948938e-007
      -1.13320873e-007 -8.55250732e-008 -5.83614614e-008
      -2.79607502e-008 1.21474324e-008 3.89442398e-008 4.77362860e-008
      3.93984010e-008 2.94103302e-008 2.22709300e-008 9.18393273e-009
      -6.66727917e-009 -1.84546867e-008 -4.07604368e-008
      -7.27042462e-008 -9.08943036e-008 -1.15999569e-007
      -1.33663278e-007 -1.43182731e-007 -1.50322577e-007
      -1.51241707e-007 -1.43422270e-007 -1.32434948e-007
      -1.20545224e-007 -9.94534801e-008 -7.83948479e-008
      -4.03239753e-008 3.05212899e-009 4.07332337e-008 7.40169241e-008
      1.06069258e-007 1.45595308e-007 1.78877386e-007 2.16317133e-007
      2.43869351e-007 2.67207952e-007 2.72234956e-007 2.73064984e-007
      2.73118701e-007 2.75169356e-007 2.76769754e-007 2.75105862e-007
      2.58558742e-007 2.44398990e-007 2.23079226e-007 2.09697291e-007
      1.88106242e-007 1.61616896e-007 1.22934111e-007 8.95791814e-008
      4.47799984e-008 5.55450397e-009 -1.29427056e-008 -4.38750156e-008
      -5.21309822e-008 -6.04435968e-008 -6.87837272e-008
      -6.55931913e-008 -6.82533070e-008 -6.94793201e-008
      -6.73295730e-008 -6.60708039e-008 -7.92095207e-008
      -7.16076372e-008 -6.22430818e-008 -5.62777949e-008
      -4.14550811e-008 -4.08823873e-008 -3.31085914e-008
      -2.04625081e-008 -9.54180557e-009 5.08777198e-009 9.96881422e-009
      2.33379183e-008 2.10215383e-008 1.31738780e-008 1.39607703e-008
      1.95305905e-008 1.92935588e-008 1.77177686e-008 2.67691860e-008
      2.97136218e-008 2.92408320e-008 2.41691804e-008 3.47887159e-008
      5.12430312e-008 6.99805014e-008 9.62907905e-008 1.29260229e-007
      1.49110519e-007 1.68048331e-007 1.78814091e-007 1.91869105e-007
      2.01932934e-007 2.07893308e-007 2.06459532e-007 1.90700518e-007
      1.72011255e-007 1.50484752e-007 1.31606626e-007 1.18160251e-007
      1.06699346e-007 1.08870999e-007 1.07602339e-007 1.06251001e-007
      1.10629102e-007 1.16243086e-007 1.32358338e-007 1.39360196e-007
      1.41294379e-007 1.44213118e-007 1.42385829e-007 1.30375668e-007
      1.23208324e-007 1.24398994e-007 1.23017912e-007 1.22003570e-007
      1.10009474e-007 1.03984327e-007 7.88358250e-008 6.50018066e-008
      5.39405036e-008 5.30142792e-008 5.13363929e-008 5.44224079e-008
      5.18464418e-008 5.50020118e-008 6.05433499e-008 6.35489315e-008
      8.16477481e-008 8.39909760e-008 8.43512993e-008 7.27634344e-008
      6.88798494e-008 7.19689908e-008 8.83837643e-008 9.09029723e-008
      9.14788245e-008 8.40820817e-008 7.59375567e-008 6.75541116e-008
      7.27002032e-008 8.35171292e-008 9.02398014e-008 9.71440883e-008
      8.89806628e-008 9.32493762e-008 8.66144845e-008 1.02824281e-007
      1.15092213e-007 1.31934982e-007 1.33681581e-007 1.46379591e-007
      1.57436858e-007 1.65974868e-007 1.85436875e-007 2.06622047e-007
      2.32324837e-007 2.30140074e-007 2.33260863e-007 2.38338046e-007
      2.47881275e-007 2.49377564e-007 2.32132734e-007 2.02508559e-007
      1.77747538e-007 1.47320108e-007 1.14386616e-007 8.59414016e-008
      5.98019483e-008 2.89857880e-008 -9.78699255e-009 -5.24457633e-008
      -8.70778223e-008 -1.09821343e-007 -1.37847536e-007
      -1.74062365e-007 -1.98700874e-007 -2.16048875e-007
      -2.36992804e-007 -2.58476604e-007 -2.67343154e-007
      -2.61346855e-007 -2.54687507e-007 -2.65235258e-007
      -2.54750262e-007 -2.40265138e-007 -2.19909367e-007
      -1.95369296e-007 -1.71803919e-007 -1.48264462e-007
      -1.41918377e-007 -1.52312282e-007 -1.46773246e-007
      -1.47036758e-007 -1.66105977e-007 -1.83788387e-007
      -2.09976349e-007 -2.35103329e-007 -2.56598611e-007
      -2.62298244e-007 -2.58419107e-007 -2.53868620e-007
      -2.47119232e-007 -2.27311688e-007 -2.04599743e-007
      -1.77788777e-007 -1.56125282e-007 -1.45836609e-007
      -1.42690169e-007 -1.65506904e-007 -2.04001836e-007
      -2.59647862e-007 -3.15578205e-007 -3.52628660e-007
      -3.80553871e-007 -4.00351240e-007 -4.20000021e-007
      -4.35834636e-007 -4.45304437e-007 -4.39914686e-007
      -4.22458157e-007 -3.94240260e-007 -3.56396583e-007
      -3.26486258e-007 -2.99626691e-007 -2.61117066e-007
      -1.98024225e-007 -1.34992263e-007 -7.26145686e-008
      -2.00827444e-008 3.15022959e-008 6.57202790e-008 9.60007966e-008
      1.13905372e-007 1.27262425e-007 1.11900512e-007 6.90626365e-008
      2.83165811e-008 -1.28386413e-008 -3.23027329e-008 -5.52707711e-008
      -6.82319765e-008 -8.71247821e-008 -1.11444884e-007
      -1.38941544e-007 -1.55974263e-007 -1.51846081e-007
      -1.47652102e-007 -1.41858081e-007 -1.55946964e-007
      -1.53689470e-007 -1.52481761e-007 -1.38445060e-007
      -1.29007489e-007 -1.07027489e-007 -8.85972113e-008
      -8.37579748e-008 -8.13970118e-008 -7.79278366e-008
      -6.30757881e-008 -6.10536190e-008 -5.59741160e-008
      -5.81203388e-008 -4.74664184e-008 -3.98740525e-008
      -4.30625278e-008 -4.85802722e-008 -4.45427837e-008
      -4.70662904e-008 -5.88930220e-008 -6.48462617e-008
      -7.77818130e-008 -7.93634243e-008 -8.49315569e-008
      -8.43459986e-008 -8.25690876e-008 -6.39884732e-008
      -5.11011926e-008 -4.68260168e-008 -3.03748422e-008
      -2.36505660e-008 -1.72133223e-008 -1.94133509e-008
      -2.62714295e-008 -5.33191056e-008 -7.74619977e-008
      -1.00260081e-007 -1.22998685e-007 -1.38384394e-007
      -1.50653150e-007 -1.73862830e-007 -2.02637153e-007
      -2.16023494e-007 -2.29342632e-007 -2.22531796e-007
      -2.06712173e-007 -1.87782334e-007 -1.58404262e-007
      -1.25830127e-007 -7.74761091e-008 -2.51499834e-008 2.32679138e-008
      6.47149108e-008 9.11132432e-008 1.07833081e-007 1.25474429e-007
      1.33190809e-007 1.11994403e-007 8.95916088e-008 6.29994048e-008
      4.38150600e-008 3.88841919e-008 3.17281454e-008 4.58262477e-008
      6.50208563e-008 7.81627278e-008 9.29680581e-008 1.03810130e-007
      1.12586179e-007 9.58539204e-008 9.08579665e-008 7.30277918e-008
      4.96464878e-008 1.34927900e-008 -3.59039269e-008 -9.10099800e-008
      -1.40699512e-007 -1.89706469e-007 -2.38947649e-007
      -2.76017317e-007 -3.33081431e-007 -3.86283261e-007
      -4.32059096e-007 -4.59981123e-007 -4.74510387e-007
      -4.68244934e-007 -4.53921729e-007 -4.17920347e-007
      -3.80562710e-007 -3.25439970e-007 -2.52605702e-007
      -1.81787726e-007 -1.05053587e-007 -3.37411628e-008 2.73206222e-008
      7.06651733e-008 9.47342897e-008 1.07283519e-007 1.05317476e-007
      9.92648665e-008 7.92149208e-008 6.78608174e-008 3.49169014e-008
      5.30041511e-010 -3.24569172e-008 -7.33369063e-008 -1.05397397e-007
      -1.41693704e-007 -1.54701794e-007 -1.74351953e-007
      -1.86554345e-007 -2.10556991e-007 -2.14648765e-007
      -2.14754337e-007 -2.05468822e-007 -1.84777917e-007
      -1.55832268e-007 -1.22325218e-007 -8.37947667e-008
      -4.66783447e-008 -8.06991096e-009 3.60468206e-008 7.73297231e-008
      1.15030517e-007 1.51335897e-007 1.72332349e-007 1.80951943e-007
      1.87509173e-007 1.92723746e-007 1.90268750e-007 1.80271428e-007
      1.79314327e-007 1.69066325e-007 1.55524546e-007 1.41755308e-007
      1.40128122e-007 1.39022646e-007 1.38787797e-007 1.36187893e-007
      1.38633695e-007 1.42480886e-007 1.41325160e-007 1.47409622e-007
      1.52188292e-007 1.61720124e-007 1.72696090e-007 1.71193761e-007
      1.66341252e-007 1.67949082e-007 1.66942030e-007 1.55996176e-007
      1.55888117e-007 1.51264587e-007 1.51199529e-007 1.60725577e-007
      1.62810451e-007 1.61441974e-007 1.63250661e-007 1.59450792e-007
      1.54995803e-007 1.63772185e-007 1.71132498e-007 1.67924895e-007
      1.56303145e-007 1.45290343e-007 1.28400401e-007 1.17381546e-007
      9.99197241e-008 9.18648908e-008 8.89068232e-008 8.33065954e-008
      8.82012188e-008 9.18914083e-008 9.19746697e-008 9.11613043e-008
      9.60282946e-008 1.02759287e-007 1.09588534e-007 1.09067663e-007
      9.54459125e-008 8.80020679e-008 7.34108312e-008 5.66437066e-008
      4.56558311e-008 3.62509915e-008 3.47790596e-008 2.11804476e-008
      7.70209052e-009 -1.20423040e-008 -2.89926252e-008 -4.85165508e-008
      -6.45179057e-008 -6.53234906e-008 -6.01405361e-008
      -4.56943248e-008 -4.30556959e-008 -2.36351685e-008 1.65980758e-008
      6.15705602e-008 1.05217318e-007 1.45447487e-007 1.83086144e-007
      2.12184432e-007 2.41488237e-007 2.65978116e-007 2.82075291e-007
      2.95095333e-007 2.82015890e-007 2.52407233e-007 2.40469348e-007
      2.28860799e-007 2.25323731e-007 2.18813156e-007 1.98102029e-007
      1.75723088e-007 1.50707507e-007 1.31566722e-007 1.15145887e-007
      1.08667365e-007 9.15054628e-008 6.64213147e-008 3.63221311e-008
      2.41425102e-008 1.17731425e-008 9.70573844e-009 -3.12978155e-009
      -8.20676771e-009 -2.16789005e-008 -3.38685773e-008
      -3.44595819e-008 -4.01420905e-008 -3.68123949e-008
      -3.44193687e-008 -3.53149225e-008 -2.67239795e-008
      -2.03808170e-008 -1.49838133e-008 -1.02289430e-008 5.80171644e-009
      1.63997935e-008 2.79374550e-008 3.50294762e-008 3.50561500e-008
      2.42015812e-008 1.33536844e-008 3.08903014e-009 5.03655118e-010
      -3.10776738e-009 -1.48387116e-008 -2.03910044e-008
      -3.41901867e-008 -4.75262532e-008 -5.11047737e-008
      -5.38119735e-008 -5.87449911e-008 -5.11642142e-008
      -4.54043132e-008 -4.38512657e-008 -4.11900167e-008
      -3.50991414e-008 -3.25197611e-008 -2.44946818e-008
      -2.24301449e-008 -7.56060636e-009 5.96704153e-009 3.50502249e-009
      4.25528190e-009 1.02091597e-008 2.33947990e-008 3.94076416e-008
      7.00752949e-008 9.22409171e-008 1.04144107e-007 1.17726728e-007
      1.33031776e-007 1.52179339e-007 1.67091528e-007 1.73977796e-007
      1.76082082e-007 1.83268014e-007 1.85115979e-007 1.85844470e-007
      1.93426487e-007 1.88804748e-007 1.86060134e-007 1.75154057e-007
      1.67223320e-007 1.84915280e-007 1.97962791e-007 2.14675481e-007
      2.12641950e-007 2.22798704e-007 2.33691793e-007 2.37513930e-007
      2.43050607e-007 2.44917800e-007 2.51344119e-007 2.23528630e-007
      1.96850905e-007 1.66470272e-007 1.37808712e-007 1.14370067e-007
      9.05383857e-008 7.37197681e-008 4.99361654e-008 4.62588403e-008
      3.76587934e-008 4.26470876e-008 3.27284262e-008 2.81581443e-008
      2.53717864e-008 2.16846168e-008 1.52208575e-008 2.57400874e-008
      5.37632943e-008 7.82891760e-008 1.21998141e-007 1.72099263e-007
      2.37475845e-007 2.97707317e-007 3.81129013e-007 4.38818347e-007
      4.80779818e-007 5.05221237e-007 5.07911750e-007 4.96005555e-007
      4.72733547e-007 4.38510199e-007 3.97665502e-007 3.56866565e-007
      2.88571670e-007 2.35850109e-007 1.98415961e-007 1.65128668e-007
      1.44089185e-007 1.34216592e-007 1.24224599e-007 1.11161484e-007
      9.15412741e-008 7.88790686e-008 7.40893995e-008 7.06750924e-008
      5.36212355e-008 2.08982520e-008 -1.07897442e-008 -4.25018563e-008
      -5.79004578e-008 -7.36515346e-008 -8.21890893e-008
      -9.34964959e-008 -1.02069066e-007 -1.00479504e-007
      -6.93458162e-008 -3.07841219e-008 8.39781311e-009 4.99030932e-008
      7.05333747e-008 9.51970449e-008 1.07562670e-007 1.00530805e-007
      7.25349025e-008 2.80536891e-008 -1.63434102e-008 -4.06749763e-008
      -6.69886191e-008 -1.03942845e-007 -1.32507779e-007
      -1.66529745e-007 -1.99318919e-007 -2.33109773e-007
      -2.55869821e-007 -2.80832325e-007 -2.99528807e-007
      -3.28202304e-007 -3.49629317e-007 -3.56813899e-007
      -3.55204349e-007 -3.57419793e-007 -3.62241650e-007
      -3.47345690e-007 -3.27287040e-007 -3.12674189e-007
      -3.02082469e-007 -2.84664594e-007 -2.75272015e-007
      -2.66412570e-007 -2.63702105e-007 -2.52806444e-007
      -2.34095509e-007 -2.24517180e-007 -2.24478143e-007
      -2.39046329e-007 -2.56196813e-007 -2.84851467e-007
      -3.00277947e-007 -3.11464618e-007 -3.26620352e-007
      -3.36522248e-007 -3.45232337e-007 -3.47895224e-007
      -3.27322113e-007 -2.95377276e-007 -2.69588554e-007
      -2.38384530e-007 -2.25069769e-007 -2.07866151e-007
      -1.93389624e-007 -1.76238828e-007 -1.58478784e-007
      -1.55715853e-007 -1.61946730e-007 -1.72294747e-007
      -1.79225054e-007 -1.80740884e-007 -1.86956115e-007
      -1.94662448e-007 -2.04109512e-007 -2.10251997e-007
      -2.06988716e-007 -2.04367012e-007 -2.06384399e-007
      -2.01506253e-007 -2.12685663e-007 -2.24066454e-007
      -2.33119621e-007 -2.43987046e-007 -2.45208241e-007
      -2.54135216e-007 -2.86775190e-007 -3.06014556e-007
      -3.16924059e-007 -3.34693908e-007 -3.34019944e-007
      -3.27937926e-007 -3.10762431e-007 -2.98802661e-007
      -2.87284109e-007 -2.81104064e-007 -2.70917724e-007
      -2.63802178e-007 -2.48820868e-007 -2.11815006e-007
      -1.87312594e-007 -1.85525209e-007 -1.71838096e-007
      -1.56732099e-007 -1.44782135e-007 -1.49221776e-007
      -1.48468985e-007 -1.47308668e-007 -1.73491216e-007
      -2.04991466e-007 -2.20184049e-007 -2.17888854e-007
      -2.40689417e-007 -2.60272742e-007 -2.63370026e-007
      -2.48589799e-007 -2.44008305e-007 -2.39241729e-007
      -2.18539981e-007 -2.11372807e-007 -2.14508489e-007
      -2.23288509e-007 -2.25436025e-007 -2.29289753e-007
      -2.44690227e-007 -2.69849807e-007 -2.81119327e-007
      -2.93179198e-007 -3.25156975e-007 -3.59069759e-007
      -3.79657024e-007 -3.90237744e-007 -4.11622381e-007
      -4.24867864e-007 -4.40782117e-007 -4.52778181e-007
      -4.66293415e-007 -4.82111318e-007 -4.82209884e-007
      -4.83980500e-007 -4.90374816e-007 -4.95705194e-007
      -4.86100532e-007 -4.79201049e-007 -4.61270332e-007
      -4.45788970e-007 -4.34361482e-007 -4.18173670e-007
      -4.07295119e-007 -3.93294641e-007 -3.84796579e-007
      -3.75040997e-007 -3.60079156e-007 -3.54481557e-007
      -3.47771163e-007 -3.54893274e-007 -3.52531146e-007
      -3.56073173e-007 -3.60022028e-007 -3.53704195e-007
      -3.40355570e-007 -3.34784517e-007 -3.34379990e-007
      -3.33521967e-007 -3.27455780e-007 -3.20940813e-007
      -3.12606915e-007 -2.96515225e-007 -2.77617630e-007
      -2.59178336e-007 -2.44846859e-007 -2.30352768e-007
      -2.14009887e-007 -1.99077888e-007 -1.92496032e-007
      -1.80428827e-007 -1.67294701e-007 -1.54209047e-007
      -1.39081976e-007 -1.25845133e-007 -1.10881587e-007
      -8.37834406e-008 -6.64416078e-008 -5.76512136e-008
      -4.83651981e-008 -3.92939086e-008 -2.92196489e-008
      -2.87064950e-008 -3.14646975e-008 -4.23926672e-008
      -5.24841397e-008 -7.49241522e-008 -9.28103248e-008
      -1.03421797e-007 -1.11263859e-007 -1.19887829e-007
      -1.38623307e-007 -1.40081312e-007 -1.42802577e-007
      -1.38700685e-007 -1.36791130e-007 -1.41912622e-007
      -1.54618746e-007 -1.66963915e-007 -1.82910711e-007
      -1.91052621e-007 -1.97073618e-007 -2.09721037e-007
      -2.20881702e-007 -2.42418821e-007 -2.61571955e-007
      -2.72186668e-007 -2.79589898e-007 -2.86888195e-007
      -2.85508492e-007 -2.83884191e-007 -2.93792937e-007
      -3.12965255e-007 -3.23210571e-007 -3.24041451e-007
      -3.36637214e-007 -3.51061971e-007 -3.60619254e-007
      -3.86505235e-007 -4.07262291e-007 -4.29839218e-007
      -4.56260381e-007 -4.76793900e-007 -4.97297663e-007
      -5.13887301e-007 -5.26780241e-007 -5.41487680e-007
      -5.48071682e-007 -5.41397185e-007 -5.36174412e-007
      -5.33789773e-007 -5.12952454e-007 -4.91380433e-007
      -4.78581399e-007 -4.66604718e-007 -4.39631236e-007
      -4.14320851e-007 -3.86104034e-007 -3.72809438e-007
      -3.51979310e-007 -3.33638553e-007 -3.22151237e-007
      -3.08190010e-007 -2.85491751e-007 -2.76229429e-007
      -2.79649299e-007 -2.88959853e-007 -3.20970770e-007
      -3.34703827e-007 -3.50443827e-007 -3.56333260e-007
      -3.61928556e-007 -3.72746143e-007 -3.75254018e-007
      -3.79556298e-007 -3.61417648e-007 -3.30007026e-007
      -2.85231152e-007 -2.50959232e-007 -2.27058834e-007
      -2.06414953e-007 -1.81993656e-007 -1.60567367e-007
      -1.30474433e-007 -1.03088468e-007 -7.79663623e-008
      -7.16825852e-008 -8.51806021e-008 -1.04212994e-007
      -1.28222112e-007 -1.69359609e-007 -2.04522905e-007
      -2.29766059e-007 -2.74307411e-007 -3.03793996e-007
      -3.43759467e-007 -3.67222356e-007 -3.62299829e-007
      -3.50728016e-007 -3.26669038e-007 -2.90626872e-007
      -2.62763820e-007 -2.40449481e-007 -2.20713346e-007
      -2.16645219e-007 -2.36897137e-007 -2.73802726e-007
      -3.24713056e-007 -3.79959062e-007 -4.47965817e-007
      -5.24880818e-007 -6.16004797e-007 -7.06604681e-007
      -7.99875522e-007 -8.82018071e-007 -9.36580363e-007
      -9.85902375e-007 -1.02506124e-006 -1.06181233e-006
      -1.07158485e-006 -1.07161486e-006 -1.03965465e-006
      -9.93158437e-007 -9.40522057e-007 -8.83588655e-007
      -8.21280992e-007 -7.45184082e-007 -6.67586846e-007
      -6.00130704e-007 -5.55488327e-007 -5.06635672e-007
      -4.77706521e-007 -4.49097854e-007 -4.39172652e-007
      -4.14060139e-007 -3.94463228e-007 -3.78211723e-007
      -3.56260671e-007 -3.24148687e-007 -2.75601110e-007
      -2.31973360e-007 -1.95946598e-007 -1.43546089e-007
      -9.08122928e-008 -5.28681561e-008 -2.86402297e-008
      -1.33139908e-008 1.64009482e-008 3.12451789e-008 3.79877712e-008
      4.09541094e-008 5.67242289e-008 5.23915666e-008 5.14887475e-008
      4.52264075e-008 4.75293440e-008 4.98506765e-008 4.27907523e-008
      4.39320367e-008 5.33212550e-008 5.51955885e-008 6.81828922e-008
      8.76515145e-008 1.09389362e-007 1.37537043e-007 1.74406495e-007
      2.03246486e-007 2.05717200e-007 2.23501459e-007 2.30119099e-007
      2.42864019e-007 2.50151743e-007 2.38241370e-007 2.31446705e-007
      2.24742550e-007 2.15019767e-007 2.00309913e-007 2.08609180e-007
      1.95118488e-007 1.72514945e-007 1.57644124e-007 1.46477817e-007
      1.42032945e-007 1.23839584e-007 1.17410373e-007 1.05728212e-007
      9.89193296e-008 9.78704904e-008 1.03420255e-007 1.20273725e-007
      1.42623904e-007 1.51495072e-007 1.70349139e-007 1.94715781e-007
      2.11555047e-007 2.14150802e-007 2.20445642e-007 2.24392139e-007
      2.31587023e-007 2.37173666e-007 2.23940035e-007 2.16442771e-007
      2.09316809e-007 1.93167992e-007 1.91291520e-007 2.02850373e-007
      2.02050543e-007 1.99208273e-007 1.91418650e-007 1.93121664e-007
      2.09347249e-007 2.18337803e-007 2.22310689e-007 2.19361624e-007
      2.07335447e-007 2.04241843e-007 1.92439913e-007 1.86861371e-007
      1.75173128e-007 1.55170227e-007 1.29383949e-007 1.15961328e-007
      1.16654824e-007 1.09318762e-007 1.10997220e-007 1.05362609e-007
      1.12471234e-007 1.20900182e-007 1.60721811e-007 1.66945355e-007
      1.69730001e-007 1.82152192e-007 1.96748999e-007 2.14246086e-007
      2.13998561e-007 2.16514223e-007 2.15056659e-007 2.16717737e-007
      2.37877288e-007 2.51799690e-007 2.71408311e-007 2.85371726e-007
      3.02611397e-007 3.18088013e-007 3.31561040e-007 3.45588290e-007
      3.55628686e-007 3.51311826e-007 3.41510543e-007 3.42800888e-007
      3.26204741e-007 3.11394217e-007 2.93220921e-007 2.68359258e-007
      2.63501903e-007 2.52269899e-007 2.33802453e-007 2.32830260e-007
      2.33847175e-007 2.35897204e-007 2.52289823e-007 2.64889621e-007
      2.72816152e-007 3.02545146e-007 3.22800219e-007 3.46251312e-007
      3.67705383e-007 3.82312010e-007 3.80803726e-007 3.75887737e-007
      3.52921688e-007 3.26352875e-007 3.07509964e-007 2.83028044e-007
      2.61399379e-007 2.33487853e-007 2.17060844e-007 2.11402153e-007
      2.04314588e-007 1.98814405e-007 1.93968518e-007 1.96019613e-007
      1.92631617e-007 1.90062806e-007 1.80420429e-007 1.75028134e-007
      1.73704009e-007 1.64374299e-007 1.42691235e-007 1.13906673e-007
      8.91524436e-008 6.51571455e-008 5.06913622e-008 3.22820171e-008
      2.75592669e-008 1.97282102e-008 4.16676915e-009 -1.08367706e-008
      -2.49915360e-008 -1.84337221e-008 -7.95447708e-009 1.24512045e-009
      -1.10554767e-010 -1.43231238e-009 -1.52534518e-008
      -1.50791752e-008 -5.14080423e-009 6.42237374e-009 3.31231114e-008
      4.87529697e-008 7.87625112e-008 1.05973733e-007 1.19856580e-007
      1.29183860e-007 1.40315677e-007 1.27428549e-007 1.05680641e-007
      7.50807274e-008 1.84366780e-008 -4.24130242e-008 -1.14476890e-007
      -1.80872959e-007 -2.39027742e-007 -2.68456347e-007
      -2.99213980e-007 -3.01650772e-007 -2.97539003e-007
      -2.77732539e-007 -2.28872622e-007 -1.62710890e-007
      -1.08730426e-007 -5.05935809e-008 3.00082448e-009 5.30878275e-008
      1.08054152e-007 1.55232229e-007 1.95415168e-007 2.19030909e-007
      2.33984409e-007 2.39972906e-007 2.38741364e-007 2.31388938e-007
      2.33152946e-007 2.21571483e-007 1.99742814e-007 1.83814251e-007
      1.56720162e-007 1.51237927e-007 1.46966329e-007 1.45459438e-007
      1.61833057e-007 1.81500241e-007 1.90230594e-007 1.87708949e-007
      1.99269564e-007 2.04189021e-007 2.23260230e-007 2.31866679e-007
      2.62933639e-007 2.79722656e-007 2.93352628e-007 3.08418947e-007
      3.26555067e-007 3.44315964e-007 3.44539700e-007 3.48662780e-007
      3.24929516e-007 2.95648874e-007 2.57549203e-007 2.33397643e-007
      2.03198766e-007 1.75511104e-007 1.47133719e-007 1.35946948e-007
      1.34558093e-007 1.34387150e-007 1.48281146e-007 1.75950362e-007
      1.93837536e-007 2.07308645e-007 2.18985392e-007 2.30341598e-007
      2.51792642e-007 2.61932541e-007 2.79807409e-007 3.00413404e-007
      3.25262874e-007 3.35319186e-007 3.53638654e-007 3.64191294e-007
      3.59575154e-007 3.52276032e-007 3.47976055e-007 3.31085459e-007
      3.16144536e-007 2.99292850e-007 2.80293222e-007 2.81928948e-007
      2.66785975e-007 2.58965059e-007 2.69415352e-007 2.84186854e-007
      2.79810990e-007 2.82503862e-007 2.80920432e-007 2.72278470e-007
      2.49846209e-007 2.11384005e-007 1.74983299e-007 1.33311829e-007
      8.44894927e-008 3.46314906e-008 4.93131047e-009 -1.46133079e-008
      -2.69337939e-008 -2.72093335e-008 -1.74420371e-008 9.77439019e-009
      4.85847451e-008 8.98332146e-008 1.31332911e-007 1.80846769e-007
      2.10160522e-007 2.31624313e-007 2.44107810e-007 2.55790127e-007
      2.57686423e-007 2.59218325e-007 2.57737270e-007 2.56315559e-007
      2.55641908e-007 2.58519464e-007 2.62699842e-007 2.66566758e-007
      2.74365192e-007 2.86599999e-007 2.94142723e-007 3.00357271e-007
      2.96551491e-007 2.92061173e-007 2.79864651e-007 2.61653469e-007
      2.41109973e-007 2.31218181e-007 2.11868780e-007 1.97422580e-007
      1.82909773e-007 1.76334211e-007 1.83918701e-007 1.91622263e-007
      2.00720947e-007 2.10257411e-007 2.30855861e-007 2.43797757e-007
      2.56326700e-007 2.60668656e-007 2.70766833e-007 2.84930820e-007
      2.83847498e-007 2.77585258e-007 2.71920158e-007 2.65982806e-007
      2.61563258e-007 2.49092267e-007 2.28038687e-007 2.16430706e-007
      2.10505348e-007 1.98600347e-007 1.91831106e-007 1.97653605e-007
      2.05559203e-007 2.05351398e-007 2.03906282e-007 2.10581078e-007
      2.28699335e-007 2.32676769e-007 2.24165262e-007 2.23360047e-007
      2.26677614e-007 2.12108020e-007 2.10135227e-007 2.13301192e-007
      2.13156611e-007 2.20426074e-007 2.25141719e-007 2.33089352e-007
      2.37338227e-007 2.40488646e-007 2.41076862e-007 2.51715505e-007
      2.51192574e-007 2.58418368e-007 2.73319415e-007 2.72931374e-007
      2.69320793e-007 2.68415704e-007 2.66003582e-007 2.68288687e-007
      2.74945080e-007 2.65901946e-007 2.59998728e-007 2.52755711e-007
      2.49638049e-007 2.39685903e-007 2.40032932e-007 2.43510385e-007
      2.39184146e-007 2.21070593e-007 2.01758198e-007 1.95460970e-007
      1.88753361e-007 1.80659853e-007 1.62878621e-007 1.53021247e-007
      1.38638171e-007 1.23305441e-007 1.03128123e-007 1.04499399e-007
      1.02777854e-007 9.56313997e-008 7.11098878e-008 5.99995502e-008
      4.26958202e-008 2.89496906e-008 2.47280898e-008 4.19161132e-008
      4.43110295e-008 4.05074800e-008 4.71039776e-008 6.04242913e-008
      8.97772807e-008 1.05945382e-007 1.25783501e-007 1.24371581e-007
      1.33261437e-007 1.16425177e-007 9.89534001e-008 8.18442274e-008
      5.90329954e-008 3.14555209e-008 3.72528808e-009 -3.80166405e-008
      -7.94140718e-008 -1.09834019e-007 -1.45187983e-007
      -1.63358138e-007 -1.69344517e-007 -1.65400209e-007
      -1.65531219e-007 -1.52989685e-007 -1.34677748e-007
      -1.15564482e-007 -8.21347186e-008 -2.93721509e-008 2.34549518e-008
      5.53964625e-008 9.02135397e-008 1.21937049e-007 1.55637196e-007
      1.71964658e-007 1.83429989e-007 1.85957347e-007 1.78264784e-007
      1.53286763e-007 1.27181323e-007 1.11045317e-007 8.82720599e-008
      5.52526274e-008 2.89181568e-008 1.65281353e-008 6.61274191e-009
      1.77260850e-009 -9.19972276e-009 -1.20139712e-008 -1.37941303e-008
      -4.39160042e-009 -1.17450041e-008 -5.13108001e-009 9.56621893e-010
      6.89555657e-009 1.91548892e-008 3.89053589e-008 6.05772925e-008
      7.19787749e-008 8.02536420e-008 8.44254799e-008 9.57526467e-008
      1.14735769e-007 1.26247087e-007 1.27845169e-007 1.23346211e-007
      1.15021216e-007 1.08662320e-007 9.44376950e-008 8.81983055e-008
      9.85106894e-008 1.11161945e-007 1.06977133e-007 1.11698718e-007
      1.31706884e-007 1.61171982e-007 1.83633631e-007 2.13451855e-007
      2.56456644e-007 2.80916652e-007 2.91627060e-007 2.97269025e-007
      3.04490669e-007 3.03231388e-007 2.96186471e-007 2.77521849e-007
      2.61780144e-007 2.40242855e-007 2.20358899e-007 2.09935394e-007
      1.93823254e-007 1.68934704e-007 1.52920776e-007 1.30450729e-007
      9.93968357e-008 7.39716555e-008 4.95378494e-008 2.47800696e-008
      -5.77746850e-010 -3.08801660e-008 -6.71809630e-008
      -9.59542277e-008 -1.15614206e-007 -1.32847319e-007
      -1.42993926e-007 -1.47096884e-007 -1.54055996e-007
      -1.52304182e-007 -1.41488229e-007 -1.21388993e-007
      -7.80103093e-008 -3.05133234e-008 1.91114236e-009 4.14835810e-008
      7.46150235e-008 7.96725388e-008 8.13011241e-008 5.87247264e-008
      1.50367256e-008 -5.18497743e-008 -1.21034063e-007 -2.05731510e-007
      -2.88993562e-007 -3.77887176e-007 -4.54788534e-007
      -5.22006644e-007 -5.69395866e-007 -5.85643363e-007
      -5.83675899e-007 -5.77983940e-007 -5.62792479e-007
      -5.36301854e-007 -4.88051967e-007 -4.37983971e-007
      -3.92656773e-007 -3.42221114e-007 -2.96004060e-007
      -2.53738563e-007 -2.21401535e-007 -1.91050574e-007
      -1.73359510e-007 -1.64517843e-007 -1.70409308e-007
      -1.68618030e-007 -1.64676905e-007 -1.63978967e-007
      -1.59809417e-007 -1.63003421e-007 -1.67724920e-007
      -1.63644458e-007 -1.59390780e-007 -1.49241487e-007
      -1.40241070e-007 -1.33419832e-007 -1.30934325e-007
      -1.19314663e-007 -1.16916809e-007 -1.19422808e-007
      -1.14939688e-007 -1.02551688e-007 -1.06423627e-007
      -1.06085224e-007 -1.05945865e-007 -1.02301961e-007
      -9.44976577e-008 -9.87551871e-008 -1.05555245e-007
      -9.85020634e-008 -9.97333132e-008 -9.97213903e-008
      -9.64470104e-008 -8.97305270e-008 -7.39890567e-008
      -6.60241852e-008 -6.13469737e-008 -5.34240030e-008
      -4.88531313e-008 -4.96961299e-008 -4.63658516e-008
      -4.92825976e-008 -5.07976949e-008 -6.63580053e-008
      -9.43160501e-008 -1.24314440e-007 -1.65669817e-007
      -2.20795656e-007 -2.55684768e-007 -2.93398983e-007
      -3.33127417e-007 -3.60804933e-007 -3.89435968e-007
      -4.03490873e-007 -4.06564055e-007 -3.92547548e-007
      -3.64144199e-007 -3.18291171e-007 -2.87419056e-007
      -2.55464357e-007 -2.18697110e-007 -1.86366464e-007
      -1.56416760e-007 -1.32309353e-007 -1.15813037e-007
      -3.91522065e-007 -3.94650812e-007 -4.14922852e-007
      -4.31670571e-007 -4.50565921e-007 -4.70856151e-007
      -4.79466394e-007 -4.93715049e-007 -4.89942124e-007
      -4.92990864e-007 -4.91152150e-007 -4.85981673e-007
      -4.78027573e-007 -4.71575078e-007 -4.60377890e-007
      -4.50601988e-007 -4.41290126e-007 -4.26088320e-007
      -4.10009932e-007 -3.87977707e-007 -3.57999397e-007
      -3.28401029e-007 -3.00024737e-007 -2.67989094e-007
      -2.40830332e-007 -2.12981732e-007 -1.90607537e-007
      -1.79399763e-007 -1.68338488e-007 -1.54151294e-007
      -1.54608216e-007 -1.44042659e-007 -1.30441805e-007
      -1.10460057e-007 -1.03401689e-007 -8.72150210e-008
      -6.40428652e-008 -3.04042516e-008 -3.41755713e-009 3.21545031e-008
      5.80807651e-008 8.81071713e-008 1.16782275e-007 1.42344277e-007
      1.67606927e-007 1.81550035e-007 1.87336852e-007 1.78448943e-007
      1.87516974e-007 1.87361422e-007 1.79916171e-007 1.62576541e-007
      1.46500653e-007 1.19945668e-007 9.64126201e-008 7.65622374e-008
      7.22023543e-008 7.70036621e-008 6.49205703e-008 5.30091633e-008
      5.69713094e-008 6.95955080e-008 9.16340142e-008 1.33553115e-007
      1.84729004e-007 2.29736642e-007 2.58257984e-007 2.94542929e-007
      3.34868844e-007 3.83955125e-007 4.31638142e-007 4.68413930e-007
      4.84482484e-007 4.87247178e-007 4.66360063e-007 4.43058326e-007
      4.30077705e-007 4.05930905e-007 3.75161306e-007 3.39661483e-007
      3.05537725e-007 2.77345009e-007 2.56908692e-007 2.50918902e-007
      2.43222956e-007 2.55936811e-007 2.54606874e-007 2.67897889e-007
      2.85436982e-007 3.20464153e-007 3.63518780e-007 3.97299857e-007
      4.38972563e-007 4.81308462e-007 5.11675353e-007 5.32112608e-007
      5.59941213e-007 5.85742100e-007 5.99823011e-007 6.01228351e-007
      5.88753039e-007 5.68865346e-007 5.39010784e-007 5.16738510e-007
      5.02443072e-007 4.88330556e-007 4.79069911e-007 4.76458041e-007
      4.72739288e-007 4.79908806e-007 5.04427533e-007 5.50816424e-007
      6.10053576e-007 6.62790512e-007 7.15987369e-007 7.47455942e-007
      7.57214366e-007 7.66696189e-007 7.70238330e-007 7.67250526e-007
      7.42974748e-007 7.08131779e-007 6.58997124e-007 6.13640339e-007
      5.65754419e-007 5.26618010e-007 5.10316966e-007 4.98363079e-007
      4.88997216e-007 4.77861363e-007 4.79347818e-007 4.72178726e-007
      4.67156582e-007 4.51905692e-007 4.49908384e-007 4.61117168e-007
      4.70588901e-007 4.73758774e-007 4.76725091e-007 4.69618811e-007
      4.51922574e-007 4.28468184e-007 4.08856096e-007 3.97702479e-007
      3.70732977e-007 3.47618510e-007 3.32039605e-007 3.13964847e-007
      2.99473555e-007 2.81146640e-007 2.65868920e-007 2.52887332e-007
      2.38956318e-007 2.13595357e-007 1.92445626e-007 1.41096223e-007
      9.38134335e-008 3.01494403e-008 -1.90059062e-008 -7.54296394e-008
      -1.45131509e-007 -2.20694531e-007 -3.06351836e-007
      -3.67936934e-007 -4.20019347e-007 -4.48682130e-007
      -4.55691719e-007 -4.45857808e-007 -4.30138499e-007
      -3.99876456e-007 -3.47476345e-007 -2.86768284e-007
      -2.20326726e-007 -1.59029270e-007 -1.07380963e-007
      -5.26137853e-008 -2.67662301e-008 -7.42231387e-009 1.11271703e-008
      3.32866605e-008 5.02579987e-008 7.60399601e-008 9.61390896e-008
      1.23176946e-007 1.52323409e-007 1.71384215e-007 1.96569331e-007
      2.16875335e-007 2.34087821e-007 2.46964134e-007 2.61379228e-007
      2.69729867e-007 2.74845746e-007 2.64789122e-007 2.48339802e-007
      2.39104509e-007 2.42417968e-007 2.48084660e-007 2.63468138e-007
      2.83628850e-007 2.98550901e-007 3.20612941e-007 3.33513867e-007
      3.42523037e-007 3.52274554e-007 3.54114121e-007 3.39142588e-007
      3.14282346e-007 2.75598865e-007 2.34824654e-007 1.93596790e-007
      1.47045100e-007 1.07667638e-007 6.60286474e-008 4.07609591e-008
      1.66126455e-008 5.91882632e-009 -6.93804125e-009 -1.29256232e-008
      -1.75303754e-008 -2.33886421e-008 -1.76448829e-008
      -3.75467168e-009 1.59533862e-008 1.71847976e-008 2.96861806e-008
      2.64844289e-008 3.64357930e-008 3.80611667e-008 3.54353809e-008
      3.49039873e-008 2.00839558e-008 8.67114025e-009 -1.02642979e-008
      -7.72814790e-009 -9.95067673e-009 -1.32266709e-009 8.67731753e-009
      9.18409793e-009 2.04324824e-008 3.64755728e-008 4.28332783e-008
      5.76685260e-008 7.70034561e-008 9.07136268e-008 9.65440776e-008
      9.69949454e-008 8.55624336e-008 7.87945496e-008 7.24045179e-008
      6.08204189e-008 5.93989640e-008 4.54799824e-008 2.99208622e-008
      1.18518022e-008 -6.17956575e-009 -1.28048594e-008 -1.48516692e-008
      -2.00952801e-008 -2.69774567e-008 -3.25632747e-008
      -4.05455509e-008 -3.32852395e-008 -3.18610844e-008
      -2.80091008e-008 -1.99365999e-008 -3.37840955e-009 1.70096310e-008
      3.28609140e-008 4.96780537e-008 6.47857661e-008 6.94868163e-008
      6.91041748e-008 5.78136792e-008 4.54269440e-008 2.58726640e-008
      -7.13519643e-009 -4.15135695e-008 -7.88872612e-008
      -1.02773242e-007 -1.42080296e-007 -1.80640228e-007
      -2.19920494e-007 -2.60105367e-007 -3.02940720e-007
      -3.52275748e-007 -3.95401287e-007 -4.45140046e-007
      -4.98473241e-007 -5.69225506e-007 -6.28249325e-007
      -6.78262325e-007 -7.27995996e-007 -7.65767368e-007
      -7.87390945e-007 -7.89811736e-007 -7.70226904e-007
      -7.41503015e-007 -6.87085162e-007 -6.17709702e-007
      -5.47738182e-007 -4.75158004e-007 -3.98779179e-007
      -3.27907969e-007 -2.67244616e-007 -2.04796223e-007
      -1.63458395e-007 -1.35721365e-007 -1.14450941e-007
      -9.81891759e-008 -8.37004919e-008 -6.78970622e-008
      -5.32194555e-008 -4.64392258e-008 -3.33495080e-008
      -5.24368602e-008 -7.30646903e-008 -1.08989866e-007
      -1.52143457e-007 -2.07457447e-007 -2.79333051e-007
      -3.42785597e-007 -4.20988044e-007 -4.84362147e-007
      -5.47364039e-007 -6.04188983e-007 -6.28156670e-007
      -6.24482880e-007 -6.07083905e-007 -5.81680354e-007
      -5.30769682e-007 -4.92840513e-007 -4.42241543e-007
      -3.87243773e-007 -3.41764178e-007 -2.92264446e-007
      -2.60213511e-007 -2.52353942e-007 -2.49611134e-007
      -2.40440158e-007 -2.36031127e-007 -2.22632494e-007
      -2.18088942e-007 -2.19565138e-007 -2.21941576e-007
      -2.20181960e-007 -2.21435471e-007 -2.14523098e-007
      -2.03398201e-007 -1.96805317e-007 -1.90189724e-007
      -1.97188641e-007 -1.99381475e-007 -1.86151269e-007
      -1.73599616e-007 -1.66514255e-007 -1.59577738e-007
      -1.49524240e-007 -1.50088155e-007 -1.55482340e-007
      -1.49750960e-007 -1.46534973e-007 -1.50089861e-007
      -1.63639413e-007 -1.72883290e-007 -1.89335466e-007
      -2.03943728e-007 -2.17816634e-007 -2.13618421e-007
      -2.08745334e-007 -1.97631408e-007 -1.72610612e-007
      -1.37213362e-007 -8.45284944e-008 -2.52312820e-008 2.81352666e-008
      8.26583246e-008 1.13035185e-007 1.33751598e-007 1.52308061e-007
      1.54970607e-007 1.37755478e-007 9.55970876e-008 3.51104852e-008
      -3.59834864e-008 -9.41845713e-008 -1.52303315e-007
      -2.02372675e-007 -2.62471787e-007 -3.20185677e-007
      -3.83089912e-007 -4.37861246e-007 -4.93016501e-007
      -5.33384082e-007 -5.73825787e-007 -6.12149506e-007
      -6.40213784e-007 -6.47492470e-007 -6.58054205e-007
      -6.58772876e-007 -6.38809638e-007 -6.03892715e-007
      -5.57118994e-007 -5.18312504e-007 -4.64666584e-007
      -4.19477288e-007 -3.94023402e-007 -3.69564447e-007
      -3.30754006e-007 -3.16150960e-007 -3.07791794e-007
      -3.11344223e-007 -3.16689693e-007 -3.25786317e-007
      -3.31409240e-007 -3.33739791e-007 -3.14667545e-007
      -3.13278463e-007 -3.10977555e-007 -3.00506031e-007
      -2.78860028e-007 -2.52827050e-007 -2.20630696e-007
      -1.82742468e-007 -1.54526617e-007 -1.09418707e-007
      -7.37675308e-008 -4.34053433e-008 -1.90662455e-008 1.24983146e-009
      2.03482617e-008 4.22088640e-008 6.70780622e-008 8.54257038e-008
      1.05412788e-007 1.00233919e-007 1.05527484e-007 1.11485690e-007
      1.12782601e-007 1.24684277e-007 1.37319645e-007 1.39719361e-007
